<?xml version="1.0"?>
<MethodSetup Method="BDT::BDTG">
  <GeneralInfo>
    <Info name="TMVA Release" value="4.2.1 [262657]"/>
    <Info name="ROOT Release" value="6.14/04 [396804]"/>
    <Info name="Creator" value="unok"/>
    <Info name="Date" value="Mon Jan 14 15:42:51 2019"/>
    <Info name="Host" value="Linux lcgapp-slc6-x86-64-39.cern.ch 2.6.32-696.30.1.el6.x86_64 #1 SMP Tue May 22 06:09:36 CEST 2018 x86_64 x86_64 x86_64 GNU/Linux"/>
    <Info name="Dir" value="/gpfs/fs6001/unok/TMVA/2018/v142/V2/TMVA-0L"/>
    <Info name="Training events" value="388593"/>
    <Info name="TrainingTime" value="2.61233081e+02"/>
    <Info name="AnalysisType" value="Classification"/>
  </GeneralInfo>
  <Options>
    <Option name="V" modified="Yes">False</Option>
    <Option name="VerbosityLevel" modified="No">Default</Option>
    <Option name="VarTransform" modified="No">None</Option>
    <Option name="H" modified="Yes">False</Option>
    <Option name="CreateMVAPdfs" modified="No">False</Option>
    <Option name="IgnoreNegWeightsInTraining" modified="No">False</Option>
    <Option name="NTrees" modified="Yes">800</Option>
    <Option name="MaxDepth" modified="Yes">3</Option>
    <Option name="MinNodeSize" modified="Yes">2.500000%</Option>
    <Option name="nCuts" modified="Yes">20</Option>
    <Option name="BoostType" modified="Yes">Grad</Option>
    <Option name="AdaBoostR2Loss" modified="No">quadratic</Option>
    <Option name="UseBaggedBoost" modified="Yes">True</Option>
    <Option name="Shrinkage" modified="Yes">2.000000e-01</Option>
    <Option name="AdaBoostBeta" modified="No">5.000000e-01</Option>
    <Option name="UseRandomisedTrees" modified="No">False</Option>
    <Option name="UseNvars" modified="No">4</Option>
    <Option name="UsePoissonNvars" modified="No">True</Option>
    <Option name="BaggedSampleFraction" modified="Yes">5.000000e-01</Option>
    <Option name="UseYesNoLeaf" modified="No">True</Option>
    <Option name="NegWeightTreatment" modified="Yes">pray</Option>
    <Option name="Css" modified="No">1.000000e+00</Option>
    <Option name="Cts_sb" modified="No">1.000000e+00</Option>
    <Option name="Ctb_ss" modified="No">1.000000e+00</Option>
    <Option name="Cbb" modified="No">1.000000e+00</Option>
    <Option name="NodePurityLimit" modified="No">5.000000e-01</Option>
    <Option name="SeparationType" modified="No">giniindex</Option>
    <Option name="RegressionLossFunctionBDTG" modified="No">huber</Option>
    <Option name="HuberQuantile" modified="No">7.000000e-01</Option>
    <Option name="DoBoostMonitor" modified="No">False</Option>
    <Option name="UseFisherCuts" modified="No">False</Option>
    <Option name="MinLinCorrForFisher" modified="No">8.000000e-01</Option>
    <Option name="UseExclusiveVars" modified="No">False</Option>
    <Option name="DoPreselection" modified="No">False</Option>
    <Option name="SigToBkgFraction" modified="No">1.000000e+00</Option>
    <Option name="PruneMethod" modified="No">nopruning</Option>
    <Option name="PruneStrength" modified="No">0.000000e+00</Option>
    <Option name="PruningValFraction" modified="No">5.000000e-01</Option>
    <Option name="SkipNormalization" modified="No">False</Option>
    <Option name="nEventsMin" modified="No">0</Option>
    <Option name="UseBaggedGrad" modified="No">False</Option>
    <Option name="GradBaggingFraction" modified="No">5.000000e-01</Option>
    <Option name="UseNTrainEvents" modified="No">0</Option>
    <Option name="NNodesMax" modified="No">0</Option>
  </Options>
  <Variables NVar="12">
    <Variable VarIndex="0" Expression="meff" Label="meff" Title="m_{eff}(incl.)" Unit="GeV" Internal="meff" Type="F" Min="8.00013245e+02" Max="7.04214795e+03"/>
    <Variable VarIndex="1" Expression="Ap" Label="Ap" Title="Aplanarity" Unit="" Internal="Ap" Type="F" Min="3.21722769e-06" Max="4.59826916e-01"/>
    <Variable VarIndex="2" Expression="jetPt0" Label="jetPt0" Title="p_{T}(j_{1})" Unit="GeV" Internal="jetPt0" Type="F" Min="2.00003296e+02" Max="3.13502832e+03"/>
    <Variable VarIndex="3" Expression="jetPt1" Label="jetPt1" Title="p_{T}(j_{2})" Unit="GeV" Internal="jetPt1" Type="F" Min="5.30931358e+01" Max="1.94071338e+03"/>
    <Variable VarIndex="4" Expression="jetPt2" Label="jetPt2" Title="p_{T}(j_{3})" Unit="GeV" Internal="jetPt2" Type="F" Min="5.10206108e+01" Max="1.04250964e+03"/>
    <Variable VarIndex="5" Expression="jetPt4" Label="jetPt4" Title="p_{T}(j_{5})" Unit="GeV" Internal="jetPt4" Type="F" Min="5.00000038e+01" Max="4.84082336e+02"/>
    <Variable VarIndex="6" Expression="jetPt5" Label="jetPt5" Title="p_{T}(j_{6})" Unit="GeV" Internal="jetPt5" Type="F" Min="0.00000000e+00" Max="3.48475983e+02"/>
    <Variable VarIndex="7" Expression="jetEta0" Label="jetEta0" Title="#eta(j_{1})" Unit="" Internal="jetEta0" Type="F" Min="-2.78269053e+00" Max="2.79978538e+00"/>
    <Variable VarIndex="8" Expression="jetEta1" Label="jetEta1" Title="#eta(j_{2})" Unit="" Internal="jetEta1" Type="F" Min="-2.79983735e+00" Max="2.79999733e+00"/>
    <Variable VarIndex="9" Expression="jetEta2" Label="jetEta2" Title="#eta(j_{3})" Unit="" Internal="jetEta2" Type="F" Min="-2.79991651e+00" Max="2.79993677e+00"/>
    <Variable VarIndex="10" Expression="jetEta4" Label="jetEta4" Title="#eta(j_{5})" Unit="" Internal="jetEta4" Type="F" Min="-2.79999471e+00" Max="2.79995656e+00"/>
    <Variable VarIndex="11" Expression="jetEta5" Label="jetEta5" Title="#eta(j_{6})" Unit="" Internal="jetEta5" Type="F" Min="-3.00000000e+00" Max="2.79994583e+00"/>
  </Variables>
  <Spectators NSpec="0">
  </Spectators>
  <Classes NClass="2">
    <Class Name="Signal" Index="0"/>
    <Class Name="Background" Index="1"/>
  </Classes>
  <Transformations NTransformations="0"/>
  <MVAPdfs/>
  <Weights NTrees="800" AnalysisType="1">
    <BinaryTree type="DecisionTree" boostWeight="1.0000000000000000e+00" itree="0">
      <Node pos="s" depth="0" NCoef="0" IVar="0" Cut="1.3896972656250000e+03" cType="1" res="-5.7934800861403346e-04" rms="4.9999967217445374e-01" purity="4.9942064285278320e-01" nType="0">
        <Node pos="l" depth="1" NCoef="0" IVar="1" Cut="7.3861420154571533e-02" cType="1" res="-3.1537476181983948e-01" rms="3.8799324631690979e-01" purity="1.8462523818016052e-01" nType="0">
          <Node pos="l" depth="2" NCoef="0" IVar="6" Cut="5.4172931671142578e+01" cType="1" res="-4.0263998508453369e-01" rms="2.9644733667373657e-01" purity="9.7360000014305115e-02" nType="0">
            <Node pos="l" depth="3" NCoef="0" IVar="-1" Cut="0.0000000000000000e+00" cType="1" res="-1.7308452725410461e-01" rms="2.5052130222320557e-01" purity="6.7288681864738464e-02" nType="-99"/>
            <Node pos="r" depth="3" NCoef="0" IVar="-1" Cut="0.0000000000000000e+00" cType="1" res="-9.7693227231502533e-02" rms="4.3629142642021179e-01" purity="2.5576692819595337e-01" nType="-99"/>
          </Node>
          <Node pos="r" depth="2" NCoef="0" IVar="0" Cut="1.1932956542968750e+03" cType="1" res="-5.2790720015764236e-02" rms="4.9720531702041626e-01" purity="4.4720926880836487e-01" nType="0">
            <Node pos="l" depth="3" NCoef="0" IVar="-1" Cut="0.0000000000000000e+00" cType="1" res="-1.0484936833381653e-01" rms="4.2578315734863281e-01" purity="2.3787656426429749e-01" nType="-99"/>
            <Node pos="r" depth="3" NCoef="0" IVar="-1" Cut="0.0000000000000000e+00" cType="1" res="5.6953508406877518e-02" rms="4.7929829359054565e-01" purity="6.4238375425338745e-01" nType="-99"/>
          </Node>
        </Node>
        <Node pos="r" depth="1" NCoef="0" IVar="1" Cut="3.9003670215606689e-02" cType="1" res="2.3716120421886444e-01" rms="4.4017559289932251e-01" purity="7.3716121912002563e-01" nType="0">
          <Node pos="l" depth="2" NCoef="0" IVar="0" Cut="1.8500485839843750e+03" cType="1" res="-1.0516536235809326e-01" rms="4.8881515860557556e-01" purity="3.9483463764190674e-01" nType="0">
            <Node pos="l" depth="3" NCoef="0" IVar="-1" Cut="0.0000000000000000e+00" cType="1" res="-9.2077963054180145e-02" rms="4.4385841488838196e-01" purity="2.6980507373809814e-01" nType="-99"/>
            <Node pos="r" depth="3" NCoef="0" IVar="-1" Cut="0.0000000000000000e+00" cType="1" res="5.3395010530948639e-02" rms="4.8185172677040100e-01" purity="6.3348752260208130e-01" nType="-99"/>
          </Node>
          <Node pos="r" depth="2" NCoef="0" IVar="6" Cut="1.5621901512145996e+01" cType="1" res="3.6799913644790649e-01" rms="3.3849170804023743e-01" purity="8.6799913644790649e-01" nType="0">
            <Node pos="l" depth="3" NCoef="0" IVar="-1" Cut="0.0000000000000000e+00" cType="1" res="7.0603512227535248e-02" rms="4.6780833601951599e-01" purity="6.7650878429412842e-01" nType="-99"/>
            <Node pos="r" depth="3" NCoef="0" IVar="-1" Cut="0.0000000000000000e+00" cType="1" res="1.6641414165496826e-01" rms="2.7733480930328369e-01" purity="9.1603535413742065e-01" nType="-99"/>
          </Node>
        </Node>
      </Node>
    </BinaryTree>
    <BinaryTree type="DecisionTree" boostWeight="1.0000000000000000e+00" itree="1">
      <Node pos="s" depth="0" NCoef="0" IVar="0" Cut="1.3897596435546875e+03" cType="1" res="-1.1498810490593314e-03" rms="4.5283415913581848e-01" purity="4.9796345829963684e-01" nType="0">
        <Node pos="l" depth="1" NCoef="0" IVar="1" Cut="5.7171232998371124e-02" cType="1" res="-2.5973722338676453e-01" rms="3.6488196253776550e-01" purity="1.7707061767578125e-01" nType="0">
          <Node pos="l" depth="2" NCoef="0" IVar="0" Cut="1.2774271240234375e+03" cType="1" res="-3.4049588441848755e-01" rms="2.6769959926605225e-01" purity="7.9269647598266602e-02" nType="0">
            <Node pos="l" depth="3" NCoef="0" IVar="-1" Cut="0.0000000000000000e+00" cType="1" res="-1.5086287260055542e-01" rms="2.1988400816917419e-01" purity="5.1604155451059341e-02" nType="-99"/>
            <Node pos="r" depth="3" NCoef="0" IVar="-1" Cut="0.0000000000000000e+00" cType="1" res="-9.4349950551986694e-02" rms="3.9214426279067993e-01" purity="1.9458128511905670e-01" nType="-99"/>
          </Node>
          <Node pos="r" depth="2" NCoef="0" IVar="0" Cut="1.1651489257812500e+03" cType="1" res="-9.0585500001907349e-02" rms="4.6864607930183411e-01" purity="3.8191801309585571e-01" nType="0">
            <Node pos="l" depth="3" NCoef="0" IVar="-1" Cut="0.0000000000000000e+00" cType="1" res="-1.1187791824340820e-01" rms="3.6837789416313171e-01" purity="1.6367022693157196e-01" nType="-99"/>
            <Node pos="r" depth="3" NCoef="0" IVar="-1" Cut="0.0000000000000000e+00" cType="1" res="2.3400850594043732e-02" rms="4.8747184872627258e-01" purity="5.5753380060195923e-01" nType="-99"/>
          </Node>
        </Node>
        <Node pos="r" depth="1" NCoef="0" IVar="1" Cut="4.0130157023668289e-02" cType="1" res="1.9616979360580444e-01" rms="4.1228523850440979e-01" purity="7.4282646179199219e-01" nType="0">
          <Node pos="l" depth="2" NCoef="0" IVar="11" Cut="-1.8952757120132446e+00" cType="1" res="-6.1634037643671036e-02" rms="4.8207446932792664e-01" purity="4.1898903250694275e-01" nType="0">
            <Node pos="l" depth="3" NCoef="0" IVar="-1" Cut="0.0000000000000000e+00" cType="1" res="-8.1508159637451172e-02" rms="4.3774190545082092e-01" purity="2.7180370688438416e-01" nType="-99"/>
            <Node pos="r" depth="3" NCoef="0" IVar="-1" Cut="0.0000000000000000e+00" cType="1" res="4.0039803832769394e-02" rms="4.8007300496101379e-01" purity="5.8744984865188599e-01" nType="-99"/>
          </Node>
          <Node pos="r" depth="2" NCoef="0" IVar="5" Cut="7.0671615600585938e+01" cType="1" res="3.0062234401702881e-01" rms="3.2688161730766296e-01" purity="8.7403333187103271e-01" nType="0">
            <Node pos="l" depth="3" NCoef="0" IVar="-1" Cut="0.0000000000000000e+00" cType="1" res="3.3666260540485382e-02" rms="4.7694459557533264e-01" purity="6.3624155521392822e-01" nType="-99"/>
            <Node pos="r" depth="3" NCoef="0" IVar="-1" Cut="0.0000000000000000e+00" cType="1" res="1.3554893434047699e-01" rms="2.8769016265869141e-01" purity="9.0685474872589111e-01" nType="-99"/>
          </Node>
        </Node>
      </Node>
    </BinaryTree>
    <BinaryTree type="DecisionTree" boostWeight="1.0000000000000000e+00" itree="2">
      <Node pos="s" depth="0" NCoef="0" IVar="6" Cut="6.3181526184082031e+01" cType="1" res="-5.4794400930404663e-03" rms="4.1914129257202148e-01" purity="4.9401333928108215e-01" nType="0">
        <Node pos="l" depth="1" NCoef="0" IVar="0" Cut="1.6624871826171875e+03" cType="1" res="-1.5005867183208466e-01" rms="3.9969712495803833e-01" purity="2.8807345032691956e-01" nType="0">
          <Node pos="l" depth="2" NCoef="0" IVar="1" Cut="6.3580915331840515e-02" cType="1" res="-2.1117588877677917e-01" rms="3.6261251568794250e-01" purity="1.9940873980522156e-01" nType="0">
            <Node pos="l" depth="3" NCoef="0" IVar="-1" Cut="0.0000000000000000e+00" cType="1" res="-1.1698009818792343e-01" rms="2.9342779517173767e-01" purity="1.0701408982276917e-01" nType="-99"/>
            <Node pos="r" depth="3" NCoef="0" IVar="-1" Cut="0.0000000000000000e+00" cType="1" res="-2.4885879829525948e-02" rms="4.6390908956527710e-01" purity="4.3457543849945068e-01" nType="-99"/>
          </Node>
          <Node pos="r" depth="2" NCoef="0" IVar="1" Cut="1.9462326541543007e-02" cType="1" res="1.0428573936223984e-01" rms="4.4403791427612305e-01" purity="6.5705907344818115e-01" nType="0">
            <Node pos="l" depth="3" NCoef="0" IVar="-1" Cut="0.0000000000000000e+00" cType="1" res="-7.1367681026458740e-02" rms="4.4622480869293213e-01" purity="2.9423674941062927e-01" nType="-99"/>
            <Node pos="r" depth="3" NCoef="0" IVar="-1" Cut="0.0000000000000000e+00" cType="1" res="7.7197276055812836e-02" rms="4.0908879041671753e-01" purity="7.6162165403366089e-01" nType="-99"/>
          </Node>
        </Node>
        <Node pos="r" depth="1" NCoef="0" IVar="1" Cut="6.0309063643217087e-02" cType="1" res="2.4002315104007721e-01" rms="3.2703065872192383e-01" purity="8.4370929002761841e-01" nType="0">
          <Node pos="l" depth="2" NCoef="0" IVar="0" Cut="1.6465614013671875e+03" cType="1" res="1.0684940218925476e-01" rms="4.3899396061897278e-01" purity="6.4362370967864990e-01" nType="0">
            <Node pos="l" depth="3" NCoef="0" IVar="-1" Cut="0.0000000000000000e+00" cType="1" res="-3.2349888235330582e-02" rms="4.6041774749755859e-01" purity="3.9581000804901123e-01" nType="-99"/>
            <Node pos="r" depth="3" NCoef="0" IVar="-1" Cut="0.0000000000000000e+00" cType="1" res="9.8170250654220581e-02" rms="3.7341240048408508e-01" purity="8.1544196605682373e-01" nType="-99"/>
          </Node>
          <Node pos="r" depth="2" NCoef="0" IVar="0" Cut="1.7438859863281250e+03" cType="1" res="2.9512956738471985e-01" rms="2.4715165793895721e-01" purity="9.2650341987609863e-01" nType="0">
            <Node pos="l" depth="3" NCoef="0" IVar="-1" Cut="0.0000000000000000e+00" cType="1" res="1.0354753583669662e-01" rms="3.3854687213897705e-01" purity="8.5012030601501465e-01" nType="-99"/>
            <Node pos="r" depth="3" NCoef="0" IVar="-1" Cut="0.0000000000000000e+00" cType="1" res="1.4431594312191010e-01" rms="1.5224097669124603e-01" purity="9.7622835636138916e-01" nType="-99"/>
          </Node>
        </Node>
      </Node>
    </BinaryTree>
    <BinaryTree type="DecisionTree" boostWeight="1.0000000000000000e+00" itree="3">
      <Node pos="s" depth="0" NCoef="0" IVar="5" Cut="9.1341346740722656e+01" cType="1" res="1.3195602223277092e-03" rms="3.9520439505577087e-01" purity="5.0087553262710571e-01" nType="0">
        <Node pos="l" depth="1" NCoef="0" IVar="1" Cut="1.0433050990104675e-01" cType="1" res="-1.2057713419198990e-01" rms="3.8626235723495483e-01" purity="2.9533377289772034e-01" nType="0">
          <Node pos="l" depth="2" NCoef="0" IVar="0" Cut="1.3748353271484375e+03" cType="1" res="-1.6686610877513885e-01" rms="3.6018222570419312e-01" purity="2.2151060402393341e-01" nType="0">
            <Node pos="l" depth="3" NCoef="0" IVar="-1" Cut="0.0000000000000000e+00" cType="1" res="-1.0622750967741013e-01" rms="2.7879899740219116e-01" purity="9.4640642404556274e-02" nType="-99"/>
            <Node pos="r" depth="3" NCoef="0" IVar="-1" Cut="0.0000000000000000e+00" cType="1" res="-2.4487257003784180e-02" rms="4.4993135333061218e-01" purity="4.4442012906074524e-01" nType="-99"/>
          </Node>
          <Node pos="r" depth="2" NCoef="0" IVar="0" Cut="1.4165556640625000e+03" cType="1" res="1.1098341643810272e-01" rms="4.2690172791481018e-01" purity="6.6463410854339600e-01" nType="0">
            <Node pos="l" depth="3" NCoef="0" IVar="-1" Cut="0.0000000000000000e+00" cType="1" res="7.0997881703078747e-03" rms="4.7532582283020020e-01" purity="4.9050995707511902e-01" nType="-99"/>
            <Node pos="r" depth="3" NCoef="0" IVar="-1" Cut="0.0000000000000000e+00" cType="1" res="9.6030838787555695e-02" rms="3.3407503366470337e-01" purity="8.6164087057113647e-01" nType="-99"/>
          </Node>
        </Node>
        <Node pos="r" depth="1" NCoef="0" IVar="0" Cut="1.5215428466796875e+03" cType="1" res="1.9579230248928070e-01" rms="3.2528409361839294e-01" purity="8.2879465818405151e-01" nType="0">
          <Node pos="l" depth="2" NCoef="0" IVar="11" Cut="-1.6218956708908081e+00" cType="1" res="5.9259753674268723e-02" rms="4.3503016233444214e-01" purity="5.7047742605209351e-01" nType="0">
            <Node pos="l" depth="3" NCoef="0" IVar="-1" Cut="0.0000000000000000e+00" cType="1" res="-2.4587895721197128e-02" rms="4.3467113375663757e-01" purity="3.7129443883895874e-01" nType="-99"/>
            <Node pos="r" depth="3" NCoef="0" IVar="-1" Cut="0.0000000000000000e+00" cType="1" res="5.7970296591520309e-02" rms="4.1851544380187988e-01" purity="6.9970160722732544e-01" nType="-99"/>
          </Node>
          <Node pos="r" depth="2" NCoef="0" IVar="1" Cut="5.8708962053060532e-02" cType="1" res="2.3345464468002319e-01" rms="2.7610129117965698e-01" purity="9.0005111694335938e-01" nType="0">
            <Node pos="l" depth="3" NCoef="0" IVar="-1" Cut="0.0000000000000000e+00" cType="1" res="6.6569283604621887e-02" rms="4.1434976458549500e-01" purity="7.3748105764389038e-01" nType="-99"/>
            <Node pos="r" depth="3" NCoef="0" IVar="-1" Cut="0.0000000000000000e+00" cType="1" res="1.2357487529516220e-01" rms="2.0015400648117065e-01" purity="9.5681792497634888e-01" nType="-99"/>
          </Node>
        </Node>
      </Node>
    </BinaryTree>
    <BinaryTree type="DecisionTree" boostWeight="1.0000000000000000e+00" itree="4">
      <Node pos="s" depth="0" NCoef="0" IVar="5" Cut="7.0200752258300781e+01" cType="1" res="-3.0390853062272072e-03" rms="3.7901625037193298e-01" purity="4.9454516172409058e-01" nType="0">
        <Node pos="l" depth="1" NCoef="0" IVar="4" Cut="1.3986239624023438e+02" cType="1" res="-1.6402330994606018e-01" rms="3.3583340048789978e-01" purity="1.7862613499164581e-01" nType="0">
          <Node pos="l" depth="2" NCoef="0" IVar="11" Cut="-1.8953585624694824e+00" cType="1" res="-2.1101374924182892e-01" rms="2.7114152908325195e-01" purity="9.7740709781646729e-02" nType="0">
            <Node pos="l" depth="3" NCoef="0" IVar="-1" Cut="0.0000000000000000e+00" cType="1" res="-1.1441873759031296e-01" rms="2.3310905694961548e-01" purity="6.4912691712379456e-02" nType="-99"/>
            <Node pos="r" depth="3" NCoef="0" IVar="-1" Cut="0.0000000000000000e+00" cType="1" res="-4.7316364943981171e-02" rms="3.9674788713455200e-01" purity="2.6512342691421509e-01" nType="-99"/>
          </Node>
          <Node pos="r" depth="2" NCoef="0" IVar="1" Cut="2.0463446155190468e-02" cType="1" res="-5.8045506477355957e-02" rms="4.3026790022850037e-01" purity="3.6104744672775269e-01" nType="0">
            <Node pos="l" depth="3" NCoef="0" IVar="-1" Cut="0.0000000000000000e+00" cType="1" res="-8.2736700773239136e-02" rms="3.4215018153190613e-01" purity="1.4840510487556458e-01" nType="-99"/>
            <Node pos="r" depth="3" NCoef="0" IVar="-1" Cut="0.0000000000000000e+00" cType="1" res="-2.4906480684876442e-03" rms="4.5398694276809692e-01" purity="4.5459172129631042e-01" nType="-99"/>
          </Node>
        </Node>
        <Node pos="r" depth="1" NCoef="0" IVar="1" Cut="2.1209700033068657e-02" cType="1" res="1.0454599559307098e-01" rms="3.6795252561569214e-01" purity="7.0567262172698975e-01" nType="0">
          <Node pos="l" depth="2" NCoef="0" IVar="1" Cut="1.0102992877364159e-02" cType="1" res="-1.5409463644027710e-01" rms="3.7832769751548767e-01" purity="2.3310099542140961e-01" nType="0">
            <Node pos="l" depth="3" NCoef="0" IVar="-1" Cut="0.0000000000000000e+00" cType="1" res="-1.1118065565824509e-01" rms="3.0494946241378784e-01" purity="1.1771524697542191e-01" nType="-99"/>
            <Node pos="r" depth="3" NCoef="0" IVar="-1" Cut="0.0000000000000000e+00" cType="1" res="-4.1263412684202194e-02" rms="4.0858927369117737e-01" purity="3.0957111716270447e-01" nType="-99"/>
          </Node>
          <Node pos="r" depth="2" NCoef="0" IVar="0" Cut="1.3718503417968750e+03" cType="1" res="1.4389026165008545e-01" rms="3.4998175501823425e-01" purity="7.7755987644195557e-01" nType="0">
            <Node pos="l" depth="3" NCoef="0" IVar="-1" Cut="0.0000000000000000e+00" cType="1" res="6.8981223739683628e-04" rms="4.4898012280464172e-01" purity="4.0136709809303284e-01" nType="-99"/>
            <Node pos="r" depth="3" NCoef="0" IVar="-1" Cut="0.0000000000000000e+00" cType="1" res="8.7099201977252960e-02" rms="3.1154480576515198e-01" purity="8.6927443742752075e-01" nType="-99"/>
          </Node>
        </Node>
      </Node>
    </BinaryTree>
    <BinaryTree type="DecisionTree" boostWeight="1.0000000000000000e+00" itree="5">
      <Node pos="s" depth="0" NCoef="0" IVar="11" Cut="-2.4476497173309326e+00" cType="1" res="1.8266367260366678e-03" rms="3.6515930294990540e-01" purity="5.0003516674041748e-01" nType="0">
        <Node pos="l" depth="1" NCoef="0" IVar="4" Cut="1.4543711853027344e+02" cType="1" res="-1.1472051590681076e-01" rms="3.4971892833709717e-01" purity="2.2888258099555969e-01" nType="0">
          <Node pos="l" depth="2" NCoef="0" IVar="1" Cut="2.0876940339803696e-02" cType="1" res="-1.6911147534847260e-01" rms="2.7744886279106140e-01" purity="1.0460540652275085e-01" nType="0">
            <Node pos="l" depth="3" NCoef="0" IVar="-1" Cut="0.0000000000000000e+00" cType="1" res="-1.1383551359176636e-01" rms="1.7535308003425598e-01" purity="3.3028617501258850e-02" nType="-99"/>
            <Node pos="r" depth="3" NCoef="0" IVar="-1" Cut="0.0000000000000000e+00" cType="1" res="-7.2299264371395111e-02" rms="3.3377051353454590e-01" purity="1.6032198071479797e-01" nType="-99"/>
          </Node>
          <Node pos="r" depth="2" NCoef="0" IVar="0" Cut="1.8160417480468750e+03" cType="1" res="-2.3078728467226028e-02" rms="4.3045118451118469e-01" purity="4.3827369809150696e-01" nType="0">
            <Node pos="l" depth="3" NCoef="0" IVar="-1" Cut="0.0000000000000000e+00" cType="1" res="-3.2037716358900070e-02" rms="4.2471194267272949e-01" purity="3.4179061651229858e-01" nType="-99"/>
            <Node pos="r" depth="3" NCoef="0" IVar="-1" Cut="0.0000000000000000e+00" cType="1" res="4.7591973096132278e-02" rms="4.1955935955047607e-01" purity="7.0717602968215942e-01" nType="-99"/>
          </Node>
        </Node>
        <Node pos="r" depth="1" NCoef="0" IVar="1" Cut="2.1997271105647087e-02" cType="1" res="1.1087477207183838e-01" rms="3.4506276249885559e-01" purity="7.5374090671539307e-01" nType="0">
          <Node pos="l" depth="2" NCoef="0" IVar="1" Cut="1.3656905852258205e-02" cType="1" res="-1.2291879951953888e-01" rms="3.8880094885826111e-01" purity="2.6555758714675903e-01" nType="0">
            <Node pos="l" depth="3" NCoef="0" IVar="-1" Cut="0.0000000000000000e+00" cType="1" res="-8.7688118219375610e-02" rms="3.4520620107650757e-01" purity="1.7137485742568970e-01" nType="-99"/>
            <Node pos="r" depth="3" NCoef="0" IVar="-1" Cut="0.0000000000000000e+00" cType="1" res="-1.8219757825136185e-02" rms="4.2064142227172852e-01" purity="3.7771165370941162e-01" nType="-99"/>
          </Node>
          <Node pos="r" depth="2" NCoef="0" IVar="0" Cut="1.6318829345703125e+03" cType="1" res="1.4067862927913666e-01" rms="3.2729235291481018e-01" purity="8.1597417593002319e-01" nType="0">
            <Node pos="l" depth="3" NCoef="0" IVar="-1" Cut="0.0000000000000000e+00" cType="1" res="3.8088224828243256e-02" rms="4.1977062821388245e-01" purity="6.4065051078796387e-01" nType="-99"/>
            <Node pos="r" depth="3" NCoef="0" IVar="-1" Cut="0.0000000000000000e+00" cType="1" res="9.8980896174907684e-02" rms="2.3785246908664703e-01" purity="9.3440198898315430e-01" nType="-99"/>
          </Node>
        </Node>
      </Node>
    </BinaryTree>
    <BinaryTree type="DecisionTree" boostWeight="1.0000000000000000e+00" itree="6">
      <Node pos="s" depth="0" NCoef="0" IVar="11" Cut="-2.1714744567871094e+00" cType="1" res="3.8256174884736538e-03" rms="3.5854259133338928e-01" purity="5.0425451993942261e-01" nType="0">
        <Node pos="l" depth="1" NCoef="0" IVar="4" Cut="1.8428327941894531e+02" cType="1" res="-8.7353222072124481e-02" rms="3.5383963584899902e-01" purity="2.4213685095310211e-01" nType="0">
          <Node pos="l" depth="2" NCoef="0" IVar="4" Cut="1.2082400512695312e+02" cType="1" res="-1.1731977015733719e-01" rms="3.2058653235435486e-01" purity="1.5976777672767639e-01" nType="0">
            <Node pos="l" depth="3" NCoef="0" IVar="-1" Cut="0.0000000000000000e+00" cType="1" res="-8.9472696185112000e-02" rms="2.4566642940044403e-01" purity="7.7286742627620697e-02" nType="-99"/>
            <Node pos="r" depth="3" NCoef="0" IVar="-1" Cut="0.0000000000000000e+00" cType="1" res="-3.4916911274194717e-02" rms="3.9651384949684143e-01" purity="2.7298492193222046e-01" nType="-99"/>
          </Node>
          <Node pos="r" depth="2" NCoef="0" IVar="0" Cut="2.0332768554687500e+03" cType="1" res="2.4242000654339790e-02" rms="4.3922886252403259e-01" purity="5.4887878894805908e-01" nType="0">
            <Node pos="l" depth="3" NCoef="0" IVar="-1" Cut="0.0000000000000000e+00" cType="1" res="-6.9580255076289177e-03" rms="4.5160621404647827e-01" purity="4.6648019552230835e-01" nType="-99"/>
            <Node pos="r" depth="3" NCoef="0" IVar="-1" Cut="0.0000000000000000e+00" cType="1" res="6.5465107560157776e-02" rms="3.7746772170066833e-01" purity="7.9033118486404419e-01" nType="-99"/>
          </Node>
        </Node>
        <Node pos="r" depth="1" NCoef="0" IVar="1" Cut="4.2424567043781281e-02" cType="1" res="9.1721683740615845e-02" rms="3.4065011143684387e-01" purity="7.5693494081497192e-01" nType="0">
          <Node pos="l" depth="2" NCoef="0" IVar="0" Cut="1.9063765869140625e+03" cType="1" res="-2.7721146121621132e-02" rms="4.1940134763717651e-01" purity="4.2441010475158691e-01" nType="0">
            <Node pos="l" depth="3" NCoef="0" IVar="-1" Cut="0.0000000000000000e+00" cType="1" res="-3.9396248757839203e-02" rms="4.1615161299705505e-01" purity="3.0172386765480042e-01" nType="-99"/>
            <Node pos="r" depth="3" NCoef="0" IVar="-1" Cut="0.0000000000000000e+00" cType="1" res="6.8883232772350311e-02" rms="3.7709307670593262e-01" purity="8.0207180976867676e-01" nType="-99"/>
          </Node>
          <Node pos="r" depth="2" NCoef="0" IVar="1" Cut="1.1915516108274460e-01" cType="1" res="1.3067071139812469e-01" rms="3.0059146881103516e-01" purity="8.6536777019500732e-01" nType="0">
            <Node pos="l" depth="3" NCoef="0" IVar="-1" Cut="0.0000000000000000e+00" cType="1" res="5.2119120955467224e-02" rms="3.5103064775466919e-01" purity="8.0160909891128540e-01" nType="-99"/>
            <Node pos="r" depth="3" NCoef="0" IVar="-1" Cut="0.0000000000000000e+00" cType="1" res="1.0215917229652405e-01" rms="2.1843335032463074e-01" purity="9.4181001186370850e-01" nType="-99"/>
          </Node>
        </Node>
      </Node>
    </BinaryTree>
    <BinaryTree type="DecisionTree" boostWeight="1.0000000000000000e+00" itree="7">
      <Node pos="s" depth="0" NCoef="0" IVar="5" Cut="8.7484741210937500e+01" cType="1" res="2.7682143263518810e-03" rms="3.5146275162696838e-01" purity="5.0310915708541870e-01" nType="0">
        <Node pos="l" depth="1" NCoef="0" IVar="1" Cut="8.3462499082088470e-02" cType="1" res="-6.3786342740058899e-02" rms="3.5620975494384766e-01" purity="2.7894449234008789e-01" nType="0">
          <Node pos="l" depth="2" NCoef="0" IVar="0" Cut="1.6917468261718750e+03" cType="1" res="-9.2387594282627106e-02" rms="3.3145359158515930e-01" purity="1.9275493919849396e-01" nType="0">
            <Node pos="l" depth="3" NCoef="0" IVar="-1" Cut="0.0000000000000000e+00" cType="1" res="-6.4321942627429962e-02" rms="3.0577665567398071e-01" purity="1.3655678927898407e-01" nType="-99"/>
            <Node pos="r" depth="3" NCoef="0" IVar="-1" Cut="0.0000000000000000e+00" cType="1" res="6.6159958951175213e-03" rms="4.4647929072380066e-01" purity="5.4583269357681274e-01" nType="-99"/>
          </Node>
          <Node pos="r" depth="2" NCoef="0" IVar="0" Cut="1.2335474853515625e+03" cType="1" res="3.8804382085800171e-02" rms="4.1771987080574036e-01" purity="5.8810043334960938e-01" nType="0">
            <Node pos="l" depth="3" NCoef="0" IVar="-1" Cut="0.0000000000000000e+00" cType="1" res="-2.9292125254869461e-02" rms="4.2463734745979309e-01" purity="2.8997170925140381e-01" nType="-99"/>
            <Node pos="r" depth="3" NCoef="0" IVar="-1" Cut="0.0000000000000000e+00" cType="1" res="4.5529663562774658e-02" rms="4.0303236246109009e-01" purity="7.5134503841400146e-01" nType="-99"/>
          </Node>
        </Node>
        <Node pos="r" depth="1" NCoef="0" IVar="8" Cut="1.2011681795120239e+00" cType="1" res="9.4797998666763306e-02" rms="3.2293403148651123e-01" purity="8.1307774782180786e-01" nType="0">
          <Node pos="l" depth="2" NCoef="0" IVar="8" Cut="-1.2720420360565186e+00" cType="1" res="1.0782084614038467e-01" rms="3.1252998113632202e-01" purity="8.3567517995834351e-01" nType="0">
            <Node pos="l" depth="3" NCoef="0" IVar="-1" Cut="0.0000000000000000e+00" cType="1" res="-4.1684314608573914e-02" rms="4.0348362922668457e-01" purity="5.1925081014633179e-01" nType="-99"/>
            <Node pos="r" depth="3" NCoef="0" IVar="-1" Cut="0.0000000000000000e+00" cType="1" res="7.1509867906570435e-02" rms="3.0092632770538330e-01" purity="8.5752272605895996e-01" nType="-99"/>
          </Node>
          <Node pos="r" depth="2" NCoef="0" IVar="-1" Cut="0.0000000000000000e+00" cType="1" res="-4.2141657322645187e-02" rms="4.0034815669059753e-01" purity="5.0877934694290161e-01" nType="-99"/>
        </Node>
      </Node>
    </BinaryTree>
    <BinaryTree type="DecisionTree" boostWeight="1.0000000000000000e+00" itree="8">
      <Node pos="s" depth="0" NCoef="0" IVar="11" Cut="-2.1714363098144531e+00" cType="1" res="4.6597735490649939e-04" rms="3.4535720944404602e-01" purity="5.0008487701416016e-01" nType="0">
        <Node pos="l" depth="1" NCoef="0" IVar="1" Cut="1.2519635260105133e-01" cType="1" res="-6.8901769816875458e-02" rms="3.4364280104637146e-01" purity="2.3161539435386658e-01" nType="0">
          <Node pos="l" depth="2" NCoef="0" IVar="0" Cut="1.5984301757812500e+03" cType="1" res="-8.4001488983631134e-02" rms="3.2929754257202148e-01" purity="1.9163244962692261e-01" nType="0">
            <Node pos="l" depth="3" NCoef="0" IVar="-1" Cut="0.0000000000000000e+00" cType="1" res="-6.5354771912097931e-02" rms="2.9109489917755127e-01" purity="1.1457611620426178e-01" nType="-99"/>
            <Node pos="r" depth="3" NCoef="0" IVar="-1" Cut="0.0000000000000000e+00" cType="1" res="-2.6407702825963497e-03" rms="4.4761577248573303e-01" purity="5.1514846086502075e-01" nType="-99"/>
          </Node>
          <Node pos="r" depth="2" NCoef="0" IVar="-1" Cut="0.0000000000000000e+00" cType="1" res="3.1686350703239441e-02" rms="4.3005779385566711e-01" purity="5.9521859884262085e-01" nType="-99"/>
        </Node>
        <Node pos="r" depth="1" NCoef="0" IVar="4" Cut="1.3579910278320312e+02" cType="1" res="6.6627547144889832e-02" rms="3.3381339907646179e-01" purity="7.5614565610885620e-01" nType="0">
          <Node pos="l" depth="2" NCoef="0" IVar="4" Cut="1.0036238098144531e+02" cType="1" res="-3.3702220767736435e-02" rms="4.1568911075592041e-01" purity="4.2770421504974365e-01" nType="0">
            <Node pos="l" depth="3" NCoef="0" IVar="-1" Cut="0.0000000000000000e+00" cType="1" res="-6.2801010906696320e-02" rms="3.8021421432495117e-01" purity="2.1939833462238312e-01" nType="-99"/>
            <Node pos="r" depth="3" NCoef="0" IVar="-1" Cut="0.0000000000000000e+00" cType="1" res="3.2752791885286570e-03" rms="4.2405295372009277e-01" purity="5.1890796422958374e-01" nType="-99"/>
          </Node>
          <Node pos="r" depth="2" NCoef="0" IVar="7" Cut="9.5986098051071167e-01" cType="1" res="9.4597838819026947e-02" rms="3.0122241377830505e-01" purity="8.4770977497100830e-01" nType="0">
            <Node pos="l" depth="3" NCoef="0" IVar="-1" Cut="0.0000000000000000e+00" cType="1" res="6.7427612841129303e-02" rms="2.8671798110008240e-01" purity="8.7178796529769897e-01" nType="-99"/>
            <Node pos="r" depth="3" NCoef="0" IVar="-1" Cut="0.0000000000000000e+00" cType="1" res="-9.9745839834213257e-03" rms="4.0127286314964294e-01" purity="6.0936772823333740e-01" nType="-99"/>
          </Node>
        </Node>
      </Node>
    </BinaryTree>
    <BinaryTree type="DecisionTree" boostWeight="1.0000000000000000e+00" itree="9">
      <Node pos="s" depth="0" NCoef="0" IVar="6" Cut="5.7308734893798828e+01" cType="1" res="-4.6816710382699966e-03" rms="3.3692851662635803e-01" purity="4.9570986628532410e-01" nType="0">
        <Node pos="l" depth="1" NCoef="0" IVar="1" Cut="1.2319748103618622e-01" cType="1" res="-5.7332385331392288e-02" rms="3.4488165378570557e-01" purity="2.5840267539024353e-01" nType="0">
          <Node pos="l" depth="2" NCoef="0" IVar="1" Cut="2.3465136066079140e-02" cType="1" res="-7.2656124830245972e-02" rms="3.3275556564331055e-01" purity="2.0959605276584625e-01" nType="0">
            <Node pos="l" depth="3" NCoef="0" IVar="-1" Cut="0.0000000000000000e+00" cType="1" res="-7.6982788741588593e-02" rms="2.4827706813812256e-01" purity="8.1756182014942169e-02" nType="-99"/>
            <Node pos="r" depth="3" NCoef="0" IVar="-1" Cut="0.0000000000000000e+00" cType="1" res="-2.4008702486753464e-02" rms="3.8137152791023254e-01" purity="3.0527570843696594e-01" nType="-99"/>
          </Node>
          <Node pos="r" depth="2" NCoef="0" IVar="-1" Cut="0.0000000000000000e+00" cType="1" res="3.2130040228366852e-02" rms="4.0987366437911987e-01" purity="6.5143972635269165e-01" nType="-99"/>
        </Node>
        <Node pos="r" depth="1" NCoef="0" IVar="7" Cut="-1.1609680652618408e+00" cType="1" res="6.5230131149291992e-02" rms="3.1265315413475037e-01" purity="8.1081622838973999e-01" nType="0">
          <Node pos="l" depth="2" NCoef="0" IVar="-1" Cut="0.0000000000000000e+00" cType="1" res="-6.3667625188827515e-02" rms="3.7788152694702148e-01" purity="4.4654217362403870e-01" nType="-99"/>
          <Node pos="r" depth="2" NCoef="0" IVar="7" Cut="9.1079646348953247e-01" cType="1" res="7.7274933457374573e-02" rms="3.0404728651046753e-01" purity="8.3457648754119873e-01" nType="0">
            <Node pos="l" depth="3" NCoef="0" IVar="-1" Cut="0.0000000000000000e+00" cType="1" res="6.0606349259614944e-02" rms="2.8726458549499512e-01" purity="8.6899828910827637e-01" nType="-99"/>
            <Node pos="r" depth="3" NCoef="0" IVar="-1" Cut="0.0000000000000000e+00" cType="1" res="-1.1550349183380604e-02" rms="3.9572483301162720e-01" purity="5.7373815774917603e-01" nType="-99"/>
          </Node>
        </Node>
      </Node>
    </BinaryTree>
    <BinaryTree type="DecisionTree" boostWeight="1.0000000000000000e+00" itree="10">
      <Node pos="s" depth="0" NCoef="0" IVar="4" Cut="1.4520042419433594e+02" cType="1" res="-1.3960786163806915e-03" rms="3.3634233474731445e-01" purity="5.0133228302001953e-01" nType="0">
        <Node pos="l" depth="1" NCoef="0" IVar="1" Cut="1.1615755409002304e-01" cType="1" res="-6.1853598803281784e-02" rms="3.1902170181274414e-01" purity="2.2112394869327545e-01" nType="0">
          <Node pos="l" depth="2" NCoef="0" IVar="1" Cut="2.7666024863719940e-02" cType="1" res="-7.3685191571712494e-02" rms="3.0435910820960999e-01" purity="1.6870804131031036e-01" nType="0">
            <Node pos="l" depth="3" NCoef="0" IVar="-1" Cut="0.0000000000000000e+00" cType="1" res="-7.7845782041549683e-02" rms="2.2296501696109772e-01" purity="6.3273690640926361e-02" nType="-99"/>
            <Node pos="r" depth="3" NCoef="0" IVar="-1" Cut="0.0000000000000000e+00" cType="1" res="-2.8736578300595284e-02" rms="3.6730626225471497e-01" purity="2.7569925785064697e-01" nType="-99"/>
          </Node>
          <Node pos="r" depth="2" NCoef="0" IVar="-1" Cut="0.0000000000000000e+00" cType="1" res="1.3296369463205338e-02" rms="4.0130269527435303e-01" purity="6.1151379346847534e-01" nType="-99"/>
        </Node>
        <Node pos="r" depth="1" NCoef="0" IVar="8" Cut="1.4667086601257324e+00" cType="1" res="4.6252321451902390e-02" rms="3.4193775057792664e-01" purity="7.2217285633087158e-01" nType="0">
          <Node pos="l" depth="2" NCoef="0" IVar="8" Cut="-9.7104179859161377e-01" cType="1" res="5.6526798754930496e-02" rms="3.3897891640663147e-01" purity="7.4418246746063232e-01" nType="0">
            <Node pos="l" depth="3" NCoef="0" IVar="-1" Cut="0.0000000000000000e+00" cType="1" res="-3.8419045507907867e-02" rms="3.6731910705566406e-01" purity="4.8718920350074768e-01" nType="-99"/>
            <Node pos="r" depth="3" NCoef="0" IVar="-1" Cut="0.0000000000000000e+00" cType="1" res="4.7499179840087891e-02" rms="3.3063930273056030e-01" purity="7.8246736526489258e-01" nType="-99"/>
          </Node>
          <Node pos="r" depth="2" NCoef="0" IVar="-1" Cut="0.0000000000000000e+00" cType="1" res="-8.9473016560077667e-02" rms="3.3417820930480957e-01" purity="2.7079105377197266e-01" nType="-99"/>
        </Node>
      </Node>
    </BinaryTree>
    <BinaryTree type="DecisionTree" boostWeight="1.0000000000000000e+00" itree="11">
      <Node pos="s" depth="0" NCoef="0" IVar="1" Cut="6.3618719577789307e-02" cType="1" res="6.2104105018079281e-04" rms="3.3672818541526794e-01" purity="4.9894702434539795e-01" nType="0">
        <Node pos="l" depth="1" NCoef="0" IVar="0" Cut="1.9889913330078125e+03" cType="1" res="-4.1801255196332932e-02" rms="3.4031975269317627e-01" purity="2.7356606721878052e-01" nType="0">
          <Node pos="l" depth="2" NCoef="0" IVar="7" Cut="-1.1750227212905884e+00" cType="1" res="-5.6424632668495178e-02" rms="3.3354154229164124e-01" purity="2.0786827802658081e-01" nType="0">
            <Node pos="l" depth="3" NCoef="0" IVar="-1" Cut="0.0000000000000000e+00" cType="1" res="-9.3122363090515137e-02" rms="2.4175526201725006e-01" purity="8.0697678029537201e-02" nType="-99"/>
            <Node pos="r" depth="3" NCoef="0" IVar="-1" Cut="0.0000000000000000e+00" cType="1" res="-2.6926251128315926e-02" rms="3.4821021556854248e-01" purity="2.3519270122051239e-01" nType="-99"/>
          </Node>
          <Node pos="r" depth="2" NCoef="0" IVar="2" Cut="6.1988592529296875e+02" cType="1" res="6.7132137715816498e-02" rms="3.6930099129676819e-01" purity="7.6296633481979370e-01" nType="0">
            <Node pos="l" depth="3" NCoef="0" IVar="-1" Cut="0.0000000000000000e+00" cType="1" res="7.5674466788768768e-02" rms="3.1017279624938965e-01" purity="8.7586206197738647e-01" nType="-99"/>
            <Node pos="r" depth="3" NCoef="0" IVar="-1" Cut="0.0000000000000000e+00" cType="1" res="-1.0680014966055751e-03" rms="4.1421699523925781e-01" purity="6.3842439651489258e-01" nType="-99"/>
          </Node>
        </Node>
        <Node pos="r" depth="1" NCoef="0" IVar="5" Cut="7.0204170227050781e+01" cType="1" res="5.1823832094669342e-02" rms="3.2504925131797791e-01" purity="7.7097690105438232e-01" nType="0">
          <Node pos="l" depth="2" NCoef="0" IVar="0" Cut="1.4459606933593750e+03" cType="1" res="-1.8270587548613548e-02" rms="4.2167952656745911e-01" purity="4.0800544619560242e-01" nType="0">
            <Node pos="l" depth="3" NCoef="0" IVar="-1" Cut="0.0000000000000000e+00" cType="1" res="-2.8024585917592049e-02" rms="4.1335502266883850e-01" purity="2.8623700141906738e-01" nType="-99"/>
            <Node pos="r" depth="3" NCoef="0" IVar="-1" Cut="0.0000000000000000e+00" cType="1" res="3.5727865993976593e-02" rms="4.2741402983665466e-01" purity="7.1495354175567627e-01" nType="-99"/>
          </Node>
          <Node pos="r" depth="2" NCoef="0" IVar="1" Cut="1.3631300628185272e-01" cType="1" res="7.1095883846282959e-02" rms="2.8999260067939758e-01" purity="8.7077379226684570e-01" nType="0">
            <Node pos="l" depth="3" NCoef="0" IVar="-1" Cut="0.0000000000000000e+00" cType="1" res="3.4842237830162048e-02" rms="3.2861211895942688e-01" purity="8.2278901338577271e-01" nType="-99"/>
            <Node pos="r" depth="3" NCoef="0" IVar="-1" Cut="0.0000000000000000e+00" cType="1" res="7.7651754021644592e-02" rms="2.2810952365398407e-01" purity="9.3275547027587891e-01" nType="-99"/>
          </Node>
        </Node>
      </Node>
    </BinaryTree>
    <BinaryTree type="DecisionTree" boostWeight="1.0000000000000000e+00" itree="12">
      <Node pos="s" depth="0" NCoef="0" IVar="0" Cut="1.3896972656250000e+03" cType="1" res="-1.8816874362528324e-03" rms="3.3007311820983887e-01" purity="4.9735823273658752e-01" nType="0">
        <Node pos="l" depth="1" NCoef="0" IVar="0" Cut="1.2773686523437500e+03" cType="1" res="-4.9242451786994934e-02" rms="3.1334438920021057e-01" purity="1.7811651527881622e-01" nType="0">
          <Node pos="l" depth="2" NCoef="0" IVar="0" Cut="1.0955128173828125e+03" cType="1" res="-6.8004392087459564e-02" rms="2.8337958455085754e-01" purity="1.2088517844676971e-01" nType="0">
            <Node pos="l" depth="3" NCoef="0" IVar="-1" Cut="0.0000000000000000e+00" cType="1" res="-7.9848274588584900e-02" rms="2.0775212347507477e-01" purity="4.8684079200029373e-02" nType="-99"/>
            <Node pos="r" depth="3" NCoef="0" IVar="-1" Cut="0.0000000000000000e+00" cType="1" res="-3.1330004334449768e-02" rms="3.3786681294441223e-01" purity="1.8851524591445923e-01" nType="-99"/>
          </Node>
          <Node pos="r" depth="2" NCoef="0" IVar="2" Cut="3.3535885620117188e+02" cType="1" res="1.4410210773348808e-02" rms="3.9192065596580505e-01" purity="3.7228232622146606e-01" nType="0">
            <Node pos="l" depth="3" NCoef="0" IVar="-1" Cut="0.0000000000000000e+00" cType="1" res="4.6344447880983353e-02" rms="4.2182457447052002e-01" purity="5.5301845073699951e-01" nType="-99"/>
            <Node pos="r" depth="3" NCoef="0" IVar="-1" Cut="0.0000000000000000e+00" cType="1" res="-5.0623074173927307e-02" rms="3.3065772056579590e-01" purity="1.5560993552207947e-01" nType="-99"/>
          </Node>
        </Node>
        <Node pos="r" depth="1" NCoef="0" IVar="9" Cut="-1.4661604166030884e+00" cType="1" res="3.3369798213243484e-02" rms="3.3770927786827087e-01" purity="7.3497575521469116e-01" nType="0">
          <Node pos="l" depth="2" NCoef="0" IVar="-1" Cut="0.0000000000000000e+00" cType="1" res="-7.9413510859012604e-02" rms="3.8759797811508179e-01" purity="4.0386903285980225e-01" nType="-99"/>
          <Node pos="r" depth="2" NCoef="0" IVar="9" Cut="1.5808824300765991e+00" cType="1" res="4.3599974364042282e-02" rms="3.3171471953392029e-01" purity="7.5448530912399292e-01" nType="0">
            <Node pos="l" depth="3" NCoef="0" IVar="-1" Cut="0.0000000000000000e+00" cType="1" res="3.5985127091407776e-02" rms="3.2688251137733459e-01" purity="7.7281206846237183e-01" nType="-99"/>
            <Node pos="r" depth="3" NCoef="0" IVar="-1" Cut="0.0000000000000000e+00" cType="1" res="-7.8813642263412476e-02" rms="3.7087723612785339e-01" purity="4.0105959773063660e-01" nType="-99"/>
          </Node>
        </Node>
      </Node>
    </BinaryTree>
    <BinaryTree type="DecisionTree" boostWeight="1.0000000000000000e+00" itree="13">
      <Node pos="s" depth="0" NCoef="0" IVar="0" Cut="1.6918057861328125e+03" cType="1" res="2.6389455888420343e-03" rms="3.2666534185409546e-01" purity="5.0454670190811157e-01" nType="0">
        <Node pos="l" depth="1" NCoef="0" IVar="2" Cut="4.0433981323242188e+02" cType="1" res="-2.4420185014605522e-02" rms="3.4125339984893799e-01" purity="3.2289659976959229e-01" nType="0">
          <Node pos="l" depth="2" NCoef="0" IVar="0" Cut="1.2246900634765625e+03" cType="1" res="-5.8852159418165684e-03" rms="3.4069165587425232e-01" purity="3.5352209210395813e-01" nType="0">
            <Node pos="l" depth="3" NCoef="0" IVar="-1" Cut="0.0000000000000000e+00" cType="1" res="-4.6717781573534012e-02" rms="2.7731692790985107e-01" purity="1.0562564432621002e-01" nType="-99"/>
            <Node pos="r" depth="3" NCoef="0" IVar="-1" Cut="0.0000000000000000e+00" cType="1" res="2.7019262313842773e-02" rms="3.8834336400032043e-01" purity="6.0681748390197754e-01" nType="-99"/>
          </Node>
          <Node pos="r" depth="2" NCoef="0" IVar="8" Cut="6.6413891315460205e-01" cType="1" res="-9.6405975520610809e-02" rms="3.3380460739135742e-01" purity="2.0395401120185852e-01" nType="0">
            <Node pos="l" depth="3" NCoef="0" IVar="-1" Cut="0.0000000000000000e+00" cType="1" res="-4.5555848628282547e-02" rms="3.5518103837966919e-01" purity="2.4910485744476318e-01" nType="-99"/>
            <Node pos="r" depth="3" NCoef="0" IVar="-1" Cut="0.0000000000000000e+00" cType="1" res="-1.0654763132333755e-01" rms="2.6287615299224854e-01" purity="8.9910916984081268e-02" nType="-99"/>
          </Node>
        </Node>
        <Node pos="r" depth="1" NCoef="0" IVar="2" Cut="6.2004949951171875e+02" cType="1" res="5.3992133587598801e-02" rms="2.9015845060348511e-01" purity="8.4928476810455322e-01" nType="0">
          <Node pos="l" depth="2" NCoef="0" IVar="2" Cut="4.8032101440429688e+02" cType="1" res="7.3277078568935394e-02" rms="2.6264426112174988e-01" purity="8.9674305915832520e-01" nType="0">
            <Node pos="l" depth="3" NCoef="0" IVar="-1" Cut="0.0000000000000000e+00" cType="1" res="7.5624525547027588e-02" rms="2.2510890662670135e-01" purity="9.3340170383453369e-01" nType="-99"/>
            <Node pos="r" depth="3" NCoef="0" IVar="-1" Cut="0.0000000000000000e+00" cType="1" res="3.3080581575632095e-02" rms="3.2222884893417358e-01" purity="8.2477819919586182e-01" nType="-99"/>
          </Node>
          <Node pos="r" depth="2" NCoef="0" IVar="0" Cut="2.2014357910156250e+03" cType="1" res="-2.4810986593365669e-02" rms="3.7230873107910156e-01" purity="6.5535825490951538e-01" nType="0">
            <Node pos="l" depth="3" NCoef="0" IVar="-1" Cut="0.0000000000000000e+00" cType="1" res="-7.4094526469707489e-02" rms="4.0347710251808167e-01" purity="3.9428076148033142e-01" nType="-99"/>
            <Node pos="r" depth="3" NCoef="0" IVar="-1" Cut="0.0000000000000000e+00" cType="1" res="3.0259914696216583e-02" rms="3.3304557204246521e-01" purity="8.0994898080825806e-01" nType="-99"/>
          </Node>
        </Node>
      </Node>
    </BinaryTree>
    <BinaryTree type="DecisionTree" boostWeight="1.0000000000000000e+00" itree="14">
      <Node pos="s" depth="0" NCoef="0" IVar="8" Cut="-1.1998845338821411e+00" cType="1" res="3.1278431415557861e-03" rms="3.2776296138763428e-01" purity="5.0423622131347656e-01" nType="0">
        <Node pos="l" depth="1" NCoef="0" IVar="7" Cut="4.4871333241462708e-01" cType="1" res="-8.5671380162239075e-02" rms="2.9160296916961670e-01" purity="2.0305143296718597e-01" nType="0">
          <Node pos="l" depth="2" NCoef="0" IVar="8" Cut="-1.5046472549438477e+00" cType="1" res="-5.9658981859683990e-02" rms="3.0914795398712158e-01" purity="2.4687863886356354e-01" nType="0">
            <Node pos="l" depth="3" NCoef="0" IVar="-1" Cut="0.0000000000000000e+00" cType="1" res="-7.0506691932678223e-02" rms="2.6090577244758606e-01" purity="1.4438065886497498e-01" nType="-99"/>
            <Node pos="r" depth="3" NCoef="0" IVar="-1" Cut="0.0000000000000000e+00" cType="1" res="-1.1241607367992401e-02" rms="3.6611273884773254e-01" purity="4.0189024806022644e-01" nType="-99"/>
          </Node>
          <Node pos="r" depth="2" NCoef="0" IVar="-1" Cut="0.0000000000000000e+00" cType="1" res="-1.0798943787813187e-01" rms="2.4216970801353455e-01" purity="1.1149211972951889e-01" nType="-99"/>
        </Node>
        <Node pos="r" depth="1" NCoef="0" IVar="8" Cut="1.0857751369476318e+00" cType="1" res="1.4470444992184639e-02" rms="3.3038374781608582e-01" purity="5.4270750284194946e-01" nType="0">
          <Node pos="l" depth="2" NCoef="0" IVar="0" Cut="1.0759718017578125e+03" cType="1" res="2.9616653919219971e-02" rms="3.3336216211318970e-01" purity="5.9736537933349609e-01" nType="0">
            <Node pos="l" depth="3" NCoef="0" IVar="-1" Cut="0.0000000000000000e+00" cType="1" res="-6.2601096928119659e-02" rms="2.2667537629604340e-01" purity="5.8138802647590637e-02" nType="-99"/>
            <Node pos="r" depth="3" NCoef="0" IVar="-1" Cut="0.0000000000000000e+00" cType="1" res="2.8802258893847466e-02" rms="3.4261819720268250e-01" purity="6.6503316164016724e-01" nType="-99"/>
          </Node>
          <Node pos="r" depth="2" NCoef="0" IVar="7" Cut="-3.9258274435997009e-01" cType="1" res="-6.9435410201549530e-02" rms="2.9981812834739685e-01" purity="2.3991775512695312e-01" nType="0">
            <Node pos="l" depth="3" NCoef="0" IVar="-1" Cut="0.0000000000000000e+00" cType="1" res="-9.4059690833091736e-02" rms="2.5563064217567444e-01" purity="1.3760180771350861e-01" nType="-99"/>
            <Node pos="r" depth="3" NCoef="0" IVar="-1" Cut="0.0000000000000000e+00" cType="1" res="-3.2062083482742310e-02" rms="3.1692606210708618e-01" purity="2.9164686799049377e-01" nType="-99"/>
          </Node>
        </Node>
      </Node>
    </BinaryTree>
    <BinaryTree type="DecisionTree" boostWeight="1.0000000000000000e+00" itree="15">
      <Node pos="s" depth="0" NCoef="0" IVar="1" Cut="2.1208232268691063e-02" cType="1" res="-1.0192930931225419e-03" rms="3.2176598906517029e-01" purity="5.0033360719680786e-01" nType="0">
        <Node pos="l" depth="1" NCoef="0" IVar="7" Cut="1.4747964143753052e+00" cType="1" res="-6.1257109045982361e-02" rms="2.6007506251335144e-01" purity="1.0747741907835007e-01" nType="0">
          <Node pos="l" depth="2" NCoef="0" IVar="7" Cut="-9.4748955965042114e-01" cType="1" res="-4.7527514398097992e-02" rms="2.7847579121589661e-01" purity="1.2710589170455933e-01" nType="0">
            <Node pos="l" depth="3" NCoef="0" IVar="-1" Cut="0.0000000000000000e+00" cType="1" res="-8.0642879009246826e-02" rms="2.0542889833450317e-01" purity="6.1126649379730225e-02" nType="-99"/>
            <Node pos="r" depth="3" NCoef="0" IVar="-1" Cut="0.0000000000000000e+00" cType="1" res="-1.9688326865434647e-02" rms="3.1323873996734619e-01" purity="1.6795794665813446e-01" nType="-99"/>
          </Node>
          <Node pos="r" depth="2" NCoef="0" IVar="-1" Cut="0.0000000000000000e+00" cType="1" res="-1.1068590730428696e-01" rms="1.4755456149578094e-01" purity="2.4821219965815544e-02" nType="-99"/>
        </Node>
        <Node pos="r" depth="1" NCoef="0" IVar="9" Cut="-1.1995850801467896e+00" cType="1" res="1.7837697640061378e-02" rms="3.3656844496726990e-01" purity="6.2331426143646240e-01" nType="0">
          <Node pos="l" depth="2" NCoef="0" IVar="2" Cut="3.6770941162109375e+02" cType="1" res="-5.4077114909887314e-02" rms="3.5727301239967346e-01" purity="4.1123068332672119e-01" nType="0">
            <Node pos="l" depth="3" NCoef="0" IVar="-1" Cut="0.0000000000000000e+00" cType="1" res="-1.4993141405284405e-02" rms="3.4989041090011597e-01" purity="3.7075063586235046e-01" nType="-99"/>
            <Node pos="r" depth="3" NCoef="0" IVar="-1" Cut="0.0000000000000000e+00" cType="1" res="-7.1253694593906403e-02" rms="3.6291930079460144e-01" purity="4.7918942570686340e-01" nType="-99"/>
          </Node>
          <Node pos="r" depth="2" NCoef="0" IVar="0" Cut="1.0949208984375000e+03" cType="1" res="2.6839619502425194e-02" rms="3.3279374241828918e-01" purity="6.4986175298690796e-01" nType="0">
            <Node pos="l" depth="3" NCoef="0" IVar="-1" Cut="0.0000000000000000e+00" cType="1" res="-4.9491345882415771e-02" rms="2.5485187768936157e-01" purity="7.5223132967948914e-02" nType="-99"/>
            <Node pos="r" depth="3" NCoef="0" IVar="-1" Cut="0.0000000000000000e+00" cType="1" res="2.6143567636609077e-02" rms="3.4022358059883118e-01" purity="7.2421145439147949e-01" nType="-99"/>
          </Node>
        </Node>
      </Node>
    </BinaryTree>
    <BinaryTree type="DecisionTree" boostWeight="1.0000000000000000e+00" itree="16">
      <Node pos="s" depth="0" NCoef="0" IVar="7" Cut="1.2100760936737061e+00" cType="1" res="-1.2641557259485126e-04" rms="3.2070806622505188e-01" purity="5.0007176399230957e-01" nType="0">
        <Node pos="l" depth="1" NCoef="0" IVar="7" Cut="-6.8244975805282593e-01" cType="1" res="1.0246516205370426e-02" rms="3.2584533095359802e-01" purity="5.3773689270019531e-01" nType="0">
          <Node pos="l" depth="2" NCoef="0" IVar="6" Cut="7.1404273986816406e+01" cType="1" res="-4.9465946853160858e-02" rms="3.0210301280021667e-01" purity="3.1916451454162598e-01" nType="0">
            <Node pos="l" depth="3" NCoef="0" IVar="-1" Cut="0.0000000000000000e+00" cType="1" res="-5.2951458841562271e-02" rms="2.9505470395088196e-01" purity="1.8248106539249420e-01" nType="-99"/>
            <Node pos="r" depth="3" NCoef="0" IVar="-1" Cut="0.0000000000000000e+00" cType="1" res="2.0612529478967190e-03" rms="3.1972581148147583e-01" purity="7.8882533311843872e-01" nType="-99"/>
          </Node>
          <Node pos="r" depth="2" NCoef="0" IVar="4" Cut="9.8966674804687500e+01" cType="1" res="2.9132792726159096e-02" rms="3.3076617121696472e-01" purity="6.0686850547790527e-01" nType="0">
            <Node pos="l" depth="3" NCoef="0" IVar="-1" Cut="0.0000000000000000e+00" cType="1" res="-4.0572363883256912e-02" rms="2.7030101418495178e-01" purity="1.0726544260978699e-01" nType="-99"/>
            <Node pos="r" depth="3" NCoef="0" IVar="-1" Cut="0.0000000000000000e+00" cType="1" res="2.9679439961910248e-02" rms="3.3812803030014038e-01" purity="6.8898326158523560e-01" nType="-99"/>
          </Node>
        </Node>
        <Node pos="r" depth="1" NCoef="0" IVar="2" Cut="2.8454684448242188e+02" cType="1" res="-9.8039738833904266e-02" rms="2.4677559733390808e-01" purity="1.4453859627246857e-01" nType="0">
          <Node pos="l" depth="2" NCoef="0" IVar="-1" Cut="0.0000000000000000e+00" cType="1" res="-4.7089204192161560e-02" rms="2.3970939218997955e-01" purity="1.5217815339565277e-01" nType="-99"/>
          <Node pos="r" depth="2" NCoef="0" IVar="3" Cut="2.3104096984863281e+02" cType="1" res="-1.3116310536861420e-01" rms="2.4605679512023926e-01" purity="1.3931891322135925e-01" nType="0">
            <Node pos="l" depth="3" NCoef="0" IVar="-1" Cut="0.0000000000000000e+00" cType="1" res="-1.0801702737808228e-01" rms="1.7263166606426239e-01" purity="5.3497564047574997e-02" nType="-99"/>
            <Node pos="r" depth="3" NCoef="0" IVar="-1" Cut="0.0000000000000000e+00" cType="1" res="-9.9261723458766937e-02" rms="3.1305399537086487e-01" purity="2.4739103019237518e-01" nType="-99"/>
          </Node>
        </Node>
      </Node>
    </BinaryTree>
    <BinaryTree type="DecisionTree" boostWeight="1.0000000000000000e+00" itree="17">
      <Node pos="s" depth="0" NCoef="0" IVar="9" Cut="1.1998423337936401e+00" cType="1" res="-5.9944222448393703e-04" rms="3.2352563738822937e-01" purity="4.9499601125717163e-01" nType="0">
        <Node pos="l" depth="1" NCoef="0" IVar="9" Cut="-1.6570458412170410e+00" cType="1" res="9.2416144907474518e-03" rms="3.2415708899497986e-01" purity="5.2816689014434814e-01" nType="0">
          <Node pos="l" depth="2" NCoef="0" IVar="4" Cut="1.3537294006347656e+02" cType="1" res="-8.9710310101509094e-02" rms="2.8327119350433350e-01" purity="1.7174370586872101e-01" nType="0">
            <Node pos="l" depth="3" NCoef="0" IVar="-1" Cut="0.0000000000000000e+00" cType="1" res="-5.8951966464519501e-02" rms="2.4898101389408112e-01" purity="9.0615287423133850e-02" nType="-99"/>
            <Node pos="r" depth="3" NCoef="0" IVar="-1" Cut="0.0000000000000000e+00" cType="1" res="-8.5802443325519562e-02" rms="3.2200285792350769e-01" purity="2.9285818338394165e-01" nType="-99"/>
          </Node>
          <Node pos="r" depth="2" NCoef="0" IVar="10" Cut="1.7330975532531738e+00" cType="1" res="1.7395820468664169e-02" rms="3.2596170902252197e-01" purity="5.5753821134567261e-01" nType="0">
            <Node pos="l" depth="3" NCoef="0" IVar="-1" Cut="0.0000000000000000e+00" cType="1" res="1.9019613042473793e-02" rms="3.2443213462829590e-01" purity="5.7396608591079712e-01" nType="-99"/>
            <Node pos="r" depth="3" NCoef="0" IVar="-1" Cut="0.0000000000000000e+00" cType="1" res="-5.8574460446834564e-02" rms="3.3139747381210327e-01" purity="3.3209034800529480e-01" nType="-99"/>
          </Node>
        </Node>
        <Node pos="r" depth="1" NCoef="0" IVar="7" Cut="-3.5858586430549622e-01" cType="1" res="-6.8065986037254333e-02" rms="3.1088459491729736e-01" purity="2.6758915185928345e-01" nType="0">
          <Node pos="l" depth="2" NCoef="0" IVar="-1" Cut="0.0000000000000000e+00" cType="1" res="-9.4240419566631317e-02" rms="2.6944148540496826e-01" purity="1.6717435419559479e-01" nType="-99"/>
          <Node pos="r" depth="2" NCoef="0" IVar="7" Cut="6.9135069847106934e-01" cType="1" res="-4.6932451426982880e-02" rms="3.2743072509765625e-01" purity="3.1731596589088440e-01" nType="0">
            <Node pos="l" depth="3" NCoef="0" IVar="-1" Cut="0.0000000000000000e+00" cType="1" res="-1.2593054212629795e-02" rms="3.6761513352394104e-01" purity="4.3393698334693909e-01" nType="-99"/>
            <Node pos="r" depth="3" NCoef="0" IVar="-1" Cut="0.0000000000000000e+00" cType="1" res="-7.0080913603305817e-02" rms="2.6443651318550110e-01" purity="1.7136149108409882e-01" nType="-99"/>
          </Node>
        </Node>
      </Node>
    </BinaryTree>
    <BinaryTree type="DecisionTree" boostWeight="1.0000000000000000e+00" itree="18">
      <Node pos="s" depth="0" NCoef="0" IVar="6" Cut="8.2970474243164062e+01" cType="1" res="-8.0131355207413435e-04" rms="3.1760776042938232e-01" purity="4.9888923764228821e-01" nType="0">
        <Node pos="l" depth="1" NCoef="0" IVar="7" Cut="9.3777817487716675e-01" cType="1" res="-1.3767551630735397e-02" rms="3.3840653300285339e-01" purity="3.7617549300193787e-01" nType="0">
          <Node pos="l" depth="2" NCoef="0" IVar="7" Cut="-8.3387982845306396e-01" cType="1" res="-2.4883367586880922e-03" rms="3.4924343228340149e-01" purity="4.2182871699333191e-01" nType="0">
            <Node pos="l" depth="3" NCoef="0" IVar="-1" Cut="0.0000000000000000e+00" cType="1" res="-4.8996146768331528e-02" rms="2.8380304574966431e-01" purity="1.7772737145423889e-01" nType="-99"/>
            <Node pos="r" depth="3" NCoef="0" IVar="-1" Cut="0.0000000000000000e+00" cType="1" res="9.1877626255154610e-03" rms="3.6507099866867065e-01" purity="4.9498888850212097e-01" nType="-99"/>
          </Node>
          <Node pos="r" depth="2" NCoef="0" IVar="2" Cut="3.8955999755859375e+02" cType="1" res="-7.0938587188720703e-02" rms="2.6987704634666443e-01" purity="1.4477279782295227e-01" nType="0">
            <Node pos="l" depth="3" NCoef="0" IVar="-1" Cut="0.0000000000000000e+00" cType="1" res="-4.5420471578836441e-02" rms="2.6848834753036499e-01" purity="1.4282277226448059e-01" nType="-99"/>
            <Node pos="r" depth="3" NCoef="0" IVar="-1" Cut="0.0000000000000000e+00" cType="1" res="-9.1408811509609222e-02" rms="2.6621738076210022e-01" purity="1.4920881390571594e-01" nType="-99"/>
          </Node>
        </Node>
        <Node pos="r" depth="1" NCoef="0" IVar="0" Cut="1.8271538085937500e+03" cType="1" res="4.4056661427021027e-02" rms="2.2600243985652924e-01" purity="9.2342942953109741e-01" nType="0">
          <Node pos="l" depth="2" NCoef="0" IVar="-1" Cut="0.0000000000000000e+00" cType="1" res="1.7499329522252083e-02" rms="2.9251164197921753e-01" purity="8.5443049669265747e-01" nType="-99"/>
          <Node pos="r" depth="2" NCoef="0" IVar="-1" Cut="0.0000000000000000e+00" cType="1" res="7.2602555155754089e-02" rms="1.7178523540496826e-01" purity="9.6542865037918091e-01" nType="-99"/>
        </Node>
      </Node>
    </BinaryTree>
    <BinaryTree type="DecisionTree" boostWeight="1.0000000000000000e+00" itree="19">
      <Node pos="s" depth="0" NCoef="0" IVar="5" Cut="1.1060195159912109e+02" cType="1" res="-1.7056799260899425e-03" rms="3.1910726428031921e-01" purity="4.9553090333938599e-01" nType="0">
        <Node pos="l" depth="1" NCoef="0" IVar="8" Cut="9.3338578939437866e-01" cType="1" res="-1.4073424041271210e-02" rms="3.3763214945793152e-01" purity="3.6082211136817932e-01" nType="0">
          <Node pos="l" depth="2" NCoef="0" IVar="8" Cut="-1.0221425294876099e+00" cType="1" res="-3.5434144083410501e-03" rms="3.4591710567474365e-01" purity="4.0341886878013611e-01" nType="0">
            <Node pos="l" depth="3" NCoef="0" IVar="-1" Cut="0.0000000000000000e+00" cType="1" res="-4.6983122825622559e-02" rms="2.8648221492767334e-01" purity="1.7886237800121307e-01" nType="-99"/>
            <Node pos="r" depth="3" NCoef="0" IVar="-1" Cut="0.0000000000000000e+00" cType="1" res="7.3584746569395065e-03" rms="3.5927951335906982e-01" purity="4.6510091423988342e-01" nType="-99"/>
          </Node>
          <Node pos="r" depth="2" NCoef="0" IVar="2" Cut="3.3582092285156250e+02" cType="1" res="-5.8196227997541428e-02" rms="2.9640206694602966e-01" purity="1.8233348429203033e-01" nType="0">
            <Node pos="l" depth="3" NCoef="0" IVar="-1" Cut="0.0000000000000000e+00" cType="1" res="-2.1969325840473175e-02" rms="2.9398339986801147e-01" purity="1.7741899192333221e-01" nType="-99"/>
            <Node pos="r" depth="3" NCoef="0" IVar="-1" Cut="0.0000000000000000e+00" cType="1" res="-7.3988139629364014e-02" rms="2.9450097680091858e-01" purity="1.8776357173919678e-01" nType="-99"/>
          </Node>
        </Node>
        <Node pos="r" depth="1" NCoef="0" IVar="0" Cut="1.5923809814453125e+03" cType="1" res="3.4627221524715424e-02" rms="2.5361335277557373e-01" purity="8.9126688241958618e-01" nType="0">
          <Node pos="l" depth="2" NCoef="0" IVar="-1" Cut="0.0000000000000000e+00" cType="1" res="-4.0829932549968362e-04" rms="3.6542436480522156e-01" purity="6.9154244661331177e-01" nType="-99"/>
          <Node pos="r" depth="2" NCoef="0" IVar="8" Cut="-6.6616982221603394e-01" cType="1" res="4.1680019348859787e-02" rms="2.2400346398353577e-01" purity="9.3121373653411865e-01" nType="0">
            <Node pos="l" depth="3" NCoef="0" IVar="-1" Cut="0.0000000000000000e+00" cType="1" res="1.3196340762078762e-02" rms="2.7166345715522766e-01" purity="8.7505418062210083e-01" nType="-99"/>
            <Node pos="r" depth="3" NCoef="0" IVar="-1" Cut="0.0000000000000000e+00" cType="1" res="5.6467931717634201e-02" rms="2.1196660399436951e-01" purity="9.4319844245910645e-01" nType="-99"/>
          </Node>
        </Node>
      </Node>
    </BinaryTree>
    <BinaryTree type="DecisionTree" boostWeight="1.0000000000000000e+00" itree="20">
      <Node pos="s" depth="0" NCoef="0" IVar="0" Cut="1.6172016601562500e+03" cType="1" res="-7.7506667003035545e-04" rms="3.1501260399818420e-01" purity="4.9879649281501770e-01" nType="0">
        <Node pos="l" depth="1" NCoef="0" IVar="2" Cut="3.1703982543945312e+02" cType="1" res="-1.7206029966473579e-02" rms="3.2738327980041504e-01" purity="2.8634804487228394e-01" nType="0">
          <Node pos="l" depth="2" NCoef="0" IVar="0" Cut="1.1502055664062500e+03" cType="1" res="6.3880565576255322e-03" rms="3.2302907109260559e-01" purity="3.3141449093818665e-01" nType="0">
            <Node pos="l" depth="3" NCoef="0" IVar="-1" Cut="0.0000000000000000e+00" cType="1" res="-3.8606692105531693e-02" rms="2.4139530956745148e-01" purity="7.5250342488288879e-02" nType="-99"/>
            <Node pos="r" depth="3" NCoef="0" IVar="-1" Cut="0.0000000000000000e+00" cType="1" res="2.9265413060784340e-02" rms="3.8234972953796387e-01" purity="5.8181393146514893e-01" nType="-99"/>
          </Node>
          <Node pos="r" depth="2" NCoef="0" IVar="3" Cut="3.0450305175781250e+02" cType="1" res="-4.7372873872518539e-02" rms="3.3042246103286743e-01" purity="2.2872711718082428e-01" nType="0">
            <Node pos="l" depth="3" NCoef="0" IVar="-1" Cut="0.0000000000000000e+00" cType="1" res="-3.2374463975429535e-02" rms="3.2499915361404419e-01" purity="2.2709871828556061e-01" nType="-99"/>
            <Node pos="r" depth="3" NCoef="0" IVar="-1" Cut="0.0000000000000000e+00" cType="1" res="-6.4648851752281189e-02" rms="3.6942338943481445e-01" purity="2.4273440241813660e-01" nType="-99"/>
          </Node>
        </Node>
        <Node pos="r" depth="1" NCoef="0" IVar="2" Cut="5.7772918701171875e+02" cType="1" res="2.4566465988755226e-02" rms="2.9311746358871460e-01" purity="8.2645648717880249e-01" nType="0">
          <Node pos="l" depth="2" NCoef="0" IVar="7" Cut="-8.3631414175033569e-01" cType="1" res="4.4508729130029678e-02" rms="2.6690512895584106e-01" purity="8.8344931602478027e-01" nType="0">
            <Node pos="l" depth="3" NCoef="0" IVar="-1" Cut="0.0000000000000000e+00" cType="1" res="-2.9210937209427357e-03" rms="3.3779519796371460e-01" purity="7.3758399486541748e-01" nType="-99"/>
            <Node pos="r" depth="3" NCoef="0" IVar="-1" Cut="0.0000000000000000e+00" cType="1" res="4.9461059272289276e-02" rms="2.5697132945060730e-01" purity="9.0014362335205078e-01" nType="-99"/>
          </Node>
          <Node pos="r" depth="2" NCoef="0" IVar="0" Cut="2.0841850585937500e+03" cType="1" res="-3.8277380168437958e-02" rms="3.5633498430252075e-01" purity="6.4685553312301636e-01" nType="0">
            <Node pos="l" depth="3" NCoef="0" IVar="-1" Cut="0.0000000000000000e+00" cType="1" res="-7.6716564595699310e-02" rms="3.9922010898590088e-01" purity="3.6246046423912048e-01" nType="-99"/>
            <Node pos="r" depth="3" NCoef="0" IVar="-1" Cut="0.0000000000000000e+00" cType="1" res="1.2200683355331421e-02" rms="3.1712648272514343e-01" purity="8.0827200412750244e-01" nType="-99"/>
          </Node>
        </Node>
      </Node>
    </BinaryTree>
    <BinaryTree type="DecisionTree" boostWeight="1.0000000000000000e+00" itree="21">
      <Node pos="s" depth="0" NCoef="0" IVar="8" Cut="1.1999777555465698e+00" cType="1" res="2.6755933649837971e-03" rms="3.1889021396636963e-01" purity="5.0087213516235352e-01" nType="0">
        <Node pos="l" depth="1" NCoef="0" IVar="8" Cut="-1.0855859518051147e+00" cType="1" res="1.0047237388789654e-02" rms="3.2123142480850220e-01" purity="5.3985375165939331e-01" nType="0">
          <Node pos="l" depth="2" NCoef="0" IVar="9" Cut="6.6468948125839233e-01" cType="1" res="-4.2313292622566223e-02" rms="2.8383675217628479e-01" purity="2.5484845042228699e-01" nType="0">
            <Node pos="l" depth="3" NCoef="0" IVar="-1" Cut="0.0000000000000000e+00" cType="1" res="-2.5435155257582664e-02" rms="2.9363504052162170e-01" purity="2.9038366675376892e-01" nType="-99"/>
            <Node pos="r" depth="3" NCoef="0" IVar="-1" Cut="0.0000000000000000e+00" cType="1" res="-7.9254284501075745e-02" rms="2.4698293209075928e-01" purity="1.4606189727783203e-01" nType="-99"/>
          </Node>
          <Node pos="r" depth="2" NCoef="0" IVar="7" Cut="-1.1764343976974487e+00" cType="1" res="1.9623050466179848e-02" rms="3.2670247554779053e-01" purity="5.9197616577148438e-01" nType="0">
            <Node pos="l" depth="3" NCoef="0" IVar="-1" Cut="0.0000000000000000e+00" cType="1" res="-4.6179648488759995e-02" rms="2.9066020250320435e-01" purity="2.3083616793155670e-01" nType="-99"/>
            <Node pos="r" depth="3" NCoef="0" IVar="-1" Cut="0.0000000000000000e+00" cType="1" res="2.1347716450691223e-02" rms="3.2914412021636963e-01" purity="6.2664228677749634e-01" nType="-99"/>
          </Node>
        </Node>
        <Node pos="r" depth="1" NCoef="0" IVar="4" Cut="1.6124807739257812e+02" cType="1" res="-5.4087210446596146e-02" rms="2.9412686824798584e-01" purity="2.0070761442184448e-01" nType="0">
          <Node pos="l" depth="2" NCoef="0" IVar="8" Cut="1.6571042537689209e+00" cType="1" res="-3.4671712666749954e-02" rms="2.5952327251434326e-01" purity="1.1515770107507706e-01" nType="0">
            <Node pos="l" depth="3" NCoef="0" IVar="-1" Cut="0.0000000000000000e+00" cType="1" res="-6.0976953245699406e-03" rms="3.2011851668357849e-01" purity="1.8117003142833710e-01" nType="-99"/>
            <Node pos="r" depth="3" NCoef="0" IVar="-1" Cut="0.0000000000000000e+00" cType="1" res="-7.4719242751598358e-02" rms="1.8269564211368561e-01" purity="5.3950801491737366e-02" nType="-99"/>
          </Node>
          <Node pos="r" depth="2" NCoef="0" IVar="-1" Cut="0.0000000000000000e+00" cType="1" res="-6.5307006239891052e-02" rms="3.5842818021774292e-01" purity="4.0127632021903992e-01" nType="-99"/>
        </Node>
      </Node>
    </BinaryTree>
    <BinaryTree type="DecisionTree" boostWeight="1.0000000000000000e+00" itree="22">
      <Node pos="s" depth="0" NCoef="0" IVar="7" Cut="9.6058255434036255e-01" cType="1" res="2.6907417923212051e-03" rms="3.1669652462005615e-01" purity="5.0469893217086792e-01" nType="0">
        <Node pos="l" depth="1" NCoef="0" IVar="7" Cut="-1.3161604404449463e+00" cType="1" res="1.0947611182928085e-02" rms="3.2205942273139954e-01" purity="5.5168890953063965e-01" nType="0">
          <Node pos="l" depth="2" NCoef="0" IVar="4" Cut="1.1630088043212891e+02" cType="1" res="-5.8087687939405441e-02" rms="2.2795397043228149e-01" purity="1.2815208733081818e-01" nType="0">
            <Node pos="l" depth="3" NCoef="0" IVar="-1" Cut="0.0000000000000000e+00" cType="1" res="-6.3783377408981323e-02" rms="1.3994112610816956e-01" purity="2.5653043761849403e-02" nType="-99"/>
            <Node pos="r" depth="3" NCoef="0" IVar="-1" Cut="0.0000000000000000e+00" cType="1" res="-6.3282631337642670e-02" rms="2.7052730321884155e-01" purity="1.9778561592102051e-01" nType="-99"/>
          </Node>
          <Node pos="r" depth="2" NCoef="0" IVar="10" Cut="-1.7332952022552490e+00" cType="1" res="1.7806202173233032e-02" rms="3.2915645837783813e-01" purity="5.9376686811447144e-01" nType="0">
            <Node pos="l" depth="3" NCoef="0" IVar="-1" Cut="0.0000000000000000e+00" cType="1" res="-4.3717924505472183e-02" rms="3.4474983811378479e-01" purity="3.7744417786598206e-01" nType="-99"/>
            <Node pos="r" depth="3" NCoef="0" IVar="-1" Cut="0.0000000000000000e+00" cType="1" res="1.9119834527373314e-02" rms="3.2727134227752686e-01" purity="6.0997951030731201e-01" nType="-99"/>
          </Node>
        </Node>
        <Node pos="r" depth="1" NCoef="0" IVar="2" Cut="4.5696713256835938e+02" cType="1" res="-4.5934487134218216e-02" rms="2.7813178300857544e-01" purity="2.2797165811061859e-01" nType="0">
          <Node pos="l" depth="2" NCoef="0" IVar="7" Cut="1.6611671447753906e+00" cType="1" res="-3.5975288599729538e-02" rms="2.7462920546531677e-01" purity="2.1755105257034302e-01" nType="0">
            <Node pos="l" depth="3" NCoef="0" IVar="-1" Cut="0.0000000000000000e+00" cType="1" res="-1.7337478697299957e-02" rms="3.0755311250686646e-01" purity="2.8581893444061279e-01" nType="-99"/>
            <Node pos="r" depth="3" NCoef="0" IVar="-1" Cut="0.0000000000000000e+00" cType="1" res="-8.2785792648792267e-02" rms="1.8519805371761322e-01" purity="7.7175378799438477e-02" nType="-99"/>
          </Node>
          <Node pos="r" depth="2" NCoef="0" IVar="-1" Cut="0.0000000000000000e+00" cType="1" res="-6.6633991897106171e-02" rms="2.8869649767875671e-01" purity="2.7197799086570740e-01" nType="-99"/>
        </Node>
      </Node>
    </BinaryTree>
    <BinaryTree type="DecisionTree" boostWeight="1.0000000000000000e+00" itree="23">
      <Node pos="s" depth="0" NCoef="0" IVar="10" Cut="1.4662454128265381e+00" cType="1" res="-2.3549702018499374e-03" rms="3.1109860539436340e-01" purity="4.9700430035591125e-01" nType="0">
        <Node pos="l" depth="1" NCoef="0" IVar="10" Cut="-1.3778599500656128e+00" cType="1" res="4.7594988718628883e-03" rms="3.1046286225318909e-01" purity="5.2200973033905029e-01" nType="0">
          <Node pos="l" depth="2" NCoef="0" IVar="10" Cut="-2.1227378845214844e+00" cType="1" res="-4.5035634189844131e-02" rms="3.0458012223243713e-01" purity="3.4033310413360596e-01" nType="0">
            <Node pos="l" depth="3" NCoef="0" IVar="-1" Cut="0.0000000000000000e+00" cType="1" res="-8.6468905210494995e-02" rms="2.7057614922523499e-01" purity="2.0042499899864197e-01" nType="-99"/>
            <Node pos="r" depth="3" NCoef="0" IVar="-1" Cut="0.0000000000000000e+00" cType="1" res="-2.1092049777507782e-02" rms="3.1548747420310974e-01" purity="3.9878356456756592e-01" nType="-99"/>
          </Node>
          <Node pos="r" depth="2" NCoef="0" IVar="6" Cut="5.3219669342041016e+01" cType="1" res="1.3788200914859772e-02" rms="3.1066399812698364e-01" purity="5.5495071411132812e-01" nType="0">
            <Node pos="l" depth="3" NCoef="0" IVar="-1" Cut="0.0000000000000000e+00" cType="1" res="-4.8190196976065636e-03" rms="3.2906848192214966e-01" purity="2.7161884307861328e-01" nType="-99"/>
            <Node pos="r" depth="3" NCoef="0" IVar="-1" Cut="0.0000000000000000e+00" cType="1" res="2.9583241790533066e-02" rms="2.9163694381713867e-01" purity="8.1408190727233887e-01" nType="-99"/>
          </Node>
        </Node>
        <Node pos="r" depth="1" NCoef="0" IVar="11" Cut="-7.9082381725311279e-01" cType="1" res="-5.8127395808696747e-02" rms="3.1043940782546997e-01" purity="3.0097931623458862e-01" nType="0">
          <Node pos="l" depth="2" NCoef="0" IVar="3" Cut="2.1082472229003906e+02" cType="1" res="-6.9934107363224030e-02" rms="2.8839743137359619e-01" purity="1.7346252501010895e-01" nType="0">
            <Node pos="l" depth="3" NCoef="0" IVar="-1" Cut="0.0000000000000000e+00" cType="1" res="-5.3673472255468369e-02" rms="2.4559055268764496e-01" purity="9.3001596629619598e-02" nType="-99"/>
            <Node pos="r" depth="3" NCoef="0" IVar="-1" Cut="0.0000000000000000e+00" cType="1" res="-6.9687746465206146e-02" rms="3.4090340137481689e-01" purity="2.9545742273330688e-01" nType="-99"/>
          </Node>
          <Node pos="r" depth="2" NCoef="0" IVar="-1" Cut="0.0000000000000000e+00" cType="1" res="-2.5571089237928391e-02" rms="3.5100102424621582e-01" purity="5.6894338130950928e-01" nType="-99"/>
        </Node>
      </Node>
    </BinaryTree>
    <BinaryTree type="DecisionTree" boostWeight="1.0000000000000000e+00" itree="24">
      <Node pos="s" depth="0" NCoef="0" IVar="9" Cut="-1.1998741626739502e+00" cType="1" res="4.2403442785143852e-04" rms="3.1455224752426147e-01" purity="5.0000113248825073e-01" nType="0">
        <Node pos="l" depth="1" NCoef="0" IVar="7" Cut="6.8678808212280273e-01" cType="1" res="-4.6733334660530090e-02" rms="3.1052571535110474e-01" purity="2.7153611183166504e-01" nType="0">
          <Node pos="l" depth="2" NCoef="0" IVar="9" Cut="-1.8855974674224854e+00" cType="1" res="-3.1920004636049271e-02" rms="3.2560205459594727e-01" purity="3.1777429580688477e-01" nType="0">
            <Node pos="l" depth="3" NCoef="0" IVar="-1" Cut="0.0000000000000000e+00" cType="1" res="-6.7520767450332642e-02" rms="2.7176401019096375e-01" purity="1.5060217678546906e-01" nType="-99"/>
            <Node pos="r" depth="3" NCoef="0" IVar="-1" Cut="0.0000000000000000e+00" cType="1" res="-1.1372847482562065e-02" rms="3.4547120332717896e-01" purity="3.9236518740653992e-01" nType="-99"/>
          </Node>
          <Node pos="r" depth="2" NCoef="0" IVar="-1" Cut="0.0000000000000000e+00" cType="1" res="-9.5101982355117798e-02" rms="2.4349012970924377e-01" purity="1.0922984033823013e-01" nType="-99"/>
        </Node>
        <Node pos="r" depth="1" NCoef="0" IVar="9" Cut="1.2762041091918945e+00" cType="1" res="7.7962148934602737e-03" rms="3.1453868746757507e-01" purity="5.3571736812591553e-01" nType="0">
          <Node pos="l" depth="2" NCoef="0" IVar="8" Cut="-9.3337029218673706e-01" cType="1" res="1.6520967707037926e-02" rms="3.1573298573493958e-01" purity="5.7789689302444458e-01" nType="0">
            <Node pos="l" depth="3" NCoef="0" IVar="-1" Cut="0.0000000000000000e+00" cType="1" res="-2.3609479889273643e-02" rms="3.0382865667343140e-01" purity="3.4284377098083496e-01" nType="-99"/>
            <Node pos="r" depth="3" NCoef="0" IVar="-1" Cut="0.0000000000000000e+00" cType="1" res="2.1093707531690598e-02" rms="3.1724715232849121e-01" purity="6.2162727117538452e-01" nType="-99"/>
          </Node>
          <Node pos="r" depth="2" NCoef="0" IVar="3" Cut="2.5416850280761719e+02" cType="1" res="-4.8745013773441315e-02" rms="3.0060982704162598e-01" purity="2.6237085461616516e-01" nType="0">
            <Node pos="l" depth="3" NCoef="0" IVar="-1" Cut="0.0000000000000000e+00" cType="1" res="-2.9658904299139977e-02" rms="2.8614482283592224e-01" purity="2.0990706980228424e-01" nType="-99"/>
            <Node pos="r" depth="3" NCoef="0" IVar="-1" Cut="0.0000000000000000e+00" cType="1" res="-7.6967298984527588e-02" rms="3.3590775728225708e-01" purity="4.2782032489776611e-01" nType="-99"/>
          </Node>
        </Node>
      </Node>
    </BinaryTree>
    <BinaryTree type="DecisionTree" boostWeight="1.0000000000000000e+00" itree="25">
      <Node pos="s" depth="0" NCoef="0" IVar="8" Cut="-1.4665678739547729e+00" cType="1" res="-7.8658934216946363e-04" rms="3.1267452239990234e-01" purity="4.9679887294769287e-01" nType="0">
        <Node pos="l" depth="1" NCoef="0" IVar="3" Cut="2.0392718505859375e+02" cType="1" res="-5.6673523038625717e-02" rms="2.4161763489246368e-01" purity="1.2799011170864105e-01" nType="0">
          <Node pos="l" depth="2" NCoef="0" IVar="-1" Cut="0.0000000000000000e+00" cType="1" res="-5.6077677756547928e-02" rms="1.9015279412269592e-01" purity="8.6416788399219513e-02" nType="-99"/>
          <Node pos="r" depth="2" NCoef="0" IVar="-1" Cut="0.0000000000000000e+00" cType="1" res="-6.5957233309745789e-02" rms="3.0519020557403564e-01" purity="1.9511947035789490e-01" nType="-99"/>
        </Node>
        <Node pos="r" depth="1" NCoef="0" IVar="8" Cut="1.7841041088104248e+00" cType="1" res="3.9315642789006233e-03" rms="3.1749728322029114e-01" purity="5.2793490886688232e-01" nType="0">
          <Node pos="l" depth="2" NCoef="0" IVar="7" Cut="1.4695187807083130e+00" cType="1" res="7.9318219795823097e-03" rms="3.2200953364372253e-01" purity="5.5122959613800049e-01" nType="0">
            <Node pos="l" depth="3" NCoef="0" IVar="-1" Cut="0.0000000000000000e+00" cType="1" res="1.0149330832064152e-02" rms="3.2665801048278809e-01" purity="5.7667928934097290e-01" nType="-99"/>
            <Node pos="r" depth="3" NCoef="0" IVar="-1" Cut="0.0000000000000000e+00" cType="1" res="-7.1099646389484406e-02" rms="2.1441216766834259e-01" purity="1.1029784381389618e-01" nType="-99"/>
          </Node>
          <Node pos="r" depth="2" NCoef="0" IVar="-1" Cut="0.0000000000000000e+00" cType="1" res="-8.8378638029098511e-02" rms="1.9306656718254089e-01" purity="6.7988708615303040e-02" nType="-99"/>
        </Node>
      </Node>
    </BinaryTree>
    <BinaryTree type="DecisionTree" boostWeight="1.0000000000000000e+00" itree="26">
      <Node pos="s" depth="0" NCoef="0" IVar="8" Cut="9.3338578939437866e-01" cType="1" res="-7.2156870737671852e-04" rms="3.1095016002655029e-01" purity="4.9774762988090515e-01" nType="0">
        <Node pos="l" depth="1" NCoef="0" IVar="7" Cut="6.7940187454223633e-01" cType="1" res="6.7305467091500759e-03" rms="3.1400221586227417e-01" purity="5.4191046953201294e-01" nType="0">
          <Node pos="l" depth="2" NCoef="0" IVar="7" Cut="-1.2887555360794067e+00" cType="1" res="1.6425475478172302e-02" rms="3.1804472208023071e-01" purity="5.9327059984207153e-01" nType="0">
            <Node pos="l" depth="3" NCoef="0" IVar="-1" Cut="0.0000000000000000e+00" cType="1" res="-4.0737338364124298e-02" rms="2.5453293323516846e-01" purity="1.6342194378376007e-01" nType="-99"/>
            <Node pos="r" depth="3" NCoef="0" IVar="-1" Cut="0.0000000000000000e+00" cType="1" res="1.8750822171568871e-02" rms="3.2373413443565369e-01" purity="6.4042359590530396e-01" nType="-99"/>
          </Node>
          <Node pos="r" depth="2" NCoef="0" IVar="6" Cut="6.6763839721679688e+01" cType="1" res="-2.9621860012412071e-02" rms="2.9553851485252380e-01" purity="3.4932899475097656e-01" nType="0">
            <Node pos="l" depth="3" NCoef="0" IVar="-1" Cut="0.0000000000000000e+00" cType="1" res="-4.1178006678819656e-02" rms="2.8653723001480103e-01" purity="1.8282708525657654e-01" nType="-99"/>
            <Node pos="r" depth="3" NCoef="0" IVar="-1" Cut="0.0000000000000000e+00" cType="1" res="8.8316202163696289e-03" rms="3.1420716643333435e-01" purity="7.8061389923095703e-01" nType="-99"/>
          </Node>
        </Node>
        <Node pos="r" depth="1" NCoef="0" IVar="2" Cut="4.5168572998046875e+02" cType="1" res="-3.7665668874979019e-02" rms="2.9256427288055420e-01" purity="2.7880910038948059e-01" nType="0">
          <Node pos="l" depth="2" NCoef="0" IVar="0" Cut="1.4506151123046875e+03" cType="1" res="-2.7633642777800560e-02" rms="2.8883382678031921e-01" purity="2.6313665509223938e-01" nType="0">
            <Node pos="l" depth="3" NCoef="0" IVar="-1" Cut="0.0000000000000000e+00" cType="1" res="-4.2474742978811264e-02" rms="2.6345819234848022e-01" purity="1.1809375882148743e-01" nType="-99"/>
            <Node pos="r" depth="3" NCoef="0" IVar="-1" Cut="0.0000000000000000e+00" cType="1" res="5.0341794267296791e-03" rms="3.5007447004318237e-01" purity="6.8453812599182129e-01" nType="-99"/>
          </Node>
          <Node pos="r" depth="2" NCoef="0" IVar="-1" Cut="0.0000000000000000e+00" cType="1" res="-6.1356808990240097e-02" rms="3.0271452665328979e-01" purity="3.3407971262931824e-01" nType="-99"/>
        </Node>
      </Node>
    </BinaryTree>
    <BinaryTree type="DecisionTree" boostWeight="1.0000000000000000e+00" itree="27">
      <Node pos="s" depth="0" NCoef="0" IVar="2" Cut="4.7161791992187500e+02" cType="1" res="2.2007758161635138e-05" rms="3.0886816978454590e-01" purity="5.0117844343185425e-01" nType="0">
        <Node pos="l" depth="1" NCoef="0" IVar="0" Cut="1.2923511962890625e+03" cType="1" res="8.2731703296303749e-03" rms="3.0415457487106323e-01" purity="4.7552433609962463e-01" nType="0">
          <Node pos="l" depth="2" NCoef="0" IVar="2" Cut="2.9053894042968750e+02" cType="1" res="-1.9542837515473366e-02" rms="2.8501537442207336e-01" purity="1.3436612486839294e-01" nType="0">
            <Node pos="l" depth="3" NCoef="0" IVar="-1" Cut="0.0000000000000000e+00" cType="1" res="-3.1636811327189207e-03" rms="3.0675402283668518e-01" purity="1.6954027116298676e-01" nType="-99"/>
            <Node pos="r" depth="3" NCoef="0" IVar="-1" Cut="0.0000000000000000e+00" cType="1" res="-5.0172429531812668e-02" rms="2.4684716761112213e-01" purity="8.1578105688095093e-02" nType="-99"/>
          </Node>
          <Node pos="r" depth="2" NCoef="0" IVar="2" Cut="2.6467544555664062e+02" cType="1" res="2.9947197064757347e-02" rms="3.1658127903938293e-01" purity="7.4135226011276245e-01" nType="0">
            <Node pos="l" depth="3" NCoef="0" IVar="-1" Cut="0.0000000000000000e+00" cType="1" res="6.6627189517021179e-02" rms="2.9351234436035156e-01" purity="8.6082118749618530e-01" nType="-99"/>
            <Node pos="r" depth="3" NCoef="0" IVar="-1" Cut="0.0000000000000000e+00" cType="1" res="1.7600299790501595e-02" rms="3.1966254115104675e-01" purity="7.1973943710327148e-01" nType="-99"/>
          </Node>
        </Node>
        <Node pos="r" depth="1" NCoef="0" IVar="0" Cut="1.9089151611328125e+03" cType="1" res="-2.7178617194294930e-02" rms="3.2242965698242188e-01" purity="5.8574932813644409e-01" nType="0">
          <Node pos="l" depth="2" NCoef="0" IVar="3" Cut="2.2280757141113281e+02" cType="1" res="-7.9752124845981598e-02" rms="3.4027829766273499e-01" purity="2.7593490481376648e-01" nType="0">
            <Node pos="l" depth="3" NCoef="0" IVar="-1" Cut="0.0000000000000000e+00" cType="1" res="-3.9784651249647141e-02" rms="3.1178286671638489e-01" purity="2.2909699380397797e-01" nType="-99"/>
            <Node pos="r" depth="3" NCoef="0" IVar="-1" Cut="0.0000000000000000e+00" cType="1" res="-7.2220452129840851e-02" rms="3.6144590377807617e-01" purity="3.1730562448501587e-01" nType="-99"/>
          </Node>
          <Node pos="r" depth="2" NCoef="0" IVar="0" Cut="2.1533662109375000e+03" cType="1" res="1.3431569561362267e-02" rms="3.0172809958457947e-01" purity="8.2506424188613892e-01" nType="0">
            <Node pos="l" depth="3" NCoef="0" IVar="-1" Cut="0.0000000000000000e+00" cType="1" res="-1.8260998651385307e-02" rms="3.5996261239051819e-01" purity="7.1849352121353149e-01" nType="-99"/>
            <Node pos="r" depth="3" NCoef="0" IVar="-1" Cut="0.0000000000000000e+00" cType="1" res="3.0739806592464447e-02" rms="2.6784357428550720e-01" purity="8.7573188543319702e-01" nType="-99"/>
          </Node>
        </Node>
      </Node>
    </BinaryTree>
    <BinaryTree type="DecisionTree" boostWeight="1.0000000000000000e+00" itree="28">
      <Node pos="s" depth="0" NCoef="0" IVar="9" Cut="1.7333292961120605e+00" cType="1" res="9.0566574363037944e-04" rms="3.1189027428627014e-01" purity="4.9946871399879456e-01" nType="0">
        <Node pos="l" depth="1" NCoef="0" IVar="10" Cut="1.7331781387329102e+00" cType="1" res="4.3790009804069996e-03" rms="3.1347593665122986e-01" purity="5.1890081167221069e-01" nType="0">
          <Node pos="l" depth="2" NCoef="0" IVar="0" Cut="1.0974445800781250e+03" cType="1" res="8.2644782960414886e-03" rms="3.1447437405586243e-01" purity="5.3610527515411377e-01" nType="0">
            <Node pos="l" depth="3" NCoef="0" IVar="-1" Cut="0.0000000000000000e+00" cType="1" res="-3.7489559501409531e-02" rms="2.1633312106132507e-01" purity="5.4777555167675018e-02" nType="-99"/>
            <Node pos="r" depth="3" NCoef="0" IVar="-1" Cut="0.0000000000000000e+00" cType="1" res="1.1910551227629185e-02" rms="3.2801407575607300e-01" purity="6.1861824989318848e-01" nType="-99"/>
          </Node>
          <Node pos="r" depth="2" NCoef="0" IVar="10" Cut="2.0886967182159424e+00" cType="1" res="-4.3390687555074692e-02" rms="2.9680186510086060e-01" purity="3.0738097429275513e-01" nType="0">
            <Node pos="l" depth="3" NCoef="0" IVar="-1" Cut="0.0000000000000000e+00" cType="1" res="-2.0430766046047211e-02" rms="3.0649811029434204e-01" purity="3.8160237669944763e-01" nType="-99"/>
            <Node pos="r" depth="3" NCoef="0" IVar="-1" Cut="0.0000000000000000e+00" cType="1" res="-5.6829374283552170e-02" rms="2.8604620695114136e-01" purity="2.3806886374950409e-01" nType="-99"/>
          </Node>
        </Node>
        <Node pos="r" depth="1" NCoef="0" IVar="3" Cut="1.8812814331054688e+02" cType="1" res="-5.6741941720247269e-02" rms="2.7801784873008728e-01" purity="1.7695091664791107e-01" nType="0">
          <Node pos="l" depth="2" NCoef="0" IVar="-1" Cut="0.0000000000000000e+00" cType="1" res="-1.7663355916738510e-02" rms="2.4627925455570221e-01" purity="1.1362355947494507e-01" nType="-99"/>
          <Node pos="r" depth="2" NCoef="0" IVar="-1" Cut="0.0000000000000000e+00" cType="1" res="-8.1680320203304291e-02" rms="3.0055844783782959e-01" purity="2.4156290292739868e-01" nType="-99"/>
        </Node>
      </Node>
    </BinaryTree>
    <BinaryTree type="DecisionTree" boostWeight="1.0000000000000000e+00" itree="29">
      <Node pos="s" depth="0" NCoef="0" IVar="9" Cut="1.7332980632781982e+00" cType="1" res="6.8184523843228817e-04" rms="3.0923151969909668e-01" purity="5.0263643264770508e-01" nType="0">
        <Node pos="l" depth="1" NCoef="0" IVar="9" Cut="-8.5711365938186646e-01" cType="1" res="3.9410693570971489e-03" rms="3.1151491403579712e-01" purity="5.2320683002471924e-01" nType="0">
          <Node pos="l" depth="2" NCoef="0" IVar="2" Cut="3.3976760864257812e+02" cType="1" res="-2.0836025476455688e-02" rms="3.1094151735305786e-01" purity="3.7504276633262634e-01" nType="0">
            <Node pos="l" depth="3" NCoef="0" IVar="-1" Cut="0.0000000000000000e+00" cType="1" res="-7.7249360037967563e-04" rms="3.0132010579109192e-01" purity="3.2402792572975159e-01" nType="-99"/>
            <Node pos="r" depth="3" NCoef="0" IVar="-1" Cut="0.0000000000000000e+00" cType="1" res="-3.5520557314157486e-02" rms="3.1919288635253906e-01" purity="4.2726850509643555e-01" nType="-99"/>
          </Node>
          <Node pos="r" depth="2" NCoef="0" IVar="10" Cut="-1.9999183416366577e+00" cType="1" res="1.1180221103131771e-02" rms="3.1131023168563843e-01" purity="5.6649607419967651e-01" nType="0">
            <Node pos="l" depth="3" NCoef="0" IVar="-1" Cut="0.0000000000000000e+00" cType="1" res="-5.2171755582094193e-02" rms="3.2398462295532227e-01" purity="2.8150853514671326e-01" nType="-99"/>
            <Node pos="r" depth="3" NCoef="0" IVar="-1" Cut="0.0000000000000000e+00" cType="1" res="1.2738203629851341e-02" rms="3.1044200062751770e-01" purity="5.7854777574539185e-01" nType="-99"/>
          </Node>
        </Node>
        <Node pos="r" depth="1" NCoef="0" IVar="7" Cut="1.8668082356452942e-01" cType="1" res="-5.5275809019804001e-02" rms="2.6072007417678833e-01" purity="1.4946284890174866e-01" nType="0">
          <Node pos="l" depth="2" NCoef="0" IVar="-1" Cut="0.0000000000000000e+00" cType="1" res="-8.5809983313083649e-02" rms="2.4337403476238251e-01" purity="1.2575747072696686e-01" nType="-99"/>
          <Node pos="r" depth="2" NCoef="0" IVar="-1" Cut="0.0000000000000000e+00" cType="1" res="-2.7646765112876892e-02" rms="2.7500009536743164e-01" purity="1.7495641112327576e-01" nType="-99"/>
        </Node>
      </Node>
    </BinaryTree>
    <BinaryTree type="DecisionTree" boostWeight="1.0000000000000000e+00" itree="30">
      <Node pos="s" depth="0" NCoef="0" IVar="2" Cut="6.1929370117187500e+02" cType="1" res="-4.4422959908843040e-03" rms="3.0741488933563232e-01" purity="4.9469402432441711e-01" nType="0">
        <Node pos="l" depth="1" NCoef="0" IVar="0" Cut="1.8945748291015625e+03" cType="1" res="-5.9381716710049659e-05" rms="3.0466890335083008e-01" purity="4.8977673053741455e-01" nType="0">
          <Node pos="l" depth="2" NCoef="0" IVar="2" Cut="3.3974484252929688e+02" cType="1" res="-8.2355625927448273e-03" rms="3.2360675930976868e-01" purity="3.8321423530578613e-01" nType="0">
            <Node pos="l" depth="3" NCoef="0" IVar="-1" Cut="0.0000000000000000e+00" cType="1" res="7.2012436576187611e-03" rms="3.1344041228294373e-01" purity="3.9095035195350647e-01" nType="-99"/>
            <Node pos="r" depth="3" NCoef="0" IVar="-1" Cut="0.0000000000000000e+00" cType="1" res="-2.6312679052352905e-02" rms="3.3654534816741943e-01" purity="3.7189343571662903e-01" nType="-99"/>
          </Node>
          <Node pos="r" depth="2" NCoef="0" IVar="2" Cut="4.4229269409179688e+02" cType="1" res="3.4664895385503769e-02" rms="2.0199449360370636e-01" purity="9.4234806299209595e-01" nType="0">
            <Node pos="l" depth="3" NCoef="0" IVar="-1" Cut="0.0000000000000000e+00" cType="1" res="7.3985747992992401e-02" rms="1.4860871434211731e-01" purity="9.7333055734634399e-01" nType="-99"/>
            <Node pos="r" depth="3" NCoef="0" IVar="-1" Cut="0.0000000000000000e+00" cType="1" res="3.1323287636041641e-02" rms="2.3972892761230469e-01" purity="9.1448765993118286e-01" nType="-99"/>
          </Node>
        </Node>
        <Node pos="r" depth="1" NCoef="0" IVar="0" Cut="2.3495341796875000e+03" cType="1" res="-5.9555705636739731e-02" rms="3.3520135283470154e-01" purity="5.5652683973312378e-01" nType="0">
          <Node pos="l" depth="2" NCoef="0" IVar="-1" Cut="0.0000000000000000e+00" cType="1" res="-7.5026147067546844e-02" rms="3.4256932139396667e-01" purity="3.4451246261596680e-01" nType="-99"/>
          <Node pos="r" depth="2" NCoef="0" IVar="-1" Cut="0.0000000000000000e+00" cType="1" res="9.4559160061180592e-04" rms="3.1542727351188660e-01" purity="8.2227998971939087e-01" nType="-99"/>
        </Node>
      </Node>
    </BinaryTree>
    <BinaryTree type="DecisionTree" boostWeight="1.0000000000000000e+00" itree="31">
      <Node pos="s" depth="0" NCoef="0" IVar="7" Cut="9.4491535425186157e-01" cType="1" res="2.1749078296124935e-03" rms="3.0691954493522644e-01" purity="5.0467741489410400e-01" nType="0">
        <Node pos="l" depth="1" NCoef="0" IVar="7" Cut="-6.4503031969070435e-01" cType="1" res="7.5140646658837795e-03" rms="3.1304517388343811e-01" purity="5.5242335796356201e-01" nType="0">
          <Node pos="l" depth="2" NCoef="0" IVar="8" Cut="4.0044388175010681e-01" cType="1" res="-1.6101533547043800e-02" rms="2.9723942279815674e-01" purity="3.3934143185615540e-01" nType="0">
            <Node pos="l" depth="3" NCoef="0" IVar="-1" Cut="0.0000000000000000e+00" cType="1" res="-2.0794612355530262e-03" rms="3.0143782496452332e-01" purity="3.8680410385131836e-01" nType="-99"/>
            <Node pos="r" depth="3" NCoef="0" IVar="-1" Cut="0.0000000000000000e+00" cType="1" res="-4.7461271286010742e-02" rms="2.8606337308883667e-01" purity="2.4009953439235687e-01" nType="-99"/>
          </Node>
          <Node pos="r" depth="2" NCoef="0" IVar="0" Cut="1.0875274658203125e+03" cType="1" res="1.6225751489400864e-02" rms="3.1823581457138062e-01" purity="6.3102835416793823e-01" nType="0">
            <Node pos="l" depth="3" NCoef="0" IVar="-1" Cut="0.0000000000000000e+00" cType="1" res="-3.2903172075748444e-02" rms="2.4207957088947296e-01" purity="6.9383643567562103e-02" nType="-99"/>
            <Node pos="r" depth="3" NCoef="0" IVar="-1" Cut="0.0000000000000000e+00" cType="1" res="1.8282111734151840e-02" rms="3.2593384385108948e-01" purity="6.9964867830276489e-01" nType="-99"/>
          </Node>
        </Node>
        <Node pos="r" depth="1" NCoef="0" IVar="3" Cut="2.1090263366699219e+02" cType="1" res="-2.8954382985830307e-02" rms="2.6631277799606323e-01" purity="2.2630052268505096e-01" nType="0">
          <Node pos="l" depth="2" NCoef="0" IVar="11" Cut="-2.1717925071716309e+00" cType="1" res="-1.0598363354802132e-02" rms="2.3087225854396820e-01" purity="1.3656090199947357e-01" nType="0">
            <Node pos="l" depth="3" NCoef="0" IVar="-1" Cut="0.0000000000000000e+00" cType="1" res="-4.8960670828819275e-02" rms="1.5988481044769287e-01" purity="3.5223703831434250e-02" nType="-99"/>
            <Node pos="r" depth="3" NCoef="0" IVar="-1" Cut="0.0000000000000000e+00" cType="1" res="1.4962856657803059e-02" rms="3.3862411975860596e-01" purity="3.6536946892738342e-01" nType="-99"/>
          </Node>
          <Node pos="r" depth="2" NCoef="0" IVar="8" Cut="-1.3165897130966187e-01" cType="1" res="-5.3822029381990433e-02" rms="3.0613532662391663e-01" purity="3.4787440299987793e-01" nType="0">
            <Node pos="l" depth="3" NCoef="0" IVar="-1" Cut="0.0000000000000000e+00" cType="1" res="-7.6736122369766235e-02" rms="2.8395664691925049e-01" purity="2.4790050089359283e-01" nType="-99"/>
            <Node pos="r" depth="3" NCoef="0" IVar="-1" Cut="0.0000000000000000e+00" cType="1" res="-2.1318770945072174e-02" rms="3.1936627626419067e-01" purity="4.2450642585754395e-01" nType="-99"/>
          </Node>
        </Node>
      </Node>
    </BinaryTree>
    <BinaryTree type="DecisionTree" boostWeight="1.0000000000000000e+00" itree="32">
      <Node pos="s" depth="0" NCoef="0" IVar="10" Cut="1.7332991361618042e+00" cType="1" res="1.1025649728253484e-03" rms="3.0639374256134033e-01" purity="4.9873647093772888e-01" nType="0">
        <Node pos="l" depth="1" NCoef="0" IVar="8" Cut="-1.4665700197219849e+00" cType="1" res="4.7345538623631001e-03" rms="3.0659046769142151e-01" purity="5.1744717359542847e-01" nType="0">
          <Node pos="l" depth="2" NCoef="0" IVar="4" Cut="1.0797122192382812e+02" cType="1" res="-4.0770132094621658e-02" rms="2.4666975438594818e-01" purity="1.3661304116249084e-01" nType="0">
            <Node pos="l" depth="3" NCoef="0" IVar="-1" Cut="0.0000000000000000e+00" cType="1" res="-3.5320658236742020e-02" rms="1.6251999139785767e-01" purity="3.4820385277271271e-02" nType="-99"/>
            <Node pos="r" depth="3" NCoef="0" IVar="-1" Cut="0.0000000000000000e+00" cType="1" res="-5.0170272588729858e-02" rms="2.8675249218940735e-01" purity="2.0189973711967468e-01" nType="-99"/>
          </Node>
          <Node pos="r" depth="2" NCoef="0" IVar="8" Cut="7.6825916767120361e-01" cType="1" res="8.4105608984827995e-03" rms="3.1063649058341980e-01" purity="5.4821211099624634e-01" nType="0">
            <Node pos="l" depth="3" NCoef="0" IVar="-1" Cut="0.0000000000000000e+00" cType="1" res="1.5228027477860451e-02" rms="3.1324055790901184e-01" purity="6.0559540987014771e-01" nType="-99"/>
            <Node pos="r" depth="3" NCoef="0" IVar="-1" Cut="0.0000000000000000e+00" cType="1" res="-1.9707601517438889e-02" rms="2.9978820681571960e-01" purity="3.5111808776855469e-01" nType="-99"/>
          </Node>
        </Node>
        <Node pos="r" depth="1" NCoef="0" IVar="4" Cut="1.2373770904541016e+02" cType="1" res="-4.3375384062528610e-02" rms="3.0043381452560425e-01" purity="2.6960182189941406e-01" nType="0">
          <Node pos="l" depth="2" NCoef="0" IVar="-1" Cut="0.0000000000000000e+00" cType="1" res="-3.2181203365325928e-02" rms="2.3303718864917755e-01" purity="9.0365327894687653e-02" nType="-99"/>
          <Node pos="r" depth="2" NCoef="0" IVar="-1" Cut="0.0000000000000000e+00" cType="1" res="-4.6881824731826782e-02" rms="3.4574267268180847e-01" purity="4.1875326633453369e-01" nType="-99"/>
        </Node>
      </Node>
    </BinaryTree>
    <BinaryTree type="DecisionTree" boostWeight="1.0000000000000000e+00" itree="33">
      <Node pos="s" depth="0" NCoef="0" IVar="8" Cut="6.6672563552856445e-01" cType="1" res="-2.6216886471956968e-03" rms="3.1085523962974548e-01" purity="4.9425411224365234e-01" nType="0">
        <Node pos="l" depth="1" NCoef="0" IVar="8" Cut="-8.1885766983032227e-01" cType="1" res="4.2087775655090809e-03" rms="3.1274881958961487e-01" purity="5.4151129722595215e-01" nType="0">
          <Node pos="l" depth="2" NCoef="0" IVar="3" Cut="2.8584625244140625e+02" cType="1" res="-1.9943023100495338e-02" rms="3.0133846402168274e-01" purity="3.1642240285873413e-01" nType="0">
            <Node pos="l" depth="3" NCoef="0" IVar="-1" Cut="0.0000000000000000e+00" cType="1" res="-9.0687777847051620e-03" rms="2.9528629779815674e-01" purity="2.8029355406761169e-01" nType="-99"/>
            <Node pos="r" depth="3" NCoef="0" IVar="-1" Cut="0.0000000000000000e+00" cType="1" res="-5.7898148894309998e-02" rms="3.2273918390274048e-01" purity="4.8226600885391235e-01" nType="-99"/>
          </Node>
          <Node pos="r" depth="2" NCoef="0" IVar="7" Cut="-8.7869930267333984e-01" cType="1" res="1.3054834678769112e-02" rms="3.1636425852775574e-01" purity="6.2395435571670532e-01" nType="0">
            <Node pos="l" depth="3" NCoef="0" IVar="-1" Cut="0.0000000000000000e+00" cType="1" res="-1.7628179863095284e-02" rms="3.1950467824935913e-01" purity="3.6046722531318665e-01" nType="-99"/>
            <Node pos="r" depth="3" NCoef="0" IVar="-1" Cut="0.0000000000000000e+00" cType="1" res="1.6491524875164032e-02" rms="3.1553480029106140e-01" purity="6.6706156730651855e-01" nType="-99"/>
          </Node>
        </Node>
        <Node pos="r" depth="1" NCoef="0" IVar="3" Cut="3.0419946289062500e+02" cType="1" res="-2.3948378860950470e-02" rms="3.0388084053993225e-01" purity="3.4670361876487732e-01" nType="0">
          <Node pos="l" depth="2" NCoef="0" IVar="10" Cut="-1.1998074054718018e+00" cType="1" res="-1.5333015471696854e-02" rms="2.9533627629280090e-01" purity="3.1024467945098877e-01" nType="0">
