<?xml version="1.0"?>
<MethodSetup Method="BDT::BDTG">
  <GeneralInfo>
    <Info name="TMVA Release" value="4.2.1 [262657]"/>
    <Info name="ROOT Release" value="6.14/04 [396804]"/>
    <Info name="Creator" value="unok"/>
    <Info name="Date" value="Mon Jan 14 15:45:44 2019"/>
    <Info name="Host" value="Linux lcgapp-slc6-x86-64-39.cern.ch 2.6.32-696.30.1.el6.x86_64 #1 SMP Tue May 22 06:09:36 CEST 2018 x86_64 x86_64 x86_64 GNU/Linux"/>
    <Info name="Dir" value="/gpfs/fs6001/unok/TMVA/2018/v142/V2/TMVA-0L"/>
    <Info name="Training events" value="579322"/>
    <Info name="TrainingTime" value="4.34014484e+02"/>
    <Info name="AnalysisType" value="Classification"/>
  </GeneralInfo>
  <Options>
    <Option name="V" modified="Yes">False</Option>
    <Option name="VerbosityLevel" modified="No">Default</Option>
    <Option name="VarTransform" modified="No">None</Option>
    <Option name="H" modified="Yes">False</Option>
    <Option name="CreateMVAPdfs" modified="No">False</Option>
    <Option name="IgnoreNegWeightsInTraining" modified="No">False</Option>
    <Option name="NTrees" modified="Yes">800</Option>
    <Option name="MaxDepth" modified="Yes">3</Option>
    <Option name="MinNodeSize" modified="Yes">2.500000%</Option>
    <Option name="nCuts" modified="Yes">20</Option>
    <Option name="BoostType" modified="Yes">Grad</Option>
    <Option name="AdaBoostR2Loss" modified="No">quadratic</Option>
    <Option name="UseBaggedBoost" modified="Yes">True</Option>
    <Option name="Shrinkage" modified="Yes">2.000000e-01</Option>
    <Option name="AdaBoostBeta" modified="No">5.000000e-01</Option>
    <Option name="UseRandomisedTrees" modified="No">False</Option>
    <Option name="UseNvars" modified="No">3</Option>
    <Option name="UsePoissonNvars" modified="No">True</Option>
    <Option name="BaggedSampleFraction" modified="Yes">5.000000e-01</Option>
    <Option name="UseYesNoLeaf" modified="No">True</Option>
    <Option name="NegWeightTreatment" modified="Yes">pray</Option>
    <Option name="Css" modified="No">1.000000e+00</Option>
    <Option name="Cts_sb" modified="No">1.000000e+00</Option>
    <Option name="Ctb_ss" modified="No">1.000000e+00</Option>
    <Option name="Cbb" modified="No">1.000000e+00</Option>
    <Option name="NodePurityLimit" modified="No">5.000000e-01</Option>
    <Option name="SeparationType" modified="No">giniindex</Option>
    <Option name="RegressionLossFunctionBDTG" modified="No">huber</Option>
    <Option name="HuberQuantile" modified="No">7.000000e-01</Option>
    <Option name="DoBoostMonitor" modified="No">False</Option>
    <Option name="UseFisherCuts" modified="No">False</Option>
    <Option name="MinLinCorrForFisher" modified="No">8.000000e-01</Option>
    <Option name="UseExclusiveVars" modified="No">False</Option>
    <Option name="DoPreselection" modified="No">False</Option>
    <Option name="SigToBkgFraction" modified="No">1.000000e+00</Option>
    <Option name="PruneMethod" modified="No">nopruning</Option>
    <Option name="PruneStrength" modified="No">0.000000e+00</Option>
    <Option name="PruningValFraction" modified="No">5.000000e-01</Option>
    <Option name="SkipNormalization" modified="No">False</Option>
    <Option name="nEventsMin" modified="No">0</Option>
    <Option name="UseBaggedGrad" modified="No">False</Option>
    <Option name="GradBaggingFraction" modified="No">5.000000e-01</Option>
    <Option name="UseNTrainEvents" modified="No">0</Option>
    <Option name="NNodesMax" modified="No">0</Option>
  </Options>
  <Variables NVar="11">
    <Variable VarIndex="0" Expression="met" Label="met" Title="E_{T}^{miss}" Unit="GeV" Internal="met" Type="F" Min="3.00000153e+02" Max="3.38961206e+03"/>
    <Variable VarIndex="1" Expression="meff" Label="meff" Title="m_{eff}(incl.)" Unit="GeV" Internal="meff" Type="F" Min="1.40000159e+03" Max="7.65699121e+03"/>
    <Variable VarIndex="2" Expression="Ap" Label="Ap" Title="Aplanarity" Unit="" Internal="Ap" Type="F" Min="1.19960191e-07" Max="4.48677927e-01"/>
    <Variable VarIndex="3" Expression="jetPt0" Label="jetPt0" Title="p_{T}(j_{1})" Unit="GeV" Internal="jetPt0" Type="F" Min="2.00231079e+02" Max="3.35724292e+03"/>
    <Variable VarIndex="4" Expression="jetPt1" Label="jetPt1" Title="p_{T}(j_{2})" Unit="GeV" Internal="jetPt1" Type="F" Min="5.24190292e+01" Max="2.04270520e+03"/>
    <Variable VarIndex="5" Expression="jetPt2" Label="jetPt2" Title="p_{T}(j_{3})" Unit="GeV" Internal="jetPt2" Type="F" Min="5.00359535e+01" Max="1.24157080e+03"/>
    <Variable VarIndex="6" Expression="jetPt3" Label="jetPt3" Title="p_{T}(j_{4})" Unit="GeV" Internal="jetPt3" Type="F" Min="5.00001678e+01" Max="9.92901489e+02"/>
    <Variable VarIndex="7" Expression="jetEta0" Label="jetEta0" Title="#eta(j_{1})" Unit="" Internal="jetEta0" Type="F" Min="-2.78269053e+00" Max="2.79919529e+00"/>
    <Variable VarIndex="8" Expression="jetEta1" Label="jetEta1" Title="#eta(j_{2})" Unit="" Internal="jetEta1" Type="F" Min="-2.79993296e+00" Max="2.79999733e+00"/>
    <Variable VarIndex="9" Expression="jetEta2" Label="jetEta2" Title="#eta(j_{3})" Unit="" Internal="jetEta2" Type="F" Min="-2.79990411e+00" Max="2.79983807e+00"/>
    <Variable VarIndex="10" Expression="jetEta3" Label="jetEta3" Title="#eta(j_{4})" Unit="" Internal="jetEta3" Type="F" Min="-2.79995584e+00" Max="2.79996443e+00"/>
  </Variables>
  <Spectators NSpec="0">
  </Spectators>
  <Classes NClass="2">
    <Class Name="Signal" Index="0"/>
    <Class Name="Background" Index="1"/>
  </Classes>
  <Transformations NTransformations="0"/>
  <MVAPdfs/>
  <Weights NTrees="800" AnalysisType="1">
    <BinaryTree type="DecisionTree" boostWeight="1.0000000000000000e+00" itree="0">
      <Node pos="s" depth="0" NCoef="0" IVar="1" Cut="2.2288681640625000e+03" cType="1" res="-1.4801030047237873e-03" rms="4.9999779462814331e-01" purity="4.9851989746093750e-01" nType="0">
        <Node pos="l" depth="1" NCoef="0" IVar="1" Cut="1.9920415039062500e+03" cType="1" res="-4.3818497657775879e-01" rms="2.4081929028034210e-01" purity="6.1815027147531509e-02" nType="0">
          <Node pos="l" depth="2" NCoef="0" IVar="1" Cut="1.7664906005859375e+03" cType="1" res="-4.6945458650588989e-01" rms="1.7208248376846313e-01" purity="3.0545402318239212e-02" nType="0">
            <Node pos="l" depth="3" NCoef="0" IVar="-1" Cut="0.0000000000000000e+00" cType="1" res="-1.9466379284858704e-01" rms="1.1472810059785843e-01" purity="1.3340506702661514e-02" nType="-99"/>
            <Node pos="r" depth="3" NCoef="0" IVar="-1" Cut="0.0000000000000000e+00" cType="1" res="-1.5652258694171906e-01" rms="3.1125432252883911e-01" purity="1.0869352519512177e-01" nType="-99"/>
          </Node>
          <Node pos="r" depth="2" NCoef="0" IVar="-1" Cut="0.0000000000000000e+00" cType="1" res="-5.8854732662439346e-02" rms="4.7786059975624084e-01" purity="3.5286316275596619e-01" nType="-99"/>
        </Node>
        <Node pos="r" depth="1" NCoef="0" IVar="1" Cut="2.4657075195312500e+03" cType="1" res="4.3829697370529175e-01" rms="2.4061538279056549e-01" purity="9.3829697370529175e-01" nType="0">
          <Node pos="l" depth="2" NCoef="0" IVar="-1" Cut="0.0000000000000000e+00" cType="1" res="5.9929940849542618e-02" rms="4.7702464461326599e-01" purity="6.4982485771179199e-01" nType="-99"/>
          <Node pos="r" depth="2" NCoef="0" IVar="5" Cut="2.2044764709472656e+02" cType="1" res="4.6584278345108032e-01" rms="1.8163289129734039e-01" purity="9.6584278345108032e-01" nType="0">
            <Node pos="l" depth="3" NCoef="0" IVar="-1" Cut="0.0000000000000000e+00" cType="1" res="1.3757210969924927e-01" rms="3.6292141675949097e-01" purity="8.4393030405044556e-01" nType="-99"/>
            <Node pos="r" depth="3" NCoef="0" IVar="-1" Cut="0.0000000000000000e+00" cType="1" res="1.9266524910926819e-01" rms="1.3416644930839539e-01" purity="9.8166310787200928e-01" nType="-99"/>
          </Node>
        </Node>
      </Node>
    </BinaryTree>
    <BinaryTree type="DecisionTree" boostWeight="1.0000000000000000e+00" itree="1">
      <Node pos="s" depth="0" NCoef="0" IVar="1" Cut="2.2267888183593750e+03" cType="1" res="-1.5815834049135447e-03" rms="4.2191740870475769e-01" purity="4.9821731448173523e-01" nType="0">
        <Node pos="l" depth="1" NCoef="0" IVar="1" Cut="1.9118208007812500e+03" cType="1" res="-3.5370656847953796e-01" rms="2.2949402034282684e-01" purity="5.9682007879018784e-02" nType="0">
          <Node pos="l" depth="2" NCoef="0" IVar="1" Cut="1.7655870361328125e+03" cType="1" res="-3.8281390070915222e-01" rms="1.5044189989566803e-01" purity="2.3496812209486961e-02" nType="0">
            <Node pos="l" depth="3" NCoef="0" IVar="-1" Cut="0.0000000000000000e+00" cType="1" res="-1.6253173351287842e-01" rms="1.1139391362667084e-01" purity="1.2566521763801575e-02" nType="-99"/>
            <Node pos="r" depth="3" NCoef="0" IVar="-1" Cut="0.0000000000000000e+00" cType="1" res="-1.3415589928627014e-01" rms="2.9308721423149109e-01" purity="9.4937071204185486e-02" nType="-99"/>
          </Node>
          <Node pos="r" depth="2" NCoef="0" IVar="2" Cut="3.7071336060762405e-02" cType="1" res="-1.8037670850753784e-01" rms="4.4320589303970337e-01" purity="2.7515944838523865e-01" nType="0">
            <Node pos="l" depth="3" NCoef="0" IVar="-1" Cut="0.0000000000000000e+00" cType="1" res="-1.2059967219829559e-01" rms="3.6084145307540894e-01" purity="1.5531089901924133e-01" nType="-99"/>
            <Node pos="r" depth="3" NCoef="0" IVar="-1" Cut="0.0000000000000000e+00" cType="1" res="7.3814555071294308e-03" rms="4.9512988328933716e-01" purity="4.7714832425117493e-01" nType="-99"/>
          </Node>
        </Node>
        <Node pos="r" depth="1" NCoef="0" IVar="1" Cut="2.6992492675781250e+03" cType="1" res="3.5157293081283569e-01" rms="2.3378399014472961e-01" purity="9.3803483247756958e-01" nType="0">
          <Node pos="l" depth="2" NCoef="0" IVar="5" Cut="2.1445269775390625e+02" cType="1" res="1.9554877281188965e-01" rms="4.2223286628723145e-01" purity="7.5596123933792114e-01" nType="0">
            <Node pos="l" depth="3" NCoef="0" IVar="-1" Cut="0.0000000000000000e+00" cType="1" res="-1.0748815722763538e-02" rms="4.9484297633171082e-01" purity="5.2016943693161011e-01" nType="-99"/>
            <Node pos="r" depth="3" NCoef="0" IVar="-1" Cut="0.0000000000000000e+00" cType="1" res="1.1594439297914505e-01" rms="3.5295626521110535e-01" purity="8.4941542148590088e-01" nType="-99"/>
          </Node>
          <Node pos="r" depth="2" NCoef="0" IVar="6" Cut="9.4902191162109375e+01" cType="1" res="3.8757637143135071e-01" rms="1.3861447572708130e-01" purity="9.8004937171936035e-01" nType="0">
            <Node pos="l" depth="3" NCoef="0" IVar="-1" Cut="0.0000000000000000e+00" cType="1" res="1.3460473716259003e-01" rms="2.7999299764633179e-01" purity="9.1231608390808105e-01" nType="-99"/>
            <Node pos="r" depth="3" NCoef="0" IVar="-1" Cut="0.0000000000000000e+00" cType="1" res="1.6332164406776428e-01" rms="1.1189272999763489e-01" purity="9.8720902204513550e-01" nType="-99"/>
          </Node>
        </Node>
      </Node>
    </BinaryTree>
    <BinaryTree type="DecisionTree" boostWeight="1.0000000000000000e+00" itree="2">
      <Node pos="s" depth="0" NCoef="0" IVar="1" Cut="2.2938605957031250e+03" cType="1" res="1.1894853087142110e-03" rms="3.6309871077537537e-01" purity="5.0046145915985107e-01" nType="0">
        <Node pos="l" depth="1" NCoef="0" IVar="1" Cut="2.0384683837890625e+03" cType="1" res="-2.7485129237174988e-01" rms="2.4344469606876373e-01" purity="7.5546510517597198e-02" nType="0">
          <Node pos="l" depth="2" NCoef="0" IVar="5" Cut="2.2535491943359375e+02" cType="1" res="-2.9887676239013672e-01" rms="1.8749570846557617e-01" purity="3.8710623979568481e-02" nType="0">
            <Node pos="l" depth="3" NCoef="0" IVar="-1" Cut="0.0000000000000000e+00" cType="1" res="-1.4088296890258789e-01" rms="1.4322121441364288e-01" purity="2.2111849859356880e-02" nType="-99"/>
            <Node pos="r" depth="3" NCoef="0" IVar="-1" Cut="0.0000000000000000e+00" cType="1" res="-9.8684027791023254e-02" rms="3.2213133573532104e-01" purity="1.2437457591295242e-01" nType="-99"/>
          </Node>
          <Node pos="r" depth="2" NCoef="0" IVar="1" Cut="2.1600827636718750e+03" cType="1" res="-5.5718112736940384e-02" rms="4.7528058290481567e-01" purity="4.1152203083038330e-01" nType="0">
            <Node pos="l" depth="3" NCoef="0" IVar="-1" Cut="0.0000000000000000e+00" cType="1" res="-5.0818365067243576e-02" rms="4.5375084877014160e-01" purity="3.1052884459495544e-01" nType="-99"/>
            <Node pos="r" depth="3" NCoef="0" IVar="-1" Cut="0.0000000000000000e+00" cType="1" res="6.1352932825684547e-03" rms="4.8644185066223145e-01" purity="5.1557117700576782e-01" nType="-99"/>
          </Node>
        </Node>
        <Node pos="r" depth="1" NCoef="0" IVar="5" Cut="2.1269895935058594e+02" cType="1" res="2.9294359683990479e-01" rms="2.0710103213787079e-01" purity="9.4956433773040771e-01" nType="0">
          <Node pos="l" depth="2" NCoef="0" IVar="5" Cut="1.6621699523925781e+02" cType="1" res="1.5520393848419189e-01" rms="4.0922081470489502e-01" purity="7.5914454460144043e-01" nType="0">
            <Node pos="l" depth="3" NCoef="0" IVar="-1" Cut="0.0000000000000000e+00" cType="1" res="1.9512895494699478e-02" rms="4.5964640378952026e-01" purity="6.4251720905303955e-01" nType="-99"/>
            <Node pos="r" depth="3" NCoef="0" IVar="-1" Cut="0.0000000000000000e+00" cType="1" res="1.0953919589519501e-01" rms="3.2307237386703491e-01" purity="8.6930847167968750e-01" nType="-99"/>
          </Node>
          <Node pos="r" depth="2" NCoef="0" IVar="1" Cut="2.8047370605468750e+03" cType="1" res="3.1021437048912048e-01" rms="1.5682505071163177e-01" purity="9.7344046831130981e-01" nType="0">
            <Node pos="l" depth="3" NCoef="0" IVar="-1" Cut="0.0000000000000000e+00" cType="1" res="1.1319952458143234e-01" rms="3.0080500245094299e-01" purity="8.9648240804672241e-01" nType="-99"/>
            <Node pos="r" depth="3" NCoef="0" IVar="-1" Cut="0.0000000000000000e+00" cType="1" res="1.4535000920295715e-01" rms="9.3577593564987183e-02" purity="9.9113667011260986e-01" nType="-99"/>
          </Node>
        </Node>
      </Node>
    </BinaryTree>
    <BinaryTree type="DecisionTree" boostWeight="1.0000000000000000e+00" itree="3">
      <Node pos="s" depth="0" NCoef="0" IVar="1" Cut="2.2938605957031250e+03" cType="1" res="8.5122528253123164e-04" rms="3.2047718763351440e-01" purity="4.9991658329963684e-01" nType="0">
        <Node pos="l" depth="1" NCoef="0" IVar="1" Cut="1.8682087402343750e+03" cType="1" res="-2.2135521471500397e-01" rms="2.4105110764503479e-01" purity="7.6028570532798767e-02" nType="0">
          <Node pos="l" depth="2" NCoef="0" IVar="1" Cut="1.6452523193359375e+03" cType="1" res="-2.5022235512733459e-01" rms="1.5361383557319641e-01" purity="2.4705771356821060e-02" nType="0">
            <Node pos="l" depth="3" NCoef="0" IVar="-1" Cut="0.0000000000000000e+00" cType="1" res="-1.3308019936084747e-01" rms="9.0764209628105164e-02" purity="8.3224335685372353e-03" nType="-99"/>
            <Node pos="r" depth="3" NCoef="0" IVar="-1" Cut="0.0000000000000000e+00" cType="1" res="-1.0749901086091995e-01" rms="2.4545291066169739e-01" purity="6.5347030758857727e-02" nType="-99"/>
          </Node>
          <Node pos="r" depth="2" NCoef="0" IVar="6" Cut="1.4624096679687500e+02" cType="1" res="-9.8574437201023102e-02" rms="4.3157985806465149e-01" purity="2.9432019591331482e-01" nType="0">
            <Node pos="l" depth="3" NCoef="0" IVar="-1" Cut="0.0000000000000000e+00" cType="1" res="-7.9742878675460815e-02" rms="3.7936887145042419e-01" purity="1.9621327519416809e-01" nType="-99"/>
            <Node pos="r" depth="3" NCoef="0" IVar="-1" Cut="0.0000000000000000e+00" cType="1" res="3.8567129522562027e-02" rms="4.7923734784126282e-01" purity="5.1563197374343872e-01" nType="-99"/>
          </Node>
        </Node>
        <Node pos="r" depth="1" NCoef="0" IVar="1" Cut="2.5492595214843750e+03" cType="1" res="2.3604349792003632e-01" rms="2.0575571060180664e-01" purity="9.4857662916183472e-01" nType="0">
          <Node pos="l" depth="2" NCoef="0" IVar="-1" Cut="0.0000000000000000e+00" cType="1" res="4.4998455792665482e-02" rms="4.2003533244132996e-01" purity="7.3852109909057617e-01" nType="-99"/>
          <Node pos="r" depth="2" NCoef="0" IVar="2" Cut="2.1366285160183907e-02" cType="1" res="2.5052168965339661e-01" rms="1.6001936793327332e-01" purity="9.7143703699111938e-01" nType="0">
            <Node pos="l" depth="3" NCoef="0" IVar="-1" Cut="0.0000000000000000e+00" cType="1" res="9.6069470047950745e-02" rms="2.7950862050056458e-01" purity="9.0498954057693481e-01" nType="-99"/>
            <Node pos="r" depth="3" NCoef="0" IVar="-1" Cut="0.0000000000000000e+00" cType="1" res="1.3154260814189911e-01" rms="1.1455035954713821e-01" purity="9.8625701665878296e-01" nType="-99"/>
          </Node>
        </Node>
      </Node>
    </BinaryTree>
    <BinaryTree type="DecisionTree" boostWeight="1.0000000000000000e+00" itree="4">
      <Node pos="s" depth="0" NCoef="0" IVar="1" Cut="2.2938591308593750e+03" cType="1" res="-2.8237188234925270e-04" rms="2.8989586234092712e-01" purity="4.9735718965530396e-01" nType="0">
        <Node pos="l" depth="1" NCoef="0" IVar="1" Cut="2.0810280761718750e+03" cType="1" res="-1.7683416604995728e-01" rms="2.3985379934310913e-01" purity="7.9502478241920471e-02" nType="0">
          <Node pos="l" depth="2" NCoef="0" IVar="5" Cut="2.4314523315429688e+02" cType="1" res="-1.9315172731876373e-01" rms="2.0015443861484528e-01" purity="4.6464331448078156e-02" nType="0">
            <Node pos="l" depth="3" NCoef="0" IVar="-1" Cut="0.0000000000000000e+00" cType="1" res="-1.1378472298383713e-01" rms="1.6907295584678650e-01" purity="3.1265106052160263e-02" nType="-99"/>
            <Node pos="r" depth="3" NCoef="0" IVar="-1" Cut="0.0000000000000000e+00" cType="1" res="-6.0005575418472290e-02" rms="3.4693139791488647e-01" purity="1.6113738715648651e-01" nType="-99"/>
          </Node>
          <Node pos="r" depth="2" NCoef="0" IVar="-1" Cut="0.0000000000000000e+00" cType="1" res="6.4219986088573933e-03" rms="4.7253307700157166e-01" purity="4.6890196204185486e-01" nType="-99"/>
        </Node>
        <Node pos="r" depth="1" NCoef="0" IVar="5" Cut="1.6356753540039062e+02" cType="1" res="1.8958285450935364e-01" rms="2.0731274783611298e-01" purity="9.4672149419784546e-01" nType="0">
          <Node pos="l" depth="2" NCoef="0" IVar="-1" Cut="0.0000000000000000e+00" cType="1" res="-3.3568902872502804e-03" rms="4.5295801758766174e-01" purity="6.4421498775482178e-01" nType="-99"/>
          <Node pos="r" depth="2" NCoef="0" IVar="1" Cut="2.8046335449218750e+03" cType="1" res="2.0105735957622528e-01" rms="1.7647317051887512e-01" purity="9.6433299779891968e-01" nType="0">
            <Node pos="l" depth="3" NCoef="0" IVar="-1" Cut="0.0000000000000000e+00" cType="1" res="7.5104087591171265e-02" rms="3.2998257875442505e-01" purity="8.6636966466903687e-01" nType="-99"/>
            <Node pos="r" depth="3" NCoef="0" IVar="-1" Cut="0.0000000000000000e+00" cType="1" res="1.2249066680669785e-01" rms="1.0585216432809830e-01" purity="9.8848885297775269e-01" nType="-99"/>
          </Node>
        </Node>
      </Node>
    </BinaryTree>
    <BinaryTree type="DecisionTree" boostWeight="1.0000000000000000e+00" itree="5">
      <Node pos="s" depth="0" NCoef="0" IVar="1" Cut="2.2938671875000000e+03" cType="1" res="-1.0135208722203970e-03" rms="2.6713946461677551e-01" purity="5.0020068883895874e-01" nType="0">
        <Node pos="l" depth="1" NCoef="0" IVar="5" Cut="2.3697785949707031e+02" cType="1" res="-1.4955310523509979e-01" rms="2.3126135766506195e-01" purity="7.2531320154666901e-02" nType="0">
          <Node pos="l" depth="2" NCoef="0" IVar="6" Cut="1.1207694244384766e+02" cType="1" res="-1.6622677445411682e-01" rms="1.8542957305908203e-01" purity="4.1139457374811172e-02" nType="0">
            <Node pos="l" depth="3" NCoef="0" IVar="-1" Cut="0.0000000000000000e+00" cType="1" res="-1.1219602078199387e-01" rms="1.4668376743793488e-01" purity="2.4700384587049484e-02" nType="-99"/>
            <Node pos="r" depth="3" NCoef="0" IVar="-1" Cut="0.0000000000000000e+00" cType="1" res="-8.2278639078140259e-02" rms="2.5334411859512329e-01" purity="8.0919437110424042e-02" nType="-99"/>
          </Node>
          <Node pos="r" depth="2" NCoef="0" IVar="1" Cut="1.9107698974609375e+03" cType="1" res="-5.6895200163125992e-02" rms="3.8662630319595337e-01" purity="2.4698023498058319e-01" nType="0">
            <Node pos="l" depth="3" NCoef="0" IVar="-1" Cut="0.0000000000000000e+00" cType="1" res="-7.6853811740875244e-02" rms="2.8514587879180908e-01" purity="9.2253148555755615e-02" nType="-99"/>
            <Node pos="r" depth="3" NCoef="0" IVar="-1" Cut="0.0000000000000000e+00" cType="1" res="2.5305226445198059e-02" rms="4.7869116067886353e-01" purity="4.7862556576728821e-01" nType="-99"/>
          </Node>
        </Node>
        <Node pos="r" depth="1" NCoef="0" IVar="5" Cut="1.6351545715332031e+02" cType="1" res="1.5354624390602112e-01" rms="2.0766063034534454e-01" purity="9.4520324468612671e-01" nType="0">
          <Node pos="l" depth="2" NCoef="0" IVar="-1" Cut="0.0000000000000000e+00" cType="1" res="-4.5140623115003109e-03" rms="4.5734935998916626e-01" purity="6.3463443517684937e-01" nType="-99"/>
          <Node pos="r" depth="2" NCoef="0" IVar="1" Cut="2.8046413574218750e+03" cType="1" res="1.6346743702888489e-01" rms="1.7702716588973999e-01" purity="9.6402198076248169e-01" nType="0">
            <Node pos="l" depth="3" NCoef="0" IVar="-1" Cut="0.0000000000000000e+00" cType="1" res="6.4449496567249298e-02" rms="3.3351612091064453e-01" purity="8.6452925205230713e-01" nType="-99"/>
            <Node pos="r" depth="3" NCoef="0" IVar="-1" Cut="0.0000000000000000e+00" cType="1" res="1.1546036601066589e-01" rms="1.0359322279691696e-01" purity="9.8900222778320312e-01" nType="-99"/>
          </Node>
        </Node>
      </Node>
    </BinaryTree>
    <BinaryTree type="DecisionTree" boostWeight="1.0000000000000000e+00" itree="6">
      <Node pos="s" depth="0" NCoef="0" IVar="1" Cut="2.1988242187500000e+03" cType="1" res="-1.8562677723821253e-04" rms="2.4966701865196228e-01" purity="4.9806147813796997e-01" nType="0">
        <Node pos="l" depth="1" NCoef="0" IVar="6" Cut="1.6228146362304688e+02" cType="1" res="-1.2402621656656265e-01" rms="2.1688731014728546e-01" purity="6.0428462922573090e-02" nType="0">
          <Node pos="l" depth="2" NCoef="0" IVar="2" Cut="5.6437220424413681e-02" cType="1" res="-1.3509930670261383e-01" rms="1.8821412324905396e-01" purity="4.1331306099891663e-02" nType="0">
            <Node pos="l" depth="3" NCoef="0" IVar="-1" Cut="0.0000000000000000e+00" cType="1" res="-1.0045894235372543e-01" rms="1.6680876910686493e-01" purity="3.1378410756587982e-02" nType="-99"/>
            <Node pos="r" depth="3" NCoef="0" IVar="-1" Cut="0.0000000000000000e+00" cType="1" res="-6.6483393311500549e-02" rms="2.6724672317504883e-01" purity="9.0518027544021606e-02" nType="-99"/>
          </Node>
          <Node pos="r" depth="2" NCoef="0" IVar="1" Cut="1.7423731689453125e+03" cType="1" res="-2.9893442988395691e-02" rms="3.6862036585807800e-01" purity="2.2277416288852692e-01" nType="0">
            <Node pos="l" depth="3" NCoef="0" IVar="-1" Cut="0.0000000000000000e+00" cType="1" res="-8.4285400807857513e-02" rms="2.1918253600597382e-01" purity="5.1462415605783463e-02" nType="-99"/>
            <Node pos="r" depth="3" NCoef="0" IVar="-1" Cut="0.0000000000000000e+00" cType="1" res="2.5935912504792213e-02" rms="4.5168754458427429e-01" purity="3.8401621580123901e-01" nType="-99"/>
          </Node>
        </Node>
        <Node pos="r" depth="1" NCoef="0" IVar="5" Cut="1.5555715942382812e+02" cType="1" res="1.2310164421796799e-01" rms="2.1700479090213776e-01" purity="9.3373918533325195e-01" nType="0">
          <Node pos="l" depth="2" NCoef="0" IVar="-1" Cut="0.0000000000000000e+00" cType="1" res="-3.0251691117882729e-02" rms="4.5950996875762939e-01" purity="5.3356736898422241e-01" nType="-99"/>
          <Node pos="r" depth="2" NCoef="0" IVar="6" Cut="1.3980035400390625e+02" cType="1" res="1.3317012786865234e-01" rms="1.9095373153686523e-01" purity="9.5469284057617188e-01" nType="0">
            <Node pos="l" depth="3" NCoef="0" IVar="-1" Cut="0.0000000000000000e+00" cType="1" res="5.9929307550191879e-02" rms="2.8648898005485535e-01" purity="8.8801926374435425e-01" nType="-99"/>
            <Node pos="r" depth="3" NCoef="0" IVar="-1" Cut="0.0000000000000000e+00" cType="1" res="1.0391663014888763e-01" rms="1.5222907066345215e-01" purity="9.7325581312179565e-01" nType="-99"/>
          </Node>
        </Node>
      </Node>
    </BinaryTree>
    <BinaryTree type="DecisionTree" boostWeight="1.0000000000000000e+00" itree="7">
      <Node pos="s" depth="0" NCoef="0" IVar="1" Cut="2.5918149414062500e+03" cType="1" res="-1.1514899088069797e-03" rms="2.3710845410823822e-01" purity="4.9738645553588867e-01" nType="0">
        <Node pos="l" depth="1" NCoef="0" IVar="5" Cut="2.5850048828125000e+02" cType="1" res="-8.8184483349323273e-02" rms="2.5118234753608704e-01" purity="1.4257949590682983e-01" nType="0">
          <Node pos="l" depth="2" NCoef="0" IVar="3" Cut="8.3241912841796875e+02" cType="1" res="-1.1146985739469528e-01" rms="2.1220578253269196e-01" purity="7.3055438697338104e-02" nType="0">
            <Node pos="l" depth="3" NCoef="0" IVar="-1" Cut="0.0000000000000000e+00" cType="1" res="-8.1182323396205902e-02" rms="2.0052303373813629e-01" purity="6.7887470126152039e-02" nType="-99"/>
            <Node pos="r" depth="3" NCoef="0" IVar="-1" Cut="0.0000000000000000e+00" cType="1" res="-1.2193495035171509e-01" rms="3.3589380979537964e-01" purity="1.6351506114006042e-01" nType="-99"/>
          </Node>
          <Node pos="r" depth="2" NCoef="0" IVar="6" Cut="1.4576702880859375e+02" cType="1" res="3.9475131779909134e-02" rms="3.7794440984725952e-01" purity="5.2373784780502319e-01" nType="0">
            <Node pos="l" depth="3" NCoef="0" IVar="-1" Cut="0.0000000000000000e+00" cType="1" res="-3.0855489894747734e-02" rms="3.6560451984405518e-01" purity="3.0902081727981567e-01" nType="-99"/>
            <Node pos="r" depth="3" NCoef="0" IVar="-1" Cut="0.0000000000000000e+00" cType="1" res="6.2050022184848785e-02" rms="3.7077206373214722e-01" purity="7.0273786783218384e-01" nType="-99"/>
          </Node>
        </Node>
        <Node pos="r" depth="1" NCoef="0" IVar="1" Cut="3.0742233886718750e+03" cType="1" res="1.1563672870397568e-01" rms="1.5229864418506622e-01" purity="9.7349637746810913e-01" nType="0">
          <Node pos="l" depth="2" NCoef="0" IVar="3" Cut="8.9035131835937500e+02" cType="1" res="8.7986551225185394e-02" rms="2.4579070508480072e-01" purity="9.2649424076080322e-01" nType="0">
            <Node pos="l" depth="3" NCoef="0" IVar="-1" Cut="0.0000000000000000e+00" cType="1" res="9.1577544808387756e-02" rms="1.8616192042827606e-01" purity="9.6351265907287598e-01" nType="-99"/>
            <Node pos="r" depth="3" NCoef="0" IVar="-1" Cut="0.0000000000000000e+00" cType="1" res="5.6631927145645022e-04" rms="3.5616108775138855e-01" purity="8.1641501188278198e-01" nType="-99"/>
          </Node>
          <Node pos="r" depth="2" NCoef="0" IVar="5" Cut="2.6126010131835938e+02" cType="1" res="1.2560595571994781e-01" rms="9.6958145499229431e-02" purity="9.9044287204742432e-01" nType="0">
            <Node pos="l" depth="3" NCoef="0" IVar="-1" Cut="0.0000000000000000e+00" cType="1" res="9.9701873958110809e-02" rms="1.9507431983947754e-01" purity="9.6069103479385376e-01" nType="-99"/>
            <Node pos="r" depth="3" NCoef="0" IVar="-1" Cut="0.0000000000000000e+00" cType="1" res="1.1026713252067566e-01" rms="6.9856211543083191e-02" purity="9.9507844448089600e-01" nType="-99"/>
          </Node>
        </Node>
      </Node>
    </BinaryTree>
    <BinaryTree type="DecisionTree" boostWeight="1.0000000000000000e+00" itree="8">
      <Node pos="s" depth="0" NCoef="0" IVar="1" Cut="1.9608648681640625e+03" cType="1" res="5.0885480595752597e-04" rms="2.3105868697166443e-01" purity="4.9846050143241882e-01" nType="0">
        <Node pos="l" depth="1" NCoef="0" IVar="1" Cut="1.6937863769531250e+03" cType="1" res="-9.5350369811058044e-02" rms="1.6947978734970093e-01" purity="3.1401604413986206e-02" nType="0">
          <Node pos="l" depth="2" NCoef="0" IVar="1" Cut="1.5818674316406250e+03" cType="1" res="-1.0654434561729431e-01" rms="1.0772689431905746e-01" purity="1.1881024576723576e-02" nType="0">
            <Node pos="l" depth="3" NCoef="0" IVar="-1" Cut="0.0000000000000000e+00" cType="1" res="-1.0765055567026138e-01" rms="7.7011220157146454e-02" purity="5.9157074429094791e-03" nType="-99"/>
            <Node pos="r" depth="3" NCoef="0" IVar="-1" Cut="0.0000000000000000e+00" cType="1" res="-8.8301047682762146e-02" rms="1.6270440816879272e-01" purity="2.7720371261239052e-02" nType="-99"/>
          </Node>
          <Node pos="r" depth="2" NCoef="0" IVar="3" Cut="5.4343322753906250e+02" cType="1" res="-6.2938354909420013e-02" rms="2.7726501226425171e-01" purity="8.7923176586627960e-02" nType="0">
            <Node pos="l" depth="3" NCoef="0" IVar="-1" Cut="0.0000000000000000e+00" cType="1" res="-1.2876762077212334e-02" rms="3.5151779651641846e-01" purity="1.4917096495628357e-01" nType="-99"/>
            <Node pos="r" depth="3" NCoef="0" IVar="-1" Cut="0.0000000000000000e+00" cType="1" res="-7.8440979123115540e-02" rms="2.0712089538574219e-01" purity="4.6432632952928543e-02" nType="-99"/>
          </Node>
        </Node>
        <Node pos="r" depth="1" NCoef="0" IVar="2" Cut="2.0896555855870247e-02" cType="1" res="7.6476134359836578e-02" rms="2.4470679461956024e-01" purity="8.6859899759292603e-01" nType="0">
          <Node pos="l" depth="2" NCoef="0" IVar="1" Cut="2.9564123535156250e+03" cType="1" res="1.3249320909380913e-03" rms="3.3598217368125916e-01" purity="6.7372334003448486e-01" nType="0">
            <Node pos="l" depth="3" NCoef="0" IVar="-1" Cut="0.0000000000000000e+00" cType="1" res="-4.4806506484746933e-02" rms="4.0404856204986572e-01" purity="4.2869374155998230e-01" nType="-99"/>
            <Node pos="r" depth="3" NCoef="0" IVar="-1" Cut="0.0000000000000000e+00" cType="1" res="8.3048351109027863e-02" rms="1.9397842884063721e-01" purity="9.5786345005035400e-01" nType="-99"/>
          </Node>
          <Node pos="r" depth="2" NCoef="0" IVar="6" Cut="9.4901565551757812e+01" cType="1" res="9.8640128970146179e-02" rms="2.0516507327556610e-01" purity="9.2607277631759644e-01" nType="0">
            <Node pos="l" depth="3" NCoef="0" IVar="-1" Cut="0.0000000000000000e+00" cType="1" res="3.1806915998458862e-02" rms="3.2025462388992310e-01" purity="7.4309140443801880e-01" nType="-99"/>
            <Node pos="r" depth="3" NCoef="0" IVar="-1" Cut="0.0000000000000000e+00" cType="1" res="8.9588463306427002e-02" rms="1.9007606804370880e-01" purity="9.4334524869918823e-01" nType="-99"/>
          </Node>
        </Node>
      </Node>
    </BinaryTree>
    <BinaryTree type="DecisionTree" boostWeight="1.0000000000000000e+00" itree="9">
      <Node pos="s" depth="0" NCoef="0" IVar="1" Cut="2.5051569824218750e+03" cType="1" res="1.0691848583519459e-03" rms="2.2222016751766205e-01" purity="4.9938598275184631e-01" nType="0">
        <Node pos="l" depth="1" NCoef="0" IVar="1" Cut="1.8210102539062500e+03" cType="1" res="-6.1861030757427216e-02" rms="2.4482221901416779e-01" purity="1.1904312670230865e-01" nType="0">
          <Node pos="l" depth="2" NCoef="0" IVar="1" Cut="1.5804309082031250e+03" cType="1" res="-8.0508179962635040e-02" rms="1.4566583931446075e-01" purity="2.2398391738533974e-02" nType="0">
            <Node pos="l" depth="3" NCoef="0" IVar="-1" Cut="0.0000000000000000e+00" cType="1" res="-1.0382419079542160e-01" rms="7.7741660177707672e-02" purity="6.0411938466131687e-03" nType="-99"/>
            <Node pos="r" depth="3" NCoef="0" IVar="-1" Cut="0.0000000000000000e+00" cType="1" res="-6.5479449927806854e-02" rms="2.1068692207336426e-01" purity="4.7781821340322495e-02" nType="-99"/>
          </Node>
          <Node pos="r" depth="2" NCoef="0" IVar="3" Cut="6.9095819091796875e+02" cType="1" res="-1.3455628417432308e-02" rms="3.9648750424385071e-01" purity="3.6991938948631287e-01" nType="0">
            <Node pos="l" depth="3" NCoef="0" IVar="-1" Cut="0.0000000000000000e+00" cType="1" res="2.7314202859997749e-02" rms="4.0948575735092163e-01" purity="4.5198896527290344e-01" nType="-99"/>
            <Node pos="r" depth="3" NCoef="0" IVar="-1" Cut="0.0000000000000000e+00" cType="1" res="-6.0302495956420898e-02" rms="3.5796016454696655e-01" purity="2.5064021348953247e-01" nType="-99"/>
          </Node>
        </Node>
        <Node pos="r" depth="1" NCoef="0" IVar="6" Cut="9.4900291442871094e+01" cType="1" res="7.8719958662986755e-02" rms="1.5949982404708862e-01" purity="9.6869808435440063e-01" nType="0">
          <Node pos="l" depth="2" NCoef="0" IVar="-1" Cut="0.0000000000000000e+00" cType="1" res="2.2330403327941895e-02" rms="3.1529057025909424e-01" purity="8.5409086942672729e-01" nType="-99"/>
          <Node pos="r" depth="2" NCoef="0" IVar="0" Cut="1.0093806152343750e+03" cType="1" res="8.3916418254375458e-02" rms="1.3112287223339081e-01" purity="9.8104602098464966e-01" nType="0">
            <Node pos="l" depth="3" NCoef="0" IVar="-1" Cut="0.0000000000000000e+00" cType="1" res="8.2135282456874847e-02" rms="1.6631110012531281e-01" purity="9.6911966800689697e-01" nType="-99"/>
            <Node pos="r" depth="3" NCoef="0" IVar="-1" Cut="0.0000000000000000e+00" cType="1" res="1.0107571631669998e-01" rms="9.4499275088310242e-02" purity="9.9041128158569336e-01" nType="-99"/>
          </Node>
        </Node>
      </Node>
    </BinaryTree>
    <BinaryTree type="DecisionTree" boostWeight="1.0000000000000000e+00" itree="10">
      <Node pos="s" depth="0" NCoef="0" IVar="1" Cut="1.9959090576171875e+03" cType="1" res="-2.5325358728878200e-04" rms="2.1725136041641235e-01" purity="4.9757486581802368e-01" nType="0">
        <Node pos="l" depth="1" NCoef="0" IVar="6" Cut="1.7717910766601562e+02" cType="1" res="-6.3081853091716766e-02" rms="1.7381720244884491e-01" purity="3.6059260368347168e-02" nType="0">
          <Node pos="l" depth="2" NCoef="0" IVar="1" Cut="1.7405080566406250e+03" cType="1" res="-6.7353077232837677e-02" rms="1.5640187263488770e-01" purity="2.7255563065409660e-02" nType="0">
            <Node pos="l" depth="3" NCoef="0" IVar="-1" Cut="0.0000000000000000e+00" cType="1" res="-9.5306545495986938e-02" rms="1.0289203375577927e-01" purity="1.0811305604875088e-02" nType="-99"/>
            <Node pos="r" depth="3" NCoef="0" IVar="-1" Cut="0.0000000000000000e+00" cType="1" res="-3.7991065531969070e-02" rms="2.8116327524185181e-01" purity="9.2779725790023804e-02" nType="-99"/>
          </Node>
          <Node pos="r" depth="2" NCoef="0" IVar="-1" Cut="0.0000000000000000e+00" cType="1" res="6.9709252566099167e-03" rms="3.4946206212043762e-01" purity="1.8525533378124237e-01" nType="-99"/>
        </Node>
        <Node pos="r" depth="1" NCoef="0" IVar="0" Cut="6.0140301513671875e+02" cType="1" res="5.2069097757339478e-02" rms="2.3519895970821381e-01" purity="8.8191545009613037e-01" nType="0">
          <Node pos="l" depth="2" NCoef="0" IVar="-1" Cut="0.0000000000000000e+00" cType="1" res="-2.2100860252976418e-02" rms="4.0101292729377747e-01" purity="5.5919069051742554e-01" nType="-99"/>
          <Node pos="r" depth="2" NCoef="0" IVar="5" Cut="1.6356753540039062e+02" cType="1" res="6.2033820897340775e-02" rms="2.0672921836376190e-01" purity="9.1733354330062866e-01" nType="0">
            <Node pos="l" depth="3" NCoef="0" IVar="-1" Cut="0.0000000000000000e+00" cType="1" res="-1.5285483561456203e-02" rms="4.0239104628562927e-01" purity="4.7587686777114868e-01" nType="-99"/>
            <Node pos="r" depth="3" NCoef="0" IVar="-1" Cut="0.0000000000000000e+00" cType="1" res="7.7839225530624390e-02" rms="1.7906619608402252e-01" purity="9.5403993129730225e-01" nType="-99"/>
          </Node>
        </Node>
      </Node>
    </BinaryTree>
    <BinaryTree type="DecisionTree" boostWeight="1.0000000000000000e+00" itree="11">
      <Node pos="s" depth="0" NCoef="0" IVar="1" Cut="2.5217268066406250e+03" cType="1" res="-9.4873801572248340e-04" rms="2.1168915927410126e-01" purity="5.0273656845092773e-01" nType="0">
        <Node pos="l" depth="1" NCoef="0" IVar="5" Cut="1.7733003234863281e+02" cType="1" res="-4.5439422130584717e-02" rms="2.3775173723697662e-01" purity="1.2483423203229904e-01" nType="0">
          <Node pos="l" depth="2" NCoef="0" IVar="3" Cut="7.9508148193359375e+02" cType="1" res="-6.6424869000911713e-02" rms="1.5051630139350891e-01" purity="3.0019586905837059e-02" nType="0">
            <Node pos="l" depth="3" NCoef="0" IVar="-1" Cut="0.0000000000000000e+00" cType="1" res="-8.3192914724349976e-02" rms="1.3009333610534668e-01" purity="2.3826695978641510e-02" nType="-99"/>
            <Node pos="r" depth="3" NCoef="0" IVar="-1" Cut="0.0000000000000000e+00" cType="1" res="-8.0887332558631897e-02" rms="2.8978946805000305e-01" purity="9.9850133061408997e-02" nType="-99"/>
          </Node>
          <Node pos="r" depth="2" NCoef="0" IVar="0" Cut="5.3456237792968750e+02" cType="1" res="-1.6628097742795944e-02" rms="3.1873649358749390e-01" purity="2.5500708818435669e-01" nType="0">
            <Node pos="l" depth="3" NCoef="0" IVar="-1" Cut="0.0000000000000000e+00" cType="1" res="-4.8825159668922424e-02" rms="2.6092997193336487e-01" purity="1.1776726692914963e-01" nType="-99"/>
            <Node pos="r" depth="3" NCoef="0" IVar="-1" Cut="0.0000000000000000e+00" cType="1" res="2.9607636854052544e-02" rms="3.9375653862953186e-01" purity="5.0042188167572021e-01" nType="-99"/>
          </Node>
        </Node>
        <Node pos="r" depth="1" NCoef="0" IVar="1" Cut="2.9757766113281250e+03" cType="1" res="5.4002776741981506e-02" rms="1.5773415565490723e-01" purity="9.6949279308319092e-01" nType="0">
          <Node pos="l" depth="2" NCoef="0" IVar="3" Cut="8.3070660400390625e+02" cType="1" res="2.6831308379769325e-02" rms="2.6835927367210388e-01" purity="9.0517193078994751e-01" nType="0">
            <Node pos="l" depth="3" NCoef="0" IVar="-1" Cut="0.0000000000000000e+00" cType="1" res="6.2201686203479767e-02" rms="2.0834517478942871e-01" purity="9.5304888486862183e-01" nType="-99"/>
            <Node pos="r" depth="3" NCoef="0" IVar="-1" Cut="0.0000000000000000e+00" cType="1" res="-2.8113260865211487e-02" rms="3.5717123746871948e-01" purity="8.0285340547561646e-01" nType="-99"/>
          </Node>
          <Node pos="r" depth="2" NCoef="0" IVar="5" Cut="2.2030455017089844e+02" cType="1" res="6.2407512217760086e-02" rms="1.0000325739383698e-01" purity="9.8938870429992676e-01" nType="0">
            <Node pos="l" depth="3" NCoef="0" IVar="-1" Cut="0.0000000000000000e+00" cType="1" res="6.8136766552925110e-02" rms="2.3204948008060455e-01" purity="9.3931835889816284e-01" nType="-99"/>
            <Node pos="r" depth="3" NCoef="0" IVar="-1" Cut="0.0000000000000000e+00" cType="1" res="9.7575418651103973e-02" rms="7.7552936971187592e-02" purity="9.9391502141952515e-01" nType="-99"/>
          </Node>
        </Node>
      </Node>
    </BinaryTree>
    <BinaryTree type="DecisionTree" boostWeight="1.0000000000000000e+00" itree="12">
      <Node pos="s" depth="0" NCoef="0" IVar="1" Cut="2.5918125000000000e+03" cType="1" res="6.3262059120461345e-04" rms="2.0665298402309418e-01" purity="5.0285518169403076e-01" nType="0">
        <Node pos="l" depth="1" NCoef="0" IVar="5" Cut="2.1605795288085938e+02" cType="1" res="-3.5062901675701141e-02" rms="2.3845040798187256e-01" purity="1.3969358801841736e-01" nType="0">
          <Node pos="l" depth="2" NCoef="0" IVar="3" Cut="7.7149450683593750e+02" cType="1" res="-4.9416799098253250e-02" rms="1.8178233504295349e-01" purity="5.1739253103733063e-02" nType="0">
            <Node pos="l" depth="3" NCoef="0" IVar="-1" Cut="0.0000000000000000e+00" cType="1" res="-6.1133254319429398e-02" rms="1.6659432649612427e-01" purity="4.3655514717102051e-02" nType="-99"/>
            <Node pos="r" depth="3" NCoef="0" IVar="-1" Cut="0.0000000000000000e+00" cType="1" res="-7.9564556479454041e-02" rms="2.7825063467025757e-01" purity="1.2623381614685059e-01" nType="-99"/>
          </Node>
          <Node pos="r" depth="2" NCoef="0" IVar="0" Cut="4.9353176879882812e+02" cType="1" res="4.1526323184370995e-03" rms="3.4614768624305725e-01" purity="3.7998899817466736e-01" nType="0">
            <Node pos="l" depth="3" NCoef="0" IVar="-1" Cut="0.0000000000000000e+00" cType="1" res="-4.6725481748580933e-02" rms="2.7676200866699219e-01" purity="1.1913105845451355e-01" nType="-99"/>
            <Node pos="r" depth="3" NCoef="0" IVar="-1" Cut="0.0000000000000000e+00" cType="1" res="3.6408964544534683e-02" rms="3.9272904396057129e-01" purity="6.2372291088104248e-01" nType="-99"/>
          </Node>
        </Node>
        <Node pos="r" depth="1" NCoef="0" IVar="1" Cut="3.0742106933593750e+03" cType="1" res="4.7120526432991028e-02" rms="1.4301273226737976e-01" purity="9.7581696510314941e-01" nType="0">
          <Node pos="l" depth="2" NCoef="0" IVar="3" Cut="8.8461297607421875e+02" cType="1" res="3.1644642353057861e-02" rms="2.2822380065917969e-01" purity="9.3374615907669067e-01" nType="0">
            <Node pos="l" depth="3" NCoef="0" IVar="-1" Cut="0.0000000000000000e+00" cType="1" res="6.6698700189590454e-02" rms="1.7428267002105713e-01" purity="9.6742331981658936e-01" nType="-99"/>
            <Node pos="r" depth="3" NCoef="0" IVar="-1" Cut="0.0000000000000000e+00" cType="1" res="-1.7362643033266068e-02" rms="3.3603236079216003e-01" purity="8.3382892608642578e-01" nType="-99"/>
          </Node>
          <Node pos="r" depth="2" NCoef="0" IVar="6" Cut="9.4902191162109375e+01" cType="1" res="5.2758179605007172e-02" rms="9.3861415982246399e-02" purity="9.9114274978637695e-01" nType="0">
            <Node pos="l" depth="3" NCoef="0" IVar="-1" Cut="0.0000000000000000e+00" cType="1" res="7.7832907438278198e-02" rms="1.8875320255756378e-01" purity="9.6280580759048462e-01" nType="-99"/>
            <Node pos="r" depth="3" NCoef="0" IVar="-1" Cut="0.0000000000000000e+00" cType="1" res="9.5239661633968353e-02" rms="7.8160718083381653e-02" purity="9.9394512176513672e-01" nType="-99"/>
          </Node>
        </Node>
      </Node>
    </BinaryTree>
    <BinaryTree type="DecisionTree" boostWeight="1.0000000000000000e+00" itree="13">
      <Node pos="s" depth="0" NCoef="0" IVar="1" Cut="2.5022265625000000e+03" cType="1" res="2.5192933389917016e-04" rms="2.0690158009529114e-01" purity="5.0015622377395630e-01" nType="0">
        <Node pos="l" depth="1" NCoef="0" IVar="2" Cut="3.8918633013963699e-02" cType="1" res="-2.9650263488292694e-02" rms="2.3542414605617523e-01" purity="1.1754437536001205e-01" nType="0">
          <Node pos="l" depth="2" NCoef="0" IVar="3" Cut="7.9519604492187500e+02" cType="1" res="-4.5960117131471634e-02" rms="2.0309829711914062e-01" purity="6.6705606877803802e-02" nType="0">
            <Node pos="l" depth="3" NCoef="0" IVar="-1" Cut="0.0000000000000000e+00" cType="1" res="-5.5509142577648163e-02" rms="1.9254601001739502e-01" purity="6.2251325696706772e-02" nType="-99"/>
            <Node pos="r" depth="3" NCoef="0" IVar="-1" Cut="0.0000000000000000e+00" cType="1" res="-8.1242926418781281e-02" rms="2.9017889499664307e-01" purity="1.1755573004484177e-01" nType="-99"/>
          </Node>
          <Node pos="r" depth="2" NCoef="0" IVar="1" Cut="1.6099685058593750e+03" cType="1" res="5.3330096416175365e-03" rms="2.8988900780677795e-01" purity="2.2658923268318176e-01" nType="0">
            <Node pos="l" depth="3" NCoef="0" IVar="-1" Cut="0.0000000000000000e+00" cType="1" res="-8.4464348852634430e-02" rms="1.0815618932247162e-01" purity="1.1813693679869175e-02" nType="-99"/>
            <Node pos="r" depth="3" NCoef="0" IVar="-1" Cut="0.0000000000000000e+00" cType="1" res="3.0423212796449661e-02" rms="3.6517259478569031e-01" purity="3.8269120454788208e-01" nType="-99"/>
          </Node>
        </Node>
        <Node pos="r" depth="1" NCoef="0" IVar="2" Cut="2.0897271111607552e-02" cType="1" res="3.6881577223539352e-02" rms="1.5784968435764313e-01" purity="9.6884876489639282e-01" nType="0">
          <Node pos="l" depth="2" NCoef="0" IVar="1" Cut="3.1253710937500000e+03" cType="1" res="1.0665646754205227e-02" rms="2.5951364636421204e-01" purity="9.0429133176803589e-01" nType="0">
            <Node pos="l" depth="3" NCoef="0" IVar="-1" Cut="0.0000000000000000e+00" cType="1" res="-2.8571197763085365e-02" rms="3.6198967695236206e-01" purity="7.9256016016006470e-01" nType="-99"/>
            <Node pos="r" depth="3" NCoef="0" IVar="-1" Cut="0.0000000000000000e+00" cType="1" res="6.3014969229698181e-02" rms="1.6509696841239929e-01" purity="9.7099143266677856e-01" nType="-99"/>
          </Node>
          <Node pos="r" depth="2" NCoef="0" IVar="5" Cut="2.2247195434570312e+02" cType="1" res="4.2915273457765579e-02" rms="1.2229604274034500e-01" purity="9.8370695114135742e-01" nType="0">
            <Node pos="l" depth="3" NCoef="0" IVar="-1" Cut="0.0000000000000000e+00" cType="1" res="5.8740060776472092e-02" rms="2.4219216406345367e-01" purity="9.3072956800460815e-01" nType="-99"/>
            <Node pos="r" depth="3" NCoef="0" IVar="-1" Cut="0.0000000000000000e+00" cType="1" res="8.2583822309970856e-02" rms="1.0621912032365799e-01" purity="9.8811841011047363e-01" nType="-99"/>
          </Node>
        </Node>
      </Node>
    </BinaryTree>
    <BinaryTree type="DecisionTree" boostWeight="1.0000000000000000e+00" itree="14">
      <Node pos="s" depth="0" NCoef="0" IVar="1" Cut="1.9959088134765625e+03" cType="1" res="1.3599849771708250e-03" rms="2.0761361718177795e-01" purity="5.0456863641738892e-01" nType="0">
        <Node pos="l" depth="1" NCoef="0" IVar="1" Cut="1.7405203857421875e+03" cType="1" res="-2.8943985700607300e-02" rms="1.7746987938880920e-01" purity="3.6845821887254715e-02" nType="0">
          <Node pos="l" depth="2" NCoef="0" IVar="10" Cut="1.2000038623809814e+00" cType="1" res="-3.7078961730003357e-02" rms="1.1825711280107498e-01" purity="1.4523691497743130e-02" nType="0">
            <Node pos="l" depth="3" NCoef="0" IVar="-1" Cut="0.0000000000000000e+00" cType="1" res="-8.0938920378684998e-02" rms="1.0812415927648544e-01" purity="1.2142146006226540e-02" nType="-99"/>
            <Node pos="r" depth="3" NCoef="0" IVar="-1" Cut="0.0000000000000000e+00" cType="1" res="-5.4672323167324066e-02" rms="1.5459959208965302e-01" purity="2.4957133457064629e-02" nType="-99"/>
          </Node>
          <Node pos="r" depth="2" NCoef="0" IVar="3" Cut="5.6700958251953125e+02" cType="1" res="2.4566459469497204e-03" rms="3.1280192732810974e-01" purity="1.2300820648670197e-01" nType="0">
            <Node pos="l" depth="3" NCoef="0" IVar="-1" Cut="0.0000000000000000e+00" cType="1" res="3.8241758942604065e-02" rms="3.9135751128196716e-01" purity="2.0646795630455017e-01" nType="-99"/>
            <Node pos="r" depth="3" NCoef="0" IVar="-1" Cut="0.0000000000000000e+00" cType="1" res="-3.9553616195917130e-02" rms="2.3055690526962280e-01" purity="5.9766005724668503e-02" nType="-99"/>
          </Node>
        </Node>
        <Node pos="r" depth="1" NCoef="0" IVar="6" Cut="9.4901046752929688e+01" cType="1" res="2.6025759056210518e-02" rms="2.2626467049121857e-01" purity="8.8526934385299683e-01" nType="0">
          <Node pos="l" depth="2" NCoef="0" IVar="1" Cut="2.7375749511718750e+03" cType="1" res="-2.6280080899596214e-02" rms="3.3437189459800720e-01" purity="6.1443859338760376e-01" nType="0">
            <Node pos="l" depth="3" NCoef="0" IVar="-1" Cut="0.0000000000000000e+00" cType="1" res="-4.8175480216741562e-02" rms="3.9136856794357300e-01" purity="3.1349289417266846e-01" nType="-99"/>
            <Node pos="r" depth="3" NCoef="0" IVar="-1" Cut="0.0000000000000000e+00" cType="1" res="3.3816877752542496e-02" rms="2.5140035152435303e-01" purity="9.2123210430145264e-01" nType="-99"/>
          </Node>
          <Node pos="r" depth="2" NCoef="0" IVar="1" Cut="2.2655187988281250e+03" cType="1" res="3.4674227237701416e-02" rms="2.0161154866218567e-01" purity="9.3004971742630005e-01" nType="0">
            <Node pos="l" depth="3" NCoef="0" IVar="-1" Cut="0.0000000000000000e+00" cType="1" res="3.5137966275215149e-02" rms="4.5880520343780518e-01" purity="4.7981017827987671e-01" nType="-99"/>
            <Node pos="r" depth="3" NCoef="0" IVar="-1" Cut="0.0000000000000000e+00" cType="1" res="5.5846374481916428e-02" rms="1.6510851681232452e-01" purity="9.6520048379898071e-01" nType="-99"/>
          </Node>
        </Node>
      </Node>
    </BinaryTree>
    <BinaryTree type="DecisionTree" boostWeight="1.0000000000000000e+00" itree="15">
      <Node pos="s" depth="0" NCoef="0" IVar="1" Cut="1.9511907958984375e+03" cType="1" res="2.5248649762943387e-04" rms="2.0315264165401459e-01" purity="5.0164729356765747e-01" nType="0">
        <Node pos="l" depth="1" NCoef="0" IVar="1" Cut="1.8199490966796875e+03" cType="1" res="-2.8968688100576401e-02" rms="1.5856836736202240e-01" purity="2.8295656666159630e-02" nType="0">
          <Node pos="l" depth="2" NCoef="0" IVar="9" Cut="1.1998306512832642e+00" cType="1" res="-3.2103464007377625e-02" rms="1.2675946950912476e-01" purity="1.6834057867527008e-02" nType="0">
            <Node pos="l" depth="3" NCoef="0" IVar="-1" Cut="0.0000000000000000e+00" cType="1" res="-7.5605578720569611e-02" rms="1.1580741405487061e-01" purity="1.4092045836150646e-02" nType="-99"/>
            <Node pos="r" depth="3" NCoef="0" IVar="-1" Cut="0.0000000000000000e+00" cType="1" res="-4.1958317160606384e-02" rms="1.6767211258411407e-01" purity="2.9473191127181053e-02" nType="-99"/>
          </Node>
          <Node pos="r" depth="2" NCoef="0" IVar="-1" Cut="0.0000000000000000e+00" cType="1" res="-9.2803587904199958e-04" rms="3.2442459464073181e-01" purity="1.3055804371833801e-01" nType="-99"/>
        </Node>
        <Node pos="r" depth="1" NCoef="0" IVar="2" Cut="2.0630450919270515e-02" cType="1" res="2.2964278236031532e-02" rms="2.2940373420715332e-01" purity="8.6955392360687256e-01" nType="0">
          <Node pos="l" depth="2" NCoef="0" IVar="1" Cut="2.9485869140625000e+03" cType="1" res="-1.7643701285123825e-02" rms="3.0655258893966675e-01" purity="6.7358428239822388e-01" nType="0">
            <Node pos="l" depth="3" NCoef="0" IVar="-1" Cut="0.0000000000000000e+00" cType="1" res="-3.8915190845727921e-02" rms="3.8431769609451294e-01" purity="4.0335130691528320e-01" nType="-99"/>
            <Node pos="r" depth="3" NCoef="0" IVar="-1" Cut="0.0000000000000000e+00" cType="1" res="4.6623162925243378e-02" rms="1.8035696446895599e-01" purity="9.6377032995223999e-01" nType="-99"/>
          </Node>
          <Node pos="r" depth="2" NCoef="0" IVar="9" Cut="1.1999602317810059e+00" cType="1" res="3.4461494535207748e-02" rms="2.0079879462718964e-01" purity="9.2503821849822998e-01" nType="0">
            <Node pos="l" depth="3" NCoef="0" IVar="-1" Cut="0.0000000000000000e+00" cType="1" res="4.7882154583930969e-02" rms="1.8991534411907196e-01" purity="9.2829525470733643e-01" nType="-99"/>
            <Node pos="r" depth="3" NCoef="0" IVar="-1" Cut="0.0000000000000000e+00" cType="1" res="8.0234840512275696e-02" rms="2.6994812488555908e-01" purity="8.9900952577590942e-01" nType="-99"/>
          </Node>
        </Node>
      </Node>
    </BinaryTree>
    <BinaryTree type="DecisionTree" boostWeight="1.0000000000000000e+00" itree="16">
      <Node pos="s" depth="0" NCoef="0" IVar="0" Cut="7.4111877441406250e+02" cType="1" res="1.8617645837366581e-03" rms="2.0371429622173309e-01" purity="5.0327956676483154e-01" nType="0">
        <Node pos="l" depth="1" NCoef="0" IVar="2" Cut="5.8024272322654724e-02" cType="1" res="-1.6499029472470284e-02" rms="2.1836525201797485e-01" purity="1.8517303466796875e-01" nType="0">
          <Node pos="l" depth="2" NCoef="0" IVar="3" Cut="8.1571820068359375e+02" cType="1" res="-2.4543154984712601e-02" rms="2.0269303023815155e-01" purity="1.2242734432220459e-01" nType="0">
            <Node pos="l" depth="3" NCoef="0" IVar="-1" Cut="0.0000000000000000e+00" cType="1" res="-3.5676565021276474e-02" rms="1.8958072364330292e-01" purity="9.0188682079315186e-02" nType="-99"/>
            <Node pos="r" depth="3" NCoef="0" IVar="-1" Cut="0.0000000000000000e+00" cType="1" res="-7.0885770022869110e-02" rms="3.0458110570907593e-01" purity="4.6392887830734253e-01" nType="-99"/>
          </Node>
          <Node pos="r" depth="2" NCoef="0" IVar="0" Cut="4.6803979492187500e+02" cType="1" res="9.3643004074692726e-03" rms="2.6081249117851257e-01" purity="3.8691186904907227e-01" nType="0">
            <Node pos="l" depth="3" NCoef="0" IVar="-1" Cut="0.0000000000000000e+00" cType="1" res="-5.6404635310173035e-02" rms="2.1681208908557892e-01" purity="6.5026484429836273e-02" nType="-99"/>
            <Node pos="r" depth="3" NCoef="0" IVar="-1" Cut="0.0000000000000000e+00" cType="1" res="4.3162483721971512e-02" rms="2.7800309658050537e-01" purity="5.5767345428466797e-01" nType="-99"/>
          </Node>
        </Node>
        <Node pos="r" depth="1" NCoef="0" IVar="4" Cut="2.4199395751953125e+02" cType="1" res="2.3998612537980080e-02" rms="1.8206425011157990e-01" purity="8.8680744171142578e-01" nType="0">
          <Node pos="l" depth="2" NCoef="0" IVar="-1" Cut="0.0000000000000000e+00" cType="1" res="-7.3463566601276398e-02" rms="2.5867605209350586e-01" purity="1.7376884818077087e-01" nType="-99"/>
          <Node pos="r" depth="2" NCoef="0" IVar="5" Cut="1.6377416992187500e+02" cType="1" res="3.0435198917984962e-02" rms="1.7380180954933167e-01" purity="9.3510836362838745e-01" nType="0">
            <Node pos="l" depth="3" NCoef="0" IVar="-1" Cut="0.0000000000000000e+00" cType="1" res="4.3445177376270294e-02" rms="3.6222600936889648e-01" purity="5.5013996362686157e-01" nType="-99"/>
            <Node pos="r" depth="3" NCoef="0" IVar="-1" Cut="0.0000000000000000e+00" cType="1" res="6.0525748878717422e-02" rms="1.4898565411567688e-01" purity="9.6531951427459717e-01" nType="-99"/>
          </Node>
        </Node>
      </Node>
    </BinaryTree>
    <BinaryTree type="DecisionTree" boostWeight="1.0000000000000000e+00" itree="17">
      <Node pos="s" depth="0" NCoef="0" IVar="4" Cut="3.3710794067382812e+02" cType="1" res="-2.1086784545332193e-03" rms="1.9710028171539307e-01" purity="4.9451434612274170e-01" nType="0">
        <Node pos="l" depth="1" NCoef="0" IVar="8" Cut="-1.4665566682815552e+00" cType="1" res="-2.8351979330182076e-02" rms="1.8725062906742096e-01" purity="8.6175411939620972e-02" nType="0">
          <Node pos="l" depth="2" NCoef="0" IVar="-1" Cut="0.0000000000000000e+00" cType="1" res="-3.0251010321080685e-03" rms="2.1859508752822876e-01" purity="1.0362493246793747e-01" nType="-99"/>
          <Node pos="r" depth="2" NCoef="0" IVar="3" Cut="7.5937664794921875e+02" cType="1" res="-3.1838081777095795e-02" rms="1.8247908353805542e-01" purity="8.3899974822998047e-02" nType="0">
            <Node pos="l" depth="3" NCoef="0" IVar="-1" Cut="0.0000000000000000e+00" cType="1" res="-5.7288508862257004e-02" rms="1.6095928847789764e-01" purity="4.6615790575742722e-02" nType="-99"/>
            <Node pos="r" depth="3" NCoef="0" IVar="-1" Cut="0.0000000000000000e+00" cType="1" res="-5.6038323789834976e-02" rms="2.9425865411758423e-01" purity="3.5606673359870911e-01" nType="-99"/>
          </Node>
        </Node>
        <Node pos="r" depth="1" NCoef="0" IVar="6" Cut="9.4902816772460938e+01" cType="1" res="1.4270609244704247e-02" rms="2.0127888023853302e-01" purity="7.4937182664871216e-01" nType="0">
          <Node pos="l" depth="2" NCoef="0" IVar="0" Cut="9.8246960449218750e+02" cType="1" res="-1.9403500482439995e-02" rms="2.2800415754318237e-01" purity="3.4270390868186951e-01" nType="0">
            <Node pos="l" depth="3" NCoef="0" IVar="-1" Cut="0.0000000000000000e+00" cType="1" res="-5.0427168607711792e-02" rms="2.2649684548377991e-01" purity="1.5744641423225403e-01" nType="-99"/>
            <Node pos="r" depth="3" NCoef="0" IVar="-1" Cut="0.0000000000000000e+00" cType="1" res="4.6600241214036942e-02" rms="2.2360633313655853e-01" purity="9.3023937940597534e-01" nType="-99"/>
          </Node>
          <Node pos="r" depth="2" NCoef="0" IVar="0" Cut="4.3447296142578125e+02" cType="1" res="2.4065813049674034e-02" rms="1.9170337915420532e-01" purity="8.6766433715820312e-01" nType="0">
            <Node pos="l" depth="3" NCoef="0" IVar="-1" Cut="0.0000000000000000e+00" cType="1" res="-8.6742127314209938e-03" rms="2.6008272171020508e-01" purity="1.0245154052972794e-01" nType="-99"/>
            <Node pos="r" depth="3" NCoef="0" IVar="-1" Cut="0.0000000000000000e+00" cType="1" res="5.0307940691709518e-02" rms="1.8510384857654572e-01" purity="9.2729181051254272e-01" nType="-99"/>
          </Node>
        </Node>
      </Node>
    </BinaryTree>
    <BinaryTree type="DecisionTree" boostWeight="1.0000000000000000e+00" itree="18">
      <Node pos="s" depth="0" NCoef="0" IVar="5" Cut="2.6691995239257812e+02" cType="1" res="-2.3343542125076056e-04" rms="1.9982127845287323e-01" purity="4.9662524461746216e-01" nType="0">
        <Node pos="l" depth="1" NCoef="0" IVar="0" Cut="8.3071936035156250e+02" cType="1" res="-1.5479910187423229e-02" rms="2.1223297715187073e-01" purity="1.8785104155540466e-01" nType="0">
          <Node pos="l" depth="2" NCoef="0" IVar="3" Cut="8.0042864990234375e+02" cType="1" res="-2.1513218060135841e-02" rms="1.8894036114215851e-01" purity="6.9938309490680695e-02" nType="0">
            <Node pos="l" depth="3" NCoef="0" IVar="-1" Cut="0.0000000000000000e+00" cType="1" res="-3.4353855997323990e-02" rms="1.7509263753890991e-01" purity="5.3328547626733780e-02" nType="-99"/>
            <Node pos="r" depth="3" NCoef="0" IVar="-1" Cut="0.0000000000000000e+00" cType="1" res="-7.8538276255130768e-02" rms="3.0705067515373230e-01" purity="2.7802029252052307e-01" nType="-99"/>
          </Node>
          <Node pos="r" depth="2" NCoef="0" IVar="2" Cut="1.9323084503412247e-02" cType="1" res="1.3276845216751099e-02" rms="2.9762530326843262e-01" purity="7.4986243247985840e-01" nType="0">
            <Node pos="l" depth="3" NCoef="0" IVar="-1" Cut="0.0000000000000000e+00" cType="1" res="-1.4090236276388168e-02" rms="3.3677992224693298e-01" purity="5.8715474605560303e-01" nType="-99"/>
            <Node pos="r" depth="3" NCoef="0" IVar="-1" Cut="0.0000000000000000e+00" cType="1" res="4.1001807898283005e-02" rms="2.6724851131439209e-01" purity="8.5618257522583008e-01" nType="-99"/>
          </Node>
        </Node>
        <Node pos="r" depth="1" NCoef="0" IVar="0" Cut="5.6892883300781250e+02" cType="1" res="1.9982814788818359e-02" rms="1.8008403480052948e-01" purity="9.0604811906814575e-01" nType="0">
          <Node pos="l" depth="2" NCoef="0" IVar="-1" Cut="0.0000000000000000e+00" cType="1" res="-4.3085934594273567e-03" rms="3.5787370800971985e-01" purity="3.8859453797340393e-01" nType="-99"/>
          <Node pos="r" depth="2" NCoef="0" IVar="10" Cut="-6.6595911979675293e-01" cType="1" res="2.3249318823218346e-02" rms="1.4120718836784363e-01" purity="9.7312319278717041e-01" nType="0">
            <Node pos="l" depth="3" NCoef="0" IVar="-1" Cut="0.0000000000000000e+00" cType="1" res="6.6547229886054993e-02" rms="1.4834930002689362e-01" purity="9.7217077016830444e-01" nType="-99"/>
            <Node pos="r" depth="3" NCoef="0" IVar="-1" Cut="0.0000000000000000e+00" cType="1" res="5.5361703038215637e-02" rms="1.3829229772090912e-01" purity="9.7349286079406738e-01" nType="-99"/>
          </Node>
        </Node>
      </Node>
    </BinaryTree>
    <BinaryTree type="DecisionTree" boostWeight="1.0000000000000000e+00" itree="19">
      <Node pos="s" depth="0" NCoef="0" IVar="2" Cut="2.0630314946174622e-02" cType="1" res="-2.5353301316499710e-04" rms="2.0039613544940948e-01" purity="4.9385267496109009e-01" nType="0">
        <Node pos="l" depth="1" NCoef="0" IVar="1" Cut="3.1877128906250000e+03" cType="1" res="-1.8844392150640488e-02" rms="1.9893270730972290e-01" purity="2.4301102757453918e-01" nType="0">
          <Node pos="l" depth="2" NCoef="0" IVar="3" Cut="8.4473608398437500e+02" cType="1" res="-2.4990404024720192e-02" rms="2.0495077967643738e-01" purity="1.2173616141080856e-01" nType="0">
            <Node pos="l" depth="3" NCoef="0" IVar="-1" Cut="0.0000000000000000e+00" cType="1" res="-3.6027070134878159e-02" rms="1.7928399145603180e-01" purity="9.0314298868179321e-02" nType="-99"/>
            <Node pos="r" depth="3" NCoef="0" IVar="-1" Cut="0.0000000000000000e+00" cType="1" res="-6.8365000188350677e-02" rms="3.4571260213851929e-01" purity="3.8235887885093689e-01" nType="-99"/>
          </Node>
          <Node pos="r" depth="2" NCoef="0" IVar="-1" Cut="0.0000000000000000e+00" cType="1" res="4.6572241932153702e-02" rms="1.5257932245731354e-01" purity="9.7579222917556763e-01" nType="-99"/>
        </Node>
        <Node pos="r" depth="1" NCoef="0" IVar="1" Cut="1.6804432373046875e+03" cType="1" res="1.0336800478398800e-02" rms="2.0045565068721771e-01" purity="6.3674527406692505e-01" nType="0">
          <Node pos="l" depth="2" NCoef="0" IVar="10" Cut="9.3351417779922485e-01" cType="1" res="-1.3623187318444252e-02" rms="1.3366881012916565e-01" purity="1.8510676920413971e-02" nType="0">
            <Node pos="l" depth="3" NCoef="0" IVar="-1" Cut="0.0000000000000000e+00" cType="1" res="-6.1173561960458755e-02" rms="1.1287993937730789e-01" purity="1.3024390675127506e-02" nType="-99"/>
            <Node pos="r" depth="3" NCoef="0" IVar="-1" Cut="0.0000000000000000e+00" cType="1" res="3.9815362542867661e-03" rms="1.7973557114601135e-01" purity="3.4284431487321854e-02" nType="-99"/>
          </Node>
          <Node pos="r" depth="2" NCoef="0" IVar="10" Cut="1.7331184148788452e+00" cType="1" res="1.7690801993012428e-02" rms="2.1633614599704742e-01" purity="8.2649904489517212e-01" nType="0">
            <Node pos="l" depth="3" NCoef="0" IVar="-1" Cut="0.0000000000000000e+00" cType="1" res="2.6107363402843475e-02" rms="2.0960132777690887e-01" purity="8.3176338672637939e-01" nType="-99"/>
            <Node pos="r" depth="3" NCoef="0" IVar="-1" Cut="0.0000000000000000e+00" cType="1" res="7.2345420718193054e-02" rms="2.8640022873878479e-01" purity="7.5873190164566040e-01" nType="-99"/>
          </Node>
        </Node>
      </Node>
    </BinaryTree>
    <BinaryTree type="DecisionTree" boostWeight="1.0000000000000000e+00" itree="20">
      <Node pos="s" depth="0" NCoef="0" IVar="6" Cut="9.4900764465332031e+01" cType="1" res="-2.1875643869861960e-04" rms="2.0254528522491455e-01" purity="4.9864587187767029e-01" nType="0">
        <Node pos="l" depth="1" NCoef="0" IVar="3" Cut="8.0315368652343750e+02" cType="1" res="-2.0115954801440239e-02" rms="1.8691478669643402e-01" purity="1.5693172812461853e-01" nType="0">
          <Node pos="l" depth="2" NCoef="0" IVar="1" Cut="1.8764090576171875e+03" cType="1" res="-1.4266401529312134e-02" rms="1.6456449031829834e-01" purity="6.8398796021938324e-02" nType="0">
            <Node pos="l" depth="3" NCoef="0" IVar="-1" Cut="0.0000000000000000e+00" cType="1" res="-6.4889118075370789e-02" rms="1.0638197511434555e-01" purity="1.1764477007091045e-02" nType="-99"/>
            <Node pos="r" depth="3" NCoef="0" IVar="-1" Cut="0.0000000000000000e+00" cType="1" res="1.5189001336693764e-02" rms="3.5297048091888428e-01" purity="4.2306375503540039e-01" nType="-99"/>
          </Node>
          <Node pos="r" depth="2" NCoef="0" IVar="1" Cut="2.7982236328125000e+03" cType="1" res="-4.7604743391275406e-02" rms="2.6633965969085693e-01" purity="5.7297426462173462e-01" nType="0">
            <Node pos="l" depth="3" NCoef="0" IVar="-1" Cut="0.0000000000000000e+00" cType="1" res="-9.5255434513092041e-02" rms="2.7251479029655457e-01" purity="1.3686956465244293e-01" nType="-99"/>
            <Node pos="r" depth="3" NCoef="0" IVar="-1" Cut="0.0000000000000000e+00" cType="1" res="3.9311153814196587e-03" rms="2.5018328428268433e-01" purity="9.2133295536041260e-01" nType="-99"/>
          </Node>
        </Node>
        <Node pos="r" depth="1" NCoef="0" IVar="0" Cut="4.2176187133789062e+02" cType="1" res="9.3760602176189423e-03" rms="2.0899069309234619e-01" purity="6.6342705488204956e-01" nType="0">
          <Node pos="l" depth="2" NCoef="0" IVar="1" Cut="1.6937373046875000e+03" cType="1" res="-1.9135026261210442e-02" rms="1.9557212293148041e-01" purity="3.9746217429637909e-02" nType="0">
            <Node pos="l" depth="3" NCoef="0" IVar="-1" Cut="0.0000000000000000e+00" cType="1" res="-2.7501422911882401e-02" rms="1.4899586141109467e-01" purity="2.2936467081308365e-02" nType="-99"/>
            <Node pos="r" depth="3" NCoef="0" IVar="-1" Cut="0.0000000000000000e+00" cType="1" res="-5.1780369132757187e-02" rms="2.9612419009208679e-01" purity="9.3164354562759399e-02" nType="-99"/>
          </Node>
          <Node pos="r" depth="2" NCoef="0" IVar="9" Cut="1.4664162397384644e+00" cType="1" res="1.4657162129878998e-02" rms="2.1096017956733704e-01" purity="7.7895134687423706e-01" nType="0">
            <Node pos="l" depth="3" NCoef="0" IVar="-1" Cut="0.0000000000000000e+00" cType="1" res="2.3443838581442833e-02" rms="2.0252159237861633e-01" purity="7.8846800327301025e-01" nType="-99"/>
            <Node pos="r" depth="3" NCoef="0" IVar="-1" Cut="0.0000000000000000e+00" cType="1" res="7.2435781359672546e-02" rms="2.9592451453208923e-01" purity="6.5723752975463867e-01" nType="-99"/>
          </Node>
        </Node>
      </Node>
    </BinaryTree>
    <BinaryTree type="DecisionTree" boostWeight="1.0000000000000000e+00" itree="21">
      <Node pos="s" depth="0" NCoef="0" IVar="4" Cut="4.3154251098632812e+02" cType="1" res="8.1817095633596182e-04" rms="1.9687815010547638e-01" purity="5.0378531217575073e-01" nType="0">
        <Node pos="l" depth="1" NCoef="0" IVar="10" Cut="1.1999871730804443e+00" cType="1" res="-1.1609042994678020e-02" rms="2.1098721027374268e-01" purity="1.8929177522659302e-01" nType="0">
          <Node pos="l" depth="2" NCoef="0" IVar="6" Cut="1.8760617065429688e+02" cType="1" res="-1.5918400138616562e-02" rms="2.0500363409519196e-01" purity="1.8464866280555725e-01" nType="0">
            <Node pos="l" depth="3" NCoef="0" IVar="-1" Cut="0.0000000000000000e+00" cType="1" res="-4.0300760418176651e-02" rms="1.8982267379760742e-01" purity="1.0220678150653839e-01" nType="-99"/>
            <Node pos="r" depth="3" NCoef="0" IVar="-1" Cut="0.0000000000000000e+00" cType="1" res="8.6714597418904305e-03" rms="2.8339028358459473e-01" purity="7.1951353549957275e-01" nType="-99"/>
          </Node>
          <Node pos="r" depth="2" NCoef="0" IVar="1" Cut="1.6756031494140625e+03" cType="1" res="6.6163334995508194e-03" rms="2.3373492062091827e-01" purity="2.0892862975597382e-01" nType="0">
            <Node pos="l" depth="3" NCoef="0" IVar="-1" Cut="0.0000000000000000e+00" cType="1" res="-6.3618026673793793e-02" rms="1.0286220163106918e-01" purity="1.1108570732176304e-02" nType="-99"/>
            <Node pos="r" depth="3" NCoef="0" IVar="-1" Cut="0.0000000000000000e+00" cType="1" res="4.0136713534593582e-02" rms="3.2829469442367554e-01" purity="4.5507434010505676e-01" nType="-99"/>
          </Node>
        </Node>
        <Node pos="r" depth="1" NCoef="0" IVar="0" Cut="4.4719107055664062e+02" cType="1" res="1.5753787010908127e-02" rms="1.7730250954627991e-01" purity="8.8175863027572632e-01" nType="0">
          <Node pos="l" depth="2" NCoef="0" IVar="-1" Cut="0.0000000000000000e+00" cType="1" res="-2.2381640970706940e-02" rms="2.1620823442935944e-01" purity="7.6524175703525543e-02" nType="-99"/>
          <Node pos="r" depth="2" NCoef="0" IVar="1" Cut="2.3349094238281250e+03" cType="1" res="1.7530156299471855e-02" rms="1.7448098957538605e-01" purity="9.3108832836151123e-01" nType="0">
            <Node pos="l" depth="3" NCoef="0" IVar="-1" Cut="0.0000000000000000e+00" cType="1" res="3.7604734301567078e-02" rms="3.8900786638259888e-01" purity="3.7559053301811218e-01" nType="-99"/>
            <Node pos="r" depth="3" NCoef="0" IVar="-1" Cut="0.0000000000000000e+00" cType="1" res="4.1459497064352036e-02" rms="1.4739662408828735e-01" purity="9.7071880102157593e-01" nType="-99"/>
          </Node>
        </Node>
      </Node>
    </BinaryTree>
    <BinaryTree type="DecisionTree" boostWeight="1.0000000000000000e+00" itree="22">
      <Node pos="s" depth="0" NCoef="0" IVar="5" Cut="1.5328219604492188e+02" cType="1" res="2.1631056442856789e-03" rms="2.0260927081108093e-01" purity="5.0205814838409424e-01" nType="0">
        <Node pos="l" depth="1" NCoef="0" IVar="9" Cut="1.7332123517990112e+00" cType="1" res="-1.5106865204870701e-02" rms="1.6398182511329651e-01" purity="6.8037398159503937e-02" nType="0">
          <Node pos="l" depth="2" NCoef="0" IVar="6" Cut="7.9409881591796875e+01" cType="1" res="-1.8689084798097610e-02" rms="1.5404777228832245e-01" purity="6.3055925071239471e-02" nType="0">
            <Node pos="l" depth="3" NCoef="0" IVar="-1" Cut="0.0000000000000000e+00" cType="1" res="-7.3081701993942261e-02" rms="1.3306330144405365e-01" purity="3.5293422639369965e-02" nType="-99"/>
            <Node pos="r" depth="3" NCoef="0" IVar="-1" Cut="0.0000000000000000e+00" cType="1" res="-1.8213558942079544e-02" rms="1.7643035948276520e-01" purity="9.7982786595821381e-02" nType="-99"/>
          </Node>
          <Node pos="r" depth="2" NCoef="0" IVar="-1" Cut="0.0000000000000000e+00" cType="1" res="3.9257578551769257e-02" rms="2.3679098486900330e-01" purity="1.1612804979085922e-01" nType="-99"/>
        </Node>
        <Node pos="r" depth="1" NCoef="0" IVar="0" Cut="4.3444857788085938e+02" cType="1" res="8.5776159539818764e-03" rms="2.1484449505805969e-01" purity="6.6326451301574707e-01" nType="0">
          <Node pos="l" depth="2" NCoef="0" IVar="0" Cut="3.5762069702148438e+02" cType="1" res="-1.5020539052784443e-02" rms="1.7521448433399200e-01" purity="3.8950145244598389e-02" nType="0">
            <Node pos="l" depth="3" NCoef="0" IVar="-1" Cut="0.0000000000000000e+00" cType="1" res="-8.0972842872142792e-02" rms="1.0415941476821899e-01" purity="9.6387406811118126e-03" nType="-99"/>
            <Node pos="r" depth="3" NCoef="0" IVar="-1" Cut="0.0000000000000000e+00" cType="1" res="-1.1518064886331558e-02" rms="2.1339052915573120e-01" purity="6.1150372028350830e-02" nType="-99"/>
          </Node>
          <Node pos="r" depth="2" NCoef="0" IVar="1" Cut="2.2244416503906250e+03" cType="1" res="1.3287326321005821e-02" rms="2.2160764038562775e-01" purity="7.8786492347717285e-01" nType="0">
            <Node pos="l" depth="3" NCoef="0" IVar="-1" Cut="0.0000000000000000e+00" cType="1" res="3.5688225179910660e-02" rms="3.3585283160209656e-01" purity="1.8025411665439606e-01" nType="-99"/>
            <Node pos="r" depth="3" NCoef="0" IVar="-1" Cut="0.0000000000000000e+00" cType="1" res="1.9372388720512390e-02" rms="1.7654325067996979e-01" purity="9.5772618055343628e-01" nType="-99"/>
          </Node>
        </Node>
      </Node>
    </BinaryTree>
    <BinaryTree type="DecisionTree" boostWeight="1.0000000000000000e+00" itree="23">
      <Node pos="s" depth="0" NCoef="0" IVar="0" Cut="8.4596795654296875e+02" cType="1" res="-1.6314632957801223e-03" rms="1.9659732282161713e-01" purity="4.9732267856597900e-01" nType="0">
        <Node pos="l" depth="1" NCoef="0" IVar="10" Cut="-1.4666603803634644e+00" cType="1" res="-9.3941912055015564e-03" rms="2.1326063573360443e-01" purity="2.4252378940582275e-01" nType="0">
          <Node pos="l" depth="2" NCoef="0" IVar="1" Cut="1.6743023681640625e+03" cType="1" res="1.7683066427707672e-02" rms="2.4921737611293793e-01" purity="2.2158394753932953e-01" nType="0">
            <Node pos="l" depth="3" NCoef="0" IVar="-1" Cut="0.0000000000000000e+00" cType="1" res="-2.0381586626172066e-02" rms="1.3189859688282013e-01" purity="1.8026661127805710e-02" nType="-99"/>
            <Node pos="r" depth="3" NCoef="0" IVar="-1" Cut="0.0000000000000000e+00" cType="1" res="4.6097759157419205e-02" rms="3.3232834935188293e-01" purity="4.4683411717414856e-01" nType="-99"/>
          </Node>
          <Node pos="r" depth="2" NCoef="0" IVar="6" Cut="2.0185418701171875e+02" cType="1" res="-1.3479318469762802e-02" rms="2.0698782801628113e-01" purity="2.4568296968936920e-01" nType="0">
            <Node pos="l" depth="3" NCoef="0" IVar="-1" Cut="0.0000000000000000e+00" cType="1" res="-3.5002987831830978e-02" rms="2.0374666154384613e-01" purity="1.2923352420330048e-01" nType="-99"/>
            <Node pos="r" depth="3" NCoef="0" IVar="-1" Cut="0.0000000000000000e+00" cType="1" res="1.2955544516444206e-02" rms="2.2226467728614807e-01" purity="8.6518490314483643e-01" nType="-99"/>
          </Node>
        </Node>
        <Node pos="r" depth="1" NCoef="0" IVar="4" Cut="3.2550106811523438e+02" cType="1" res="1.1635391972959042e-02" rms="1.6339962184429169e-01" purity="9.3278580904006958e-01" nType="0">
          <Node pos="l" depth="2" NCoef="0" IVar="-1" Cut="0.0000000000000000e+00" cType="1" res="-1.1420441791415215e-02" rms="3.4367111325263977e-01" purity="5.1787143945693970e-01" nType="-99"/>
          <Node pos="r" depth="2" NCoef="0" IVar="9" Cut="-9.3293923139572144e-01" cType="1" res="1.4066439121961594e-02" rms="1.3317587971687317e-01" purity="9.7316944599151611e-01" nType="0">
            <Node pos="l" depth="3" NCoef="0" IVar="-1" Cut="0.0000000000000000e+00" cType="1" res="6.3948281109333038e-02" rms="1.5513694286346436e-01" purity="9.6827512979507446e-01" nType="-99"/>
            <Node pos="r" depth="3" NCoef="0" IVar="-1" Cut="0.0000000000000000e+00" cType="1" res="4.0905948728322983e-02" rms="1.2828697264194489e-01" purity="9.7413140535354614e-01" nType="-99"/>
          </Node>
        </Node>
      </Node>
    </BinaryTree>
    <BinaryTree type="DecisionTree" boostWeight="1.0000000000000000e+00" itree="24">
      <Node pos="s" depth="0" NCoef="0" IVar="0" Cut="7.3323767089843750e+02" cType="1" res="-7.0829322794452310e-05" rms="1.9721549749374390e-01" purity="4.9278247356414795e-01" nType="0">
        <Node pos="l" depth="1" NCoef="0" IVar="10" Cut="1.7333654165267944e+00" cType="1" res="-9.5293521881103516e-03" rms="2.0762997865676880e-01" purity="1.7089870572090149e-01" nType="0">
          <Node pos="l" depth="2" NCoef="0" IVar="10" Cut="-1.7201944589614868e+00" cType="1" res="-1.3004475273191929e-02" rms="2.0076590776443481e-01" purity="1.7089763283729553e-01" nType="0">
            <Node pos="l" depth="3" NCoef="0" IVar="-1" Cut="0.0000000000000000e+00" cType="1" res="2.9389040544629097e-02" rms="2.3848307132720947e-01" purity="1.7397990822792053e-01" nType="-99"/>
            <Node pos="r" depth="3" NCoef="0" IVar="-1" Cut="0.0000000000000000e+00" cType="1" res="-3.4379832446575165e-02" rms="1.9548152387142181e-01" purity="1.7052796483039856e-01" nType="-99"/>
          </Node>
          <Node pos="r" depth="2" NCoef="0" IVar="8" Cut="1.3375346362590790e-01" cType="1" res="2.4292282760143280e-02" rms="2.6292863488197327e-01" purity="1.7090927064418793e-01" nType="0">
            <Node pos="l" depth="3" NCoef="0" IVar="-1" Cut="0.0000000000000000e+00" cType="1" res="4.8098862171173096e-02" rms="2.5993001461029053e-01" purity="2.1346174180507660e-01" nType="-99"/>
            <Node pos="r" depth="3" NCoef="0" IVar="-1" Cut="0.0000000000000000e+00" cType="1" res="4.2509712278842926e-02" rms="2.6590320467948914e-01" purity="1.2715531885623932e-01" nType="-99"/>
          </Node>
        </Node>
        <Node pos="r" depth="1" NCoef="0" IVar="4" Cut="2.4197009277343750e+02" cType="1" res="1.1272815056145191e-02" rms="1.8330684304237366e-01" purity="8.7881892919540405e-01" nType="0">
          <Node pos="l" depth="2" NCoef="0" IVar="-1" Cut="0.0000000000000000e+00" cType="1" res="-2.2500155493617058e-02" rms="2.6626968383789062e-01" purity="1.6922639310359955e-01" nType="-99"/>
          <Node pos="r" depth="2" NCoef="0" IVar="5" Cut="1.5868750000000000e+02" cType="1" res="1.3437879271805286e-02" rms="1.7517788708209991e-01" purity="9.3300247192382812e-01" nType="0">
            <Node pos="l" depth="3" NCoef="0" IVar="-1" Cut="0.0000000000000000e+00" cType="1" res="4.2475927621126175e-02" rms="3.7005561590194702e-01" purity="5.2027809619903564e-01" nType="-99"/>
            <Node pos="r" depth="3" NCoef="0" IVar="-1" Cut="0.0000000000000000e+00" cType="1" res="3.3388912677764893e-02" rms="1.5069435536861420e-01" purity="9.6352255344390869e-01" nType="-99"/>
          </Node>
        </Node>
      </Node>
    </BinaryTree>
    <BinaryTree type="DecisionTree" boostWeight="1.0000000000000000e+00" itree="25">
      <Node pos="s" depth="0" NCoef="0" IVar="2" Cut="5.8377888053655624e-02" cType="1" res="1.2595212319865823e-03" rms="2.0064327120780945e-01" purity="4.9906420707702637e-01" nType="0">
        <Node pos="l" depth="1" NCoef="0" IVar="6" Cut="1.2130654907226562e+02" cType="1" res="-6.2004853971302509e-03" rms="2.0576387643814087e-01" purity="3.6445122957229614e-01" nType="0">
          <Node pos="l" depth="2" NCoef="0" IVar="9" Cut="-6.6672211885452271e-01" cType="1" res="-1.3976440764963627e-02" rms="1.9223713874816895e-01" purity="1.5847475826740265e-01" nType="0">
            <Node pos="l" depth="3" NCoef="0" IVar="-1" Cut="0.0000000000000000e+00" cType="1" res="-9.0020819334313273e-04" rms="2.0983526110649109e-01" purity="1.4292141795158386e-01" nType="-99"/>
            <Node pos="r" depth="3" NCoef="0" IVar="-1" Cut="0.0000000000000000e+00" cType="1" res="-4.5306846499443054e-02" rms="1.8376898765563965e-01" purity="1.6522134840488434e-01" nType="-99"/>
          </Node>
          <Node pos="r" depth="2" NCoef="0" IVar="2" Cut="8.3412891253829002e-03" cType="1" res="4.9309944733977318e-03" rms="2.2323787212371826e-01" purity="6.5931183099746704e-01" nType="0">
            <Node pos="l" depth="3" NCoef="0" IVar="-1" Cut="0.0000000000000000e+00" cType="1" res="-3.3656913787126541e-02" rms="2.2947296500205994e-01" purity="4.7524312138557434e-01" nType="-99"/>
            <Node pos="r" depth="3" NCoef="0" IVar="-1" Cut="0.0000000000000000e+00" cType="1" res="1.6902564093470573e-02" rms="2.2209337353706360e-01" purity="6.8621242046356201e-01" nType="-99"/>
          </Node>
        </Node>
        <Node pos="r" depth="1" NCoef="0" IVar="4" Cut="2.4461968994140625e+02" cType="1" res="1.5261910855770111e-02" rms="1.8987119197845459e-01" purity="7.5173211097717285e-01" nType="0">
          <Node pos="l" depth="2" NCoef="0" IVar="-1" Cut="0.0000000000000000e+00" cType="1" res="-3.4412860870361328e-02" rms="1.6446505486965179e-01" purity="3.9424579590559006e-02" nType="-99"/>
          <Node pos="r" depth="2" NCoef="0" IVar="5" Cut="2.0879847717285156e+02" cType="1" res="1.7662400379776955e-02" rms="1.9173927605152130e-01" purity="8.1382513046264648e-01" nType="0">
            <Node pos="l" depth="3" NCoef="0" IVar="-1" Cut="0.0000000000000000e+00" cType="1" res="7.3689296841621399e-02" rms="2.8938877582550049e-01" purity="3.2707098126411438e-01" nType="-99"/>
            <Node pos="r" depth="3" NCoef="0" IVar="-1" Cut="0.0000000000000000e+00" cType="1" res="3.3826518803834915e-02" rms="1.6840960085391998e-01" purity="8.9891892671585083e-01" nType="-99"/>
          </Node>
        </Node>
      </Node>
    </BinaryTree>
    <BinaryTree type="DecisionTree" boostWeight="1.0000000000000000e+00" itree="26">
      <Node pos="s" depth="0" NCoef="0" IVar="0" Cut="5.8411047363281250e+02" cType="1" res="-5.8887788327410817e-04" rms="1.9840244948863983e-01" purity="5.0477737188339233e-01" nType="0">
        <Node pos="l" depth="1" NCoef="0" IVar="1" Cut="1.9571522216796875e+03" cType="1" res="-1.1629508808255196e-02" rms="2.0183929800987244e-01" purity="9.1662511229515076e-02" nType="0">
          <Node pos="l" depth="2" NCoef="0" IVar="2" Cut="5.6093778461217880e-02" cType="1" res="-6.9015743210911751e-03" rms="1.5081843733787537e-01" purity="2.5563139468431473e-02" nType="0">
            <Node pos="l" depth="3" NCoef="0" IVar="-1" Cut="0.0000000000000000e+00" cType="1" res="-4.3463721871376038e-02" rms="1.2257167696952820e-01" purity="1.6723075881600380e-02" nType="-99"/>
            <Node pos="r" depth="3" NCoef="0" IVar="-1" Cut="0.0000000000000000e+00" cType="1" res="2.7092697098851204e-02" rms="2.3183842003345490e-01" purity="6.1549868434667587e-02" nType="-99"/>
          </Node>
          <Node pos="r" depth="2" NCoef="0" IVar="-1" Cut="0.0000000000000000e+00" cType="1" res="-2.9136039316654205e-02" rms="3.8505014777183533e-01" purity="4.9014806747436523e-01" nType="-99"/>
        </Node>
        <Node pos="r" depth="1" NCoef="0" IVar="5" Cut="1.0165907287597656e+02" cType="1" res="6.2189996242523193e-03" rms="1.9594341516494751e-01" purity="7.5951236486434937e-01" nType="0">
          <Node pos="l" depth="2" NCoef="0" IVar="7" Cut="-1.2244792655110359e-02" cType="1" res="-1.8061220645904541e-02" rms="1.9676175713539124e-01" purity="7.2218023240566254e-02" nType="0">
            <Node pos="l" depth="3" NCoef="0" IVar="-1" Cut="0.0000000000000000e+00" cType="1" res="-8.1014014780521393e-02" rms="1.6455116868019104e-01" purity="5.2660685032606125e-02" nType="-99"/>
            <Node pos="r" depth="3" NCoef="0" IVar="-1" Cut="0.0000000000000000e+00" cType="1" res="-1.0689300252124667e-03" rms="2.2175414860248566e-01" purity="9.0857908129692078e-02" nType="-99"/>
          </Node>
          <Node pos="r" depth="2" NCoef="0" IVar="10" Cut="1.7330861091613770e+00" cType="1" res="8.4921931847929955e-03" rms="1.9571247696876526e-01" purity="8.2385909557342529e-01" nType="0">
            <Node pos="l" depth="3" NCoef="0" IVar="-1" Cut="0.0000000000000000e+00" cType="1" res="1.5519752167165279e-02" rms="1.9022814929485321e-01" purity="8.2802510261535645e-01" nType="-99"/>
            <Node pos="r" depth="3" NCoef="0" IVar="-1" Cut="0.0000000000000000e+00" cType="1" res="5.7524539530277252e-02" rms="2.5791805982589722e-01" purity="7.6687330007553101e-01" nType="-99"/>
          </Node>
        </Node>
      </Node>
    </BinaryTree>
    <BinaryTree type="DecisionTree" boostWeight="1.0000000000000000e+00" itree="27">
      <Node pos="s" depth="0" NCoef="0" IVar="5" Cut="1.0425695800781250e+02" cType="1" res="-9.8065263591706753e-04" rms="1.9679640233516693e-01" purity="4.9873289465904236e-01" nType="0">
        <Node pos="l" depth="1" NCoef="0" IVar="1" Cut="1.6503544921875000e+03" cType="1" res="-2.2850487381219864e-02" rms="1.1162124574184418e-01" purity="2.9059655964374542e-02" nType="0">
          <Node pos="l" depth="2" NCoef="0" IVar="10" Cut="3.9994621276855469e-01" cType="1" res="-1.4204372651875019e-02" rms="2.3092405870556831e-02" purity="5.2499270532280207e-04" nType="0">
            <Node pos="l" depth="3" NCoef="0" IVar="-1" Cut="0.0000000000000000e+00" cType="1" res="-9.6608214080333710e-02" rms="2.6352589949965477e-02" purity="6.8966654362156987e-04" nType="-99"/>
            <Node pos="r" depth="3" NCoef="0" IVar="-1" Cut="0.0000000000000000e+00" cType="1" res="-9.9872760474681854e-02" rms="1.6770673915743828e-02" purity="2.6898080250248313e-04" nType="-99"/>
          </Node>
          <Node pos="r" depth="2" NCoef="0" IVar="-1" Cut="0.0000000000000000e+00" cType="1" res="-6.5537042915821075e-02" rms="1.8141549825668335e-01" purity="7.8851193189620972e-02" nType="-99"/>
        </Node>
        <Node pos="r" depth="1" NCoef="0" IVar="4" Cut="4.5430249023437500e+02" cType="1" res="1.9072442082688212e-03" rms="2.0524668693542480e-01" purity="5.6075292825698853e-01" nType="0">
          <Node pos="l" depth="2" NCoef="0" IVar="8" Cut="1.2002331018447876e+00" cType="1" res="-5.1648835651576519e-03" rms="2.3179624974727631e-01" purity="2.5182336568832397e-01" nType="0">
            <Node pos="l" depth="3" NCoef="0" IVar="-1" Cut="0.0000000000000000e+00" cType="1" res="-1.7886275425553322e-02" rms="2.2782829403877258e-01" purity="2.5736540555953979e-01" nType="-99"/>
            <Node pos="r" depth="3" NCoef="0" IVar="-1" Cut="0.0000000000000000e+00" cType="1" res="3.6098130047321320e-02" rms="2.5077474117279053e-01" purity="2.2204023599624634e-01" nType="-99"/>
          </Node>
          <Node pos="r" depth="2" NCoef="0" IVar="1" Cut="2.5153010253906250e+03" cType="1" res="1.0214382782578468e-02" rms="1.6843055188655853e-01" purity="9.2363107204437256e-01" nType="0">
            <Node pos="l" depth="3" NCoef="0" IVar="-1" Cut="0.0000000000000000e+00" cType="1" res="2.3000674322247505e-02" rms="3.5641008615493774e-01" purity="4.6334311366081238e-01" nType="-99"/>
            <Node pos="r" depth="3" NCoef="0" IVar="-1" Cut="0.0000000000000000e+00" cType="1" res="3.2876774668693542e-02" rms="1.2668976187705994e-01" purity="9.8089599609375000e-01" nType="-99"/>
          </Node>
        </Node>
      </Node>
    </BinaryTree>
    <BinaryTree type="DecisionTree" boostWeight="1.0000000000000000e+00" itree="28">
      <Node pos="s" depth="0" NCoef="0" IVar="1" Cut="3.0535717773437500e+03" cType="1" res="-8.0203689867630601e-04" rms="1.9664385914802551e-01" purity="4.9603271484375000e-01" nType="0">
        <Node pos="l" depth="1" NCoef="0" IVar="3" Cut="9.4326159667968750e+02" cType="1" res="-6.0201897285878658e-03" rms="2.2963696718215942e-01" purity="2.6460975408554077e-01" nType="0">
          <Node pos="l" depth="2" NCoef="0" IVar="0" Cut="5.3912792968750000e+02" cType="1" res="-3.6753730382770300e-03" rms="2.2229261696338654e-01" purity="2.4989418685436249e-01" nType="0">
            <Node pos="l" depth="3" NCoef="0" IVar="-1" Cut="0.0000000000000000e+00" cType="1" res="-2.5226820260286331e-02" rms="1.8458822369575500e-01" purity="6.2380935996770859e-02" nType="-99"/>
            <Node pos="r" depth="3" NCoef="0" IVar="-1" Cut="0.0000000000000000e+00" cType="1" res="5.0655910745263100e-03" rms="2.5582382082939148e-01" purity="4.4694796204566956e-01" nType="-99"/>
          </Node>
          <Node pos="r" depth="2" NCoef="0" IVar="-1" Cut="0.0000000000000000e+00" cType="1" res="-4.9419701099395752e-02" rms="3.5066065192222595e-01" purity="5.8830964565277100e-01" nType="-99"/>
        </Node>
        <Node pos="r" depth="1" NCoef="0" IVar="1" Cut="3.4472929687500000e+03" cType="1" res="1.0359402745962143e-02" rms="9.1667301952838898e-02" purity="9.9103808403015137e-01" nType="0">
          <Node pos="l" depth="2" NCoef="0" IVar="-1" Cut="0.0000000000000000e+00" cType="1" res="1.9852215424180031e-02" rms="1.2647049129009247e-01" purity="9.8223650455474854e-01" nType="-99"/>
          <Node pos="r" depth="2" NCoef="0" IVar="6" Cut="1.7663366699218750e+02" cType="1" res="1.3577303849160671e-02" rms="6.6809281706809998e-02" purity="9.9556982517242432e-01" nType="0">
            <Node pos="l" depth="3" NCoef="0" IVar="-1" Cut="0.0000000000000000e+00" cType="1" res="6.6806457936763763e-02" rms="1.0640950500965118e-01" purity="9.8877888917922974e-01" nType="-99"/>
            <Node pos="r" depth="3" NCoef="0" IVar="-1" Cut="0.0000000000000000e+00" cType="1" res="8.7929643690586090e-02" rms="4.2556557804346085e-02" purity="9.9818497896194458e-01" nType="-99"/>
          </Node>
        </Node>
      </Node>
    </BinaryTree>
    <BinaryTree type="DecisionTree" boostWeight="1.0000000000000000e+00" itree="29">
      <Node pos="s" depth="0" NCoef="0" IVar="0" Cut="4.4703970336914062e+02" cType="1" res="-2.6429619174450636e-04" rms="1.9664464890956879e-01" purity="4.9841421842575073e-01" nType="0">
        <Node pos="l" depth="1" NCoef="0" IVar="1" Cut="1.7408377685546875e+03" cType="1" res="-1.2322232127189636e-02" rms="1.4540256559848785e-01" purity="2.6601085439324379e-02" nType="0">
          <Node pos="l" depth="2" NCoef="0" IVar="1" Cut="1.6109879150390625e+03" cType="1" res="-7.6602590270340443e-03" rms="1.0358653217554092e-01" purity="1.1049633845686913e-02" nType="0">
            <Node pos="l" depth="3" NCoef="0" IVar="-1" Cut="0.0000000000000000e+00" cType="1" res="-7.0865534245967865e-02" rms="7.0965565741062164e-02" purity="5.0662974826991558e-03" nType="-99"/>
            <Node pos="r" depth="3" NCoef="0" IVar="-1" Cut="0.0000000000000000e+00" cType="1" res="2.6247119531035423e-02" rms="1.7693680524826050e-01" purity="3.2946083694696426e-02" nType="-99"/>
          </Node>
          <Node pos="r" depth="2" NCoef="0" IVar="-1" Cut="0.0000000000000000e+00" cType="1" res="-3.7898175418376923e-02" rms="2.6789811253547668e-01" purity="1.0316737741231918e-01" nType="-99"/>
        </Node>
        <Node pos="r" depth="1" NCoef="0" IVar="8" Cut="-6.6673070192337036e-01" cType="1" res="3.1257385853677988e-03" rms="2.0867305994033813e-01" purity="6.3106232881546021e-01" nType="0">
          <Node pos="l" depth="2" NCoef="0" IVar="1" Cut="2.2288813476562500e+03" cType="1" res="1.4123255386948586e-02" rms="2.3449574410915375e-01" purity="5.5105274915695190e-01" nType="0">
            <Node pos="l" depth="3" NCoef="0" IVar="-1" Cut="0.0000000000000000e+00" cType="1" res="6.0368370264768600e-02" rms="2.5907406210899353e-01" purity="1.1025237292051315e-01" nType="-99"/>
            <Node pos="r" depth="3" NCoef="0" IVar="-1" Cut="0.0000000000000000e+00" cType="1" res="-2.9750805697403848e-04" rms="2.1049939095973969e-01" purity="9.2290508747100830e-01" nType="-99"/>
          </Node>
          <Node pos="r" depth="2" NCoef="0" IVar="1" Cut="3.3291662597656250e+03" cType="1" res="-3.9104593452066183e-04" rms="1.9958433508872986e-01" purity="6.5664774179458618e-01" nType="0">
            <Node pos="l" depth="3" NCoef="0" IVar="-1" Cut="0.0000000000000000e+00" cType="1" res="-1.0029614903032780e-02" rms="2.4064858257770538e-01" purity="4.7968053817749023e-01" nType="-99"/>
            <Node pos="r" depth="3" NCoef="0" IVar="-1" Cut="0.0000000000000000e+00" cType="1" res="6.5802440047264099e-02" rms="7.1876063942909241e-02" purity="9.9450212717056274e-01" nType="-99"/>
          </Node>
        </Node>
      </Node>
    </BinaryTree>
    <BinaryTree type="DecisionTree" boostWeight="1.0000000000000000e+00" itree="30">
      <Node pos="s" depth="0" NCoef="0" IVar="6" Cut="8.7462181091308594e+01" cType="1" res="8.4941514069214463e-04" rms="1.9778995215892792e-01" purity="4.9807351827621460e-01" nType="0">
        <Node pos="l" depth="1" NCoef="0" IVar="6" Cut="8.2110336303710938e+01" cType="1" res="-1.0270566679537296e-02" rms="1.8428742885589600e-01" purity="1.4722226560115814e-01" nType="0">
          <Node pos="l" depth="2" NCoef="0" IVar="3" Cut="8.0452630615234375e+02" cType="1" res="-1.3836714439094067e-02" rms="1.7585168778896332e-01" purity="1.3923919200897217e-01" nType="0">
            <Node pos="l" depth="3" NCoef="0" IVar="-1" Cut="0.0000000000000000e+00" cType="1" res="-3.2294016331434250e-02" rms="1.4615114033222198e-01" purity="5.8801587671041489e-02" nType="-99"/>
            <Node pos="r" depth="3" NCoef="0" IVar="-1" Cut="0.0000000000000000e+00" cType="1" res="-4.3219845741987228e-02" rms="2.7906391024589539e-01" purity="5.3780281543731689e-01" nType="-99"/>
          </Node>
          <Node pos="r" depth="2" NCoef="0" IVar="-1" Cut="0.0000000000000000e+00" cType="1" res="3.5709802061319351e-02" rms="2.3557555675506592e-01" purity="2.0585545897483826e-01" nType="-99"/>
        </Node>
        <Node pos="r" depth="1" NCoef="0" IVar="9" Cut="-1.4663760662078857e+00" cType="1" res="5.2477954886853695e-03" rms="2.0271456241607666e-01" purity="6.3684862852096558e-01" nType="0">
          <Node pos="l" depth="2" NCoef="0" IVar="8" Cut="-1.3323175907135010e-01" cType="1" res="2.9700180515646935e-02" rms="2.4140001833438873e-01" purity="4.8953849077224731e-01" nType="0">
            <Node pos="l" depth="3" NCoef="0" IVar="-1" Cut="0.0000000000000000e+00" cType="1" res="3.5647712647914886e-02" rms="2.3050124943256378e-01" purity="4.4293782114982605e-01" nType="-99"/>
            <Node pos="r" depth="3" NCoef="0" IVar="-1" Cut="0.0000000000000000e+00" cType="1" res="6.6773347556591034e-02" rms="2.5038069486618042e-01" purity="5.3153097629547119e-01" nType="-99"/>
          </Node>
          <Node pos="r" depth="2" NCoef="0" IVar="9" Cut="1.3773556947708130e+00" cType="1" res="2.9587212484329939e-03" rms="1.9855384528636932e-01" purity="6.5063887834548950e-01" nType="0">
            <Node pos="l" depth="3" NCoef="0" IVar="-1" Cut="0.0000000000000000e+00" cType="1" res="1.4880220405757427e-03" rms="1.9154006242752075e-01" purity="6.6873878240585327e-01" nType="-99"/>
            <Node pos="r" depth="3" NCoef="0" IVar="-1" Cut="0.0000000000000000e+00" cType="1" res="4.5155759900808334e-02" rms="2.4926950037479401e-01" purity="4.9738749861717224e-01" nType="-99"/>
          </Node>
        </Node>
      </Node>
    </BinaryTree>
    <BinaryTree type="DecisionTree" boostWeight="1.0000000000000000e+00" itree="31">
      <Node pos="s" depth="0" NCoef="0" IVar="6" Cut="1.2130654907226562e+02" cType="1" res="8.6296477820724249e-04" rms="1.9786056876182556e-01" purity="4.9809050559997559e-01" nType="0">
        <Node pos="l" depth="1" NCoef="0" IVar="2" Cut="8.5463039577007294e-02" cType="1" res="-6.0726404190063477e-03" rms="1.9430062174797058e-01" purity="1.9386759400367737e-01" nType="0">
          <Node pos="l" depth="2" NCoef="0" IVar="2" Cut="4.0702209807932377e-03" cType="1" res="-8.0417655408382416e-03" rms="1.8771064281463623e-01" purity="1.7220498621463776e-01" nType="0">
            <Node pos="l" depth="3" NCoef="0" IVar="-1" Cut="0.0000000000000000e+00" cType="1" res="-6.2789164483547211e-02" rms="1.5027813613414764e-01" purity="8.5666202008724213e-02" nType="-99"/>
            <Node pos="r" depth="3" NCoef="0" IVar="-1" Cut="0.0000000000000000e+00" cType="1" res="-1.1308846995234489e-02" rms="1.9582751393318176e-01" purity="1.9390378892421722e-01" nType="-99"/>
          </Node>
          <Node pos="r" depth="2" NCoef="0" IVar="-1" Cut="0.0000000000000000e+00" cType="1" res="2.2702958434820175e-02" rms="2.4714432656764984e-01" purity="3.9787459373474121e-01" nType="-99"/>
        </Node>
        <Node pos="r" depth="1" NCoef="0" IVar="1" Cut="2.2413068847656250e+03" cType="1" res="6.8026892840862274e-03" rms="2.0066873729228973e-01" purity="7.5863021612167358e-01" nType="0">
          <Node pos="l" depth="2" NCoef="0" IVar="1" Cut="1.5602442626953125e+03" cType="1" res="2.0821355283260345e-02" rms="2.9787841439247131e-01" purity="1.5062527358531952e-01" nType="0">
            <Node pos="l" depth="3" NCoef="0" IVar="-1" Cut="0.0000000000000000e+00" cType="1" res="-4.0551919490098953e-02" rms="1.0847566276788712e-01" purity="1.2054353952407837e-02" nType="-99"/>
            <Node pos="r" depth="3" NCoef="0" IVar="-1" Cut="0.0000000000000000e+00" cType="1" res="3.4179370850324631e-02" rms="3.5658556222915649e-01" purity="2.2093889117240906e-01" nType="-99"/>
          </Node>
          <Node pos="r" depth="2" NCoef="0" IVar="1" Cut="2.7221323242187500e+03" cType="1" res="1.9175871275365353e-03" rms="1.5260216593742371e-01" purity="9.7050243616104126e-01" nType="0">
            <Node pos="l" depth="3" NCoef="0" IVar="-1" Cut="0.0000000000000000e+00" cType="1" res="-2.3304488509893417e-02" rms="3.0899125337600708e-01" purity="8.6666113138198853e-01" nType="-99"/>
            <Node pos="r" depth="3" NCoef="0" IVar="-1" Cut="0.0000000000000000e+00" cType="1" res="3.8092918694019318e-02" rms="9.9119722843170166e-02" purity="9.8971742391586304e-01" nType="-99"/>
          </Node>
        </Node>
      </Node>
    </BinaryTree>
    <BinaryTree type="DecisionTree" boostWeight="1.0000000000000000e+00" itree="32">
      <Node pos="s" depth="0" NCoef="0" IVar="10" Cut="1.1999524831771851e+00" cType="1" res="1.1689044767990708e-03" rms="1.9677495956420898e-01" purity="5.0573855638504028e-01" nType="0">
        <Node pos="l" depth="1" NCoef="0" IVar="5" Cut="3.2125604248046875e+02" cType="1" res="-1.5843649161979556e-03" rms="1.9005163013935089e-01" purity="5.1363778114318848e-01" nType="0">
          <Node pos="l" depth="2" NCoef="0" IVar="10" Cut="-1.6570578813552856e+00" cType="1" res="-6.5187215805053711e-03" rms="2.1195365488529205e-01" purity="2.6642572879791260e-01" nType="0">
            <Node pos="l" depth="3" NCoef="0" IVar="-1" Cut="0.0000000000000000e+00" cType="1" res="2.0426373928785324e-02" rms="2.4422430992126465e-01" purity="2.8974658250808716e-01" nType="-99"/>
            <Node pos="r" depth="3" NCoef="0" IVar="-1" Cut="0.0000000000000000e+00" cType="1" res="-2.0179964601993561e-02" rms="2.0645260810852051e-01" purity="2.6286628842353821e-01" nType="-99"/>
          </Node>
          <Node pos="r" depth="2" NCoef="0" IVar="2" Cut="8.3591513335704803e-02" cType="1" res="7.3732603341341019e-03" rms="1.4146181941032410e-01" purity="9.6241629123687744e-01" nType="0">
            <Node pos="l" depth="3" NCoef="0" IVar="-1" Cut="0.0000000000000000e+00" cType="1" res="1.4601700007915497e-02" rms="1.6230346262454987e-01" purity="9.4658172130584717e-01" nType="-99"/>
            <Node pos="r" depth="3" NCoef="0" IVar="-1" Cut="0.0000000000000000e+00" cType="1" res="6.1271339654922485e-02" rms="1.0621498525142670e-01" purity="9.8417413234710693e-01" nType="-99"/>
          </Node>
        </Node>
        <Node pos="r" depth="1" NCoef="0" IVar="9" Cut="-6.6667282581329346e-01" cType="1" res="1.4308897778391838e-02" rms="2.2566278278827667e-01" purity="4.6803924441337585e-01" nType="0">
          <Node pos="l" depth="2" NCoef="0" IVar="-1" Cut="0.0000000000000000e+00" cType="1" res="8.6824119091033936e-02" rms="2.5896424055099487e-01" purity="4.8328769207000732e-01" nType="-99"/>
          <Node pos="r" depth="2" NCoef="0" IVar="8" Cut="-6.6504842042922974e-01" cType="1" res="4.4435458257794380e-03" rms="2.1194662153720856e-01" purity="4.6272376179695129e-01" nType="0">
            <Node pos="l" depth="3" NCoef="0" IVar="-1" Cut="0.0000000000000000e+00" cType="1" res="5.1164042204618454e-02" rms="2.4233211576938629e-01" purity="4.5984441041946411e-01" nType="-99"/>
            <Node pos="r" depth="3" NCoef="0" IVar="-1" Cut="0.0000000000000000e+00" cType="1" res="-5.8059822767972946e-03" rms="2.0156040787696838e-01" purity="4.6357622742652893e-01" nType="-99"/>
          </Node>
        </Node>
      </Node>
    </BinaryTree>
    <BinaryTree type="DecisionTree" boostWeight="1.0000000000000000e+00" itree="33">
      <Node pos="s" depth="0" NCoef="0" IVar="5" Cut="3.9047448730468750e+02" cType="1" res="-2.7414446230977774e-03" rms="1.9246120750904083e-01" purity="4.9586582183837891e-01" nType="0">
        <Node pos="l" depth="1" NCoef="0" IVar="9" Cut="1.4665778875350952e+00" cType="1" res="-6.0562216676771641e-03" rms="2.1230365335941315e-01" purity="3.4665152430534363e-01" nType="0">
          <Node pos="l" depth="2" NCoef="0" IVar="1" Cut="3.3340283203125000e+03" cType="1" res="-8.5195982828736305e-03" rms="2.0960366725921631e-01" purity="3.5358253121376038e-01" nType="0">
            <Node pos="l" depth="3" NCoef="0" IVar="-1" Cut="0.0000000000000000e+00" cType="1" res="-2.2532748058438301e-02" rms="2.2109845280647278e-01" purity="2.5869044661521912e-01" nType="-99"/>
            <Node pos="r" depth="3" NCoef="0" IVar="-1" Cut="0.0000000000000000e+00" cType="1" res="4.8156358301639557e-02" rms="1.0210019350051880e-01" purity="9.8926723003387451e-01" nType="-99"/>
          </Node>
          <Node pos="r" depth="2" NCoef="0" IVar="10" Cut="-4.0002074837684631e-01" cType="1" res="1.2557471171021461e-02" rms="2.3084208369255066e-01" purity="2.9427960515022278e-01" nType="0">
            <Node pos="l" depth="3" NCoef="0" IVar="-1" Cut="0.0000000000000000e+00" cType="1" res="6.4334712922573090e-02" rms="2.5055748224258423e-01" purity="3.0885726213455200e-01" nType="-99"/>
