<?xml version="1.0"?>
<MethodSetup Method="BDT::BDTG">
  <GeneralInfo>
    <Info name="TMVA Release" value="4.2.1 [262657]"/>
    <Info name="ROOT Release" value="6.14/04 [396804]"/>
    <Info name="Creator" value="unok"/>
    <Info name="Date" value="Mon Jan 14 15:53:06 2019"/>
    <Info name="Host" value="Linux lcgapp-slc6-x86-64-39.cern.ch 2.6.32-696.30.1.el6.x86_64 #1 SMP Tue May 22 06:09:36 CEST 2018 x86_64 x86_64 x86_64 GNU/Linux"/>
    <Info name="Dir" value="/gpfs/fs6001/unok/TMVA/2018/v142/V2/TMVA-0L"/>
    <Info name="Training events" value="1018697"/>
    <Info name="TrainingTime" value="7.88429366e+02"/>
    <Info name="AnalysisType" value="Classification"/>
  </GeneralInfo>
  <Options>
    <Option name="V" modified="Yes">False</Option>
    <Option name="VerbosityLevel" modified="No">Default</Option>
    <Option name="VarTransform" modified="No">None</Option>
    <Option name="H" modified="Yes">False</Option>
    <Option name="CreateMVAPdfs" modified="No">False</Option>
    <Option name="IgnoreNegWeightsInTraining" modified="No">False</Option>
    <Option name="NTrees" modified="Yes">800</Option>
    <Option name="MaxDepth" modified="Yes">3</Option>
    <Option name="MinNodeSize" modified="Yes">2.500000%</Option>
    <Option name="nCuts" modified="Yes">20</Option>
    <Option name="BoostType" modified="Yes">Grad</Option>
    <Option name="AdaBoostR2Loss" modified="No">quadratic</Option>
    <Option name="UseBaggedBoost" modified="Yes">True</Option>
    <Option name="Shrinkage" modified="Yes">2.000000e-01</Option>
    <Option name="AdaBoostBeta" modified="No">5.000000e-01</Option>
    <Option name="UseRandomisedTrees" modified="No">False</Option>
    <Option name="UseNvars" modified="No">3</Option>
    <Option name="UsePoissonNvars" modified="No">True</Option>
    <Option name="BaggedSampleFraction" modified="Yes">5.000000e-01</Option>
    <Option name="UseYesNoLeaf" modified="No">True</Option>
    <Option name="NegWeightTreatment" modified="Yes">pray</Option>
    <Option name="Css" modified="No">1.000000e+00</Option>
    <Option name="Cts_sb" modified="No">1.000000e+00</Option>
    <Option name="Ctb_ss" modified="No">1.000000e+00</Option>
    <Option name="Cbb" modified="No">1.000000e+00</Option>
    <Option name="NodePurityLimit" modified="No">5.000000e-01</Option>
    <Option name="SeparationType" modified="No">giniindex</Option>
    <Option name="RegressionLossFunctionBDTG" modified="No">huber</Option>
    <Option name="HuberQuantile" modified="No">7.000000e-01</Option>
    <Option name="DoBoostMonitor" modified="No">False</Option>
    <Option name="UseFisherCuts" modified="No">False</Option>
    <Option name="MinLinCorrForFisher" modified="No">8.000000e-01</Option>
    <Option name="UseExclusiveVars" modified="No">False</Option>
    <Option name="DoPreselection" modified="No">False</Option>
    <Option name="SigToBkgFraction" modified="No">1.000000e+00</Option>
    <Option name="PruneMethod" modified="No">nopruning</Option>
    <Option name="PruneStrength" modified="No">0.000000e+00</Option>
    <Option name="PruningValFraction" modified="No">5.000000e-01</Option>
    <Option name="SkipNormalization" modified="No">False</Option>
    <Option name="nEventsMin" modified="No">0</Option>
    <Option name="UseBaggedGrad" modified="No">False</Option>
    <Option name="GradBaggingFraction" modified="No">5.000000e-01</Option>
    <Option name="UseNTrainEvents" modified="No">0</Option>
    <Option name="NNodesMax" modified="No">0</Option>
  </Options>
  <Variables NVar="11">
    <Variable VarIndex="0" Expression="met" Label="met" Title="E_{T}^{miss}" Unit="GeV" Internal="met" Type="F" Min="3.00000031e+02" Max="3.38783057e+03"/>
    <Variable VarIndex="1" Expression="meff" Label="meff" Title="m_{eff}(incl.)" Unit="GeV" Internal="meff" Type="F" Min="8.00004700e+02" Max="7.20206689e+03"/>
    <Variable VarIndex="2" Expression="Ap" Label="Ap" Title="Aplanarity" Unit="" Internal="Ap" Type="F" Min="1.11792417e-07" Max="4.70290571e-01"/>
    <Variable VarIndex="3" Expression="jetPt0" Label="jetPt0" Title="p_{T}(j_{1})" Unit="GeV" Internal="jetPt0" Type="F" Min="2.00000732e+02" Max="3.35724292e+03"/>
    <Variable VarIndex="4" Expression="jetPt1" Label="jetPt1" Title="p_{T}(j_{2})" Unit="GeV" Internal="jetPt1" Type="F" Min="5.07378159e+01" Max="2.04270520e+03"/>
    <Variable VarIndex="5" Expression="jetPt2" Label="jetPt2" Title="p_{T}(j_{3})" Unit="GeV" Internal="jetPt2" Type="F" Min="5.00359535e+01" Max="1.08783679e+03"/>
    <Variable VarIndex="6" Expression="jetPt3" Label="jetPt3" Title="p_{T}(j_{4})" Unit="GeV" Internal="jetPt3" Type="F" Min="5.00000153e+01" Max="7.86924744e+02"/>
    <Variable VarIndex="7" Expression="jetEta0" Label="jetEta0" Title="#eta(j_{1})" Unit="" Internal="jetEta0" Type="F" Min="-2.78269053e+00" Max="2.79993796e+00"/>
    <Variable VarIndex="8" Expression="jetEta1" Label="jetEta1" Title="#eta(j_{2})" Unit="" Internal="jetEta1" Type="F" Min="-2.79993296e+00" Max="2.79999733e+00"/>
    <Variable VarIndex="9" Expression="jetEta2" Label="jetEta2" Title="#eta(j_{3})" Unit="" Internal="jetEta2" Type="F" Min="-2.79997253e+00" Max="2.79993677e+00"/>
    <Variable VarIndex="10" Expression="jetEta3" Label="jetEta3" Title="#eta(j_{4})" Unit="" Internal="jetEta3" Type="F" Min="-2.79996204e+00" Max="2.79998899e+00"/>
  </Variables>
  <Spectators NSpec="0">
  </Spectators>
  <Classes NClass="2">
    <Class Name="Signal" Index="0"/>
    <Class Name="Background" Index="1"/>
  </Classes>
  <Transformations NTransformations="0"/>
  <MVAPdfs/>
  <Weights NTrees="800" AnalysisType="1">
    <BinaryTree type="DecisionTree" boostWeight="1.0000000000000000e+00" itree="0">
      <Node pos="s" depth="0" NCoef="0" IVar="1" Cut="1.4083432617187500e+03" cType="1" res="-2.9145188163965940e-03" rms="4.9999150633811951e-01" purity="4.9708545207977295e-01" nType="0">
        <Node pos="l" depth="1" NCoef="0" IVar="1" Cut="1.1765971679687500e+03" cType="1" res="-3.2687979936599731e-01" rms="3.7835115194320679e-01" purity="1.7312020063400269e-01" nType="0">
          <Node pos="l" depth="2" NCoef="0" IVar="2" Cut="5.9977237135171890e-02" cType="1" res="-4.2304795980453491e-01" rms="2.6651534438133240e-01" purity="7.6952047646045685e-02" nType="0">
            <Node pos="l" depth="3" NCoef="0" IVar="-1" Cut="0.0000000000000000e+00" cType="1" res="-1.7950324714183807e-01" rms="2.2049070894718170e-01" purity="5.1241878420114517e-02" nType="-99"/>
            <Node pos="r" depth="3" NCoef="0" IVar="-1" Cut="0.0000000000000000e+00" cType="1" res="-1.2375611066818237e-01" rms="3.9278194308280945e-01" purity="1.9060972332954407e-01" nType="-99"/>
          </Node>
          <Node pos="r" depth="2" NCoef="0" IVar="2" Cut="4.1730478405952454e-02" cType="1" res="-1.4525058865547180e-01" rms="4.7843730449676514e-01" purity="3.5474941134452820e-01" nType="0">
            <Node pos="l" depth="3" NCoef="0" IVar="-1" Cut="0.0000000000000000e+00" cType="1" res="-1.1200497299432755e-01" rms="4.1423791646957397e-01" purity="2.1998755633831024e-01" nType="-99"/>
            <Node pos="r" depth="3" NCoef="0" IVar="-1" Cut="0.0000000000000000e+00" cType="1" res="2.7583109214901924e-02" rms="4.9522200226783752e-01" purity="5.6895780563354492e-01" nType="-99"/>
          </Node>
        </Node>
        <Node pos="r" depth="1" NCoef="0" IVar="2" Cut="2.2394988685846329e-02" cType="1" res="3.1963008642196655e-01" rms="3.8449525833129883e-01" purity="8.1963008642196655e-01" nType="0">
          <Node pos="l" depth="2" NCoef="0" IVar="1" Cut="1.9587395019531250e+03" cType="1" res="1.0148625820875168e-01" rms="4.8959222435951233e-01" purity="6.0148626565933228e-01" nType="0">
            <Node pos="l" depth="3" NCoef="0" IVar="-1" Cut="0.0000000000000000e+00" cType="1" res="-1.4808498322963715e-02" rms="4.9862754344940186e-01" purity="4.6297875046730042e-01" nType="-99"/>
            <Node pos="r" depth="3" NCoef="0" IVar="-1" Cut="0.0000000000000000e+00" cType="1" res="1.3566233217716217e-01" rms="3.6738714575767517e-01" purity="8.3915585279464722e-01" nType="-99"/>
          </Node>
          <Node pos="r" depth="2" NCoef="0" IVar="1" Cut="1.6426297607421875e+03" cType="1" res="3.9481741189956665e-01" rms="3.0678853392601013e-01" purity="8.9481741189956665e-01" nType="0">
            <Node pos="l" depth="3" NCoef="0" IVar="-1" Cut="0.0000000000000000e+00" cType="1" res="1.0454823076725006e-01" rms="4.2624571919441223e-01" purity="7.6137053966522217e-01" nType="-99"/>
            <Node pos="r" depth="3" NCoef="0" IVar="-1" Cut="0.0000000000000000e+00" cType="1" res="1.7530247569084167e-01" rms="2.4068965017795563e-01" purity="9.3825620412826538e-01" nType="-99"/>
          </Node>
        </Node>
      </Node>
    </BinaryTree>
    <BinaryTree type="DecisionTree" boostWeight="1.0000000000000000e+00" itree="1">
      <Node pos="s" depth="0" NCoef="0" IVar="1" Cut="1.3896972656250000e+03" cType="1" res="5.4549664491787553e-04" rms="4.4932004809379578e-01" purity="5.0085461139678955e-01" nType="0">
        <Node pos="l" depth="1" NCoef="0" IVar="1" Cut="1.1369724121093750e+03" cType="1" res="-2.7306589484214783e-01" rms="3.5428360104560852e-01" purity="1.6132427752017975e-01" nType="0">
          <Node pos="l" depth="2" NCoef="0" IVar="1" Cut="1.0086015014648438e+03" cType="1" res="-3.5859060287475586e-01" rms="2.3084875941276550e-01" purity="5.7442154735326767e-02" nType="0">
            <Node pos="l" depth="3" NCoef="0" IVar="-1" Cut="0.0000000000000000e+00" cType="1" res="-1.6129536926746368e-01" rms="1.5202245116233826e-01" purity="2.4109475314617157e-02" nType="-99"/>
            <Node pos="r" depth="3" NCoef="0" IVar="-1" Cut="0.0000000000000000e+00" cType="1" res="-1.2899044156074524e-01" rms="3.0184879899024963e-01" purity="1.0312853753566742e-01" nType="-99"/>
          </Node>
          <Node pos="r" depth="2" NCoef="0" IVar="2" Cut="3.7626214325428009e-02" cType="1" res="-1.4659255743026733e-01" rms="4.5333394408226013e-01" purity="3.1494444608688354e-01" nType="0">
            <Node pos="l" depth="3" NCoef="0" IVar="-1" Cut="0.0000000000000000e+00" cType="1" res="-1.0077765583992004e-01" rms="3.9131709933280945e-01" purity="1.8980959057807922e-01" nType="-99"/>
            <Node pos="r" depth="3" NCoef="0" IVar="-1" Cut="0.0000000000000000e+00" cType="1" res="-3.3462103601777926e-05" rms="4.9497616291046143e-01" purity="4.9599689245223999e-01" nType="-99"/>
          </Node>
        </Node>
        <Node pos="r" depth="1" NCoef="0" IVar="1" Cut="1.6564593505859375e+03" cType="1" res="2.5406363606452942e-01" rms="3.7284678220748901e-01" purity="8.1545078754425049e-01" nType="0">
          <Node pos="l" depth="2" NCoef="0" IVar="2" Cut="3.8055323064327240e-02" cType="1" res="8.7875217199325562e-02" rms="4.7426688671112061e-01" purity="6.1677229404449463e-01" nType="0">
            <Node pos="l" depth="3" NCoef="0" IVar="-1" Cut="0.0000000000000000e+00" cType="1" res="-3.5257466137409210e-02" rms="4.8656859993934631e-01" purity="4.1736829280853271e-01" nType="-99"/>
            <Node pos="r" depth="3" NCoef="0" IVar="-1" Cut="0.0000000000000000e+00" cType="1" res="9.9679648876190186e-02" rms="4.0155565738677979e-01" purity="7.9682493209838867e-01" nType="-99"/>
          </Node>
          <Node pos="r" depth="2" NCoef="0" IVar="2" Cut="2.2395338863134384e-02" cType="1" res="3.2405510544776917e-01" rms="2.9376977682113647e-01" purity="8.9912569522857666e-01" nType="0">
            <Node pos="l" depth="3" NCoef="0" IVar="-1" Cut="0.0000000000000000e+00" cType="1" res="8.6734190583229065e-02" rms="4.2606529593467712e-01" purity="7.4985688924789429e-01" nType="-99"/>
            <Node pos="r" depth="3" NCoef="0" IVar="-1" Cut="0.0000000000000000e+00" cType="1" res="1.4692054688930511e-01" rms="2.3183228075504303e-01" purity="9.4300544261932373e-01" nType="-99"/>
          </Node>
        </Node>
      </Node>
    </BinaryTree>
    <BinaryTree type="DecisionTree" boostWeight="1.0000000000000000e+00" itree="2">
      <Node pos="s" depth="0" NCoef="0" IVar="1" Cut="1.4052908935546875e+03" cType="1" res="-3.7215175689198077e-04" rms="4.1270262002944946e-01" purity="5.0013965368270874e-01" nType="0">
        <Node pos="l" depth="1" NCoef="0" IVar="1" Cut="1.2611755371093750e+03" cType="1" res="-2.1802952885627747e-01" rms="3.4796023368835449e-01" purity="1.6511169075965881e-01" nType="0">
          <Node pos="l" depth="2" NCoef="0" IVar="2" Cut="6.1381366103887558e-02" cType="1" res="-2.6348939538002014e-01" rms="2.9124227166175842e-01" purity="1.0204468667507172e-01" nType="0">
            <Node pos="l" depth="3" NCoef="0" IVar="-1" Cut="0.0000000000000000e+00" cType="1" res="-1.2622226774692535e-01" rms="2.4623550474643707e-01" purity="6.7576281726360321e-02" nType="-99"/>
            <Node pos="r" depth="3" NCoef="0" IVar="-1" Cut="0.0000000000000000e+00" cType="1" res="-6.6243790090084076e-02" rms="4.1898027062416077e-01" purity="2.5098672509193420e-01" nType="-99"/>
          </Node>
          <Node pos="r" depth="2" NCoef="0" IVar="3" Cut="4.3795507812500000e+02" cType="1" res="-4.1615720838308334e-02" rms="4.7183129191398621e-01" purity="4.0985256433486938e-01" nType="0">
            <Node pos="l" depth="3" NCoef="0" IVar="-1" Cut="0.0000000000000000e+00" cType="1" res="2.0409489050507545e-02" rms="4.8332694172859192e-01" purity="5.1282823085784912e-01" nType="-99"/>
            <Node pos="r" depth="3" NCoef="0" IVar="-1" Cut="0.0000000000000000e+00" cType="1" res="-1.0908613353967667e-01" rms="3.5556465387344360e-01" purity="1.6032005846500397e-01" nType="-99"/>
          </Node>
        </Node>
        <Node pos="r" depth="1" NCoef="0" IVar="0" Cut="4.4441381835937500e+02" cType="1" res="2.0814028382301331e-01" rms="3.5866382718086243e-01" purity="8.2109123468399048e-01" nType="0">
          <Node pos="l" depth="2" NCoef="0" IVar="6" Cut="1.2712245178222656e+02" cType="1" res="2.2228186950087547e-02" rms="4.6264985203742981e-01" purity="5.9952348470687866e-01" nType="0">
            <Node pos="l" depth="3" NCoef="0" IVar="-1" Cut="0.0000000000000000e+00" cType="1" res="-5.3373467177152634e-02" rms="4.6936905384063721e-01" purity="4.2125666141510010e-01" nType="-99"/>
            <Node pos="r" depth="3" NCoef="0" IVar="-1" Cut="0.0000000000000000e+00" cType="1" res="7.2263188660144806e-02" rms="4.0426334738731384e-01" purity="7.7352887392044067e-01" nType="-99"/>
          </Node>
          <Node pos="r" depth="2" NCoef="0" IVar="5" Cut="1.4472244262695312e+02" cType="1" res="2.5015616416931152e-01" rms="3.1585073471069336e-01" purity="8.7116527557373047e-01" nType="0">
            <Node pos="l" depth="3" NCoef="0" IVar="-1" Cut="0.0000000000000000e+00" cType="1" res="4.2912069708108902e-02" rms="4.3959963321685791e-01" purity="6.8483668565750122e-01" nType="-99"/>
            <Node pos="r" depth="3" NCoef="0" IVar="-1" Cut="0.0000000000000000e+00" cType="1" res="1.2700290977954865e-01" rms="2.5409203767776489e-01" purity="9.2508733272552490e-01" nType="-99"/>
          </Node>
        </Node>
      </Node>
    </BinaryTree>
    <BinaryTree type="DecisionTree" boostWeight="1.0000000000000000e+00" itree="3">
      <Node pos="s" depth="0" NCoef="0" IVar="1" Cut="1.4097248535156250e+03" cType="1" res="-2.8358474373817444e-03" rms="3.8757821917533875e-01" purity="4.9521809816360474e-01" nType="0">
        <Node pos="l" depth="1" NCoef="0" IVar="5" Cut="1.4149488830566406e+02" cType="1" res="-1.7332996428012848e-01" rms="3.4315201640129089e-01" purity="1.6813457012176514e-01" nType="0">
          <Node pos="l" depth="2" NCoef="0" IVar="5" Cut="1.0665737152099609e+02" cType="1" res="-2.1475939452648163e-01" rms="2.9277357459068298e-01" purity="1.0860003530979156e-01" nType="0">
            <Node pos="l" depth="3" NCoef="0" IVar="-1" Cut="0.0000000000000000e+00" cType="1" res="-1.1562903225421906e-01" rms="2.3771543800830841e-01" purity="6.6226720809936523e-02" nType="-99"/>
            <Node pos="r" depth="3" NCoef="0" IVar="-1" Cut="0.0000000000000000e+00" cType="1" res="-6.7315116524696350e-02" rms="3.7640926241874695e-01" purity="1.9897951185703278e-01" nType="-99"/>
          </Node>
          <Node pos="r" depth="2" NCoef="0" IVar="2" Cut="4.0455836802721024e-02" cType="1" res="-2.4337898939847946e-02" rms="4.5232298970222473e-01" purity="3.8223776221275330e-01" nType="0">
            <Node pos="l" depth="3" NCoef="0" IVar="-1" Cut="0.0000000000000000e+00" cType="1" res="-5.7430759072303772e-02" rms="4.0319591760635376e-01" purity="2.1974955499172211e-01" nType="-99"/>
            <Node pos="r" depth="3" NCoef="0" IVar="-1" Cut="0.0000000000000000e+00" cType="1" res="3.3961344510316849e-02" rms="4.7426548600196838e-01" purity="5.4775375127792358e-01" nType="-99"/>
          </Node>
        </Node>
        <Node pos="r" depth="1" NCoef="0" IVar="2" Cut="2.0870944485068321e-02" cType="1" res="1.6585838794708252e-01" rms="3.5372105240821838e-01" purity="8.1884860992431641e-01" nType="0">
          <Node pos="l" depth="2" NCoef="0" IVar="0" Cut="5.9407983398437500e+02" cType="1" res="1.7380518838763237e-02" rms="4.6232151985168457e-01" purity="5.8619672060012817e-01" nType="0">
            <Node pos="l" depth="3" NCoef="0" IVar="-1" Cut="0.0000000000000000e+00" cType="1" res="-4.3566506356000900e-02" rms="4.7607484459877014e-01" purity="4.2090594768524170e-01" nType="-99"/>
            <Node pos="r" depth="3" NCoef="0" IVar="-1" Cut="0.0000000000000000e+00" cType="1" res="5.9536978602409363e-02" rms="4.1354051232337952e-01" purity="7.4891793727874756e-01" nType="-99"/>
          </Node>
          <Node pos="r" depth="2" NCoef="0" IVar="0" Cut="4.1253387451171875e+02" cType="1" res="2.1260075271129608e-01" rms="2.9680672287940979e-01" purity="8.9208984375000000e-01" nType="0">
            <Node pos="l" depth="3" NCoef="0" IVar="-1" Cut="0.0000000000000000e+00" cType="1" res="2.8768375515937805e-02" rms="4.4836878776550293e-01" purity="6.8884587287902832e-01" nType="-99"/>
            <Node pos="r" depth="3" NCoef="0" IVar="-1" Cut="0.0000000000000000e+00" cType="1" res="1.0882005095481873e-01" rms="2.6412230730056763e-01" purity="9.1927552223205566e-01" nType="-99"/>
          </Node>
        </Node>
      </Node>
    </BinaryTree>
    <BinaryTree type="DecisionTree" boostWeight="1.0000000000000000e+00" itree="4">
      <Node pos="s" depth="0" NCoef="0" IVar="1" Cut="1.3944945068359375e+03" cType="1" res="-2.0783493528142571e-04" rms="3.6832588911056519e-01" purity="4.9966910481452942e-01" nType="0">
        <Node pos="l" depth="1" NCoef="0" IVar="2" Cut="8.2130327820777893e-02" cType="1" res="-1.4602099359035492e-01" rms="3.3298614621162415e-01" purity="1.5876127779483795e-01" nType="0">
          <Node pos="l" depth="2" NCoef="0" IVar="1" Cut="1.1114038085937500e+03" cType="1" res="-1.7124864459037781e-01" rms="3.0198699235916138e-01" purity="1.1868990212678909e-01" nType="0">
            <Node pos="l" depth="3" NCoef="0" IVar="-1" Cut="0.0000000000000000e+00" cType="1" res="-1.1218068003654480e-01" rms="1.9580444693565369e-01" purity="4.0908023715019226e-02" nType="-99"/>
            <Node pos="r" depth="3" NCoef="0" IVar="-1" Cut="0.0000000000000000e+00" cType="1" res="-5.4111979901790619e-02" rms="3.9611250162124634e-01" purity="2.2262710332870483e-01" nType="-99"/>
          </Node>
          <Node pos="r" depth="2" NCoef="0" IVar="-1" Cut="0.0000000000000000e+00" cType="1" res="6.5480093471705914e-03" rms="4.5447224378585815e-01" purity="4.1459938883781433e-01" nType="-99"/>
        </Node>
        <Node pos="r" depth="1" NCoef="0" IVar="5" Cut="1.4032882690429688e+02" cType="1" res="1.3552683591842651e-01" rms="3.4715884923934937e-01" purity="8.1701362133026123e-01" nType="0">
          <Node pos="l" depth="2" NCoef="0" IVar="2" Cut="1.8697982653975487e-02" cType="1" res="-1.0983338579535484e-02" rms="4.4923323392868042e-01" purity="5.9166347980499268e-01" nType="0">
            <Node pos="l" depth="3" NCoef="0" IVar="-1" Cut="0.0000000000000000e+00" cType="1" res="-5.1738973706960678e-02" rms="4.6124219894409180e-01" purity="4.0794575214385986e-01" nType="-99"/>
            <Node pos="r" depth="3" NCoef="0" IVar="-1" Cut="0.0000000000000000e+00" cType="1" res="3.7767883390188217e-02" rms="4.1642066836357117e-01" purity="7.4252516031265259e-01" nType="-99"/>
          </Node>
          <Node pos="r" depth="2" NCoef="0" IVar="0" Cut="4.4441247558593750e+02" cType="1" res="1.7151796817779541e-01" rms="3.0656343698501587e-01" purity="8.7237232923507690e-01" nType="0">
            <Node pos="l" depth="3" NCoef="0" IVar="-1" Cut="0.0000000000000000e+00" cType="1" res="2.6675889268517494e-02" rms="4.4189420342445374e-01" purity="6.6626429557800293e-01" nType="-99"/>
            <Node pos="r" depth="3" NCoef="0" IVar="-1" Cut="0.0000000000000000e+00" cType="1" res="1.0045173019170761e-01" rms="2.5749692320823669e-01" purity="9.2141050100326538e-01" nType="-99"/>
          </Node>
        </Node>
      </Node>
    </BinaryTree>
    <BinaryTree type="DecisionTree" boostWeight="1.0000000000000000e+00" itree="5">
      <Node pos="s" depth="0" NCoef="0" IVar="5" Cut="1.4888414001464844e+02" cType="1" res="-7.0757238427177072e-04" rms="3.5540059208869934e-01" purity="4.9837952852249146e-01" nType="0">
        <Node pos="l" depth="1" NCoef="0" IVar="0" Cut="5.7298370361328125e+02" cType="1" res="-1.1022280901670456e-01" rms="3.3645346760749817e-01" purity="2.2876398265361786e-01" nType="0">
          <Node pos="l" depth="2" NCoef="0" IVar="2" Cut="6.2595061957836151e-02" cType="1" res="-1.4371740818023682e-01" rms="3.0706387758255005e-01" purity="1.4435689151287079e-01" nType="0">
            <Node pos="l" depth="3" NCoef="0" IVar="-1" Cut="0.0000000000000000e+00" cType="1" res="-9.0362951159477234e-02" rms="2.7108284831047058e-01" purity="1.0064027458429337e-01" nType="-99"/>
            <Node pos="r" depth="3" NCoef="0" IVar="-1" Cut="0.0000000000000000e+00" cType="1" res="-2.0546102896332741e-02" rms="4.1843000054359436e-01" purity="3.3940660953521729e-01" nType="-99"/>
          </Node>
          <Node pos="r" depth="2" NCoef="0" IVar="4" Cut="2.2159022521972656e+02" cType="1" res="7.1633286774158478e-02" rms="4.2038440704345703e-01" purity="6.8704533576965332e-01" nType="0">
            <Node pos="l" depth="3" NCoef="0" IVar="-1" Cut="0.0000000000000000e+00" cType="1" res="-9.5230424776673317e-03" rms="4.5588740706443787e-01" purity="5.3822124004364014e-01" nType="-99"/>
            <Node pos="r" depth="3" NCoef="0" IVar="-1" Cut="0.0000000000000000e+00" cType="1" res="6.9595575332641602e-02" rms="3.7124520540237427e-01" purity="8.1048840284347534e-01" nType="-99"/>
          </Node>
        </Node>
        <Node pos="r" depth="1" NCoef="0" IVar="0" Cut="4.4704147338867188e+02" cType="1" res="1.1925970017910004e-01" rms="3.3636128902435303e-01" purity="7.9372686147689819e-01" nType="0">
          <Node pos="l" depth="2" NCoef="0" IVar="2" Cut="6.1381503939628601e-02" cType="1" res="1.9321041181683540e-02" rms="4.4454962015151978e-01" purity="5.2236896753311157e-01" nType="0">
            <Node pos="l" depth="3" NCoef="0" IVar="-1" Cut="0.0000000000000000e+00" cType="1" res="-2.5664191693067551e-02" rms="4.4623166322708130e-01" purity="3.8709232211112976e-01" nType="-99"/>
            <Node pos="r" depth="3" NCoef="0" IVar="-1" Cut="0.0000000000000000e+00" cType="1" res="5.8796647936105728e-02" rms="4.1644254326820374e-01" purity="7.2589343786239624e-01" nType="-99"/>
          </Node>
          <Node pos="r" depth="2" NCoef="0" IVar="6" Cut="1.2018351745605469e+02" cType="1" res="1.6292370855808258e-01" rms="2.6449248194694519e-01" purity="9.1228532791137695e-01" nType="0">
            <Node pos="l" depth="3" NCoef="0" IVar="-1" Cut="0.0000000000000000e+00" cType="1" res="6.5910287201404572e-02" rms="3.3950370550155640e-01" purity="8.4270656108856201e-01" nType="-99"/>
            <Node pos="r" depth="3" NCoef="0" IVar="-1" Cut="0.0000000000000000e+00" cType="1" res="1.0447917878627777e-01" rms="2.0996686816215515e-01" purity="9.5014345645904541e-01" nType="-99"/>
          </Node>
        </Node>
      </Node>
    </BinaryTree>
    <BinaryTree type="DecisionTree" boostWeight="1.0000000000000000e+00" itree="6">
      <Node pos="s" depth="0" NCoef="0" IVar="1" Cut="1.4097248535156250e+03" cType="1" res="1.2162536149844527e-03" rms="3.4464737772941589e-01" purity="5.0082117319107056e-01" nType="0">
        <Node pos="l" depth="1" NCoef="0" IVar="1" Cut="1.2935854492187500e+03" cType="1" res="-9.3559734523296356e-02" rms="3.3079209923744202e-01" purity="1.6899549961090088e-01" nType="0">
          <Node pos="l" depth="2" NCoef="0" IVar="1" Cut="1.0350424804687500e+03" cType="1" res="-1.2003727257251740e-01" rms="2.9332947731018066e-01" purity="1.1452509462833405e-01" nType="0">
            <Node pos="l" depth="3" NCoef="0" IVar="-1" Cut="0.0000000000000000e+00" cType="1" res="-1.0299647599458694e-01" rms="1.7854802310466766e-01" purity="3.3850099891424179e-02" nType="-99"/>
            <Node pos="r" depth="3" NCoef="0" IVar="-1" Cut="0.0000000000000000e+00" cType="1" res="-4.5578997582197189e-02" rms="3.6263915896415710e-01" purity="1.8592016398906708e-01" nType="-99"/>
          </Node>
          <Node pos="r" depth="2" NCoef="0" IVar="2" Cut="2.0228067412972450e-02" cType="1" res="3.9884641766548157e-02" rms="4.5378625392913818e-01" purity="4.4352141022682190e-01" nType="0">
            <Node pos="l" depth="3" NCoef="0" IVar="-1" Cut="0.0000000000000000e+00" cType="1" res="-3.7345562130212784e-02" rms="4.0575131773948669e-01" purity="2.2293545305728912e-01" nType="-99"/>
            <Node pos="r" depth="3" NCoef="0" IVar="-1" Cut="0.0000000000000000e+00" cType="1" res="4.5946445316076279e-02" rms="4.6618679165840149e-01" purity="5.7265824079513550e-01" nType="-99"/>
          </Node>
        </Node>
        <Node pos="r" depth="1" NCoef="0" IVar="2" Cut="4.0623936802148819e-02" cType="1" res="9.3473464250564575e-02" rms="3.3262044191360474e-01" purity="8.2382816076278687e-01" nType="0">
          <Node pos="l" depth="2" NCoef="0" IVar="1" Cut="1.6855560302734375e+03" cType="1" res="2.4841804057359695e-02" rms="4.1297575831413269e-01" purity="6.7734873294830322e-01" nType="0">
            <Node pos="l" depth="3" NCoef="0" IVar="-1" Cut="0.0000000000000000e+00" cType="1" res="-3.0017279088497162e-02" rms="4.6402791142463684e-01" purity="4.6626773476600647e-01" nType="-99"/>
            <Node pos="r" depth="3" NCoef="0" IVar="-1" Cut="0.0000000000000000e+00" cType="1" res="4.4728796929121017e-02" rms="3.6460807919502258e-01" purity="8.1065469980239868e-01" nType="-99"/>
          </Node>
          <Node pos="r" depth="2" NCoef="0" IVar="1" Cut="1.8975830078125000e+03" cType="1" res="1.3971666991710663e-01" rms="2.5486421585083008e-01" purity="9.2252427339553833e-01" nType="0">
            <Node pos="l" depth="3" NCoef="0" IVar="-1" Cut="0.0000000000000000e+00" cType="1" res="6.2597565352916718e-02" rms="3.2880124449729919e-01" purity="8.6522781848907471e-01" nType="-99"/>
            <Node pos="r" depth="3" NCoef="0" IVar="-1" Cut="0.0000000000000000e+00" cType="1" res="1.0656910389661789e-01" rms="1.5872944891452789e-01" purity="9.7385597229003906e-01" nType="-99"/>
          </Node>
        </Node>
      </Node>
    </BinaryTree>
    <BinaryTree type="DecisionTree" boostWeight="1.0000000000000000e+00" itree="7">
      <Node pos="s" depth="0" NCoef="0" IVar="5" Cut="1.4888414001464844e+02" cType="1" res="-1.5497205313295126e-03" rms="3.3784735202789307e-01" purity="4.9915793538093567e-01" nType="0">
        <Node pos="l" depth="1" NCoef="0" IVar="0" Cut="4.3649264526367188e+02" cType="1" res="-7.6529331505298615e-02" rms="3.3037242293357849e-01" purity="2.2611229121685028e-01" nType="0">
          <Node pos="l" depth="2" NCoef="0" IVar="3" Cut="4.8502258300781250e+02" cType="1" res="-1.1966663599014282e-01" rms="2.6480138301849365e-01" purity="8.9380912482738495e-02" nType="0">
            <Node pos="l" depth="3" NCoef="0" IVar="-1" Cut="0.0000000000000000e+00" cType="1" res="-7.3013715445995331e-02" rms="2.5917106866836548e-01" purity="8.4844321012496948e-02" nType="-99"/>
            <Node pos="r" depth="3" NCoef="0" IVar="-1" Cut="0.0000000000000000e+00" cType="1" res="-9.9523507058620453e-02" rms="2.9592496156692505e-01" purity="1.2725250422954559e-01" nType="-99"/>
          </Node>
          <Node pos="r" depth="2" NCoef="0" IVar="2" Cut="1.9459541887044907e-02" cType="1" res="-1.5785914147272706e-03" rms="4.1000342369079590e-01" purity="4.6368208527565002e-01" nType="0">
            <Node pos="l" depth="3" NCoef="0" IVar="-1" Cut="0.0000000000000000e+00" cType="1" res="-4.5960050076246262e-02" rms="3.8901370763778687e-01" purity="2.7735882997512817e-01" nType="-99"/>
            <Node pos="r" depth="3" NCoef="0" IVar="-1" Cut="0.0000000000000000e+00" cType="1" res="3.3888414502143860e-02" rms="4.1230383515357971e-01" purity="6.0427778959274292e-01" nType="-99"/>
          </Node>
        </Node>
        <Node pos="r" depth="1" NCoef="0" IVar="0" Cut="4.4441424560546875e+02" cType="1" res="7.8993313014507294e-02" rms="3.2707813382148743e-01" purity="7.9246330261230469e-01" nType="0">
          <Node pos="l" depth="2" NCoef="0" IVar="0" Cut="3.6189230346679688e+02" cType="1" res="1.3784141046926379e-03" rms="4.3496823310852051e-01" purity="5.1167434453964233e-01" nType="0">
            <Node pos="l" depth="3" NCoef="0" IVar="-1" Cut="0.0000000000000000e+00" cType="1" res="-3.3817768096923828e-02" rms="4.2974996566772461e-01" purity="3.7230864167213440e-01" nType="-99"/>
            <Node pos="r" depth="3" NCoef="0" IVar="-1" Cut="0.0000000000000000e+00" cType="1" res="2.8968699276447296e-02" rms="4.2980030179023743e-01" purity="6.2674105167388916e-01" nType="-99"/>
          </Node>
          <Node pos="r" depth="2" NCoef="0" IVar="7" Cut="-8.5874772071838379e-01" cType="1" res="1.1232390254735947e-01" rms="2.6072058081626892e-01" purity="9.1304403543472290e-01" nType="0">
            <Node pos="l" depth="3" NCoef="0" IVar="-1" Cut="0.0000000000000000e+00" cType="1" res="2.2896775975823402e-02" rms="3.5507988929748535e-01" purity="8.0690699815750122e-01" nType="-99"/>
            <Node pos="r" depth="3" NCoef="0" IVar="-1" Cut="0.0000000000000000e+00" cType="1" res="8.0255046486854553e-02" rms="2.4669997394084930e-01" purity="9.2477160692214966e-01" nType="-99"/>
          </Node>
        </Node>
      </Node>
    </BinaryTree>
    <BinaryTree type="DecisionTree" boostWeight="1.0000000000000000e+00" itree="8">
      <Node pos="s" depth="0" NCoef="0" IVar="6" Cut="8.5091720581054688e+01" cType="1" res="-3.5893457243219018e-04" rms="3.3442541956901550e-01" purity="4.9636286497116089e-01" nType="0">
        <Node pos="l" depth="1" NCoef="0" IVar="0" Cut="5.9407910156250000e+02" cType="1" res="-7.5857065618038177e-02" rms="3.1883439421653748e-01" purity="2.3551894724369049e-01" nType="0">
          <Node pos="l" depth="2" NCoef="0" IVar="0" Cut="3.9802603149414062e+02" cType="1" res="-9.4674557447433472e-02" rms="3.0003708600997925e-01" purity="1.4705413579940796e-01" nType="0">
            <Node pos="l" depth="3" NCoef="0" IVar="-1" Cut="0.0000000000000000e+00" cType="1" res="-7.9923652112483978e-02" rms="2.3928897082805634e-01" purity="7.2541505098342896e-02" nType="-99"/>
            <Node pos="r" depth="3" NCoef="0" IVar="-1" Cut="0.0000000000000000e+00" cType="1" res="-3.8388624787330627e-02" rms="3.6903274059295654e-01" purity="2.5496447086334229e-01" nType="-99"/>
          </Node>
          <Node pos="r" depth="2" NCoef="0" IVar="2" Cut="1.8177920952439308e-02" cType="1" res="2.9329834505915642e-02" rms="3.9196819067001343e-01" purity="7.3002374172210693e-01" nType="0">
            <Node pos="l" depth="3" NCoef="0" IVar="-1" Cut="0.0000000000000000e+00" cType="1" res="-1.9430611282587051e-02" rms="4.5565402507781982e-01" purity="5.4474866390228271e-01" nType="-99"/>
            <Node pos="r" depth="3" NCoef="0" IVar="-1" Cut="0.0000000000000000e+00" cType="1" res="4.5981995761394501e-02" rms="3.3856242895126343e-01" purity="8.4587323665618896e-01" nType="-99"/>
          </Node>
        </Node>
        <Node pos="r" depth="1" NCoef="0" IVar="7" Cut="-1.1594184637069702e+00" cType="1" res="6.6072829067707062e-02" rms="3.3372682332992554e-01" purity="7.2588270902633667e-01" nType="0">
          <Node pos="l" depth="2" NCoef="0" IVar="-1" Cut="0.0000000000000000e+00" cType="1" res="-4.6921607106924057e-02" rms="3.6893162131309509e-01" purity="3.9106255769729614e-01" nType="-99"/>
          <Node pos="r" depth="2" NCoef="0" IVar="7" Cut="1.1028342247009277e+00" cType="1" res="7.8439064323902130e-02" rms="3.2760831713676453e-01" purity="7.5335752964019775e-01" nType="0">
            <Node pos="l" depth="3" NCoef="0" IVar="-1" Cut="0.0000000000000000e+00" cType="1" res="5.8304298669099808e-02" rms="3.1751915812492371e-01" purity="7.8835314512252808e-01" nType="-99"/>
            <Node pos="r" depth="3" NCoef="0" IVar="-1" Cut="0.0000000000000000e+00" cType="1" res="-4.4142045080661774e-02" rms="3.8193136453628540e-01" purity="4.0037819743156433e-01" nType="-99"/>
          </Node>
        </Node>
      </Node>
    </BinaryTree>
    <BinaryTree type="DecisionTree" boostWeight="1.0000000000000000e+00" itree="9">
      <Node pos="s" depth="0" NCoef="0" IVar="4" Cut="2.2289753723144531e+02" cType="1" res="9.1310404241085052e-04" rms="3.3020338416099548e-01" purity="4.9886980652809143e-01" nType="0">
        <Node pos="l" depth="1" NCoef="0" IVar="6" Cut="9.0834579467773438e+01" cType="1" res="-6.2580890953540802e-02" rms="3.1689414381980896e-01" purity="2.1077497303485870e-01" nType="0">
          <Node pos="l" depth="2" NCoef="0" IVar="2" Cut="1.9825061783194542e-02" cType="1" res="-8.9021854102611542e-02" rms="2.7330175042152405e-01" purity="1.1521782726049423e-01" nType="0">
            <Node pos="l" depth="3" NCoef="0" IVar="-1" Cut="0.0000000000000000e+00" cType="1" res="-8.8614106178283691e-02" rms="2.1238793432712555e-01" purity="5.6687969714403152e-02" nType="-99"/>
            <Node pos="r" depth="3" NCoef="0" IVar="-1" Cut="0.0000000000000000e+00" cType="1" res="-4.0725953876972198e-02" rms="3.2361453771591187e-01" purity="1.7766417562961578e-01" nType="-99"/>
          </Node>
          <Node pos="r" depth="2" NCoef="0" IVar="2" Cut="2.0532684400677681e-02" cType="1" res="9.9473940208554268e-03" rms="4.0474262833595276e-01" purity="4.7289076447486877e-01" nType="0">
            <Node pos="l" depth="3" NCoef="0" IVar="-1" Cut="0.0000000000000000e+00" cType="1" res="-4.4134486466646194e-02" rms="3.6122384667396545e-01" purity="2.2919750213623047e-01" nType="-99"/>
            <Node pos="r" depth="3" NCoef="0" IVar="-1" Cut="0.0000000000000000e+00" cType="1" res="2.2405618801712990e-02" rms="4.1478511691093445e-01" purity="5.6069040298461914e-01" nType="-99"/>
          </Node>
        </Node>
        <Node pos="r" depth="1" NCoef="0" IVar="8" Cut="1.2005060911178589e+00" cType="1" res="5.7045239955186844e-02" rms="3.3156180381774902e-01" purity="7.5356131792068481e-01" nType="0">
          <Node pos="l" depth="2" NCoef="0" IVar="8" Cut="-1.2748174667358398e+00" cType="1" res="6.8955808877944946e-02" rms="3.2309886813163757e-01" purity="7.7803403139114380e-01" nType="0">
            <Node pos="l" depth="3" NCoef="0" IVar="-1" Cut="0.0000000000000000e+00" cType="1" res="-4.7614466398954391e-02" rms="3.8237765431404114e-01" purity="4.6080225706100464e-01" nType="-99"/>
            <Node pos="r" depth="3" NCoef="0" IVar="-1" Cut="0.0000000000000000e+00" cType="1" res="5.2339266985654831e-02" rms="3.1437388062477112e-01" purity="8.0418133735656738e-01" nType="-99"/>
          </Node>
          <Node pos="r" depth="2" NCoef="0" IVar="-1" Cut="0.0000000000000000e+00" cType="1" res="-4.4622845947742462e-02" rms="3.9129331707954407e-01" purity="4.7376862168312073e-01" nType="-99"/>
        </Node>
      </Node>
    </BinaryTree>
    <BinaryTree type="DecisionTree" boostWeight="1.0000000000000000e+00" itree="10">
      <Node pos="s" depth="0" NCoef="0" IVar="6" Cut="1.1706201934814453e+02" cType="1" res="3.6870727781206369e-03" rms="3.2860332727432251e-01" purity="5.0132483243942261e-01" nType="0">
        <Node pos="l" depth="1" NCoef="0" IVar="5" Cut="9.6468666076660156e+01" cType="1" res="-3.2518509775400162e-02" rms="3.3895006775856018e-01" purity="3.2741427421569824e-01" nType="0">
          <Node pos="l" depth="2" NCoef="0" IVar="5" Cut="8.1028892517089844e+01" cType="1" res="-8.4267459809780121e-02" rms="2.5507482886314392e-01" purity="1.0074518620967865e-01" nType="0">
            <Node pos="l" depth="3" NCoef="0" IVar="-1" Cut="0.0000000000000000e+00" cType="1" res="-8.4513045847415924e-02" rms="2.1413454413414001e-01" purity="6.3712403178215027e-02" nType="-99"/>
            <Node pos="r" depth="3" NCoef="0" IVar="-1" Cut="0.0000000000000000e+00" cType="1" res="-4.2852852493524551e-02" rms="3.0368548631668091e-01" purity="1.5526391565799713e-01" nType="-99"/>
          </Node>
          <Node pos="r" depth="2" NCoef="0" IVar="0" Cut="4.4703958129882812e+02" cType="1" res="-2.8576622717082500e-03" rms="3.7553960084915161e-01" purity="4.5733371376991272e-01" nType="0">
            <Node pos="l" depth="3" NCoef="0" IVar="-1" Cut="0.0000000000000000e+00" cType="1" res="-2.6237528771162033e-02" rms="3.7034964561462402e-01" purity="2.2534260153770447e-01" nType="-99"/>
            <Node pos="r" depth="3" NCoef="0" IVar="-1" Cut="0.0000000000000000e+00" cType="1" res="2.5446543470025063e-02" rms="3.7602028250694275e-01" purity="7.1658116579055786e-01" nType="-99"/>
          </Node>
        </Node>
        <Node pos="r" depth="1" NCoef="0" IVar="0" Cut="5.4968542480468750e+02" cType="1" res="7.6939828693866730e-02" rms="2.9323616623878479e-01" purity="8.5318845510482788e-01" nType="0">
          <Node pos="l" depth="2" NCoef="0" IVar="2" Cut="6.1600346118211746e-02" cType="1" res="4.8841856420040131e-02" rms="3.8565647602081299e-01" purity="7.1894210577011108e-01" nType="0">
            <Node pos="l" depth="3" NCoef="0" IVar="-1" Cut="0.0000000000000000e+00" cType="1" res="-4.4346836511977017e-04" rms="4.2804118990898132e-01" purity="5.8348560333251953e-01" nType="-99"/>
            <Node pos="r" depth="3" NCoef="0" IVar="-1" Cut="0.0000000000000000e+00" cType="1" res="5.9474747627973557e-02" rms="3.3183655142784119e-01" purity="8.5177135467529297e-01" nType="-99"/>
          </Node>
          <Node pos="r" depth="2" NCoef="0" IVar="2" Cut="2.2395338863134384e-02" cType="1" res="1.0012225061655045e-01" rms="1.8174625933170319e-01" purity="9.6394938230514526e-01" nType="0">
            <Node pos="l" depth="3" NCoef="0" IVar="-1" Cut="0.0000000000000000e+00" cType="1" res="7.9592339694499969e-02" rms="2.7262526750564575e-01" purity="9.1350287199020386e-01" nType="-99"/>
            <Node pos="r" depth="3" NCoef="0" IVar="-1" Cut="0.0000000000000000e+00" cType="1" res="8.9570514857769012e-02" rms="1.6107724606990814e-01" purity="9.7243624925613403e-01" nType="-99"/>
          </Node>
        </Node>
      </Node>
    </BinaryTree>
    <BinaryTree type="DecisionTree" boostWeight="1.0000000000000000e+00" itree="11">
      <Node pos="s" depth="0" NCoef="0" IVar="0" Cut="5.8882543945312500e+02" cType="1" res="-1.4207576168701053e-03" rms="3.2407864928245544e-01" purity="4.9722030758857727e-01" nType="0">
        <Node pos="l" depth="1" NCoef="0" IVar="2" Cut="8.1841625273227692e-02" cType="1" res="-3.0334964394569397e-02" rms="3.4113672375679016e-01" purity="3.3280718326568604e-01" nType="0">
          <Node pos="l" depth="2" NCoef="0" IVar="0" Cut="3.9627563476562500e+02" cType="1" res="-5.1049876958131790e-02" rms="3.3216542005538940e-01" purity="2.4777531623840332e-01" nType="0">
            <Node pos="l" depth="3" NCoef="0" IVar="-1" Cut="0.0000000000000000e+00" cType="1" res="-5.8761350810527802e-02" rms="2.8317624330520630e-01" purity="1.2013684958219528e-01" nType="-99"/>
            <Node pos="r" depth="3" NCoef="0" IVar="-1" Cut="0.0000000000000000e+00" cType="1" res="-1.1672748252749443e-02" rms="3.8118165731430054e-01" purity="4.0384787321090698e-01" nType="-99"/>
          </Node>
          <Node pos="r" depth="2" NCoef="0" IVar="0" Cut="3.6877203369140625e+02" cType="1" res="5.1391214132308960e-02" rms="3.6308854818344116e-01" purity="6.6828197240829468e-01" nType="0">
            <Node pos="l" depth="3" NCoef="0" IVar="-1" Cut="0.0000000000000000e+00" cType="1" res="-7.8912442550063133e-03" rms="4.0804833173751831e-01" purity="4.0352034568786621e-01" nType="-99"/>
            <Node pos="r" depth="3" NCoef="0" IVar="-1" Cut="0.0000000000000000e+00" cType="1" res="4.9396198242902756e-02" rms="3.3970516920089722e-01" purity="7.7480506896972656e-01" nType="-99"/>
          </Node>
        </Node>
        <Node pos="r" depth="1" NCoef="0" IVar="4" Cut="2.4235142517089844e+02" cType="1" res="6.7753732204437256e-02" rms="2.6663529872894287e-01" purity="8.9056301116943359e-01" nType="0">
          <Node pos="l" depth="2" NCoef="0" IVar="6" Cut="9.4113487243652344e+01" cType="1" res="2.7961097657680511e-02" rms="3.7807521224021912e-01" purity="7.2687357664108276e-01" nType="0">
            <Node pos="l" depth="3" NCoef="0" IVar="-1" Cut="0.0000000000000000e+00" cType="1" res="-9.8946653306484222e-03" rms="4.4488382339477539e-01" purity="5.5679398775100708e-01" nType="-99"/>
            <Node pos="r" depth="3" NCoef="0" IVar="-1" Cut="0.0000000000000000e+00" cType="1" res="5.3069107234477997e-02" rms="2.9444140195846558e-01" purity="8.8779312372207642e-01" nType="-99"/>
          </Node>
          <Node pos="r" depth="2" NCoef="0" IVar="6" Cut="7.7872070312500000e+01" cType="1" res="8.0285415053367615e-02" rms="2.1866056323051453e-01" purity="9.4211274385452271e-01" nType="0">
            <Node pos="l" depth="3" NCoef="0" IVar="-1" Cut="0.0000000000000000e+00" cType="1" res="3.5834070295095444e-02" rms="3.4308096766471863e-01" purity="8.3810937404632568e-01" nType="-99"/>
            <Node pos="r" depth="3" NCoef="0" IVar="-1" Cut="0.0000000000000000e+00" cType="1" res="8.0920912325382233e-02" rms="1.8548828363418579e-01" purity="9.6187102794647217e-01" nType="-99"/>
          </Node>
        </Node>
      </Node>
    </BinaryTree>
    <BinaryTree type="DecisionTree" boostWeight="1.0000000000000000e+00" itree="12">
      <Node pos="s" depth="0" NCoef="0" IVar="1" Cut="1.7125023193359375e+03" cType="1" res="2.4595344439148903e-04" rms="3.2166224718093872e-01" purity="5.0149685144424438e-01" nType="0">
        <Node pos="l" depth="1" NCoef="0" IVar="2" Cut="6.2595061957836151e-02" cType="1" res="-2.6415199041366577e-02" rms="3.4544479846954346e-01" purity="2.9644206166267395e-01" nType="0">
          <Node pos="l" depth="2" NCoef="0" IVar="2" Cut="1.1922544799745083e-02" cType="1" res="-4.6746183186769485e-02" rms="3.2516011595726013e-01" purity="1.9859778881072998e-01" nType="0">
            <Node pos="l" depth="3" NCoef="0" IVar="-1" Cut="0.0000000000000000e+00" cType="1" res="-6.7128226161003113e-02" rms="2.5376451015472412e-01" purity="9.3681894242763519e-02" nType="-99"/>
            <Node pos="r" depth="3" NCoef="0" IVar="-1" Cut="0.0000000000000000e+00" cType="1" res="-1.4838906936347485e-02" rms="3.6160299181938171e-01" purity="2.6610821485519409e-01" nType="-99"/>
          </Node>
          <Node pos="r" depth="2" NCoef="0" IVar="1" Cut="1.1041802978515625e+03" cType="1" res="3.1409960240125656e-02" rms="3.9179363846778870e-01" purity="5.7472962141036987e-01" nType="0">
            <Node pos="l" depth="3" NCoef="0" IVar="-1" Cut="0.0000000000000000e+00" cType="1" res="-3.5648606717586517e-02" rms="3.3841052651405334e-01" purity="1.3829731941223145e-01" nType="-99"/>
            <Node pos="r" depth="3" NCoef="0" IVar="-1" Cut="0.0000000000000000e+00" cType="1" res="3.2147109508514404e-02" rms="4.0391921997070312e-01" purity="7.1841919422149658e-01" nType="-99"/>
          </Node>
        </Node>
        <Node pos="r" depth="1" NCoef="0" IVar="3" Cut="6.4419439697265625e+02" cType="1" res="5.3182858973741531e-02" rms="2.6029071211814880e-01" purity="9.0864223241806030e-01" nType="0">
          <Node pos="l" depth="2" NCoef="0" IVar="7" Cut="7.3449438810348511e-01" cType="1" res="6.9640412926673889e-02" rms="2.2904169559478760e-01" purity="9.3667644262313843e-01" nType="0">
            <Node pos="l" depth="3" NCoef="0" IVar="-1" Cut="0.0000000000000000e+00" cType="1" res="7.0801168680191040e-02" rms="2.1779128909111023e-01" purity="9.4492113590240479e-01" nType="-99"/>
            <Node pos="r" depth="3" NCoef="0" IVar="-1" Cut="0.0000000000000000e+00" cType="1" res="2.2887429222464561e-02" rms="2.8954187035560608e-01" purity="8.8170319795608521e-01" nType="-99"/>
          </Node>
          <Node pos="r" depth="2" NCoef="0" IVar="1" Cut="2.2339326171875000e+03" cType="1" res="1.8556473776698112e-02" rms="3.1329649686813354e-01" purity="8.4965896606445312e-01" nType="0">
            <Node pos="l" depth="3" NCoef="0" IVar="-1" Cut="0.0000000000000000e+00" cType="1" res="-2.7280392125248909e-02" rms="4.0573012828826904e-01" purity="7.0507925748825073e-01" nType="-99"/>
            <Node pos="r" depth="3" NCoef="0" IVar="-1" Cut="0.0000000000000000e+00" cType="1" res="5.2299775183200836e-02" rms="2.3938974738121033e-01" purity="9.3085318803787231e-01" nType="-99"/>
          </Node>
        </Node>
      </Node>
    </BinaryTree>
    <BinaryTree type="DecisionTree" boostWeight="1.0000000000000000e+00" itree="13">
      <Node pos="s" depth="0" NCoef="0" IVar="6" Cut="1.2018331909179688e+02" cType="1" res="7.2827958501875401e-04" rms="3.2013061642646790e-01" purity="5.0023359060287476e-01" nType="0">
        <Node pos="l" depth="1" NCoef="0" IVar="0" Cut="4.4703997802734375e+02" cType="1" res="-2.0987942814826965e-02" rms="3.3473545312881470e-01" purity="3.3211863040924072e-01" nType="0">
          <Node pos="l" depth="2" NCoef="0" IVar="3" Cut="5.0154272460937500e+02" cType="1" res="-4.5684143900871277e-02" rms="2.9935649037361145e-01" purity="1.3599663972854614e-01" nType="0">
            <Node pos="l" depth="3" NCoef="0" IVar="-1" Cut="0.0000000000000000e+00" cType="1" res="-3.1753294169902802e-02" rms="2.9250171780586243e-01" purity="1.2675650417804718e-01" nType="-99"/>
            <Node pos="r" depth="3" NCoef="0" IVar="-1" Cut="0.0000000000000000e+00" cType="1" res="-6.3964016735553741e-02" rms="3.4375798702239990e-01" purity="2.1273383498191833e-01" nType="-99"/>
          </Node>
          <Node pos="r" depth="2" NCoef="0" IVar="7" Cut="9.6203666925430298e-01" cType="1" res="1.4997279271483421e-02" rms="3.7756112217903137e-01" purity="6.1789107322692871e-01" nType="0">
            <Node pos="l" depth="3" NCoef="0" IVar="-1" Cut="0.0000000000000000e+00" cType="1" res="1.6695503145456314e-02" rms="3.7373420596122742e-01" purity="6.5166074037551880e-01" nType="-99"/>
            <Node pos="r" depth="3" NCoef="0" IVar="-1" Cut="0.0000000000000000e+00" cType="1" res="-4.1401594877243042e-02" rms="3.9512801170349121e-01" purity="3.6418321728706360e-01" nType="-99"/>
          </Node>
        </Node>
        <Node pos="r" depth="1" NCoef="0" IVar="7" Cut="-8.8065129518508911e-01" cType="1" res="4.7588478773832321e-02" rms="2.8041410446166992e-01" purity="8.6299920082092285e-01" nType="0">
          <Node pos="l" depth="2" NCoef="0" IVar="-1" Cut="0.0000000000000000e+00" cType="1" res="-2.1591018885374069e-02" rms="3.4509170055389404e-01" purity="6.8893170356750488e-01" nType="-99"/>
          <Node pos="r" depth="2" NCoef="0" IVar="7" Cut="8.6840492486953735e-01" cType="1" res="5.6950248777866364e-02" rms="2.7017542719841003e-01" purity="8.8370758295059204e-01" nType="0">
            <Node pos="l" depth="3" NCoef="0" IVar="-1" Cut="0.0000000000000000e+00" cType="1" res="5.9924691915512085e-02" rms="2.5495484471321106e-01" purity="9.0781033039093018e-01" nType="-99"/>
            <Node pos="r" depth="3" NCoef="0" IVar="-1" Cut="0.0000000000000000e+00" cType="1" res="-3.9081014692783356e-03" rms="3.5491898655891418e-01" purity="7.1047192811965942e-01" nType="-99"/>
          </Node>
        </Node>
      </Node>
    </BinaryTree>
    <BinaryTree type="DecisionTree" boostWeight="1.0000000000000000e+00" itree="14">
      <Node pos="s" depth="0" NCoef="0" IVar="4" Cut="2.4066111755371094e+02" cType="1" res="3.6205158103257418e-03" rms="3.1497222185134888e-01" purity="5.0658261775970459e-01" nType="0">
        <Node pos="l" depth="1" NCoef="0" IVar="4" Cut="1.6839637756347656e+02" cType="1" res="-2.7487156912684441e-02" rms="3.1584972143173218e-01" purity="2.4734301865100861e-01" nType="0">
          <Node pos="l" depth="2" NCoef="0" IVar="5" Cut="9.4935226440429688e+01" cType="1" res="-5.5387862026691437e-02" rms="2.5426918268203735e-01" purity="1.0408648103475571e-01" nType="0">
            <Node pos="l" depth="3" NCoef="0" IVar="-1" Cut="0.0000000000000000e+00" cType="1" res="-7.6459705829620361e-02" rms="1.8488815426826477e-01" purity="4.0274966508150101e-02" nType="-99"/>
            <Node pos="r" depth="3" NCoef="0" IVar="-1" Cut="0.0000000000000000e+00" cType="1" res="-2.8758184984326363e-02" rms="3.2280930876731873e-01" purity="1.8796499073505402e-01" nType="-99"/>
          </Node>
          <Node pos="r" depth="2" NCoef="0" IVar="7" Cut="1.2162437438964844e+00" cType="1" res="3.4688592422753572e-03" rms="3.6998906731605530e-01" purity="4.0628710389137268e-01" nType="0">
            <Node pos="l" depth="3" NCoef="0" IVar="-1" Cut="0.0000000000000000e+00" cType="1" res="9.7319465130567551e-03" rms="3.7796375155448914e-01" purity="4.3878120183944702e-01" nType="-99"/>
            <Node pos="r" depth="3" NCoef="0" IVar="-1" Cut="0.0000000000000000e+00" cType="1" res="-6.3623048365116119e-02" rms="2.8404489159584045e-01" purity="1.4945238828659058e-01" nType="-99"/>
          </Node>
        </Node>
        <Node pos="r" depth="1" NCoef="0" IVar="7" Cut="-1.1877049207687378e+00" cType="1" res="3.7348698824644089e-02" rms="3.1051650643348694e-01" purity="7.8766053915023804e-01" nType="0">
          <Node pos="l" depth="2" NCoef="0" IVar="-1" Cut="0.0000000000000000e+00" cType="1" res="-6.5054886043071747e-02" rms="3.6254799365997314e-01" purity="4.0809276700019836e-01" nType="-99"/>
          <Node pos="r" depth="2" NCoef="0" IVar="7" Cut="1.0908563137054443e+00" cType="1" res="4.5406315475702286e-02" rms="3.0536204576492310e-01" purity="8.0862087011337280e-01" nType="0">
            <Node pos="l" depth="3" NCoef="0" IVar="-1" Cut="0.0000000000000000e+00" cType="1" res="4.3092366307973862e-02" rms="2.9675936698913574e-01" purity="8.3308124542236328e-01" nType="-99"/>
            <Node pos="r" depth="3" NCoef="0" IVar="-1" Cut="0.0000000000000000e+00" cType="1" res="-2.4995295330882072e-02" rms="3.8403055071830750e-01" purity="5.1408565044403076e-01" nType="-99"/>
          </Node>
        </Node>
      </Node>
    </BinaryTree>
    <BinaryTree type="DecisionTree" boostWeight="1.0000000000000000e+00" itree="15">
      <Node pos="s" depth="0" NCoef="0" IVar="4" Cut="1.4559339904785156e+02" cType="1" res="-2.0901303287246265e-05" rms="3.1682926416397095e-01" purity="4.9881061911582947e-01" nType="0">
        <Node pos="l" depth="1" NCoef="0" IVar="4" Cut="1.2300848388671875e+02" cType="1" res="-5.5165950208902359e-02" rms="2.1847398579120636e-01" purity="6.7122712731361389e-02" nType="0">
          <Node pos="l" depth="2" NCoef="0" IVar="0" Cut="4.1505020141601562e+02" cType="1" res="-6.3606314361095428e-02" rms="1.8263903260231018e-01" purity="3.6142382770776749e-02" nType="0">
            <Node pos="l" depth="3" NCoef="0" IVar="-1" Cut="0.0000000000000000e+00" cType="1" res="-7.6211914420127869e-02" rms="1.4615529775619507e-01" purity="2.2109132260084152e-02" nType="-99"/>
            <Node pos="r" depth="3" NCoef="0" IVar="-1" Cut="0.0000000000000000e+00" cType="1" res="-7.9354770481586456e-02" rms="2.4317733943462372e-01" purity="6.7676186561584473e-02" nType="-99"/>
          </Node>
          <Node pos="r" depth="2" NCoef="0" IVar="0" Cut="3.9470388793945312e+02" cType="1" res="-4.0847659111022949e-02" rms="2.6793456077575684e-01" purity="1.1967795342206955e-01" nType="0">
            <Node pos="l" depth="3" NCoef="0" IVar="-1" Cut="0.0000000000000000e+00" cType="1" res="-7.3476962745189667e-02" rms="1.7391064763069153e-01" purity="3.3330801874399185e-02" nType="-99"/>
            <Node pos="r" depth="3" NCoef="0" IVar="-1" Cut="0.0000000000000000e+00" cType="1" res="-9.7262822091579437e-03" rms="3.5638120770454407e-01" purity="2.3698844015598297e-01" nType="-99"/>
          </Node>
        </Node>
        <Node pos="r" depth="1" NCoef="0" IVar="7" Cut="-1.4398812055587769e+00" cType="1" res="1.3503321446478367e-02" rms="3.3520796895027161e-01" purity="6.0468131303787231e-01" nType="0">
          <Node pos="l" depth="2" NCoef="0" IVar="-1" Cut="0.0000000000000000e+00" cType="1" res="-7.9394474625587463e-02" rms="2.9030823707580566e-01" purity="1.5565694868564606e-01" nType="-99"/>
          <Node pos="r" depth="2" NCoef="0" IVar="7" Cut="9.8287469148635864e-01" cType="1" res="2.0010368898510933e-02" rms="3.3616700768470764e-01" purity="6.2844401597976685e-01" nType="0">
            <Node pos="l" depth="3" NCoef="0" IVar="-1" Cut="0.0000000000000000e+00" cType="1" res="2.3107847198843956e-02" rms="3.3494609594345093e-01" purity="6.7347913980484009e-01" nType="-99"/>
            <Node pos="r" depth="3" NCoef="0" IVar="-1" Cut="0.0000000000000000e+00" cType="1" res="-3.4606330096721649e-02" rms="3.3636927604675293e-01" purity="3.2559490203857422e-01" nType="-99"/>
          </Node>
        </Node>
      </Node>
    </BinaryTree>
    <BinaryTree type="DecisionTree" boostWeight="1.0000000000000000e+00" itree="16">
      <Node pos="s" depth="0" NCoef="0" IVar="5" Cut="1.9182739257812500e+02" cType="1" res="1.1729098623618484e-03" rms="3.1558570265769958e-01" purity="5.0064158439636230e-01" nType="0">
        <Node pos="l" depth="1" NCoef="0" IVar="0" Cut="4.3468847656250000e+02" cType="1" res="-1.5133120119571686e-02" rms="3.3078330755233765e-01" purity="3.3142489194869995e-01" nType="0">
          <Node pos="l" depth="2" NCoef="0" IVar="3" Cut="5.3970404052734375e+02" cType="1" res="-3.3275600522756577e-02" rms="2.9631805419921875e-01" purity="1.4037947356700897e-01" nType="0">
            <Node pos="l" depth="3" NCoef="0" IVar="-1" Cut="0.0000000000000000e+00" cType="1" res="-2.4620557203888893e-02" rms="2.9216709733009338e-01" purity="1.3702100515365601e-01" nType="-99"/>
            <Node pos="r" depth="3" NCoef="0" IVar="-1" Cut="0.0000000000000000e+00" cType="1" res="-7.3080420494079590e-02" rms="3.3772271871566772e-01" purity="1.8902359902858734e-01" nType="-99"/>
          </Node>
          <Node pos="r" depth="2" NCoef="0" IVar="7" Cut="-1.1223388910293579e+00" cType="1" res="9.6989460289478302e-03" rms="3.7139326333999634e-01" purity="5.9291338920593262e-01" nType="0">
            <Node pos="l" depth="3" NCoef="0" IVar="-1" Cut="0.0000000000000000e+00" cType="1" res="-5.6694656610488892e-02" rms="3.5300850868225098e-01" purity="2.6391118764877319e-01" nType="-99"/>
            <Node pos="r" depth="3" NCoef="0" IVar="-1" Cut="0.0000000000000000e+00" cType="1" res="1.3071598485112190e-02" rms="3.7171220779418945e-01" purity="6.2510293722152710e-01" nType="-99"/>
          </Node>
        </Node>
        <Node pos="r" depth="1" NCoef="0" IVar="9" Cut="1.2000164985656738e+00" cType="1" res="3.7045761942863464e-02" rms="2.7588328719139099e-01" purity="8.7291407585144043e-01" nType="0">
          <Node pos="l" depth="2" NCoef="0" IVar="9" Cut="-1.0854150056838989e+00" cType="1" res="4.4313643127679825e-02" rms="2.6889559626579285e-01" purity="8.8403451442718506e-01" nType="0">
            <Node pos="l" depth="3" NCoef="0" IVar="-1" Cut="0.0000000000000000e+00" cType="1" res="-2.5164930149912834e-02" rms="3.2833328843116760e-01" purity="7.6840478181838989e-01" nType="-99"/>
            <Node pos="r" depth="3" NCoef="0" IVar="-1" Cut="0.0000000000000000e+00" cType="1" res="5.1901917904615402e-02" rms="2.5836375355720520e-01" purity="8.9943754673004150e-01" nType="-99"/>
          </Node>
          <Node pos="r" depth="2" NCoef="0" IVar="-1" Cut="0.0000000000000000e+00" cType="1" res="-3.4350201487541199e-02" rms="3.3188799023628235e-01" purity="7.5426977872848511e-01" nType="-99"/>
        </Node>
      </Node>
    </BinaryTree>
    <BinaryTree type="DecisionTree" boostWeight="1.0000000000000000e+00" itree="17">
      <Node pos="s" depth="0" NCoef="0" IVar="2" Cut="8.1247225403785706e-02" cType="1" res="-1.3275772798806429e-03" rms="3.1569728255271912e-01" purity="4.9589654803276062e-01" nType="0">
        <Node pos="l" depth="1" NCoef="0" IVar="2" Cut="1.1606673710048199e-02" cType="1" res="-1.4306119643151760e-02" rms="3.2377767562866211e-01" purity="3.9347866177558899e-01" nType="0">
          <Node pos="l" depth="2" NCoef="0" IVar="7" Cut="-9.0948539972305298e-01" cType="1" res="-4.8681288957595825e-02" rms="2.8595107793807983e-01" purity="1.8911683559417725e-01" nType="0">
            <Node pos="l" depth="3" NCoef="0" IVar="-1" Cut="0.0000000000000000e+00" cType="1" res="-8.4699451923370361e-02" rms="2.3315633833408356e-01" purity="7.6897367835044861e-02" nType="-99"/>
            <Node pos="r" depth="3" NCoef="0" IVar="-1" Cut="0.0000000000000000e+00" cType="1" res="-2.8814351186156273e-02" rms="3.0274403095245361e-01" purity="2.3263566195964813e-01" nType="-99"/>
          </Node>
          <Node pos="r" depth="2" NCoef="0" IVar="0" Cut="6.3867962646484375e+02" cType="1" res="1.0361491004005075e-03" rms="3.3817610144615173e-01" purity="4.8468905687332153e-01" nType="0">
            <Node pos="l" depth="3" NCoef="0" IVar="-1" Cut="0.0000000000000000e+00" cType="1" res="-7.6396022923290730e-03" rms="3.5770332813262939e-01" purity="3.5671430826187134e-01" nType="-99"/>
            <Node pos="r" depth="3" NCoef="0" IVar="-1" Cut="0.0000000000000000e+00" cType="1" res="3.9201784878969193e-02" rms="2.5900244712829590e-01" purity="9.1270440816879272e-01" nType="-99"/>
          </Node>
        </Node>
        <Node pos="r" depth="1" NCoef="0" IVar="6" Cut="7.8110687255859375e+01" cType="1" res="3.7137743085622787e-02" rms="2.8700444102287292e-01" purity="7.9943883419036865e-01" nType="0">
          <Node pos="l" depth="2" NCoef="0" IVar="-1" Cut="0.0000000000000000e+00" cType="1" res="-5.5251852609217167e-03" rms="3.6023828387260437e-01" purity="4.5502436161041260e-01" nType="-99"/>
          <Node pos="r" depth="2" NCoef="0" IVar="2" Cut="1.1413507908582687e-01" cType="1" res="4.7279808670282364e-02" rms="2.6700493693351746e-01" purity="8.7582969665527344e-01" nType="0">
            <Node pos="l" depth="3" NCoef="0" IVar="-1" Cut="0.0000000000000000e+00" cType="1" res="3.1501308083534241e-02" rms="2.9833149909973145e-01" purity="8.4163421392440796e-01" nType="-99"/>
            <Node pos="r" depth="3" NCoef="0" IVar="-1" Cut="0.0000000000000000e+00" cType="1" res="5.4813310503959656e-02" rms="2.4691030383110046e-01" purity="8.9549070596694946e-01" nType="-99"/>
          </Node>
        </Node>
      </Node>
    </BinaryTree>
    <BinaryTree type="DecisionTree" boostWeight="1.0000000000000000e+00" itree="18">
      <Node pos="s" depth="0" NCoef="0" IVar="0" Cut="5.9407958984375000e+02" cType="1" res="-1.2167512904852629e-03" rms="3.1454250216484070e-01" purity="4.9643951654434204e-01" nType="0">
        <Node pos="l" depth="1" NCoef="0" IVar="2" Cut="1.2519001960754395e-01" cType="1" res="-1.3952502980828285e-02" rms="3.3169537782669067e-01" purity="3.3834150433540344e-01" nType="0">
          <Node pos="l" depth="2" NCoef="0" IVar="3" Cut="5.9159478759765625e+02" cType="1" res="-2.0463826134800911e-02" rms="3.3013048768043518e-01" purity="2.9306381940841675e-01" nType="0">
            <Node pos="l" depth="3" NCoef="0" IVar="-1" Cut="0.0000000000000000e+00" cType="1" res="-1.2058204039931297e-02" rms="3.2478132843971252e-01" purity="2.7044242620468140e-01" nType="-99"/>
            <Node pos="r" depth="3" NCoef="0" IVar="-1" Cut="0.0000000000000000e+00" cType="1" res="-5.3875412791967392e-02" rms="3.7722343206405640e-01" purity="5.3613066673278809e-01" nType="-99"/>
          </Node>
          <Node pos="r" depth="2" NCoef="0" IVar="-1" Cut="0.0000000000000000e+00" cType="1" res="3.3105731010437012e-02" rms="3.3989602327346802e-01" purity="7.4623441696166992e-01" nType="-99"/>
        </Node>
        <Node pos="r" depth="1" NCoef="0" IVar="3" Cut="8.0156140136718750e+02" cType="1" res="3.0641153454780579e-02" rms="2.6417443156242371e-01" purity="8.9191448688507080e-01" nType="0">
          <Node pos="l" depth="2" NCoef="0" IVar="0" Cut="8.2652935791015625e+02" cType="1" res="3.5229910165071487e-02" rms="2.6049992442131042e-01" purity="8.9360725879669189e-01" nType="0">
            <Node pos="l" depth="3" NCoef="0" IVar="-1" Cut="0.0000000000000000e+00" cType="1" res="2.7862936258316040e-02" rms="2.8876221179962158e-01" purity="8.6367696523666382e-01" nType="-99"/>
            <Node pos="r" depth="3" NCoef="0" IVar="-1" Cut="0.0000000000000000e+00" cType="1" res="6.4186908304691315e-02" rms="1.8421255052089691e-01" purity="9.5848387479782104e-01" nType="-99"/>
          </Node>
          <Node pos="r" depth="2" NCoef="0" IVar="-1" Cut="0.0000000000000000e+00" cType="1" res="-1.8666291143745184e-03" rms="2.8668501973152161e-01" purity="8.7997728586196899e-01" nType="-99"/>
        </Node>
      </Node>
    </BinaryTree>
    <BinaryTree type="DecisionTree" boostWeight="1.0000000000000000e+00" itree="19">
      <Node pos="s" depth="0" NCoef="0" IVar="5" Cut="9.6736518859863281e+01" cType="1" res="3.4844098263420165e-04" rms="3.1196528673171997e-01" purity="4.9803200364112854e-01" nType="0">
        <Node pos="l" depth="1" NCoef="0" IVar="6" Cut="6.1107257843017578e+01" cType="1" res="-3.2956726849079132e-02" rms="2.5051313638687134e-01" purity="1.0289186239242554e-01" nType="0">
          <Node pos="l" depth="2" NCoef="0" IVar="5" Cut="8.1173072814941406e+01" cType="1" res="-5.0505153834819794e-02" rms="2.0655013620853424e-01" purity="6.3738293945789337e-02" nType="0">
            <Node pos="l" depth="3" NCoef="0" IVar="-1" Cut="0.0000000000000000e+00" cType="1" res="-7.7585346996784210e-02" rms="1.8053571879863739e-01" purity="4.5293327420949936e-02" nType="-99"/>
            <Node pos="r" depth="3" NCoef="0" IVar="-1" Cut="0.0000000000000000e+00" cType="1" res="-2.6713021099567413e-02" rms="2.6881092786788940e-01" purity="1.1947196722030640e-01" nType="-99"/>
          </Node>
          <Node pos="r" depth="2" NCoef="0" IVar="0" Cut="4.3649481201171875e+02" cType="1" res="-1.5315024182200432e-02" rms="2.8694370388984680e-01" purity="1.4225354790687561e-01" nType="0">
            <Node pos="l" depth="3" NCoef="0" IVar="-1" Cut="0.0000000000000000e+00" cType="1" res="-3.8120869547128677e-02" rms="2.1496656537055969e-01" purity="5.6254561990499496e-02" nType="-99"/>
            <Node pos="r" depth="3" NCoef="0" IVar="-1" Cut="0.0000000000000000e+00" cType="1" res="8.1571964547038078e-03" rms="4.0663811564445496e-01" purity="3.4257605671882629e-01" nType="-99"/>
          </Node>
        </Node>
        <Node pos="r" depth="1" NCoef="0" IVar="7" Cut="-1.1876567602157593e+00" cType="1" res="1.1340022087097168e-02" rms="3.2900297641754150e-01" purity="6.2843871116638184e-01" nType="0">
          <Node pos="l" depth="2" NCoef="0" IVar="7" Cut="-1.5674382448196411e+00" cType="1" res="-6.3469000160694122e-02" rms="3.1029421091079712e-01" purity="2.4392104148864746e-01" nType="0">
            <Node pos="l" depth="3" NCoef="0" IVar="-1" Cut="0.0000000000000000e+00" cType="1" res="-7.8299410641193390e-02" rms="2.5418418645858765e-01" purity="1.2093993276357651e-01" nType="-99"/>
            <Node pos="r" depth="3" NCoef="0" IVar="-1" Cut="0.0000000000000000e+00" cType="1" res="-2.6100294664502144e-02" rms="3.5005462169647217e-01" purity="3.5149845480918884e-01" nType="-99"/>
          </Node>
          <Node pos="r" depth="2" NCoef="0" IVar="7" Cut="1.4707337617874146e+00" cType="1" res="1.7762858420610428e-02" rms="3.2976979017257690e-01" purity="6.6145193576812744e-01" nType="0">
            <Node pos="l" depth="3" NCoef="0" IVar="-1" Cut="0.0000000000000000e+00" cType="1" res="1.8907338380813599e-02" rms="3.3046510815620422e-01" purity="6.8784844875335693e-01" nType="-99"/>
            <Node pos="r" depth="3" NCoef="0" IVar="-1" Cut="0.0000000000000000e+00" cType="1" res="-6.3408114016056061e-02" rms="3.0081567168235779e-01" purity="1.8419489264488220e-01" nType="-99"/>
          </Node>
        </Node>
      </Node>
    </BinaryTree>
    <BinaryTree type="DecisionTree" boostWeight="1.0000000000000000e+00" itree="20">
      <Node pos="s" depth="0" NCoef="0" IVar="6" Cut="1.0621938323974609e+02" cType="1" res="3.5753424162976444e-04" rms="3.1419956684112549e-01" purity="5.0078147649765015e-01" nType="0">
        <Node pos="l" depth="1" NCoef="0" IVar="7" Cut="1.4772764444351196e+00" cType="1" res="-1.3903951272368431e-02" rms="3.2423096895217896e-01" purity="2.9745039343833923e-01" nType="0">
          <Node pos="l" depth="2" NCoef="0" IVar="7" Cut="-9.4132012128829956e-01" cType="1" res="-9.3639856204390526e-03" rms="3.3337855339050293e-01" purity="3.1912955641746521e-01" nType="0">
            <Node pos="l" depth="3" NCoef="0" IVar="-1" Cut="0.0000000000000000e+00" cType="1" res="-4.3666616082191467e-02" rms="2.6115670800209045e-01" purity="1.2906658649444580e-01" nType="-99"/>
            <Node pos="r" depth="3" NCoef="0" IVar="-1" Cut="0.0000000000000000e+00" cType="1" res="-1.3098566560074687e-03" rms="3.4806489944458008e-01" purity="3.6478552222251892e-01" nType="-99"/>
          </Node>
          <Node pos="r" depth="2" NCoef="0" IVar="-1" Cut="0.0000000000000000e+00" cType="1" res="-8.4862053394317627e-02" rms="1.7665743827819824e-01" purity="4.2229462414979935e-02" nType="-99"/>
        </Node>
        <Node pos="r" depth="1" NCoef="0" IVar="9" Cut="1.1999095678329468e+00" cType="1" res="2.2685537114739418e-02" rms="2.9644158482551575e-01" purity="8.1911987066268921e-01" nType="0">
          <Node pos="l" depth="2" NCoef="0" IVar="8" Cut="-1.1993544101715088e+00" cType="1" res="3.0191168189048767e-02" rms="2.8914299607276917e-01" purity="8.3470022678375244e-01" nType="0">
            <Node pos="l" depth="3" NCoef="0" IVar="-1" Cut="0.0000000000000000e+00" cType="1" res="-2.6611460372805595e-02" rms="3.7595969438552856e-01" purity="6.2161129713058472e-01" nType="-99"/>
            <Node pos="r" depth="3" NCoef="0" IVar="-1" Cut="0.0000000000000000e+00" cType="1" res="3.4936264157295227e-02" rms="2.8001216053962708e-01" purity="8.5236966609954834e-01" nType="-99"/>
          </Node>
          <Node pos="r" depth="2" NCoef="0" IVar="-1" Cut="0.0000000000000000e+00" cType="1" res="-3.6228805780410767e-02" rms="3.4854391217231750e-01" purity="6.7787432670593262e-01" nType="-99"/>
        </Node>
      </Node>
    </BinaryTree>
    <BinaryTree type="DecisionTree" boostWeight="1.0000000000000000e+00" itree="21">
      <Node pos="s" depth="0" NCoef="0" IVar="5" Cut="1.9829321289062500e+02" cType="1" res="-2.8670500032603741e-03" rms="3.1043893098831177e-01" purity="4.9957162141799927e-01" nType="0">
        <Node pos="l" depth="1" NCoef="0" IVar="3" Cut="6.1958117675781250e+02" cType="1" res="-1.3236138038337231e-02" rms="3.2638597488403320e-01" purity="3.4131556749343872e-01" nType="0">
          <Node pos="l" depth="2" NCoef="0" IVar="0" Cut="3.6017550659179688e+02" cType="1" res="-8.6846817284822464e-03" rms="3.2185095548629761e-01" purity="3.1005686521530151e-01" nType="0">
            <Node pos="l" depth="3" NCoef="0" IVar="-1" Cut="0.0000000000000000e+00" cType="1" res="-3.9181970059871674e-02" rms="2.5983703136444092e-01" purity="1.0289698094129562e-01" nType="-99"/>
            <Node pos="r" depth="3" NCoef="0" IVar="-1" Cut="0.0000000000000000e+00" cType="1" res="5.1870979368686676e-03" rms="3.4953320026397705e-01" purity="4.2064520716667175e-01" nType="-99"/>
          </Node>
          <Node pos="r" depth="2" NCoef="0" IVar="1" Cut="1.9359248046875000e+03" cType="1" res="-5.6165214627981186e-02" rms="3.6361685395240784e-01" purity="6.3614594936370850e-01" nType="0">
            <Node pos="l" depth="3" NCoef="0" IVar="-1" Cut="0.0000000000000000e+00" cType="1" res="-7.1294732391834259e-02" rms="3.9452663064002991e-01" purity="3.4260299801826477e-01" nType="-99"/>
            <Node pos="r" depth="3" NCoef="0" IVar="-1" Cut="0.0000000000000000e+00" cType="1" res="-7.3298076167702675e-03" rms="3.3274763822555542e-01" purity="8.3486843109130859e-01" nType="-99"/>
          </Node>
        </Node>
        <Node pos="r" depth="1" NCoef="0" IVar="9" Cut="-1.1993829011917114e+00" cType="1" res="2.2074796259403229e-02" rms="2.6657754182815552e-01" purity="8.8024139404296875e-01" nType="0">
          <Node pos="l" depth="2" NCoef="0" IVar="-1" Cut="0.0000000000000000e+00" cType="1" res="-2.0538050681352615e-02" rms="3.2951852679252625e-01" purity="7.6453566551208496e-01" nType="-99"/>
          <Node pos="r" depth="2" NCoef="0" IVar="9" Cut="1.0852286815643311e+00" cType="1" res="2.6385460048913956e-02" rms="2.5948154926300049e-01" purity="8.9108461141586304e-01" nType="0">
            <Node pos="l" depth="3" NCoef="0" IVar="-1" Cut="0.0000000000000000e+00" cType="1" res="3.6240808665752411e-02" rms="2.4986790120601654e-01" purity="9.0415364503860474e-01" nType="-99"/>
            <Node pos="r" depth="3" NCoef="0" IVar="-1" Cut="0.0000000000000000e+00" cType="1" res="-1.4206586405634880e-02" rms="3.2357338070869446e-01" purity="7.8601258993148804e-01" nType="-99"/>
          </Node>
        </Node>
      </Node>
    </BinaryTree>
    <BinaryTree type="DecisionTree" boostWeight="1.0000000000000000e+00" itree="22">
      <Node pos="s" depth="0" NCoef="0" IVar="8" Cut="1.7333439588546753e+00" cType="1" res="3.1246414873749018e-03" rms="3.1325054168701172e-01" purity="5.0096744298934937e-01" nType="0">
        <Node pos="l" depth="1" NCoef="0" IVar="8" Cut="-1.5047130584716797e+00" cType="1" res="6.9596357643604279e-03" rms="3.1476625800132751e-01" purity="5.1978123188018799e-01" nType="0">
          <Node pos="l" depth="2" NCoef="0" IVar="4" Cut="2.0095649719238281e+02" cType="1" res="-4.3859466910362244e-02" rms="2.9697880148887634e-01" purity="2.0414336025714874e-01" nType="0">
            <Node pos="l" depth="3" NCoef="0" IVar="-1" Cut="0.0000000000000000e+00" cType="1" res="-1.8869625404477119e-02" rms="2.6846510171890259e-01" purity="1.2095344066619873e-01" nType="-99"/>
            <Node pos="r" depth="3" NCoef="0" IVar="-1" Cut="0.0000000000000000e+00" cType="1" res="-6.7836426198482513e-02" rms="3.3707889914512634e-01" purity="3.5501658916473389e-01" nType="-99"/>
          </Node>
          <Node pos="r" depth="2" NCoef="0" IVar="4" Cut="1.4266464233398438e+02" cType="1" res="1.1605384759604931e-02" rms="3.1593492627143860e-01" purity="5.4863595962524414e-01" nType="0">
            <Node pos="l" depth="3" NCoef="0" IVar="-1" Cut="0.0000000000000000e+00" cType="1" res="-3.1701665371656418e-02" rms="2.3649808764457703e-01" purity="7.6832003891468048e-02" nType="-99"/>
            <Node pos="r" depth="3" NCoef="0" IVar="-1" Cut="0.0000000000000000e+00" cType="1" res="1.5721952542662621e-02" rms="3.2880365848541260e-01" purity="6.4098608493804932e-01" nType="-99"/>
          </Node>
        </Node>
        <Node pos="r" depth="1" NCoef="0" IVar="5" Cut="1.0390051269531250e+02" cType="1" res="-6.4430534839630127e-02" rms="2.7664953470230103e-01" purity="1.6955500841140747e-01" nType="0">
          <Node pos="l" depth="2" NCoef="0" IVar="-1" Cut="0.0000000000000000e+00" cType="1" res="-5.7374890893697739e-02" rms="1.8229494988918304e-01" purity="4.6750135719776154e-02" nType="-99"/>
          <Node pos="r" depth="2" NCoef="0" IVar="-1" Cut="0.0000000000000000e+00" cType="1" res="-6.4996100962162018e-02" rms="3.3688786625862122e-01" purity="2.7736437320709229e-01" nType="-99"/>
        </Node>
      </Node>
    </BinaryTree>
    <BinaryTree type="DecisionTree" boostWeight="1.0000000000000000e+00" itree="23">
      <Node pos="s" depth="0" NCoef="0" IVar="7" Cut="6.8471050262451172e-01" cType="1" res="-4.2572835809551179e-04" rms="3.1162878870964050e-01" purity="4.9838531017303467e-01" nType="0">
        <Node pos="l" depth="1" NCoef="0" IVar="7" Cut="-6.2472003698348999e-01" cType="1" res="6.7315790802240372e-03" rms="3.1477069854736328e-01" purity="5.4573738574981689e-01" nType="0">
          <Node pos="l" depth="2" NCoef="0" IVar="3" Cut="4.7161560058593750e+02" cType="1" res="-2.0743509754538536e-02" rms="3.0725207924842834e-01" purity="3.5271057486534119e-01" nType="0">
            <Node pos="l" depth="3" NCoef="0" IVar="-1" Cut="0.0000000000000000e+00" cType="1" res="-8.8647715747356415e-03" rms="2.9841175675392151e-01" purity="2.8713122010231018e-01" nType="-99"/>
            <Node pos="r" depth="3" NCoef="0" IVar="-1" Cut="0.0000000000000000e+00" cType="1" res="-4.5327238738536835e-02" rms="3.2963174581527710e-01" purity="5.4721754789352417e-01" nType="-99"/>
          </Node>
          <Node pos="r" depth="2" NCoef="0" IVar="10" Cut="-1.4666558504104614e+00" cType="1" res="1.8662238493561745e-02" rms="3.1724008917808533e-01" purity="6.2955647706985474e-01" nType="0">
            <Node pos="l" depth="3" NCoef="0" IVar="-1" Cut="0.0000000000000000e+00" cType="1" res="-1.9065232947468758e-02" rms="3.2712754607200623e-01" purity="5.1787042617797852e-01" nType="-99"/>
            <Node pos="r" depth="3" NCoef="0" IVar="-1" Cut="0.0000000000000000e+00" cType="1" res="2.1550975739955902e-02" rms="3.1571149826049805e-01" purity="6.4270675182342529e-01" nType="-99"/>
          </Node>
        </Node>
        <Node pos="r" depth="1" NCoef="0" IVar="2" Cut="1.6627209261059761e-02" cType="1" res="-2.6191370561718941e-02" rms="2.9862901568412781e-01" purity="3.2792210578918457e-01" nType="0">
          <Node pos="l" depth="2" NCoef="0" IVar="3" Cut="3.9903106689453125e+02" cType="1" res="-4.9435459077358246e-02" rms="2.4457164108753204e-01" purity="1.2672980129718781e-01" nType="0">
            <Node pos="l" depth="3" NCoef="0" IVar="-1" Cut="0.0000000000000000e+00" cType="1" res="-5.2812464535236359e-02" rms="1.8795114755630493e-01" purity="5.8619480580091476e-02" nType="-99"/>
            <Node pos="r" depth="3" NCoef="0" IVar="-1" Cut="0.0000000000000000e+00" cType="1" res="-5.3661793470382690e-02" rms="3.0963951349258423e-01" purity="2.2881142795085907e-01" nType="-99"/>
          </Node>
          <Node pos="r" depth="2" NCoef="0" IVar="0" Cut="4.9943698120117188e+02" cType="1" res="-6.7380075342953205e-03" rms="3.3604151010513306e-01" purity="4.9630326032638550e-01" nType="0">
            <Node pos="l" depth="3" NCoef="0" IVar="-1" Cut="0.0000000000000000e+00" cType="1" res="-1.9515816122293472e-02" rms="3.5647031664848328e-01" purity="2.7435219287872314e-01" nType="-99"/>
            <Node pos="r" depth="3" NCoef="0" IVar="-1" Cut="0.0000000000000000e+00" cType="1" res="2.1943869069218636e-02" rms="2.9838785529136658e-01" purity="8.4890508651733398e-01" nType="-99"/>
          </Node>
        </Node>
      </Node>
    </BinaryTree>
    <BinaryTree type="DecisionTree" boostWeight="1.0000000000000000e+00" itree="24">
      <Node pos="s" depth="0" NCoef="0" IVar="6" Cut="8.5091720581054688e+01" cType="1" res="-1.1461705435067415e-03" rms="3.0950734019279480e-01" purity="4.9610689282417297e-01" nType="0">
        <Node pos="l" depth="1" NCoef="0" IVar="7" Cut="4.1914722323417664e-01" cType="1" res="-1.7144601792097092e-02" rms="2.9866552352905273e-01" purity="2.3107840120792389e-01" nType="0">
          <Node pos="l" depth="2" NCoef="0" IVar="7" Cut="-6.3901829719543457e-01" cType="1" res="-6.8595116026699543e-03" rms="3.1426334381103516e-01" purity="2.6705780625343323e-01" nType="0">
            <Node pos="l" depth="3" NCoef="0" IVar="-1" Cut="0.0000000000000000e+00" cType="1" res="-3.1213870272040367e-02" rms="2.6345449686050415e-01" purity="1.4196518063545227e-01" nType="-99"/>
            <Node pos="r" depth="3" NCoef="0" IVar="-1" Cut="0.0000000000000000e+00" cType="1" res="6.0330275446176529e-03" rms="3.4403121471405029e-01" purity="3.5269525647163391e-01" nType="-99"/>
          </Node>
          <Node pos="r" depth="2" NCoef="0" IVar="3" Cut="4.9859231567382812e+02" cType="1" res="-3.6964174360036850e-02" rms="2.6491782069206238e-01" purity="1.6174541413784027e-01" nType="0">
            <Node pos="l" depth="3" NCoef="0" IVar="-1" Cut="0.0000000000000000e+00" cType="1" res="-3.3614210784435272e-02" rms="2.4384543299674988e-01" purity="1.2374223023653030e-01" nType="-99"/>
            <Node pos="r" depth="3" NCoef="0" IVar="-1" Cut="0.0000000000000000e+00" cType="1" res="-5.7252850383520126e-02" rms="3.4534671902656555e-01" purity="3.4364172816276550e-01" nType="-99"/>
          </Node>
        </Node>
        <Node pos="r" depth="1" NCoef="0" IVar="8" Cut="1.4667758941650391e+00" cType="1" res="1.2925804592669010e-02" rms="3.1807446479797363e-01" purity="7.2922182083129883e-01" nType="0">
          <Node pos="l" depth="2" NCoef="0" IVar="8" Cut="-5.6476104259490967e-01" cType="1" res="1.6814852133393288e-02" rms="3.1404465436935425e-01" purity="7.4807178974151611e-01" nType="0">
            <Node pos="l" depth="3" NCoef="0" IVar="-1" Cut="0.0000000000000000e+00" cType="1" res="-5.3678331896662712e-03" rms="3.4092217683792114e-01" purity="6.4008146524429321e-01" nType="-99"/>
            <Node pos="r" depth="3" NCoef="0" IVar="-1" Cut="0.0000000000000000e+00" cType="1" res="2.4363739416003227e-02" rms="3.0281195044517517e-01" purity="7.8882533311843872e-01" nType="-99"/>
          </Node>
          <Node pos="r" depth="2" NCoef="0" IVar="-1" Cut="0.0000000000000000e+00" cType="1" res="-3.5912841558456421e-02" rms="3.7197193503379822e-01" purity="4.2256551980972290e-01" nType="-99"/>
        </Node>
      </Node>
    </BinaryTree>
    <BinaryTree type="DecisionTree" boostWeight="1.0000000000000000e+00" itree="25">
      <Node pos="s" depth="0" NCoef="0" IVar="9" Cut="-1.7333230972290039e+00" cType="1" res="-3.9749666029820219e-05" rms="3.1014040112495422e-01" purity="4.9721807241439819e-01" nType="0">
        <Node pos="l" depth="1" NCoef="0" IVar="1" Cut="1.2827386474609375e+03" cType="1" res="-4.9791764467954636e-02" rms="3.0754995346069336e-01" purity="2.3337838053703308e-01" nType="0">
          <Node pos="l" depth="2" NCoef="0" IVar="-1" Cut="0.0000000000000000e+00" cType="1" res="-3.2048802822828293e-02" rms="2.4630430340766907e-01" purity="7.0991314947605133e-02" nType="-99"/>
          <Node pos="r" depth="2" NCoef="0" IVar="-1" Cut="0.0000000000000000e+00" cType="1" res="-6.1986740678548813e-02" rms="3.8652718067169189e-01" purity="5.0908011198043823e-01" nType="-99"/>
        </Node>
        <Node pos="r" depth="1" NCoef="0" IVar="9" Cut="2.1523292064666748e+00" cType="1" res="3.5783627536147833e-03" rms="3.1001666188240051e-01" purity="5.1640522480010986e-01" nType="0">
          <Node pos="l" depth="2" NCoef="0" IVar="4" Cut="1.4581669616699219e+02" cType="1" res="6.2240962870419025e-03" rms="3.1068554520606995e-01" purity="5.2814036607742310e-01" nType="0">
            <Node pos="l" depth="3" NCoef="0" IVar="-1" Cut="0.0000000000000000e+00" cType="1" res="-3.0964711681008339e-02" rms="2.2934249043464661e-01" purity="7.6232440769672394e-02" nType="-99"/>
            <Node pos="r" depth="3" NCoef="0" IVar="-1" Cut="0.0000000000000000e+00" cType="1" res="1.0948222130537033e-02" rms="3.2596430182456970e-01" purity="6.3047891855239868e-01" nType="-99"/>
          </Node>
          <Node pos="r" depth="2" NCoef="0" IVar="-1" Cut="0.0000000000000000e+00" cType="1" res="-7.7249363064765930e-02" rms="2.7694427967071533e-01" purity="1.5815387666225433e-01" nType="-99"/>
        </Node>
      </Node>
    </BinaryTree>
    <BinaryTree type="DecisionTree" boostWeight="1.0000000000000000e+00" itree="26">
      <Node pos="s" depth="0" NCoef="0" IVar="0" Cut="7.3323699951171875e+02" cType="1" res="4.6643597306683660e-04" rms="3.1139487028121948e-01" purity="4.9593389034271240e-01" nType="0">
        <Node pos="l" depth="1" NCoef="0" IVar="0" Cut="3.2062994384765625e+02" cType="1" res="-4.8848399892449379e-03" rms="3.2533738017082214e-01" purity="4.1378113627433777e-01" nType="0">
          <Node pos="l" depth="2" NCoef="0" IVar="4" Cut="2.1506500244140625e+02" cType="1" res="-4.6761363744735718e-02" rms="2.5616258382797241e-01" purity="1.0538495332002640e-01" nType="0">
            <Node pos="l" depth="3" NCoef="0" IVar="-1" Cut="0.0000000000000000e+00" cType="1" res="-4.4830750674009323e-02" rms="2.0665174722671509e-01" purity="5.9916272759437561e-02" nType="-99"/>
            <Node pos="r" depth="3" NCoef="0" IVar="-1" Cut="0.0000000000000000e+00" cType="1" res="-5.5890139192342758e-02" rms="3.4191092848777771e-01" purity="2.1061697602272034e-01" nType="-99"/>
          </Node>
          <Node pos="r" depth="2" NCoef="0" IVar="3" Cut="6.9364465332031250e+02" cType="1" res="4.4175569200888276e-04" rms="3.3273038268089294e-01" purity="4.5300838351249695e-01" nType="0">
            <Node pos="l" depth="3" NCoef="0" IVar="-1" Cut="0.0000000000000000e+00" cType="1" res="3.6032304633408785e-03" rms="3.3040851354598999e-01" purity="4.4120705127716064e-01" nType="-99"/>
            <Node pos="r" depth="3" NCoef="0" IVar="-1" Cut="0.0000000000000000e+00" cType="1" res="-5.6560575962066650e-02" rms="3.6753398180007935e-01" purity="6.7978501319885254e-01" nType="-99"/>
          </Node>
        </Node>
        <Node pos="r" depth="1" NCoef="0" IVar="2" Cut="2.0213400945067406e-02" cType="1" res="2.9022596776485443e-02" rms="2.2050969302654266e-01" purity="9.3432796001434326e-01" nType="0">
          <Node pos="l" depth="2" NCoef="0" IVar="-1" Cut="0.0000000000000000e+00" cType="1" res="3.3361688256263733e-02" rms="3.3444550633430481e-01" purity="8.2604664564132690e-01" nType="-99"/>
          <Node pos="r" depth="2" NCoef="0" IVar="2" Cut="5.8716960251331329e-02" cType="1" res="2.4035351350903511e-02" rms="1.7186062037944794e-01" purity="9.6683281660079956e-01" nType="0">
            <Node pos="l" depth="3" NCoef="0" IVar="-1" Cut="0.0000000000000000e+00" cType="1" res="2.3959852755069733e-02" rms="2.2445578873157501e-01" purity="9.4114911556243896e-01" nType="-99"/>
            <Node pos="r" depth="3" NCoef="0" IVar="-1" Cut="0.0000000000000000e+00" cType="1" res="6.5374813973903656e-02" rms="1.3097546994686127e-01" purity="9.8201221227645874e-01" nType="-99"/>
          </Node>
        </Node>
      </Node>
    </BinaryTree>
    <BinaryTree type="DecisionTree" boostWeight="1.0000000000000000e+00" itree="27">
      <Node pos="s" depth="0" NCoef="0" IVar="0" Cut="4.4703997802734375e+02" cType="1" res="1.2663810048252344e-04" rms="3.0888569355010986e-01" purity="5.0178676843643188e-01" nType="0">
        <Node pos="l" depth="1" NCoef="0" IVar="3" Cut="4.9724145507812500e+02" cType="1" res="-1.3067543506622314e-02" rms="3.1349682807922363e-01" purity="2.2202725708484650e-01" nType="0">
          <Node pos="l" depth="2" NCoef="0" IVar="0" Cut="3.9102301025390625e+02" cType="1" res="-7.7723921276628971e-03" rms="3.0594807863235474e-01" purity="2.0682583749294281e-01" nType="0">
            <Node pos="l" depth="3" NCoef="0" IVar="-1" Cut="0.0000000000000000e+00" cType="1" res="-1.8214417621493340e-02" rms="2.8825342655181885e-01" purity="1.6138404607772827e-01" nType="-99"/>
            <Node pos="r" depth="3" NCoef="0" IVar="-1" Cut="0.0000000000000000e+00" cType="1" res="1.4813428744673729e-02" rms="3.4695640206336975e-01" purity="3.2651436328887939e-01" nType="-99"/>
          </Node>
          <Node pos="r" depth="2" NCoef="0" IVar="4" Cut="2.9460833740234375e+02" cType="1" res="-5.0866410136222839e-02" rms="3.6059761047363281e-01" purity="3.3054101467132568e-01" nType="0">
            <Node pos="l" depth="3" NCoef="0" IVar="-1" Cut="0.0000000000000000e+00" cType="1" res="-6.0289569199085236e-02" rms="3.1074395775794983e-01" purity="1.7412979900836945e-01" nType="-99"/>
            <Node pos="r" depth="3" NCoef="0" IVar="-1" Cut="0.0000000000000000e+00" cType="1" res="-1.3685530051589012e-02" rms="4.0586915612220764e-01" purity="4.9993008375167847e-01" nType="-99"/>
          </Node>
        </Node>
        <Node pos="r" depth="1" NCoef="0" IVar="7" Cut="1.2031066417694092e+00" cType="1" res="1.2743925675749779e-02" rms="3.0387547612190247e-01" purity="7.6931434869766235e-01" nType="0">
          <Node pos="l" depth="2" NCoef="0" IVar="9" Cut="-9.3336343765258789e-01" cType="1" res="1.5708846971392632e-02" rms="3.0063757300376892e-01" purity="7.8794276714324951e-01" nType="0">
            <Node pos="l" depth="3" NCoef="0" IVar="-1" Cut="0.0000000000000000e+00" cType="1" res="-7.4388743378221989e-03" rms="3.2777038216590881e-01" purity="7.0215111970901489e-01" nType="-99"/>
            <Node pos="r" depth="3" NCoef="0" IVar="-1" Cut="0.0000000000000000e+00" cType="1" res="2.1708142012357712e-02" rms="2.9399445652961731e-01" purity="8.0702549219131470e-01" nType="-99"/>
          </Node>
          <Node pos="r" depth="2" NCoef="0" IVar="-1" Cut="0.0000000000000000e+00" cType="1" res="-2.9733054339885712e-02" rms="3.5321563482284546e-01" purity="4.3177512288093567e-01" nType="-99"/>
        </Node>
      </Node>
    </BinaryTree>
    <BinaryTree type="DecisionTree" boostWeight="1.0000000000000000e+00" itree="28">
      <Node pos="s" depth="0" NCoef="0" IVar="9" Cut="-1.9999819993972778e+00" cType="1" res="2.1777688525617123e-03" rms="3.0967351794242859e-01" purity="5.0340789556503296e-01" nType="0">
        <Node pos="l" depth="1" NCoef="0" IVar="-1" Cut="0.0000000000000000e+00" cType="1" res="-6.3614048063755035e-02" rms="2.9252982139587402e-01" purity="1.8392013013362885e-01" nType="-99"/>
        <Node pos="r" depth="1" NCoef="0" IVar="1" Cut="1.0948542480468750e+03" cType="1" res="4.8833498731255531e-03" rms="3.1004345417022705e-01" purity="5.1632994413375854e-01" nType="0">
          <Node pos="l" depth="2" NCoef="0" IVar="1" Cut="9.2637127685546875e+02" cType="1" res="-1.9685551524162292e-02" rms="2.0575881004333496e-01" purity="4.7554511576890945e-02" nType="0">
            <Node pos="l" depth="3" NCoef="0" IVar="-1" Cut="0.0000000000000000e+00" cType="1" res="-8.1760518252849579e-02" rms="9.8737061023712158e-02" purity="9.9715758115053177e-03" nType="-99"/>
            <Node pos="r" depth="3" NCoef="0" IVar="-1" Cut="0.0000000000000000e+00" cType="1" res="-1.8127968534827232e-02" rms="2.4332925677299500e-01" purity="6.7181698977947235e-02" nType="-99"/>
          </Node>
          <Node pos="r" depth="2" NCoef="0" IVar="3" Cut="4.7972314453125000e+02" cType="1" res="1.2605282478034496e-02" rms="3.3583286404609680e-01" purity="6.6366469860076904e-01" nType="0">
            <Node pos="l" depth="3" NCoef="0" IVar="-1" Cut="0.0000000000000000e+00" cType="1" res="2.1066341549158096e-02" rms="3.6127254366874695e-01" purity="6.1013525724411011e-01" nType="-99"/>
            <Node pos="r" depth="3" NCoef="0" IVar="-1" Cut="0.0000000000000000e+00" cType="1" res="-7.4394796974956989e-03" rms="2.9709887504577637e-01" purity="7.3554307222366333e-01" nType="-99"/>
          </Node>
        </Node>
      </Node>
    </BinaryTree>
    <BinaryTree type="DecisionTree" boostWeight="1.0000000000000000e+00" itree="29">
      <Node pos="s" depth="0" NCoef="0" IVar="8" Cut="-1.7331973314285278e+00" cType="1" res="-2.0827975822612643e-04" rms="3.0799025297164917e-01" purity="5.0257140398025513e-01" nType="0">
        <Node pos="l" depth="1" NCoef="0" IVar="5" Cut="1.0271539306640625e+02" cType="1" res="-5.5622931569814682e-02" rms="2.6401424407958984e-01" purity="1.4345352351665497e-01" nType="0">
          <Node pos="l" depth="2" NCoef="0" IVar="-1" Cut="0.0000000000000000e+00" cType="1" res="-4.9040477722883224e-02" rms="1.9048772752285004e-01" purity="3.9824586361646652e-02" nType="-99"/>
          <Node pos="r" depth="2" NCoef="0" IVar="-1" Cut="0.0000000000000000e+00" cType="1" res="-6.5375246107578278e-02" rms="3.1665074825286865e-01" purity="2.4301211535930634e-01" nType="-99"/>
        </Node>
        <Node pos="r" depth="1" NCoef="0" IVar="7" Cut="-9.0351778268814087e-01" cType="1" res="2.8577237389981747e-03" rms="3.0995231866836548e-01" purity="5.2244079113006592e-01" nType="0">
          <Node pos="l" depth="2" NCoef="0" IVar="3" Cut="4.0991458129882812e+02" cType="1" res="-2.6540126651525497e-02" rms="2.8265479207038879e-01" purity="2.8245100378990173e-01" nType="0">
            <Node pos="l" depth="3" NCoef="0" IVar="-1" Cut="0.0000000000000000e+00" cType="1" res="-1.3832055032253265e-02" rms="2.6893207430839539e-01" purity="2.1288374066352844e-01" nType="-99"/>
            <Node pos="r" depth="3" NCoef="0" IVar="-1" Cut="0.0000000000000000e+00" cType="1" res="-4.5928269624710083e-02" rms="3.0596786737442017e-01" purity="4.1919058561325073e-01" nType="-99"/>
          </Node>
          <Node pos="r" depth="2" NCoef="0" IVar="7" Cut="6.8369424343109131e-01" cType="1" res="8.1241410225629807e-03" rms="3.1430214643478394e-01" purity="5.6543332338333130e-01" nType="0">
            <Node pos="l" depth="3" NCoef="0" IVar="-1" Cut="0.0000000000000000e+00" cType="1" res="1.4818558469414711e-02" rms="3.1742811203002930e-01" purity="6.3965421915054321e-01" nType="-99"/>
            <Node pos="r" depth="3" NCoef="0" IVar="-1" Cut="0.0000000000000000e+00" cType="1" res="-1.3855055905878544e-02" rms="3.0384364724159241e-01" purity="3.4695053100585938e-01" nType="-99"/>
          </Node>
        </Node>
      </Node>
    </BinaryTree>
    <BinaryTree type="DecisionTree" boostWeight="1.0000000000000000e+00" itree="30">
      <Node pos="s" depth="0" NCoef="0" IVar="8" Cut="1.1999876499176025e+00" cType="1" res="-7.1503408253192902e-04" rms="3.0702033638954163e-01" purity="4.9804246425628662e-01" nType="0">
        <Node pos="l" depth="1" NCoef="0" IVar="8" Cut="-1.0856838226318359e+00" cType="1" res="3.8177943788468838e-03" rms="3.0728399753570557e-01" purity="5.3123956918716431e-01" nType="0">
          <Node pos="l" depth="2" NCoef="0" IVar="3" Cut="4.3992254638671875e+02" cType="1" res="-2.4916250258684158e-02" rms="3.0212870240211487e-01" purity="2.9432004690170288e-01" nType="0">
            <Node pos="l" depth="3" NCoef="0" IVar="-1" Cut="0.0000000000000000e+00" cType="1" res="-1.4750878326594830e-02" rms="2.8318938612937927e-01" purity="2.2116445004940033e-01" nType="-99"/>
            <Node pos="r" depth="3" NCoef="0" IVar="-1" Cut="0.0000000000000000e+00" cType="1" res="-4.1763555258512497e-02" rms="3.4237188100814819e-01" purity="4.7231960296630859e-01" nType="-99"/>
          </Node>
          <Node pos="r" depth="2" NCoef="0" IVar="4" Cut="2.4044898986816406e+02" cType="1" res="9.7669158130884171e-03" rms="3.0800583958625793e-01" purity="5.8029156923294067e-01" nType="0">
            <Node pos="l" depth="3" NCoef="0" IVar="-1" Cut="0.0000000000000000e+00" cType="1" res="-3.6869810428470373e-03" rms="3.2534486055374146e-01" purity="2.8900703787803650e-01" nType="-99"/>
            <Node pos="r" depth="3" NCoef="0" IVar="-1" Cut="0.0000000000000000e+00" cType="1" res="2.2077422589063644e-02" rms="2.9215472936630249e-01" purity="8.2482451200485229e-01" nType="-99"/>
          </Node>
        </Node>
        <Node pos="r" depth="1" NCoef="0" IVar="4" Cut="2.4888134765625000e+02" cType="1" res="-3.2228074967861176e-02" rms="3.0331417918205261e-01" purity="2.6725021004676819e-01" nType="0">
          <Node pos="l" depth="2" NCoef="0" IVar="9" Cut="4.0022987127304077e-01" cType="1" res="-2.0158534869551659e-02" rms="2.8481039404869080e-01" purity="1.7680208384990692e-01" nType="0">
            <Node pos="l" depth="3" NCoef="0" IVar="-1" Cut="0.0000000000000000e+00" cType="1" res="-3.6813043989241123e-03" rms="3.0294987559318542e-01" purity="2.1720871329307556e-01" nType="-99"/>
            <Node pos="r" depth="3" NCoef="0" IVar="-1" Cut="0.0000000000000000e+00" cType="1" res="-4.8383593559265137e-02" rms="2.5876244902610779e-01" purity="1.2607946991920471e-01" nType="-99"/>
          </Node>
          <Node pos="r" depth="2" NCoef="0" IVar="-1" Cut="0.0000000000000000e+00" cType="1" res="-5.1127098500728607e-02" rms="3.4906831383705139e-01" purity="5.2897804975509644e-01" nType="-99"/>
        </Node>
      </Node>
    </BinaryTree>
    <BinaryTree type="DecisionTree" boostWeight="1.0000000000000000e+00" itree="31">
      <Node pos="s" depth="0" NCoef="0" IVar="9" Cut="1.7332468032836914e+00" cType="1" res="1.7867336282506585e-04" rms="3.0887645483016968e-01" purity="4.9973765015602112e-01" nType="0">
        <Node pos="l" depth="1" NCoef="0" IVar="9" Cut="-1.2888858318328857e+00" cType="1" res="3.2759772147983313e-03" rms="3.0853000283241272e-01" purity="5.1766318082809448e-01" nType="0">
          <Node pos="l" depth="2" NCoef="0" IVar="8" Cut="-9.3322581052780151e-01" cType="1" res="-2.1682130172848701e-02" rms="3.0464226007461548e-01" purity="3.4201514720916748e-01" nType="0">
            <Node pos="l" depth="3" NCoef="0" IVar="-1" Cut="0.0000000000000000e+00" cType="1" res="-6.0934312641620636e-02" rms="2.6842468976974487e-01" purity="1.5969081223011017e-01" nType="-99"/>
            <Node pos="r" depth="3" NCoef="0" IVar="-1" Cut="0.0000000000000000e+00" cType="1" res="-9.7108911722898483e-03" rms="3.1499415636062622e-01" purity="4.0278479456901550e-01" nType="-99"/>
          </Node>
          <Node pos="r" depth="2" NCoef="0" IVar="7" Cut="1.7401027679443359e+00" cType="1" res="7.5324969366192818e-03" rms="3.0898699164390564e-01" purity="5.4761934280395508e-01" nType="0">
            <Node pos="l" depth="3" NCoef="0" IVar="-1" Cut="0.0000000000000000e+00" cType="1" res="9.1552892699837685e-03" rms="3.1150162220001221e-01" purity="5.6388753652572632e-01" nType="-99"/>
            <Node pos="r" depth="3" NCoef="0" IVar="-1" Cut="0.0000000000000000e+00" cType="1" res="-5.9093322604894638e-02" rms="2.1946610510349274e-01" purity="8.2252815365791321e-02" nType="-99"/>
          </Node>
        </Node>
        <Node pos="r" depth="1" NCoef="0" IVar="1" Cut="1.2384659423828125e+03" cType="1" res="-4.2790219187736511e-02" rms="3.1047201156616211e-01" purity="2.5105759501457214e-01" nType="0">
          <Node pos="l" depth="2" NCoef="0" IVar="-1" Cut="0.0000000000000000e+00" cType="1" res="-1.1051207780838013e-02" rms="2.4215953052043915e-01" purity="7.0042975246906281e-02" nType="-99"/>
          <Node pos="r" depth="2" NCoef="0" IVar="-1" Cut="0.0000000000000000e+00" cType="1" res="-6.1313711106777191e-02" rms="3.7615701556205750e-01" purity="4.8540997505187988e-01" nType="-99"/>
        </Node>
      </Node>
    </BinaryTree>
    <BinaryTree type="DecisionTree" boostWeight="1.0000000000000000e+00" itree="32">
      <Node pos="s" depth="0" NCoef="0" IVar="10" Cut="1.7333316802978516e+00" cType="1" res="1.6242486890405416e-03" rms="3.0871394276618958e-01" purity="4.9984487891197205e-01" nType="0">
        <Node pos="l" depth="1" NCoef="0" IVar="7" Cut="-1.4322726726531982e+00" cType="1" res="5.2047702483832836e-03" rms="3.0887159705162048e-01" purity="5.1467835903167725e-01" nType="0">
          <Node pos="l" depth="2" NCoef="0" IVar="3" Cut="3.3561346435546875e+02" cType="1" res="-3.7591248750686646e-02" rms="2.3328942060470581e-01" purity="1.2137249857187271e-01" nType="0">
            <Node pos="l" depth="3" NCoef="0" IVar="-1" Cut="0.0000000000000000e+00" cType="1" res="-1.8536180257797241e-02" rms="2.2531735897064209e-01" purity="1.0469733923673630e-01" nType="-99"/>
            <Node pos="r" depth="3" NCoef="0" IVar="-1" Cut="0.0000000000000000e+00" cType="1" res="-7.4437543749809265e-02" rms="2.3923589289188385e-01" purity="1.4339637756347656e-01" nType="-99"/>
          </Node>
          <Node pos="r" depth="2" NCoef="0" IVar="7" Cut="1.1876922845840454e+00" cType="1" res="8.0945435911417007e-03" rms="3.1310802698135376e-01" purity="5.4123610258102417e-01" nType="0">
            <Node pos="l" depth="3" NCoef="0" IVar="-1" Cut="0.0000000000000000e+00" cType="1" res="1.1539816856384277e-02" rms="3.1843557953834534e-01" purity="5.8178663253784180e-01" nType="-99"/>
            <Node pos="r" depth="3" NCoef="0" IVar="-1" Cut="0.0000000000000000e+00" cType="1" res="-3.3881884068250656e-02" rms="2.5744283199310303e-01" purity="1.7665372788906097e-01" nType="-99"/>
          </Node>
        </Node>
        <Node pos="r" depth="1" NCoef="0" IVar="5" Cut="1.5330430603027344e+02" cType="1" res="-3.8124948740005493e-02" rms="3.0413985252380371e-01" purity="3.3517038822174072e-01" nType="0">
          <Node pos="l" depth="2" NCoef="0" IVar="5" Cut="9.9210609436035156e+01" cType="1" res="-2.2206321358680725e-02" rms="2.8664290904998779e-01" purity="1.9707417488098145e-01" nType="0">
            <Node pos="l" depth="3" NCoef="0" IVar="-1" Cut="0.0000000000000000e+00" cType="1" res="-5.8915231376886368e-02" rms="2.1361237764358521e-01" purity="6.4232937991619110e-02" nType="-99"/>
            <Node pos="r" depth="3" NCoef="0" IVar="-1" Cut="0.0000000000000000e+00" cType="1" res="-2.1859249100089073e-03" rms="3.4839266538619995e-01" purity="3.4230691194534302e-01" nType="-99"/>
          </Node>
          <Node pos="r" depth="2" NCoef="0" IVar="-1" Cut="0.0000000000000000e+00" cType="1" res="-6.6151946783065796e-02" rms="3.3834761381149292e-01" purity="6.5475195646286011e-01" nType="-99"/>
        </Node>
      </Node>
    </BinaryTree>
    <BinaryTree type="DecisionTree" boostWeight="1.0000000000000000e+00" itree="33">
      <Node pos="s" depth="0" NCoef="0" IVar="6" Cut="1.5979072570800781e+02" cType="1" res="9.5606263494119048e-04" rms="3.0703005194664001e-01" purity="5.0186419486999512e-01" nType="0">
        <Node pos="l" depth="1" NCoef="0" IVar="3" Cut="4.7161306762695312e+02" cType="1" res="-3.4496656153351068e-03" rms="3.2176771759986877e-01" purity="4.1346782445907593e-01" nType="0">
          <Node pos="l" depth="2" NCoef="0" IVar="0" Cut="3.5554391479492188e+02" cType="1" res="2.8269465547055006e-03" rms="3.1841388344764709e-01" purity="3.2027199864387512e-01" nType="0">
            <Node pos="l" depth="3" NCoef="0" IVar="-1" Cut="0.0000000000000000e+00" cType="1" res="-1.9268054515123367e-02" rms="2.6616126298904419e-01" purity="1.1254667490720749e-01" nType="-99"/>
            <Node pos="r" depth="3" NCoef="0" IVar="-1" Cut="0.0000000000000000e+00" cType="1" res="1.0707789100706577e-02" rms="3.4178695082664490e-01" purity="4.2703446745872498e-01" nType="-99"/>
          </Node>
          <Node pos="r" depth="2" NCoef="0" IVar="1" Cut="1.8327991943359375e+03" cType="1" res="-1.8503447994589806e-02" rms="3.2918515801429749e-01" purity="6.3698810338973999e-01" nType="0">
            <Node pos="l" depth="3" NCoef="0" IVar="-1" Cut="0.0000000000000000e+00" cType="1" res="-3.3153742551803589e-02" rms="3.6989369988441467e-01" purity="3.6498683691024780e-01" nType="-99"/>
            <Node pos="r" depth="3" NCoef="0" IVar="-1" Cut="0.0000000000000000e+00" cType="1" res="7.8587727621197701e-03" rms="2.8514954447746277e-01" purity="8.8222253322601318e-01" nType="-99"/>
          </Node>
        </Node>
        <Node pos="r" depth="1" NCoef="0" IVar="3" Cut="4.3764862060546875e+02" cType="1" res="2.2265747189521790e-02" rms="2.2112584114074707e-01" purity="9.2942094802856445e-01" nType="0">
          <Node pos="l" depth="2" NCoef="0" IVar="-1" Cut="0.0000000000000000e+00" cType="1" res="3.6259282380342484e-02" rms="2.5343671441078186e-01" purity="9.0259838104248047e-01" nType="-99"/>
          <Node pos="r" depth="2" NCoef="0" IVar="-1" Cut="0.0000000000000000e+00" cType="1" res="2.8765438124537468e-02" rms="1.9389826059341431e-01" purity="9.4901657104492188e-01" nType="-99"/>
        </Node>
      </Node>
    </BinaryTree>
