<?xml version="1.0"?>
<MethodSetup Method="BDT::BDTG">
  <GeneralInfo>
    <Info name="TMVA Release" value="4.2.1 [262657]"/>
    <Info name="ROOT Release" value="6.14/04 [396804]"/>
    <Info name="Creator" value="unok"/>
    <Info name="Date" value="Mon Jan 14 13:02:05 2019"/>
    <Info name="Host" value="Linux lcgapp-slc6-x86-64-39.cern.ch 2.6.32-696.30.1.el6.x86_64 #1 SMP Tue May 22 06:09:36 CEST 2018 x86_64 x86_64 x86_64 GNU/Linux"/>
    <Info name="Dir" value="/gpfs/fs6001/unok/TMVA/2018/v142/V2/TMVA-0L"/>
    <Info name="Training events" value="111929"/>
    <Info name="TrainingTime" value="5.79043589e+01"/>
    <Info name="AnalysisType" value="Classification"/>
  </GeneralInfo>
  <Options>
    <Option name="V" modified="Yes">False</Option>
    <Option name="VerbosityLevel" modified="No">Default</Option>
    <Option name="VarTransform" modified="No">None</Option>
    <Option name="H" modified="Yes">False</Option>
    <Option name="CreateMVAPdfs" modified="No">False</Option>
    <Option name="IgnoreNegWeightsInTraining" modified="No">False</Option>
    <Option name="NTrees" modified="Yes">800</Option>
    <Option name="MaxDepth" modified="Yes">3</Option>
    <Option name="MinNodeSize" modified="Yes">2.500000%</Option>
    <Option name="nCuts" modified="Yes">20</Option>
    <Option name="BoostType" modified="Yes">Grad</Option>
    <Option name="AdaBoostR2Loss" modified="No">quadratic</Option>
    <Option name="UseBaggedBoost" modified="Yes">True</Option>
    <Option name="Shrinkage" modified="Yes">2.000000e-01</Option>
    <Option name="AdaBoostBeta" modified="No">5.000000e-01</Option>
    <Option name="UseRandomisedTrees" modified="No">False</Option>
    <Option name="UseNvars" modified="No">3</Option>
    <Option name="UsePoissonNvars" modified="No">True</Option>
    <Option name="BaggedSampleFraction" modified="Yes">5.000000e-01</Option>
    <Option name="UseYesNoLeaf" modified="No">True</Option>
    <Option name="NegWeightTreatment" modified="Yes">pray</Option>
    <Option name="Css" modified="No">1.000000e+00</Option>
    <Option name="Cts_sb" modified="No">1.000000e+00</Option>
    <Option name="Ctb_ss" modified="No">1.000000e+00</Option>
    <Option name="Cbb" modified="No">1.000000e+00</Option>
    <Option name="NodePurityLimit" modified="No">5.000000e-01</Option>
    <Option name="SeparationType" modified="No">giniindex</Option>
    <Option name="RegressionLossFunctionBDTG" modified="No">huber</Option>
    <Option name="HuberQuantile" modified="No">7.000000e-01</Option>
    <Option name="DoBoostMonitor" modified="No">False</Option>
    <Option name="UseFisherCuts" modified="No">False</Option>
    <Option name="MinLinCorrForFisher" modified="No">8.000000e-01</Option>
    <Option name="UseExclusiveVars" modified="No">False</Option>
    <Option name="DoPreselection" modified="No">False</Option>
    <Option name="SigToBkgFraction" modified="No">1.000000e+00</Option>
    <Option name="PruneMethod" modified="No">nopruning</Option>
    <Option name="PruneStrength" modified="No">0.000000e+00</Option>
    <Option name="PruningValFraction" modified="No">5.000000e-01</Option>
    <Option name="SkipNormalization" modified="No">False</Option>
    <Option name="nEventsMin" modified="No">0</Option>
    <Option name="UseBaggedGrad" modified="No">False</Option>
    <Option name="GradBaggingFraction" modified="No">5.000000e-01</Option>
    <Option name="UseNTrainEvents" modified="No">0</Option>
    <Option name="NNodesMax" modified="No">0</Option>
  </Options>
  <Variables NVar="10">
    <Variable VarIndex="0" Expression="meff" Label="meff" Title="m_{eff}(incl.)" Unit="GeV" Internal="meff" Type="F" Min="1.40001428e+03" Max="6.53013135e+03"/>
    <Variable VarIndex="1" Expression="Ap" Label="Ap" Title="Aplanarity" Unit="" Internal="Ap" Type="F" Min="7.07318104e-05" Max="4.53371525e-01"/>
    <Variable VarIndex="2" Expression="jetPt0" Label="jetPt0" Title="p_{T}(j_{1})" Unit="GeV" Internal="jetPt0" Type="F" Min="2.00075363e+02" Max="2.57996973e+03"/>
    <Variable VarIndex="3" Expression="jetPt1" Label="jetPt1" Title="p_{T}(j_{2})" Unit="GeV" Internal="jetPt1" Type="F" Min="6.17280273e+01" Max="1.66474475e+03"/>
    <Variable VarIndex="4" Expression="jetPt2" Label="jetPt2" Title="p_{T}(j_{3})" Unit="GeV" Internal="jetPt2" Type="F" Min="5.29769135e+01" Max="1.21655359e+03"/>
    <Variable VarIndex="5" Expression="jetPt3" Label="jetPt3" Title="p_{T}(j_{4})" Unit="GeV" Internal="jetPt3" Type="F" Min="5.05953674e+01" Max="8.39503052e+02"/>
    <Variable VarIndex="6" Expression="jetEta0" Label="jetEta0" Title="#eta(j_{1})" Unit="" Internal="jetEta0" Type="F" Min="-2.70493984e+00" Max="2.79937601e+00"/>
    <Variable VarIndex="7" Expression="jetEta1" Label="jetEta1" Title="#eta(j_{2})" Unit="" Internal="jetEta1" Type="F" Min="-2.79985952e+00" Max="2.79809141e+00"/>
    <Variable VarIndex="8" Expression="jetEta2" Label="jetEta2" Title="#eta(j_{3})" Unit="" Internal="jetEta2" Type="F" Min="-2.79998851e+00" Max="2.79963684e+00"/>
    <Variable VarIndex="9" Expression="jetEta3" Label="jetEta3" Title="#eta(j_{4})" Unit="" Internal="jetEta3" Type="F" Min="-2.79974222e+00" Max="2.79975390e+00"/>
  </Variables>
  <Spectators NSpec="0">
  </Spectators>
  <Classes NClass="2">
    <Class Name="Signal" Index="0"/>
    <Class Name="Background" Index="1"/>
  </Classes>
  <Transformations NTransformations="0"/>
  <MVAPdfs/>
  <Weights NTrees="800" AnalysisType="1">
    <BinaryTree type="DecisionTree" boostWeight="1.0000000000000000e+00" itree="0">
      <Node pos="s" depth="0" NCoef="0" IVar="0" Cut="2.0382716064453125e+03" cType="1" res="-5.5991983972489834e-03" rms="4.9996864795684814e-01" purity="4.9440079927444458e-01" nType="0">
        <Node pos="l" depth="1" NCoef="0" IVar="0" Cut="1.7951008300781250e+03" cType="1" res="-3.8061121106147766e-01" rms="3.2424542307853699e-01" purity="1.1938877403736115e-01" nType="0">
          <Node pos="l" depth="2" NCoef="0" IVar="1" Cut="1.0573293268680573e-01" cType="1" res="-4.4938153028488159e-01" rms="2.1921731531620026e-01" purity="5.0618465989828110e-02" nType="0">
            <Node pos="l" depth="3" NCoef="0" IVar="-1" Cut="0.0000000000000000e+00" cType="1" res="-1.8680781126022339e-01" rms="1.7858542501926422e-01" purity="3.2980464398860931e-02" nType="-99"/>
            <Node pos="r" depth="3" NCoef="0" IVar="-1" Cut="0.0000000000000000e+00" cType="1" res="-1.3070328533649445e-01" rms="3.7845617532730103e-01" purity="1.7324177920818329e-01" nType="-99"/>
          </Node>
          <Node pos="r" depth="2" NCoef="0" IVar="1" Cut="5.6526355445384979e-02" cType="1" res="-1.6032175719738007e-01" rms="4.7359997034072876e-01" purity="3.3967825770378113e-01" nType="0">
            <Node pos="l" depth="3" NCoef="0" IVar="-1" Cut="0.0000000000000000e+00" cType="1" res="-1.4638909697532654e-01" rms="3.4068158268928528e-01" purity="1.3402725756168365e-01" nType="-99"/>
            <Node pos="r" depth="3" NCoef="0" IVar="-1" Cut="0.0000000000000000e+00" cType="1" res="3.3185921609401703e-02" rms="4.9306878447532654e-01" purity="5.8296477794647217e-01" nType="-99"/>
          </Node>
        </Node>
        <Node pos="r" depth="1" NCoef="0" IVar="1" Cut="4.3450269848108292e-02" cType="1" res="3.7249144911766052e-01" rms="3.3354178071022034e-01" purity="8.7249147891998291e-01" nType="0">
          <Node pos="l" depth="2" NCoef="0" IVar="5" Cut="1.3995892333984375e+02" cType="1" res="8.9708045125007629e-02" rms="4.9188664555549622e-01" purity="5.8970808982849121e-01" nType="0">
            <Node pos="l" depth="3" NCoef="0" IVar="-1" Cut="0.0000000000000000e+00" cType="1" res="-8.3314441144466400e-02" rms="4.5455130934715271e-01" purity="2.9171386361122131e-01" nType="-99"/>
            <Node pos="r" depth="3" NCoef="0" IVar="-1" Cut="0.0000000000000000e+00" cType="1" res="9.4385452568531036e-02" rms="4.4081872701644897e-01" purity="7.3596364259719849e-01" nType="-99"/>
          </Node>
          <Node pos="r" depth="2" NCoef="0" IVar="0" Cut="2.2207924804687500e+03" cType="1" res="4.3506067991256714e-01" rms="2.4641875922679901e-01" purity="9.3506067991256714e-01" nType="0">
            <Node pos="l" depth="3" NCoef="0" IVar="-1" Cut="0.0000000000000000e+00" cType="1" res="1.0453605651855469e-01" rms="4.2626440525054932e-01" purity="7.6134014129638672e-01" nType="-99"/>
            <Node pos="r" depth="3" NCoef="0" IVar="-1" Cut="0.0000000000000000e+00" cType="1" res="1.8417468667030334e-01" rms="1.9493082165718079e-01" purity="9.6043676137924194e-01" nType="-99"/>
          </Node>
        </Node>
      </Node>
    </BinaryTree>
    <BinaryTree type="DecisionTree" boostWeight="1.0000000000000000e+00" itree="1">
      <Node pos="s" depth="0" NCoef="0" IVar="0" Cut="2.0753007812500000e+03" cType="1" res="-3.1851304229348898e-03" rms="4.3595948815345764e-01" purity="4.9628058075904846e-01" nType="0">
        <Node pos="l" depth="1" NCoef="0" IVar="0" Cut="1.8179892578125000e+03" cType="1" res="-2.9070582985877991e-01" rms="3.2415983080863953e-01" purity="1.3765864074230194e-01" nType="0">
          <Node pos="l" depth="2" NCoef="0" IVar="1" Cut="9.0370312333106995e-02" cType="1" res="-3.5868450999259949e-01" rms="2.2277563810348511e-01" purity="5.4141752421855927e-02" nType="0">
            <Node pos="l" depth="3" NCoef="0" IVar="-1" Cut="0.0000000000000000e+00" cType="1" res="-1.5781022608280182e-01" rms="1.6396094858646393e-01" purity="2.7670841664075851e-02" nType="-99"/>
            <Node pos="r" depth="3" NCoef="0" IVar="-1" Cut="0.0000000000000000e+00" cType="1" res="-9.9968828260898590e-02" rms="3.8541930913925171e-01" purity="1.8733142316341400e-01" nType="-99"/>
          </Node>
          <Node pos="r" depth="2" NCoef="0" IVar="1" Cut="8.6665853857994080e-02" cType="1" res="-7.7610574662685394e-02" rms="4.6798202395439148e-01" purity="3.9946210384368896e-01" nType="0">
            <Node pos="l" depth="3" NCoef="0" IVar="-1" Cut="0.0000000000000000e+00" cType="1" res="-9.0142548084259033e-02" rms="4.1093656420707703e-01" purity="2.3236501216888428e-01" nType="-99"/>
            <Node pos="r" depth="3" NCoef="0" IVar="-1" Cut="0.0000000000000000e+00" cType="1" res="8.2691811025142670e-02" rms="4.4305622577667236e-01" purity="7.2849094867706299e-01" nType="-99"/>
          </Node>
        </Node>
        <Node pos="r" depth="1" NCoef="0" IVar="1" Cut="3.8970001041889191e-02" cType="1" res="3.0121782422065735e-01" rms="3.1598776578903198e-01" purity="8.7595951557159424e-01" nType="0">
          <Node pos="l" depth="2" NCoef="0" IVar="0" Cut="2.6310432128906250e+03" cType="1" res="5.9630166739225388e-02" rms="4.8222354054450989e-01" purity="5.7824647426605225e-01" nType="0">
            <Node pos="l" depth="3" NCoef="0" IVar="-1" Cut="0.0000000000000000e+00" cType="1" res="-4.5008942484855652e-02" rms="4.8064631223678589e-01" purity="4.0029188990592957e-01" nType="-99"/>
            <Node pos="r" depth="3" NCoef="0" IVar="-1" Cut="0.0000000000000000e+00" cType="1" res="1.1364604532718658e-01" rms="3.8360473513603210e-01" purity="8.0904316902160645e-01" nType="-99"/>
          </Node>
          <Node pos="r" depth="2" NCoef="0" IVar="0" Cut="2.2682426757812500e+03" cType="1" res="3.4756827354431152e-01" rms="2.4707153439521790e-01" purity="9.3307811021804810e-01" nType="0">
            <Node pos="l" depth="3" NCoef="0" IVar="-1" Cut="0.0000000000000000e+00" cType="1" res="8.5971847176551819e-02" rms="4.1835042834281921e-01" purity="7.7309435606002808e-01" nType="-99"/>
            <Node pos="r" depth="3" NCoef="0" IVar="-1" Cut="0.0000000000000000e+00" cType="1" res="1.5338824689388275e-01" rms="1.9419281184673309e-01" purity="9.6057933568954468e-01" nType="-99"/>
          </Node>
        </Node>
      </Node>
    </BinaryTree>
    <BinaryTree type="DecisionTree" boostWeight="1.0000000000000000e+00" itree="2">
      <Node pos="s" depth="0" NCoef="0" IVar="0" Cut="2.1009020996093750e+03" cType="1" res="4.9772984348237514e-03" rms="3.8790717720985413e-01" purity="5.0508606433868408e-01" nType="0">
        <Node pos="l" depth="1" NCoef="0" IVar="0" Cut="1.8672735595703125e+03" cType="1" res="-2.3016801476478577e-01" rms="3.1525588035583496e-01" purity="1.4451062679290771e-01" nType="0">
          <Node pos="l" depth="2" NCoef="0" IVar="1" Cut="1.1424345523118973e-01" cType="1" res="-2.7633839845657349e-01" rms="2.4829193949699402e-01" purity="7.3236964643001556e-02" nType="0">
            <Node pos="l" depth="3" NCoef="0" IVar="-1" Cut="0.0000000000000000e+00" cType="1" res="-1.3144257664680481e-01" rms="2.0639872550964355e-01" purity="4.7205429524183273e-02" nType="-99"/>
            <Node pos="r" depth="3" NCoef="0" IVar="-1" Cut="0.0000000000000000e+00" cType="1" res="-5.3638920187950134e-02" rms="4.3405824899673462e-01" purity="2.8030034899711609e-01" nType="-99"/>
          </Node>
          <Node pos="r" depth="2" NCoef="0" IVar="1" Cut="3.8056690245866776e-02" cType="1" res="-3.9840742945671082e-02" rms="4.5819035172462463e-01" purity="4.3832060694694519e-01" nType="0">
            <Node pos="l" depth="3" NCoef="0" IVar="-1" Cut="0.0000000000000000e+00" cType="1" res="-1.1538015305995941e-01" rms="3.2241258025169373e-01" purity="1.2273978441953659e-01" nType="-99"/>
            <Node pos="r" depth="3" NCoef="0" IVar="-1" Cut="0.0000000000000000e+00" cType="1" res="3.6694355309009552e-02" rms="4.7022372484207153e-01" purity="6.1242657899856567e-01" nType="-99"/>
          </Node>
        </Node>
        <Node pos="r" depth="1" NCoef="0" IVar="1" Cut="2.1479839459061623e-02" cType="1" res="2.5729018449783325e-01" rms="2.8687173128128052e-01" purity="8.9198648929595947e-01" nType="0">
          <Node pos="l" depth="2" NCoef="0" IVar="-1" Cut="0.0000000000000000e+00" cType="1" res="-1.5548762865364552e-02" rms="4.7347229719161987e-01" purity="4.7891101241111755e-01" nType="-99"/>
          <Node pos="r" depth="2" NCoef="0" IVar="5" Cut="1.7190588378906250e+02" cType="1" res="2.7907449007034302e-01" rms="2.5480273365974426e-01" purity="9.2243587970733643e-01" nType="0">
            <Node pos="l" depth="3" NCoef="0" IVar="-1" Cut="0.0000000000000000e+00" cType="1" res="8.3032958209514618e-02" rms="3.7129142880439758e-01" purity="8.1065213680267334e-01" nType="-99"/>
            <Node pos="r" depth="3" NCoef="0" IVar="-1" Cut="0.0000000000000000e+00" cType="1" res="1.3398142158985138e-01" rms="2.0424297451972961e-01" purity="9.5383656024932861e-01" nType="-99"/>
          </Node>
        </Node>
      </Node>
    </BinaryTree>
    <BinaryTree type="DecisionTree" boostWeight="1.0000000000000000e+00" itree="3">
      <Node pos="s" depth="0" NCoef="0" IVar="0" Cut="2.1008598632812500e+03" cType="1" res="-4.4162166304886341e-03" rms="3.6014139652252197e-01" purity="4.9825140833854675e-01" nType="0">
        <Node pos="l" depth="1" NCoef="0" IVar="1" Cut="8.6480043828487396e-02" cType="1" res="-1.8549367785453796e-01" rms="3.0991947650909424e-01" purity="1.4838780462741852e-01" nType="0">
          <Node pos="l" depth="2" NCoef="0" IVar="5" Cut="1.4757313537597656e+02" cType="1" res="-2.2923585772514343e-01" rms="2.4385008215904236e-01" purity="7.3633775115013123e-02" nType="0">
            <Node pos="l" depth="3" NCoef="0" IVar="-1" Cut="0.0000000000000000e+00" cType="1" res="-1.2252938002347946e-01" rms="1.9247542321681976e-01" purity="4.2044289410114288e-02" nType="-99"/>
            <Node pos="r" depth="3" NCoef="0" IVar="-1" Cut="0.0000000000000000e+00" cType="1" res="-7.5039684772491455e-02" rms="3.4718522429466248e-01" purity="1.6859140992164612e-01" nType="-99"/>
          </Node>
          <Node pos="r" depth="2" NCoef="0" IVar="0" Cut="1.6669924316406250e+03" cType="1" res="-4.2730573564767838e-02" rms="4.3455174565315247e-01" purity="3.9236551523208618e-01" nType="0">
            <Node pos="l" depth="3" NCoef="0" IVar="-1" Cut="0.0000000000000000e+00" cType="1" res="-1.0659300535917282e-01" rms="3.0171799659729004e-01" purity="1.0178502649068832e-01" nType="-99"/>
            <Node pos="r" depth="3" NCoef="0" IVar="-1" Cut="0.0000000000000000e+00" cType="1" res="4.1555598378181458e-02" rms="4.6031016111373901e-01" purity="6.0262185335159302e-01" nType="-99"/>
          </Node>
        </Node>
        <Node pos="r" depth="1" NCoef="0" IVar="0" Cut="2.3011147460937500e+03" cType="1" res="1.9024133682250977e-01" rms="3.0452856421470642e-01" purity="8.7435340881347656e-01" nType="0">
          <Node pos="l" depth="2" NCoef="0" IVar="2" Cut="5.8557501220703125e+02" cType="1" res="1.6832020133733749e-02" rms="4.5507842302322388e-01" purity="6.4940035343170166e-01" nType="0">
            <Node pos="l" depth="3" NCoef="0" IVar="-1" Cut="0.0000000000000000e+00" cType="1" res="7.1578197181224823e-02" rms="3.7690055370330811e-01" purity="8.1024789810180664e-01" nType="-99"/>
            <Node pos="r" depth="3" NCoef="0" IVar="-1" Cut="0.0000000000000000e+00" cType="1" res="-1.0947686433792114e-01" rms="4.6670863032341003e-01" purity="3.4890714287757874e-01" nType="-99"/>
          </Node>
          <Node pos="r" depth="2" NCoef="0" IVar="5" Cut="1.3732858276367188e+02" cType="1" res="2.2803027927875519e-01" rms="2.4461378157138824e-01" purity="9.2337459325790405e-01" nType="0">
            <Node pos="l" depth="3" NCoef="0" IVar="-1" Cut="0.0000000000000000e+00" cType="1" res="1.5981098636984825e-02" rms="4.4240319728851318e-01" purity="6.4288759231567383e-01" nType="-99"/>
            <Node pos="r" depth="3" NCoef="0" IVar="-1" Cut="0.0000000000000000e+00" cType="1" res="1.2070078402757645e-01" rms="2.0069381594657898e-01" purity="9.5441538095474243e-01" nType="-99"/>
          </Node>
        </Node>
      </Node>
    </BinaryTree>
    <BinaryTree type="DecisionTree" boostWeight="1.0000000000000000e+00" itree="4">
      <Node pos="s" depth="0" NCoef="0" IVar="0" Cut="2.0805847167968750e+03" cType="1" res="1.3771314406767488e-03" rms="3.3345958590507507e-01" purity="5.0240224599838257e-01" nType="0">
        <Node pos="l" depth="1" NCoef="0" IVar="0" Cut="1.7889017333984375e+03" cType="1" res="-1.5117639303207397e-01" rms="3.0086982250213623e-01" purity="1.4010681211948395e-01" nType="0">
          <Node pos="l" depth="2" NCoef="0" IVar="1" Cut="4.2382903397083282e-02" cType="1" res="-1.9271004199981689e-01" rms="2.2279214859008789e-01" purity="5.5923484265804291e-02" nType="0">
            <Node pos="l" depth="3" NCoef="0" IVar="-1" Cut="0.0000000000000000e+00" cType="1" res="-1.2139828503131866e-01" rms="1.2906481325626373e-01" purity="1.6919048503041267e-02" nType="-99"/>
            <Node pos="r" depth="3" NCoef="0" IVar="-1" Cut="0.0000000000000000e+00" cType="1" res="-8.2652501761913300e-02" rms="3.0023166537284851e-01" purity="1.0612035542726517e-01" nType="-99"/>
          </Node>
          <Node pos="r" depth="2" NCoef="0" IVar="2" Cut="5.3429858398437500e+02" cType="1" res="-4.0917206555604935e-02" rms="4.2699745297431946e-01" purity="3.6358800530433655e-01" nType="0">
            <Node pos="l" depth="3" NCoef="0" IVar="-1" Cut="0.0000000000000000e+00" cType="1" res="2.6417827233672142e-02" rms="4.5233801007270813e-01" purity="4.9510547518730164e-01" nType="-99"/>
            <Node pos="r" depth="3" NCoef="0" IVar="-1" Cut="0.0000000000000000e+00" cType="1" res="-9.8453007638454437e-02" rms="3.1383565068244934e-01" purity="1.4183571934700012e-01" nType="-99"/>
          </Node>
        </Node>
        <Node pos="r" depth="1" NCoef="0" IVar="1" Cut="2.1446336060762405e-02" cType="1" res="1.5910309553146362e-01" rms="2.8918808698654175e-01" purity="8.7698155641555786e-01" nType="0">
          <Node pos="l" depth="2" NCoef="0" IVar="-1" Cut="0.0000000000000000e+00" cType="1" res="-3.8270454853773117e-02" rms="4.5307126641273499e-01" purity="4.3030267953872681e-01" nType="-99"/>
          <Node pos="r" depth="2" NCoef="0" IVar="0" Cut="2.4694902343750000e+03" cType="1" res="1.7725533246994019e-01" rms="2.6446613669395447e-01" purity="9.0931916236877441e-01" nType="0">
            <Node pos="l" depth="3" NCoef="0" IVar="-1" Cut="0.0000000000000000e+00" cType="1" res="5.0757754594087601e-02" rms="3.7702921032905579e-01" purity="7.9407364130020142e-01" nType="-99"/>
            <Node pos="r" depth="3" NCoef="0" IVar="-1" Cut="0.0000000000000000e+00" cType="1" res="1.1398250609636307e-01" rms="1.8041267991065979e-01" purity="9.6327900886535645e-01" nType="-99"/>
          </Node>
        </Node>
      </Node>
    </BinaryTree>
    <BinaryTree type="DecisionTree" boostWeight="1.0000000000000000e+00" itree="5">
      <Node pos="s" depth="0" NCoef="0" IVar="0" Cut="1.8657257080078125e+03" cType="1" res="1.4267583610489964e-03" rms="3.1497523188591003e-01" purity="5.0278741121292114e-01" nType="0">
        <Node pos="l" depth="1" NCoef="0" IVar="1" Cut="1.4974729716777802e-01" cType="1" res="-1.5472325682640076e-01" rms="2.3705379664897919e-01" purity="6.9865204393863678e-02" nType="0">
          <Node pos="l" depth="2" NCoef="0" IVar="0" Cut="1.6217670898437500e+03" cType="1" res="-1.6443377733230591e-01" rms="2.1327416598796844e-01" purity="5.2406013011932373e-02" nType="0">
            <Node pos="l" depth="3" NCoef="0" IVar="-1" Cut="0.0000000000000000e+00" cType="1" res="-1.1307425796985626e-01" rms="1.4208969473838806e-01" purity="2.0940611138939857e-02" nType="-99"/>
            <Node pos="r" depth="3" NCoef="0" IVar="-1" Cut="0.0000000000000000e+00" cType="1" res="-7.6323807239532471e-02" rms="2.9056167602539062e-01" purity="1.0266350954771042e-01" nType="-99"/>
          </Node>
          <Node pos="r" depth="2" NCoef="0" IVar="-1" Cut="0.0000000000000000e+00" cType="1" res="-6.6150324419140816e-03" rms="4.3593686819076538e-01" purity="3.2250055670738220e-01" nType="-99"/>
        </Node>
        <Node pos="r" depth="1" NCoef="0" IVar="1" Cut="4.2691592127084732e-02" cType="1" res="1.1084281653165817e-01" rms="3.1669104099273682e-01" purity="8.0614084005355835e-01" nType="0">
          <Node pos="l" depth="2" NCoef="0" IVar="0" Cut="2.4503520507812500e+03" cType="1" res="-4.0448233485221863e-02" rms="4.1430518031120300e-01" purity="4.6830496191978455e-01" nType="0">
            <Node pos="l" depth="3" NCoef="0" IVar="-1" Cut="0.0000000000000000e+00" cType="1" res="-5.9081263840198517e-02" rms="4.0634563565254211e-01" purity="2.7193316817283630e-01" nType="-99"/>
            <Node pos="r" depth="3" NCoef="0" IVar="-1" Cut="0.0000000000000000e+00" cType="1" res="4.3768025934696198e-02" rms="3.8998323678970337e-01" purity="7.6261007785797119e-01" nType="-99"/>
          </Node>
          <Node pos="r" depth="2" NCoef="0" IVar="5" Cut="1.3699372863769531e+02" cType="1" res="1.5072353184223175e-01" rms="2.7177128195762634e-01" purity="8.9519518613815308e-01" nType="0">
            <Node pos="l" depth="3" NCoef="0" IVar="-1" Cut="0.0000000000000000e+00" cType="1" res="1.6071012243628502e-02" rms="4.1859671473503113e-01" purity="6.6595053672790527e-01" nType="-99"/>
            <Node pos="r" depth="3" NCoef="0" IVar="-1" Cut="0.0000000000000000e+00" cType="1" res="9.3714952468872070e-02" rms="2.4450998008251190e-01" purity="9.2287844419479370e-01" nType="-99"/>
          </Node>
        </Node>
      </Node>
    </BinaryTree>
    <BinaryTree type="DecisionTree" boostWeight="1.0000000000000000e+00" itree="6">
      <Node pos="s" depth="0" NCoef="0" IVar="0" Cut="2.0985795898437500e+03" cType="1" res="-1.3717097463086247e-03" rms="3.0383959412574768e-01" purity="4.9352324008941650e-01" nType="0">
        <Node pos="l" depth="1" NCoef="0" IVar="5" Cut="1.6497702026367188e+02" cType="1" res="-1.0146915912628174e-01" rms="2.9069331288337708e-01" purity="1.4177644252777100e-01" nType="0">
          <Node pos="l" depth="2" NCoef="0" IVar="1" Cut="3.8148235529661179e-02" cType="1" res="-1.2418892234563828e-01" rms="2.5600698590278625e-01" purity="9.3227557837963104e-02" nType="0">
            <Node pos="l" depth="3" NCoef="0" IVar="-1" Cut="0.0000000000000000e+00" cType="1" res="-1.0498486459255219e-01" rms="1.5327358245849609e-01" purity="2.5140685960650444e-02" nType="-99"/>
            <Node pos="r" depth="3" NCoef="0" IVar="-1" Cut="0.0000000000000000e+00" cType="1" res="-5.2963458001613617e-02" rms="3.3521160483360291e-01" purity="1.7209418118000031e-01" nType="-99"/>
          </Node>
          <Node pos="r" depth="2" NCoef="0" IVar="1" Cut="5.7176940143108368e-02" cType="1" res="-3.3021974377334118e-03" rms="3.9315450191497803e-01" purity="3.5154518485069275e-01" nType="0">
            <Node pos="l" depth="3" NCoef="0" IVar="-1" Cut="0.0000000000000000e+00" cType="1" res="-5.8393515646457672e-02" rms="3.2024785876274109e-01" purity="1.3875481486320496e-01" nType="-99"/>
            <Node pos="r" depth="3" NCoef="0" IVar="-1" Cut="0.0000000000000000e+00" cType="1" res="3.9301976561546326e-02" rms="4.2883038520812988e-01" purity="5.3594863414764404e-01" nType="-99"/>
          </Node>
        </Node>
        <Node pos="r" depth="1" NCoef="0" IVar="4" Cut="1.7862870788574219e+02" cType="1" res="1.0870333760976791e-01" rms="2.7888840436935425e-01" purity="8.8033175468444824e-01" nType="0">
          <Node pos="l" depth="2" NCoef="0" IVar="-1" Cut="0.0000000000000000e+00" cType="1" res="-4.1144914925098419e-02" rms="4.2208367586135864e-01" purity="5.2420121431350708e-01" nType="-99"/>
          <Node pos="r" depth="2" NCoef="0" IVar="0" Cut="2.2982124023437500e+03" cType="1" res="1.2265184521675110e-01" rms="2.6019835472106934e-01" purity="9.0569770336151123e-01" nType="0">
            <Node pos="l" depth="3" NCoef="0" IVar="-1" Cut="0.0000000000000000e+00" cType="1" res="1.9447470083832741e-02" rms="4.0271836519241333e-01" purity="7.2281002998352051e-01" nType="-99"/>
            <Node pos="r" depth="3" NCoef="0" IVar="-1" Cut="0.0000000000000000e+00" cType="1" res="9.0043023228645325e-02" rms="2.1821896731853485e-01" purity="9.4144493341445923e-01" nType="-99"/>
          </Node>
        </Node>
      </Node>
    </BinaryTree>
    <BinaryTree type="DecisionTree" boostWeight="1.0000000000000000e+00" itree="7">
      <Node pos="s" depth="0" NCoef="0" IVar="0" Cut="1.8885968017578125e+03" cType="1" res="3.5119414678774774e-04" rms="2.9511702060699463e-01" purity="4.9589884281158447e-01" nType="0">
        <Node pos="l" depth="1" NCoef="0" IVar="0" Cut="1.5861300048828125e+03" cType="1" res="-9.8758161067962646e-02" rms="2.4831409752368927e-01" purity="8.1290863454341888e-02" nType="0">
          <Node pos="l" depth="2" NCoef="0" IVar="0" Cut="1.4709136962890625e+03" cType="1" res="-1.3189665973186493e-01" rms="1.4550589025020599e-01" purity="2.2502249106764793e-02" nType="0">
            <Node pos="l" depth="3" NCoef="0" IVar="-1" Cut="0.0000000000000000e+00" cType="1" res="-1.1132678389549255e-01" rms="1.0362034291028976e-01" purity="1.0597522370517254e-02" nType="-99"/>
            <Node pos="r" depth="3" NCoef="0" IVar="-1" Cut="0.0000000000000000e+00" cType="1" res="-9.5086701214313507e-02" rms="1.6848878562450409e-01" purity="3.0959209427237511e-02" nType="-99"/>
          </Node>
          <Node pos="r" depth="2" NCoef="0" IVar="1" Cut="4.2444959282875061e-02" cType="1" res="-6.2575340270996094e-02" rms="3.2149505615234375e-01" purity="1.4548020064830780e-01" nType="0">
            <Node pos="l" depth="3" NCoef="0" IVar="-1" Cut="0.0000000000000000e+00" cType="1" res="-8.7885536253452301e-02" rms="2.0092517137527466e-01" purity="4.2595077306032181e-02" nType="-99"/>
            <Node pos="r" depth="3" NCoef="0" IVar="-1" Cut="0.0000000000000000e+00" cType="1" res="-9.9624122958630323e-04" rms="4.0826454758644104e-01" purity="2.6035338640213013e-01" nType="-99"/>
          </Node>
        </Node>
        <Node pos="r" depth="1" NCoef="0" IVar="4" Cut="1.7412641906738281e+02" cType="1" res="7.5514458119869232e-02" rms="3.0542445182800293e-01" purity="8.1033217906951904e-01" nType="0">
          <Node pos="l" depth="2" NCoef="0" IVar="1" Cut="3.5964526236057281e-02" cType="1" res="-1.0629977285861969e-01" rms="3.9744678139686584e-01" purity="3.5478094220161438e-01" nType="0">
            <Node pos="l" depth="3" NCoef="0" IVar="-1" Cut="0.0000000000000000e+00" cType="1" res="-9.5859557390213013e-02" rms="3.1017631292343140e-01" purity="1.2496579438447952e-01" nType="-99"/>
            <Node pos="r" depth="3" NCoef="0" IVar="-1" Cut="0.0000000000000000e+00" cType="1" res="-1.2992234900593758e-02" rms="4.5137888193130493e-01" purity="5.7214403152465820e-01" nType="-99"/>
          </Node>
          <Node pos="r" depth="2" NCoef="0" IVar="1" Cut="2.1825674921274185e-02" cType="1" res="9.3671686947345734e-02" rms="2.8843334317207336e-01" purity="8.5582667589187622e-01" nType="0">
            <Node pos="l" depth="3" NCoef="0" IVar="-1" Cut="0.0000000000000000e+00" cType="1" res="-1.7061136662960052e-02" rms="4.2310708761215210e-01" purity="4.3888983130455017e-01" nType="-99"/>
            <Node pos="r" depth="3" NCoef="0" IVar="-1" Cut="0.0000000000000000e+00" cType="1" res="6.7809410393238068e-02" rms="2.7271437644958496e-01" purity="8.8803708553314209e-01" nType="-99"/>
          </Node>
        </Node>
      </Node>
    </BinaryTree>
    <BinaryTree type="DecisionTree" boostWeight="1.0000000000000000e+00" itree="8">
      <Node pos="s" depth="0" NCoef="0" IVar="0" Cut="2.0985766601562500e+03" cType="1" res="2.6515710633248091e-03" rms="2.8568297624588013e-01" purity="4.9806988239288330e-01" nType="0">
        <Node pos="l" depth="1" NCoef="0" IVar="1" Cut="7.5608454644680023e-02" cType="1" res="-6.6177420318126678e-02" rms="2.8415167331695557e-01" purity="1.4587756991386414e-01" nType="0">
          <Node pos="l" depth="2" NCoef="0" IVar="1" Cut="3.2442290335893631e-02" cType="1" res="-9.2112183570861816e-02" rms="2.2451445460319519e-01" purity="6.5421991050243378e-02" nType="0">
            <Node pos="l" depth="3" NCoef="0" IVar="-1" Cut="0.0000000000000000e+00" cType="1" res="-9.2847421765327454e-02" rms="1.6294190287590027e-01" purity="2.8493365272879601e-02" nType="-99"/>
            <Node pos="r" depth="3" NCoef="0" IVar="-1" Cut="0.0000000000000000e+00" cType="1" res="-4.9730245023965836e-02" rms="2.9088979959487915e-01" purity="1.1963240057229996e-01" nType="-99"/>
          </Node>
          <Node pos="r" depth="2" NCoef="0" IVar="0" Cut="1.6328643798828125e+03" cType="1" res="6.4022717997431755e-03" rms="3.9810451865196228e-01" purity="3.7103644013404846e-01" nType="0">
            <Node pos="l" depth="3" NCoef="0" IVar="-1" Cut="0.0000000000000000e+00" cType="1" res="-5.8325424790382385e-02" rms="2.9056316614151001e-01" purity="9.4890221953392029e-02" nType="-99"/>
            <Node pos="r" depth="3" NCoef="0" IVar="-1" Cut="0.0000000000000000e+00" cType="1" res="3.4421015530824661e-02" rms="4.4976985454559326e-01" purity="5.7448959350585938e-01" nType="-99"/>
          </Node>
        </Node>
        <Node pos="r" depth="1" NCoef="0" IVar="1" Cut="6.2644936144351959e-02" cType="1" res="7.9079672694206238e-02" rms="2.6736110448837280e-01" purity="8.8914620876312256e-01" nType="0">
          <Node pos="l" depth="2" NCoef="0" IVar="0" Cut="2.6795283203125000e+03" cType="1" res="7.0860721170902252e-03" rms="3.8103318214416504e-01" purity="7.1945703029632568e-01" nType="0">
            <Node pos="l" depth="3" NCoef="0" IVar="-1" Cut="0.0000000000000000e+00" cType="1" res="-3.7901554256677628e-02" rms="4.3669766187667847e-01" purity="5.6846934556961060e-01" nType="-99"/>
            <Node pos="r" depth="3" NCoef="0" IVar="-1" Cut="0.0000000000000000e+00" cType="1" res="7.0509411394596100e-02" rms="2.6659873127937317e-01" purity="9.0451186895370483e-01" nType="-99"/>
          </Node>
          <Node pos="r" depth="2" NCoef="0" IVar="1" Cut="1.1612793803215027e-01" cType="1" res="1.0716513544321060e-01" rms="1.9979575276374817e-01" purity="9.5534384250640869e-01" nType="0">
            <Node pos="l" depth="3" NCoef="0" IVar="-1" Cut="0.0000000000000000e+00" cType="1" res="6.4738951623439789e-02" rms="2.4985666573047638e-01" purity="9.2752385139465332e-01" nType="-99"/>
            <Node pos="r" depth="3" NCoef="0" IVar="-1" Cut="0.0000000000000000e+00" cType="1" res="9.9372863769531250e-02" rms="1.5123754739761353e-01" purity="9.7555917501449585e-01" nType="-99"/>
          </Node>
        </Node>
      </Node>
    </BinaryTree>
    <BinaryTree type="DecisionTree" boostWeight="1.0000000000000000e+00" itree="9">
      <Node pos="s" depth="0" NCoef="0" IVar="5" Cut="1.4090382385253906e+02" cType="1" res="-2.8250564355403185e-03" rms="2.8557378053665161e-01" purity="4.9873319268226624e-01" nType="0">
        <Node pos="l" depth="1" NCoef="0" IVar="2" Cut="7.0202783203125000e+02" cType="1" res="-8.0484464764595032e-02" rms="2.6220476627349854e-01" purity="1.4910808205604553e-01" nType="0">
          <Node pos="l" depth="2" NCoef="0" IVar="0" Cut="2.0068039550781250e+03" cType="1" res="-7.0591330528259277e-02" rms="2.4097034335136414e-01" purity="1.2485857307910919e-01" nType="0">
            <Node pos="l" depth="3" NCoef="0" IVar="-1" Cut="0.0000000000000000e+00" cType="1" res="-7.3938228189945221e-02" rms="2.0954935252666473e-01" purity="5.8311451226472855e-02" nType="-99"/>
            <Node pos="r" depth="3" NCoef="0" IVar="-1" Cut="0.0000000000000000e+00" cType="1" res="1.7970623448491096e-02" rms="3.9497998356819153e-01" purity="6.4346319437026978e-01" nType="-99"/>
          </Node>
          <Node pos="r" depth="2" NCoef="0" IVar="-1" Cut="0.0000000000000000e+00" cType="1" res="-8.8071569800376892e-02" rms="3.7896794080734253e-01" purity="3.3356210589408875e-01" nType="-99"/>
        </Node>
        <Node pos="r" depth="1" NCoef="0" IVar="0" Cut="2.2744289550781250e+03" cType="1" res="4.8583723604679108e-02" rms="2.8877526521682739e-01" purity="7.3017716407775879e-01" nType="0">
          <Node pos="l" depth="2" NCoef="0" IVar="1" Cut="1.0809157043695450e-01" cType="1" res="-2.9577605891972780e-03" rms="3.7329351902008057e-01" purity="4.0282708406448364e-01" nType="0">
            <Node pos="l" depth="3" NCoef="0" IVar="-1" Cut="0.0000000000000000e+00" cType="1" res="-2.7478888630867004e-02" rms="3.6474078893661499e-01" purity="2.7289977669715881e-01" nType="-99"/>
            <Node pos="r" depth="3" NCoef="0" IVar="-1" Cut="0.0000000000000000e+00" cType="1" res="4.6182677149772644e-02" rms="3.7684741616249084e-01" purity="6.9415813684463501e-01" nType="-99"/>
          </Node>
          <Node pos="r" depth="2" NCoef="0" IVar="0" Cut="2.8051166992187500e+03" cType="1" res="8.3140723407268524e-02" rms="2.0711942017078400e-01" purity="9.4965541362762451e-01" nType="0">
            <Node pos="l" depth="3" NCoef="0" IVar="-1" Cut="0.0000000000000000e+00" cType="1" res="5.2901934832334518e-02" rms="2.6020795106887817e-01" purity="9.1733634471893311e-01" nType="-99"/>
            <Node pos="r" depth="3" NCoef="0" IVar="-1" Cut="0.0000000000000000e+00" cType="1" res="9.7439460456371307e-02" rms="1.3357213139533997e-01" purity="9.8125946521759033e-01" nType="-99"/>
          </Node>
        </Node>
      </Node>
    </BinaryTree>
    <BinaryTree type="DecisionTree" boostWeight="1.0000000000000000e+00" itree="10">
      <Node pos="s" depth="0" NCoef="0" IVar="0" Cut="2.3771794433593750e+03" cType="1" res="8.3546398673206568e-04" rms="2.7936169505119324e-01" purity="4.9804884195327759e-01" nType="0">
        <Node pos="l" depth="1" NCoef="0" IVar="1" Cut="1.2690271437168121e-01" cType="1" res="-3.8243163377046585e-02" rms="3.0328938364982605e-01" purity="2.4916172027587891e-01" nType="0">
          <Node pos="l" depth="2" NCoef="0" IVar="2" Cut="4.5152789306640625e+02" cType="1" res="-5.3855765610933304e-02" rms="2.9150092601776123e-01" purity="1.8286934494972229e-01" nType="0">
            <Node pos="l" depth="3" NCoef="0" IVar="-1" Cut="0.0000000000000000e+00" cType="1" res="-2.0376732572913170e-02" rms="2.8795281052589417e-01" purity="1.7646199464797974e-01" nType="-99"/>
            <Node pos="r" depth="3" NCoef="0" IVar="-1" Cut="0.0000000000000000e+00" cType="1" res="-6.3262693583965302e-02" rms="2.9191899299621582e-01" purity="1.8969343602657318e-01" nType="-99"/>
          </Node>
          <Node pos="r" depth="2" NCoef="0" IVar="0" Cut="1.7257379150390625e+03" cType="1" res="5.1774848252534866e-02" rms="3.5057535767555237e-01" purity="6.3138538599014282e-01" nType="0">
            <Node pos="l" depth="3" NCoef="0" IVar="-1" Cut="0.0000000000000000e+00" cType="1" res="-3.7909697741270065e-02" rms="3.4036675095558167e-01" purity="1.4774005115032196e-01" nType="-99"/>
            <Node pos="r" depth="3" NCoef="0" IVar="-1" Cut="0.0000000000000000e+00" cType="1" res="5.7380001991987228e-02" rms="3.4380081295967102e-01" purity="8.3560878038406372e-01" nType="-99"/>
          </Node>
        </Node>
        <Node pos="r" depth="1" NCoef="0" IVar="2" Cut="8.2664117431640625e+02" cType="1" res="6.9777242839336395e-02" rms="2.1447733044624329e-01" purity="9.3713080883026123e-01" nType="0">
          <Node pos="l" depth="2" NCoef="0" IVar="2" Cut="6.8557617187500000e+02" cType="1" res="8.0376304686069489e-02" rms="1.8830955028533936e-01" purity="9.5744621753692627e-01" nType="0">
            <Node pos="l" depth="3" NCoef="0" IVar="-1" Cut="0.0000000000000000e+00" cType="1" res="8.8215433061122894e-02" rms="1.6328974068164825e-01" purity="9.7055768966674805e-01" nType="-99"/>
            <Node pos="r" depth="3" NCoef="0" IVar="-1" Cut="0.0000000000000000e+00" cType="1" res="5.1559373736381531e-02" rms="2.4883495271205902e-01" purity="9.1687840223312378e-01" nType="-99"/>
          </Node>
          <Node pos="r" depth="2" NCoef="0" IVar="1" Cut="5.1199033856391907e-02" cType="1" res="2.0713135600090027e-02" rms="3.0309087038040161e-01" purity="8.4308886528015137e-01" nType="0">
            <Node pos="l" depth="3" NCoef="0" IVar="-1" Cut="0.0000000000000000e+00" cType="1" res="-2.9324287548661232e-02" rms="4.0217387676239014e-01" purity="6.7526334524154663e-01" nType="-99"/>
            <Node pos="r" depth="3" NCoef="0" IVar="-1" Cut="0.0000000000000000e+00" cType="1" res="6.9173313677310944e-02" rms="1.9877946376800537e-01" purity="9.5560264587402344e-01" nType="-99"/>
          </Node>
        </Node>
      </Node>
    </BinaryTree>
    <BinaryTree type="DecisionTree" boostWeight="1.0000000000000000e+00" itree="11">
      <Node pos="s" depth="0" NCoef="0" IVar="0" Cut="1.8347299804687500e+03" cType="1" res="1.9996748305857182e-03" rms="2.7647835016250610e-01" purity="5.0178033113479614e-01" nType="0">
        <Node pos="l" depth="1" NCoef="0" IVar="1" Cut="9.5186084508895874e-02" cType="1" res="-5.2227184176445007e-02" rms="2.3329350352287292e-01" purity="6.8767987191677094e-02" nType="0">
          <Node pos="l" depth="2" NCoef="0" IVar="2" Cut="3.8597650146484375e+02" cType="1" res="-6.1531316488981247e-02" rms="1.9041487574577332e-01" purity="3.9253108203411102e-02" nType="0">
            <Node pos="l" depth="3" NCoef="0" IVar="-1" Cut="0.0000000000000000e+00" cType="1" res="-4.9140900373458862e-02" rms="2.3327678442001343e-01" purity="5.9473890811204910e-02" nType="-99"/>
            <Node pos="r" depth="3" NCoef="0" IVar="-1" Cut="0.0000000000000000e+00" cType="1" res="-8.3203256130218506e-02" rms="1.5305513143539429e-01" purity="2.5287654250860214e-02" nType="-99"/>
          </Node>
          <Node pos="r" depth="2" NCoef="0" IVar="0" Cut="1.6277509765625000e+03" cType="1" res="-3.2424263190478086e-03" rms="3.8369566202163696e-01" purity="2.2415901720523834e-01" nType="0">
            <Node pos="l" depth="3" NCoef="0" IVar="-1" Cut="0.0000000000000000e+00" cType="1" res="-5.1024265587329865e-02" rms="2.8837084770202637e-01" purity="9.2307396233081818e-02" nType="-99"/>
            <Node pos="r" depth="3" NCoef="0" IVar="-1" Cut="0.0000000000000000e+00" cType="1" res="4.1738312691450119e-02" rms="4.7102522850036621e-01" purity="4.0616169571876526e-01" nType="-99"/>
          </Node>
        </Node>
        <Node pos="r" depth="1" NCoef="0" IVar="1" Cut="2.1881597116589546e-02" cType="1" res="3.7845205515623093e-02" rms="2.9624947905540466e-01" purity="7.8801417350769043e-01" nType="0">
          <Node pos="l" depth="2" NCoef="0" IVar="1" Cut="1.2633289210498333e-02" cType="1" res="-7.8309923410415649e-02" rms="3.6966648697853088e-01" purity="2.6731756329536438e-01" nType="0">
            <Node pos="l" depth="3" NCoef="0" IVar="-1" Cut="0.0000000000000000e+00" cType="1" res="-6.9910824298858643e-02" rms="3.1032332777976990e-01" purity="1.8714839220046997e-01" nType="-99"/>
            <Node pos="r" depth="3" NCoef="0" IVar="-1" Cut="0.0000000000000000e+00" cType="1" res="-2.5716932490468025e-02" rms="4.0952447056770325e-01" purity="3.3402428030967712e-01" nType="-99"/>
          </Node>
          <Node pos="r" depth="2" NCoef="0" IVar="5" Cut="1.2619459533691406e+02" cType="1" res="5.1145307719707489e-02" rms="2.8362649679183960e-01" purity="8.4763538837432861e-01" nType="0">
            <Node pos="l" depth="3" NCoef="0" IVar="-1" Cut="0.0000000000000000e+00" cType="1" res="-1.5776952728629112e-02" rms="4.0308237075805664e-01" purity="4.9549376964569092e-01" nType="-99"/>
            <Node pos="r" depth="3" NCoef="0" IVar="-1" Cut="0.0000000000000000e+00" cType="1" res="5.1588471978902817e-02" rms="2.6599204540252686e-01" purity="8.8588213920593262e-01" nType="-99"/>
          </Node>
        </Node>
      </Node>
    </BinaryTree>
    <BinaryTree type="DecisionTree" boostWeight="1.0000000000000000e+00" itree="12">
      <Node pos="s" depth="0" NCoef="0" IVar="0" Cut="2.1328911132812500e+03" cType="1" res="2.7762174140661955e-03" rms="2.7347946166992188e-01" purity="5.0901401042938232e-01" nType="0">
        <Node pos="l" depth="1" NCoef="0" IVar="2" Cut="4.3518130493164062e+02" cType="1" res="-3.4018382430076599e-02" rms="2.8740853071212769e-01" purity="1.6405428946018219e-01" nType="0">
          <Node pos="l" depth="2" NCoef="0" IVar="0" Cut="1.7140277099609375e+03" cType="1" res="-8.1873005256056786e-03" rms="2.9808863997459412e-01" purity="1.9261877238750458e-01" nType="0">
            <Node pos="l" depth="3" NCoef="0" IVar="-1" Cut="0.0000000000000000e+00" cType="1" res="-5.0270114094018936e-02" rms="2.2701223194599152e-01" purity="5.8766447007656097e-02" nType="-99"/>
            <Node pos="r" depth="3" NCoef="0" IVar="-1" Cut="0.0000000000000000e+00" cType="1" res="4.8465084284543991e-02" rms="4.1167607903480530e-01" purity="5.2685916423797607e-01" nType="-99"/>
          </Node>
          <Node pos="r" depth="2" NCoef="0" IVar="2" Cut="6.0312054443359375e+02" cType="1" res="-6.2156554311513901e-02" rms="2.7253141999244690e-01" purity="1.3293859362602234e-01" nType="0">
            <Node pos="l" depth="3" NCoef="0" IVar="-1" Cut="0.0000000000000000e+00" cType="1" res="-4.3203283101320267e-02" rms="2.8505423665046692e-01" purity="1.5662649273872375e-01" nType="-99"/>
            <Node pos="r" depth="3" NCoef="0" IVar="-1" Cut="0.0000000000000000e+00" cType="1" res="-8.7863519787788391e-02" rms="2.2817571461200714e-01" purity="6.3705489039421082e-02" nType="-99"/>
          </Node>
        </Node>
        <Node pos="r" depth="1" NCoef="0" IVar="2" Cut="8.3073577880859375e+02" cType="1" res="4.4413242489099503e-02" rms="2.5036874413490295e-01" purity="8.9937287569046021e-01" nType="0">
          <Node pos="l" depth="2" NCoef="0" IVar="2" Cut="5.0999310302734375e+02" cType="1" res="5.3408943116664886e-02" rms="2.3849888145923615e-01" purity="9.1855275630950928e-01" nType="0">
            <Node pos="l" depth="3" NCoef="0" IVar="-1" Cut="0.0000000000000000e+00" cType="1" res="7.1292780339717865e-02" rms="2.1910162270069122e-01" purity="9.4410306215286255e-01" nType="-99"/>
            <Node pos="r" depth="3" NCoef="0" IVar="-1" Cut="0.0000000000000000e+00" cType="1" res="4.3014306575059891e-02" rms="2.4663463234901428e-01" purity="9.0633553266525269e-01" nType="-99"/>
          </Node>
          <Node pos="r" depth="2" NCoef="0" IVar="4" Cut="2.6471948242187500e+02" cType="1" res="-9.3620233237743378e-03" rms="3.0658999085426331e-01" purity="7.8471815586090088e-01" nType="0">
            <Node pos="l" depth="3" NCoef="0" IVar="-1" Cut="0.0000000000000000e+00" cType="1" res="-5.3587645292282104e-02" rms="3.6537235975265503e-01" purity="5.8210510015487671e-01" nType="-99"/>
            <Node pos="r" depth="3" NCoef="0" IVar="-1" Cut="0.0000000000000000e+00" cType="1" res="4.8517763614654541e-02" rms="2.4158860743045807e-01" purity="9.3008428812026978e-01" nType="-99"/>
          </Node>
        </Node>
      </Node>
    </BinaryTree>
    <BinaryTree type="DecisionTree" boostWeight="1.0000000000000000e+00" itree="13">
      <Node pos="s" depth="0" NCoef="0" IVar="1" Cut="6.4872793853282928e-02" cType="1" res="-3.6738049238920212e-03" rms="2.7310651540756226e-01" purity="4.9325665831565857e-01" nType="0">
        <Node pos="l" depth="1" NCoef="0" IVar="0" Cut="2.8657692871093750e+03" cType="1" res="-3.8533970713615417e-02" rms="2.7148389816284180e-01" purity="2.4822418391704559e-01" nType="0">
          <Node pos="l" depth="2" NCoef="0" IVar="2" Cut="7.3805572509765625e+02" cType="1" res="-4.8394203186035156e-02" rms="2.7210277318954468e-01" purity="1.7884293198585510e-01" nType="0">
            <Node pos="l" depth="3" NCoef="0" IVar="-1" Cut="0.0000000000000000e+00" cType="1" res="-4.0071651339530945e-02" rms="2.5966140627861023e-01" purity="1.6891361773014069e-01" nType="-99"/>
            <Node pos="r" depth="3" NCoef="0" IVar="-1" Cut="0.0000000000000000e+00" cType="1" res="-9.6962064504623413e-02" rms="3.7097710371017456e-01" purity="2.9223889112472534e-01" nType="-99"/>
          </Node>
          <Node pos="r" depth="2" NCoef="0" IVar="-1" Cut="0.0000000000000000e+00" cType="1" res="5.3245339542627335e-02" rms="2.4590447545051575e-01" purity="9.1763663291931152e-01" nType="-99"/>
        </Node>
        <Node pos="r" depth="1" NCoef="0" IVar="5" Cut="1.0324481964111328e+02" cType="1" res="3.1649950891733170e-02" rms="2.7019149065017700e-01" purity="7.4154776334762573e-01" nType="0">
          <Node pos="l" depth="2" NCoef="0" IVar="-1" Cut="0.0000000000000000e+00" cType="1" res="-7.9035945236682892e-02" rms="2.8769794106483459e-01" purity="1.5878534317016602e-01" nType="-99"/>
          <Node pos="r" depth="2" NCoef="0" IVar="0" Cut="1.5978929443359375e+03" cType="1" res="4.0553770959377289e-02" rms="2.6662170886993408e-01" purity="7.8063708543777466e-01" nType="0">
            <Node pos="l" depth="3" NCoef="0" IVar="-1" Cut="0.0000000000000000e+00" cType="1" res="-3.3832598477602005e-02" rms="2.6955002546310425e-01" purity="8.1881560385227203e-02" nType="-99"/>
            <Node pos="r" depth="3" NCoef="0" IVar="-1" Cut="0.0000000000000000e+00" cType="1" res="4.6844057738780975e-02" rms="2.6486757397651672e-01" purity="8.6368554830551147e-01" nType="-99"/>
          </Node>
        </Node>
      </Node>
    </BinaryTree>
    <BinaryTree type="DecisionTree" boostWeight="1.0000000000000000e+00" itree="14">
      <Node pos="s" depth="0" NCoef="0" IVar="1" Cut="8.5071861743927002e-02" cType="1" res="-2.1028630435466766e-03" rms="2.7080982923507690e-01" purity="5.0486880540847778e-01" nType="0">
        <Node pos="l" depth="1" NCoef="0" IVar="0" Cut="2.5295969238281250e+03" cType="1" res="-2.6651546359062195e-02" rms="2.7742379903793335e-01" purity="3.0598101019859314e-01" nType="0">
          <Node pos="l" depth="2" NCoef="0" IVar="2" Cut="5.8570172119140625e+02" cType="1" res="-3.9918173104524612e-02" rms="2.7607142925262451e-01" purity="1.6117630898952484e-01" nType="0">
            <Node pos="l" depth="3" NCoef="0" IVar="-1" Cut="0.0000000000000000e+00" cType="1" res="-2.4858502671122551e-02" rms="2.6480764150619507e-01" purity="1.5568597614765167e-01" nType="-99"/>
            <Node pos="r" depth="3" NCoef="0" IVar="-1" Cut="0.0000000000000000e+00" cType="1" res="-7.7385202050209045e-02" rms="3.0592909455299377e-01" purity="1.8074758350849152e-01" nType="-99"/>
          </Node>
          <Node pos="r" depth="2" NCoef="0" IVar="2" Cut="9.2655938720703125e+02" cType="1" res="2.6836974546313286e-02" rms="2.7642589807510376e-01" purity="8.8980609178543091e-01" nType="0">
            <Node pos="l" depth="3" NCoef="0" IVar="-1" Cut="0.0000000000000000e+00" cType="1" res="4.5290462672710419e-02" rms="2.4955855309963226e-01" purity="9.2329365015029907e-01" nType="-99"/>
            <Node pos="r" depth="3" NCoef="0" IVar="-1" Cut="0.0000000000000000e+00" cType="1" res="-2.8525054454803467e-02" rms="3.5261788964271545e-01" purity="7.6417845487594604e-01" nType="-99"/>
          </Node>
        </Node>
        <Node pos="r" depth="1" NCoef="0" IVar="5" Cut="1.1158903503417969e+02" cType="1" res="3.5022642463445663e-02" rms="2.5605586171150208e-01" purity="8.0565100908279419e-01" nType="0">
          <Node pos="l" depth="2" NCoef="0" IVar="-1" Cut="0.0000000000000000e+00" cType="1" res="-3.1918458640575409e-02" rms="3.1875315308570862e-01" purity="2.7381563186645508e-01" nType="-99"/>
          <Node pos="r" depth="2" NCoef="0" IVar="1" Cut="1.5384481847286224e-01" cType="1" res="4.0887277573347092e-02" rms="2.4983923137187958e-01" purity="8.4462904930114746e-01" nType="0">
            <Node pos="l" depth="3" NCoef="0" IVar="-1" Cut="0.0000000000000000e+00" cType="1" res="2.7477337047457695e-02" rms="2.7411171793937683e-01" purity="7.9695326089859009e-01" nType="-99"/>
            <Node pos="r" depth="3" NCoef="0" IVar="-1" Cut="0.0000000000000000e+00" cType="1" res="6.6364333033561707e-02" rms="2.1140345931053162e-01" purity="9.0904182195663452e-01" nType="-99"/>
          </Node>
        </Node>
      </Node>
    </BinaryTree>
    <BinaryTree type="DecisionTree" boostWeight="1.0000000000000000e+00" itree="15">
      <Node pos="s" depth="0" NCoef="0" IVar="5" Cut="1.6433131408691406e+02" cType="1" res="-8.4927200805395842e-04" rms="2.6890671253204346e-01" purity="4.9918860197067261e-01" nType="0">
        <Node pos="l" depth="1" NCoef="0" IVar="2" Cut="7.8203051757812500e+02" cType="1" res="-2.6035400107502937e-02" rms="2.7254864573478699e-01" purity="2.1505905687808990e-01" nType="0">
          <Node pos="l" depth="2" NCoef="0" IVar="0" Cut="1.7771679687500000e+03" cType="1" res="-1.8169654533267021e-02" rms="2.6030036807060242e-01" purity="1.9810092449188232e-01" nType="0">
            <Node pos="l" depth="3" NCoef="0" IVar="-1" Cut="0.0000000000000000e+00" cType="1" res="-5.2426300942897797e-02" rms="1.8792325258255005e-01" purity="4.1075553745031357e-02" nType="-99"/>
            <Node pos="r" depth="3" NCoef="0" IVar="-1" Cut="0.0000000000000000e+00" cType="1" res="1.1121338233351707e-02" rms="3.5667935013771057e-01" purity="4.9449235200881958e-01" nType="-99"/>
          </Node>
          <Node pos="r" depth="2" NCoef="0" IVar="-1" Cut="0.0000000000000000e+00" cType="1" res="-7.8572824597358704e-02" rms="3.7746977806091309e-01" purity="4.1697356104850769e-01" nType="-99"/>
        </Node>
        <Node pos="r" depth="1" NCoef="0" IVar="6" Cut="1.0147739648818970e+00" cType="1" res="2.6484711095690727e-02" rms="2.6217386126518250e-01" purity="8.0754846334457397e-01" nType="0">
          <Node pos="l" depth="2" NCoef="0" IVar="6" Cut="-1.1618868112564087e+00" cType="1" res="3.3365122973918915e-02" rms="2.5630819797515869e-01" purity="8.3543562889099121e-01" nType="0">
            <Node pos="l" depth="3" NCoef="0" IVar="-1" Cut="0.0000000000000000e+00" cType="1" res="-6.0556907206773758e-02" rms="3.1250342726707458e-01" purity="4.3251144886016846e-01" nType="-99"/>
            <Node pos="r" depth="3" NCoef="0" IVar="-1" Cut="0.0000000000000000e+00" cType="1" res="4.3886609375476837e-02" rms="2.5119674205780029e-01" purity="8.5943716764450073e-01" nType="-99"/>
          </Node>
          <Node pos="r" depth="2" NCoef="0" IVar="-1" Cut="0.0000000000000000e+00" cType="1" res="-4.7003872692584991e-02" rms="3.1262817978858948e-01" purity="4.7453099489212036e-01" nType="-99"/>
        </Node>
      </Node>
    </BinaryTree>
    <BinaryTree type="DecisionTree" boostWeight="1.0000000000000000e+00" itree="16">
      <Node pos="s" depth="0" NCoef="0" IVar="0" Cut="2.5295969238281250e+03" cType="1" res="-1.0431658010929823e-03" rms="2.6614013314247131e-01" purity="4.9824753403663635e-01" nType="0">
        <Node pos="l" depth="1" NCoef="0" IVar="2" Cut="4.9114071655273438e+02" cType="1" res="-1.8635958433151245e-02" rms="2.9337880015373230e-01" purity="2.9886972904205322e-01" nType="0">
          <Node pos="l" depth="2" NCoef="0" IVar="0" Cut="1.7226879882812500e+03" cType="1" res="-1.9033091375604272e-03" rms="2.8896778821945190e-01" purity="2.8734689950942993e-01" nType="0">
            <Node pos="l" depth="3" NCoef="0" IVar="-1" Cut="0.0000000000000000e+00" cType="1" res="-4.2568556964397430e-02" rms="2.1109576523303986e-01" purity="5.2408743649721146e-02" nType="-99"/>
            <Node pos="r" depth="3" NCoef="0" IVar="-1" Cut="0.0000000000000000e+00" cType="1" res="2.8853897005319595e-02" rms="3.7161880731582642e-01" purity="6.3581860065460205e-01" nType="-99"/>
          </Node>
          <Node pos="r" depth="2" NCoef="0" IVar="7" Cut="9.3222922086715698e-01" cType="1" res="-4.5859318226575851e-02" rms="2.9841873049736023e-01" purity="3.1761687994003296e-01" nType="0">
            <Node pos="l" depth="3" NCoef="0" IVar="-1" Cut="0.0000000000000000e+00" cType="1" res="-3.1630605459213257e-02" rms="3.0153557658195496e-01" purity="3.5386705398559570e-01" nType="-99"/>
            <Node pos="r" depth="3" NCoef="0" IVar="-1" Cut="0.0000000000000000e+00" cType="1" res="-8.9462466537952423e-02" rms="2.8167596459388733e-01" purity="1.7566730082035065e-01" nType="-99"/>
          </Node>
        </Node>
        <Node pos="r" depth="1" NCoef="0" IVar="2" Cut="9.2515173339843750e+02" cType="1" res="3.8876090198755264e-02" rms="1.8426300585269928e-01" purity="9.5064938068389893e-01" nType="0">
          <Node pos="l" depth="2" NCoef="0" IVar="0" Cut="2.6656105957031250e+03" cType="1" res="4.3112728744745255e-02" rms="1.6225306689739227e-01" purity="9.6894055604934692e-01" nType="0">
            <Node pos="l" depth="3" NCoef="0" IVar="-1" Cut="0.0000000000000000e+00" cType="1" res="3.4824945032596588e-02" rms="2.3306201398372650e-01" purity="9.2966198921203613e-01" nType="-99"/>
            <Node pos="r" depth="3" NCoef="0" IVar="-1" Cut="0.0000000000000000e+00" cType="1" res="7.6758533716201782e-02" rms="1.3894213736057281e-01" purity="9.7868186235427856e-01" nType="-99"/>
          </Node>
          <Node pos="r" depth="2" NCoef="0" IVar="-1" Cut="0.0000000000000000e+00" cType="1" res="4.9279979430139065e-03" rms="3.0416521430015564e-01" purity="8.0721300840377808e-01" nType="-99"/>
        </Node>
      </Node>
    </BinaryTree>
    <BinaryTree type="DecisionTree" boostWeight="1.0000000000000000e+00" itree="17">
      <Node pos="s" depth="0" NCoef="0" IVar="0" Cut="1.6443088378906250e+03" cType="1" res="1.0556621709838510e-03" rms="2.6658615469932556e-01" purity="5.0222516059875488e-01" nType="0">
        <Node pos="l" depth="1" NCoef="0" IVar="0" Cut="1.4698087158203125e+03" cType="1" res="-3.4676749259233475e-02" rms="1.7102006077766418e-01" purity="3.1614955514669418e-02" nType="0">
          <Node pos="l" depth="2" NCoef="0" IVar="4" Cut="1.6883908081054688e+02" cType="1" res="-4.8670355230569839e-02" rms="1.0362272709608078e-01" purity="1.0913750156760216e-02" nType="0">
            <Node pos="l" depth="3" NCoef="0" IVar="-1" Cut="0.0000000000000000e+00" cType="1" res="-8.1942766904830933e-02" rms="1.1276256293058395e-01" purity="1.3278879225254059e-02" nType="-99"/>
            <Node pos="r" depth="3" NCoef="0" IVar="-1" Cut="0.0000000000000000e+00" cType="1" res="-9.8048113286495209e-02" rms="8.1198111176490784e-02" purity="6.1430744826793671e-03" nType="-99"/>
          </Node>
          <Node pos="r" depth="2" NCoef="0" IVar="1" Cut="7.0433154702186584e-02" cType="1" res="-2.7489677071571350e-02" rms="1.9647496938705444e-01" purity="4.2247027158737183e-02" nType="0">
            <Node pos="l" depth="3" NCoef="0" IVar="-1" Cut="0.0000000000000000e+00" cType="1" res="-6.8033695220947266e-02" rms="1.3886368274688721e-01" purity="1.9931942224502563e-02" nType="-99"/>
            <Node pos="r" depth="3" NCoef="0" IVar="-1" Cut="0.0000000000000000e+00" cType="1" res="-2.9205111786723137e-03" rms="3.1260913610458374e-01" purity="1.1146294325590134e-01" nType="-99"/>
          </Node>
        </Node>
        <Node pos="r" depth="1" NCoef="0" IVar="2" Cut="4.0619107055664062e+02" cType="1" res="1.4315581880509853e-02" rms="2.9315119981765747e-01" purity="6.7686367034912109e-01" nType="0">
          <Node pos="l" depth="2" NCoef="0" IVar="2" Cut="3.2777413940429688e+02" cType="1" res="6.7099593579769135e-02" rms="3.5798463225364685e-01" purity="6.1900949478149414e-01" nType="0">
            <Node pos="l" depth="3" NCoef="0" IVar="-1" Cut="0.0000000000000000e+00" cType="1" res="8.5447870194911957e-02" rms="3.9304909110069275e-01" purity="6.0849720239639282e-01" nType="-99"/>
            <Node pos="r" depth="3" NCoef="0" IVar="-1" Cut="0.0000000000000000e+00" cType="1" res="3.3669173717498779e-02" rms="3.4028375148773193e-01" purity="6.2318587303161621e-01" nType="-99"/>
          </Node>
          <Node pos="r" depth="2" NCoef="0" IVar="6" Cut="7.6613676548004150e-01" cType="1" res="4.4262092560529709e-03" rms="2.7822390198707581e-01" purity="6.8770295381546021e-01" nType="0">
            <Node pos="l" depth="3" NCoef="0" IVar="-1" Cut="0.0000000000000000e+00" cType="1" res="1.6017975285649300e-02" rms="2.7558928728103638e-01" purity="7.2952926158905029e-01" nType="-99"/>
            <Node pos="r" depth="3" NCoef="0" IVar="-1" Cut="0.0000000000000000e+00" cType="1" res="-5.6458089500665665e-02" rms="2.8496530652046204e-01" purity="4.4053229689598083e-01" nType="-99"/>
          </Node>
        </Node>
      </Node>
    </BinaryTree>
    <BinaryTree type="DecisionTree" boostWeight="1.0000000000000000e+00" itree="18">
      <Node pos="s" depth="0" NCoef="0" IVar="0" Cut="2.6214785156250000e+03" cType="1" res="-3.5984360147267580e-03" rms="2.6301068067550659e-01" purity="4.9139726161956787e-01" nType="0">
        <Node pos="l" depth="1" NCoef="0" IVar="2" Cut="7.7855450439453125e+02" cType="1" res="-1.6388626769185066e-02" rms="2.8637591004371643e-01" purity="3.2671856880187988e-01" nType="0">
          <Node pos="l" depth="2" NCoef="0" IVar="0" Cut="1.9815704345703125e+03" cType="1" res="-1.0414387099444866e-02" rms="2.8170216083526611e-01" purity="3.3004003763198853e-01" nType="0">
            <Node pos="l" depth="3" NCoef="0" IVar="-1" Cut="0.0000000000000000e+00" cType="1" res="-3.1426366418600082e-02" rms="2.4971517920494080e-01" purity="1.0162184387445450e-01" nType="-99"/>
            <Node pos="r" depth="3" NCoef="0" IVar="-1" Cut="0.0000000000000000e+00" cType="1" res="1.6434317454695702e-02" rms="3.3439800143241882e-01" purity="7.8544914722442627e-01" nType="-99"/>
          </Node>
          <Node pos="r" depth="2" NCoef="0" IVar="-1" Cut="0.0000000000000000e+00" cType="1" res="-1.1751278489828110e-01" rms="3.5629394650459290e-01" purity="2.3591345548629761e-01" nType="-99"/>
        </Node>
        <Node pos="r" depth="1" NCoef="0" IVar="8" Cut="9.2201858758926392e-01" cType="1" res="3.2703090459108353e-02" rms="1.7595285177230835e-01" purity="9.5879358053207397e-01" nType="0">
          <Node pos="l" depth="2" NCoef="0" IVar="6" Cut="6.4547246694564819e-01" cType="1" res="3.7658702582120895e-02" rms="1.6307552158832550e-01" purity="9.6475297212600708e-01" nType="0">
            <Node pos="l" depth="3" NCoef="0" IVar="-1" Cut="0.0000000000000000e+00" cType="1" res="6.9587901234626770e-02" rms="1.4960163831710815e-01" purity="9.7090071439743042e-01" nType="-99"/>
            <Node pos="r" depth="3" NCoef="0" IVar="-1" Cut="0.0000000000000000e+00" cType="1" res="1.4393428340554237e-02" rms="2.3508696258068085e-01" purity="9.2168080806732178e-01" nType="-99"/>
          </Node>
          <Node pos="r" depth="2" NCoef="0" IVar="-1" Cut="0.0000000000000000e+00" cType="1" res="-9.8778903484344482e-03" rms="2.5232800841331482e-01" purity="9.1179400682449341e-01" nType="-99"/>
        </Node>
      </Node>
    </BinaryTree>
    <BinaryTree type="DecisionTree" boostWeight="1.0000000000000000e+00" itree="19">
      <Node pos="s" depth="0" NCoef="0" IVar="0" Cut="2.3074570312500000e+03" cType="1" res="1.5451922081410885e-03" rms="2.6225206255912781e-01" purity="5.0018674135208130e-01" nType="0">
        <Node pos="l" depth="1" NCoef="0" IVar="2" Cut="5.5017401123046875e+02" cType="1" res="-1.2217906303703785e-02" rms="2.8707468509674072e-01" purity="2.2293919324874878e-01" nType="0">
          <Node pos="l" depth="2" NCoef="0" IVar="0" Cut="1.9617635498046875e+03" cType="1" res="-4.9763906281441450e-04" rms="2.8829142451286316e-01" purity="2.4186104536056519e-01" nType="0">
            <Node pos="l" depth="3" NCoef="0" IVar="-1" Cut="0.0000000000000000e+00" cType="1" res="-1.7784368246793747e-02" rms="2.6317906379699707e-01" purity="1.1115476489067078e-01" nType="-99"/>
            <Node pos="r" depth="3" NCoef="0" IVar="-1" Cut="0.0000000000000000e+00" cType="1" res="3.7008490413427353e-02" rms="3.6841174960136414e-01" purity="7.7631908655166626e-01" nType="-99"/>
          </Node>
          <Node pos="r" depth="2" NCoef="0" IVar="3" Cut="3.5603024291992188e+02" cType="1" res="-5.4231513291597366e-02" rms="2.7864807844161987e-01" purity="1.5511010587215424e-01" nType="0">
            <Node pos="l" depth="3" NCoef="0" IVar="-1" Cut="0.0000000000000000e+00" cType="1" res="-4.4150341302156448e-02" rms="2.5030767917633057e-01" purity="1.2238710373640060e-01" nType="-99"/>
            <Node pos="r" depth="3" NCoef="0" IVar="-1" Cut="0.0000000000000000e+00" cType="1" res="-7.0738635957241058e-02" rms="3.4571644663810730e-01" purity="2.5312274694442749e-01" nType="-99"/>
          </Node>
        </Node>
        <Node pos="r" depth="1" NCoef="0" IVar="2" Cut="8.6551654052734375e+02" cType="1" res="2.2816617041826248e-02" rms="2.1669411659240723e-01" purity="9.2868411540985107e-01" nType="0">
          <Node pos="l" depth="2" NCoef="0" IVar="6" Cut="-7.6711636781692505e-01" cType="1" res="2.8333367779850960e-02" rms="2.0074495673179626e-01" purity="9.4893062114715576e-01" nType="0">
            <Node pos="l" depth="3" NCoef="0" IVar="-1" Cut="0.0000000000000000e+00" cType="1" res="-7.1596023626625538e-03" rms="2.5899267196655273e-01" purity="8.9626246690750122e-01" nType="-99"/>
            <Node pos="r" depth="3" NCoef="0" IVar="-1" Cut="0.0000000000000000e+00" cType="1" res="5.1105454564094543e-02" rms="1.9269944727420807e-01" purity="9.5487630367279053e-01" nType="-99"/>
          </Node>
          <Node pos="r" depth="2" NCoef="0" IVar="-1" Cut="0.0000000000000000e+00" cType="1" res="-1.4327570796012878e-02" rms="3.0087089538574219e-01" purity="7.9130744934082031e-01" nType="-99"/>
        </Node>
      </Node>
    </BinaryTree>
    <BinaryTree type="DecisionTree" boostWeight="1.0000000000000000e+00" itree="20">
      <Node pos="s" depth="0" NCoef="0" IVar="1" Cut="1.4840160310268402e-01" cType="1" res="-4.2846342548727989e-03" rms="2.6926100254058838e-01" purity="4.9568927288055420e-01" nType="0">
        <Node pos="l" depth="1" NCoef="0" IVar="0" Cut="2.8017277832031250e+03" cType="1" res="-1.2133666314184666e-02" rms="2.7770453691482544e-01" purity="4.1454976797103882e-01" nType="0">
          <Node pos="l" depth="2" NCoef="0" IVar="2" Cut="5.7836346435546875e+02" cType="1" res="-1.9023839384317398e-02" rms="2.9162910580635071e-01" purity="3.0902391672134399e-01" nType="0">
            <Node pos="l" depth="3" NCoef="0" IVar="-1" Cut="0.0000000000000000e+00" cType="1" res="-8.8290814310312271e-03" rms="2.7749320864677429e-01" purity="2.7636590600013733e-01" nType="-99"/>
            <Node pos="r" depth="3" NCoef="0" IVar="-1" Cut="0.0000000000000000e+00" cType="1" res="-4.9571622163057327e-02" rms="3.2701602578163147e-01" purity="4.0387329459190369e-01" nType="-99"/>
          </Node>
          <Node pos="r" depth="2" NCoef="0" IVar="0" Cut="3.4692282714843750e+03" cType="1" res="2.3012407124042511e-02" rms="1.8762700259685516e-01" purity="9.5282632112503052e-01" nType="0">
            <Node pos="l" depth="3" NCoef="0" IVar="-1" Cut="0.0000000000000000e+00" cType="1" res="2.9210736975073814e-02" rms="1.9738525152206421e-01" purity="9.4707447290420532e-01" nType="-99"/>
            <Node pos="r" depth="3" NCoef="0" IVar="-1" Cut="0.0000000000000000e+00" cType="1" res="7.1643725037574768e-02" rms="1.4836820960044861e-01" purity="9.7215163707733154e-01" nType="-99"/>
          </Node>
        </Node>
        <Node pos="r" depth="1" NCoef="0" IVar="2" Cut="4.0360934448242188e+02" cType="1" res="3.2313413918018341e-02" rms="2.2212767601013184e-01" purity="8.7402224540710449e-01" nType="0">
          <Node pos="l" depth="2" NCoef="0" IVar="-1" Cut="0.0000000000000000e+00" cType="1" res="4.6218071132898331e-02" rms="3.1724491715431213e-01" purity="6.6331624984741211e-01" nType="-99"/>
          <Node pos="r" depth="2" NCoef="0" IVar="6" Cut="-3.5594485700130463e-02" cType="1" res="2.6359081268310547e-02" rms="1.8212707340717316e-01" purity="9.3982291221618652e-01" nType="0">
            <Node pos="l" depth="3" NCoef="0" IVar="-1" Cut="0.0000000000000000e+00" cType="1" res="3.5064637660980225e-02" rms="1.9022223353385925e-01" purity="9.3317812681198120e-01" nType="-99"/>
            <Node pos="r" depth="3" NCoef="0" IVar="-1" Cut="0.0000000000000000e+00" cType="1" res="5.3971584886312485e-02" rms="1.7466974258422852e-01" purity="9.4557952880859375e-01" nType="-99"/>
          </Node>
        </Node>
      </Node>
    </BinaryTree>
    <BinaryTree type="DecisionTree" boostWeight="1.0000000000000000e+00" itree="21">
      <Node pos="s" depth="0" NCoef="0" IVar="6" Cut="1.2490171194076538e+00" cType="1" res="9.9300604779273272e-04" rms="2.5988602638244629e-01" purity="4.9499517679214478e-01" nType="0">
        <Node pos="l" depth="1" NCoef="0" IVar="6" Cut="-1.1225824356079102e+00" cType="1" res="5.8144247159361839e-03" rms="2.6279351115226746e-01" purity="5.2959281206130981e-01" nType="0">
          <Node pos="l" depth="2" NCoef="0" IVar="0" Cut="1.7956494140625000e+03" cType="1" res="-4.3891038745641708e-02" rms="2.2541069984436035e-01" purity="1.4547187089920044e-01" nType="0">
            <Node pos="l" depth="3" NCoef="0" IVar="-1" Cut="0.0000000000000000e+00" cType="1" res="-6.0040235519409180e-02" rms="1.4059907197952271e-01" purity="2.1774634718894958e-02" nType="-99"/>
            <Node pos="r" depth="3" NCoef="0" IVar="-1" Cut="0.0000000000000000e+00" cType="1" res="-6.0199599713087082e-02" rms="3.2846578955650330e-01" purity="3.7858036160469055e-01" nType="-99"/>
          </Node>
          <Node pos="r" depth="2" NCoef="0" IVar="4" Cut="1.3433116149902344e+02" cType="1" res="1.1615026742219925e-02" rms="2.6621094346046448e-01" purity="5.7441949844360352e-01" nType="0">
            <Node pos="l" depth="3" NCoef="0" IVar="-1" Cut="0.0000000000000000e+00" cType="1" res="-6.2832757830619812e-02" rms="1.7581389844417572e-01" purity="4.3050214648246765e-02" nType="-99"/>
            <Node pos="r" depth="3" NCoef="0" IVar="-1" Cut="0.0000000000000000e+00" cType="1" res="2.0345171913504601e-02" rms="2.7458101511001587e-01" purity="6.3896125555038452e-01" nType="-99"/>
          </Node>
        </Node>
        <Node pos="r" depth="1" NCoef="0" IVar="4" Cut="1.7878778076171875e+02" cType="1" res="-5.2121080458164215e-02" rms="2.1845434606075287e-01" purity="1.1385872215032578e-01" nType="0">
          <Node pos="l" depth="2" NCoef="0" IVar="-1" Cut="0.0000000000000000e+00" cType="1" res="-5.2863202989101410e-02" rms="1.4609387516975403e-01" purity="3.0506661161780357e-02" nType="-99"/>
          <Node pos="r" depth="2" NCoef="0" IVar="-1" Cut="0.0000000000000000e+00" cType="1" res="-7.9376496374607086e-02" rms="2.6944392919540405e-01" purity="1.9716162979602814e-01" nType="-99"/>
        </Node>
      </Node>
    </BinaryTree>
    <BinaryTree type="DecisionTree" boostWeight="1.0000000000000000e+00" itree="22">
      <Node pos="s" depth="0" NCoef="0" IVar="2" Cut="9.6120562744140625e+02" cType="1" res="-2.2534986492246389e-03" rms="2.6893806457519531e-01" purity="5.0638514757156372e-01" nType="0">
        <Node pos="l" depth="1" NCoef="0" IVar="6" Cut="-1.1361236572265625e+00" cType="1" res="9.4285089289769530e-04" rms="2.6589122414588928e-01" purity="5.0055068731307983e-01" nType="0">
          <Node pos="l" depth="2" NCoef="0" IVar="3" Cut="3.0040734863281250e+02" cType="1" res="-4.1930492967367172e-02" rms="2.2581084072589874e-01" purity="1.6163334250450134e-01" nType="0">
            <Node pos="l" depth="3" NCoef="0" IVar="-1" Cut="0.0000000000000000e+00" cType="1" res="-3.9310503751039505e-02" rms="1.7518556118011475e-01" purity="7.8151263296604156e-02" nType="-99"/>
            <Node pos="r" depth="3" NCoef="0" IVar="-1" Cut="0.0000000000000000e+00" cType="1" res="-8.1584826111793518e-02" rms="2.8402674198150635e-01" purity="2.9004687070846558e-01" nType="-99"/>
          </Node>
          <Node pos="r" depth="2" NCoef="0" IVar="7" Cut="-1.2006751298904419e+00" cType="1" res="5.5808983743190765e-03" rms="2.6946198940277100e-01" purity="5.3721481561660767e-01" nType="0">
            <Node pos="l" depth="3" NCoef="0" IVar="-1" Cut="0.0000000000000000e+00" cType="1" res="-5.3518958389759064e-02" rms="2.4022088944911957e-01" purity="2.0506227016448975e-01" nType="-99"/>
            <Node pos="r" depth="3" NCoef="0" IVar="-1" Cut="0.0000000000000000e+00" cType="1" res="1.3193764723837376e-02" rms="2.7215948700904846e-01" purity="5.7565683126449585e-01" nType="-99"/>
          </Node>
        </Node>
        <Node pos="r" depth="1" NCoef="0" IVar="-1" Cut="0.0000000000000000e+00" cType="1" res="-7.7796615660190582e-02" rms="3.3153498172760010e-01" purity="6.7118257284164429e-01" nType="-99"/>
      </Node>
    </BinaryTree>
    <BinaryTree type="DecisionTree" boostWeight="1.0000000000000000e+00" itree="23">
      <Node pos="s" depth="0" NCoef="0" IVar="5" Cut="2.2103656005859375e+02" cType="1" res="-6.3316005980595946e-04" rms="2.6461097598075867e-01" purity="5.0908035039901733e-01" nType="0">
        <Node pos="l" depth="1" NCoef="0" IVar="8" Cut="-1.2000955343246460e+00" cType="1" res="-8.5193645209074020e-03" rms="2.8447094559669495e-01" purity="3.6614227294921875e-01" nType="0">
          <Node pos="l" depth="2" NCoef="0" IVar="4" Cut="2.2296566772460938e+02" cType="1" res="-4.0652733296155930e-02" rms="2.8560245037078857e-01" purity="2.0760256052017212e-01" nType="0">
            <Node pos="l" depth="3" NCoef="0" IVar="-1" Cut="0.0000000000000000e+00" cType="1" res="-1.6895193606615067e-02" rms="2.4538204073905945e-01" purity="1.5836443006992340e-01" nType="-99"/>
            <Node pos="r" depth="3" NCoef="0" IVar="-1" Cut="0.0000000000000000e+00" cType="1" res="-9.1972395777702332e-02" rms="3.5716691613197327e-01" purity="3.2932004332542419e-01" nType="-99"/>
          </Node>
          <Node pos="r" depth="2" NCoef="0" IVar="5" Cut="1.1572425079345703e+02" cType="1" res="-2.9251545201987028e-03" rms="2.8390204906463623e-01" purity="3.9374303817749023e-01" nType="0">
            <Node pos="l" depth="3" NCoef="0" IVar="-1" Cut="0.0000000000000000e+00" cType="1" res="-3.6883968859910965e-02" rms="2.2307707369327545e-01" purity="1.0340400040149689e-01" nType="-99"/>
            <Node pos="r" depth="3" NCoef="0" IVar="-1" Cut="0.0000000000000000e+00" cType="1" res="7.6494072563946247e-03" rms="3.0701935291290283e-01" purity="5.2562713623046875e-01" nType="-99"/>
          </Node>
        </Node>
        <Node pos="r" depth="1" NCoef="0" IVar="2" Cut="5.1604284667968750e+02" cType="1" res="2.2980926558375359e-02" rms="1.9136981666088104e-01" purity="9.3708741664886475e-01" nType="0">
          <Node pos="l" depth="2" NCoef="0" IVar="-1" Cut="0.0000000000000000e+00" cType="1" res="4.4950943440198898e-02" rms="2.2194452583789825e-01" purity="8.9597529172897339e-01" nType="-99"/>
          <Node pos="r" depth="2" NCoef="0" IVar="0" Cut="3.0746210937500000e+03" cType="1" res="1.7644830048084259e-02" rms="1.7248693108558655e-01" purity="9.5917487144470215e-01" nType="0">
            <Node pos="l" depth="3" NCoef="0" IVar="-1" Cut="0.0000000000000000e+00" cType="1" res="1.6520272940397263e-02" rms="2.0830403268337250e-01" purity="9.3669527769088745e-01" nType="-99"/>
            <Node pos="r" depth="3" NCoef="0" IVar="-1" Cut="0.0000000000000000e+00" cType="1" res="6.8018831312656403e-02" rms="1.1870104074478149e-01" purity="9.8471015691757202e-01" nType="-99"/>
          </Node>
        </Node>
      </Node>
    </BinaryTree>
    <BinaryTree type="DecisionTree" boostWeight="1.0000000000000000e+00" itree="24">
      <Node pos="s" depth="0" NCoef="0" IVar="0" Cut="2.3344794921875000e+03" cType="1" res="-4.8935052473098040e-04" rms="2.5959345698356628e-01" purity="4.9855923652648926e-01" nType="0">
        <Node pos="l" depth="1" NCoef="0" IVar="2" Cut="6.3769866943359375e+02" cType="1" res="-1.0668280534446239e-02" rms="2.8719237446784973e-01" purity="2.2762115299701691e-01" nType="0">
          <Node pos="l" depth="2" NCoef="0" IVar="4" Cut="2.7437039184570312e+02" cType="1" res="-4.8414189368486404e-03" rms="2.8655076026916504e-01" purity="2.3787651956081390e-01" nType="0">
            <Node pos="l" depth="3" NCoef="0" IVar="-1" Cut="0.0000000000000000e+00" cType="1" res="7.1291369386017323e-04" rms="2.7485662698745728e-01" purity="2.0258681476116180e-01" nType="-99"/>
            <Node pos="r" depth="3" NCoef="0" IVar="-1" Cut="0.0000000000000000e+00" cType="1" res="-3.6942549049854279e-02" rms="3.6671447753906250e-01" purity="5.3169888257980347e-01" nType="-99"/>
          </Node>
          <Node pos="r" depth="2" NCoef="0" IVar="0" Cut="1.9793590087890625e+03" cType="1" res="-6.5211176872253418e-02" rms="2.8745880722999573e-01" purity="1.3162478804588318e-01" nType="0">
            <Node pos="l" depth="3" NCoef="0" IVar="-1" Cut="0.0000000000000000e+00" cType="1" res="-4.3271433562040329e-02" rms="1.7282781004905701e-01" purity="3.1304199248552322e-02" nType="-99"/>
            <Node pos="r" depth="3" NCoef="0" IVar="-1" Cut="0.0000000000000000e+00" cType="1" res="-7.5041294097900391e-02" rms="3.6758345365524292e-01" purity="2.4064129590988159e-01" nType="-99"/>
          </Node>
        </Node>
        <Node pos="r" depth="1" NCoef="0" IVar="7" Cut="-6.7120265960693359e-01" cType="1" res="1.5894664451479912e-02" rms="2.0655161142349243e-01" purity="9.3466132879257202e-01" nType="0">
          <Node pos="l" depth="2" NCoef="0" IVar="6" Cut="-1.4955060184001923e-01" cType="1" res="-9.8314564675092697e-03" rms="2.5301533937454224e-01" purity="8.8875538110733032e-01" nType="0">
            <Node pos="l" depth="3" NCoef="0" IVar="-1" Cut="0.0000000000000000e+00" cType="1" res="1.0772931389510632e-02" rms="2.3314285278320312e-01" purity="9.0580308437347412e-01" nType="-99"/>
            <Node pos="r" depth="3" NCoef="0" IVar="-1" Cut="0.0000000000000000e+00" cType="1" res="-3.7109971046447754e-02" rms="2.6876181364059448e-01" purity="8.7336647510528564e-01" nType="-99"/>
          </Node>
          <Node pos="r" depth="2" NCoef="0" IVar="7" Cut="9.7206789255142212e-01" cType="1" res="2.1158957853913307e-02" rms="1.9527150690555573e-01" purity="9.4405508041381836e-01" nType="0">
            <Node pos="l" depth="3" NCoef="0" IVar="-1" Cut="0.0000000000000000e+00" cType="1" res="4.3627806007862091e-02" rms="1.8414777517318726e-01" purity="9.5185106992721558e-01" nType="-99"/>
            <Node pos="r" depth="3" NCoef="0" IVar="-1" Cut="0.0000000000000000e+00" cType="1" res="-6.6372440196573734e-03" rms="2.7746087312698364e-01" purity="8.7087905406951904e-01" nType="-99"/>
          </Node>
        </Node>
      </Node>
    </BinaryTree>
    <BinaryTree type="DecisionTree" boostWeight="1.0000000000000000e+00" itree="25">
      <Node pos="s" depth="0" NCoef="0" IVar="0" Cut="1.6336467285156250e+03" cType="1" res="2.1285531693138182e-04" rms="2.5871780514717102e-01" purity="5.0464397668838501e-01" nType="0">
        <Node pos="l" depth="1" NCoef="0" IVar="7" Cut="-1.3574735820293427e-01" cType="1" res="-2.0817698910832405e-02" rms="1.6560502350330353e-01" purity="2.9705708846449852e-02" nType="0">
          <Node pos="l" depth="2" NCoef="0" IVar="1" Cut="3.5493597388267517e-02" cType="1" res="-1.0776986368000507e-02" rms="1.8800133466720581e-01" purity="3.9234876632690430e-02" nType="0">
            <Node pos="l" depth="3" NCoef="0" IVar="-1" Cut="0.0000000000000000e+00" cType="1" res="-9.1099180281162262e-02" rms="6.2905199825763702e-02" purity="3.9583933539688587e-03" nType="-99"/>
            <Node pos="r" depth="3" NCoef="0" IVar="-1" Cut="0.0000000000000000e+00" cType="1" res="1.4258319512009621e-02" rms="2.6258701086044312e-01" purity="7.7840179204940796e-02" nType="-99"/>
          </Node>
          <Node pos="r" depth="2" NCoef="0" IVar="5" Cut="1.4523641967773438e+02" cType="1" res="-2.8705788776278496e-02" rms="1.4512746036052704e-01" purity="2.2219495847821236e-02" nType="0">
            <Node pos="l" depth="3" NCoef="0" IVar="-1" Cut="0.0000000000000000e+00" cType="1" res="-5.7902351021766663e-02" rms="1.3724392652511597e-01" purity="1.9505057483911514e-02" nType="-99"/>
            <Node pos="r" depth="3" NCoef="0" IVar="-1" Cut="0.0000000000000000e+00" cType="1" res="-6.6971175372600555e-02" rms="1.6885639727115631e-01" purity="3.1845815479755402e-02" nType="-99"/>
          </Node>
        </Node>
        <Node pos="r" depth="1" NCoef="0" IVar="7" Cut="1.4584419727325439e+00" cType="1" res="7.8219519928097725e-03" rms="2.8462627530097961e-01" purity="6.7648214101791382e-01" nType="0">
          <Node pos="l" depth="2" NCoef="0" IVar="6" Cut="1.2267143726348877e+00" cType="1" res="1.1284308508038521e-02" rms="2.8375518321990967e-01" purity="6.9735813140869141e-01" nType="0">
            <Node pos="l" depth="3" NCoef="0" IVar="-1" Cut="0.0000000000000000e+00" cType="1" res="1.7662480473518372e-02" rms="2.8318157792091370e-01" purity="7.2530573606491089e-01" nType="-99"/>
            <Node pos="r" depth="3" NCoef="0" IVar="-1" Cut="0.0000000000000000e+00" cType="1" res="-5.4615836590528488e-02" rms="2.8461530804634094e-01" purity="2.4871464073657990e-01" nType="-99"/>
          </Node>
          <Node pos="r" depth="2" NCoef="0" IVar="-1" Cut="0.0000000000000000e+00" cType="1" res="-6.2194090336561203e-02" rms="2.9304862022399902e-01" purity="2.6513749361038208e-01" nType="-99"/>
        </Node>
      </Node>
    </BinaryTree>
    <BinaryTree type="DecisionTree" boostWeight="1.0000000000000000e+00" itree="26">
      <Node pos="s" depth="0" NCoef="0" IVar="5" Cut="1.1040916442871094e+02" cType="1" res="2.0811120048165321e-03" rms="2.5830322504043579e-01" purity="5.0246405601501465e-01" nType="0">
        <Node pos="l" depth="1" NCoef="0" IVar="1" Cut="8.4912531077861786e-02" cType="1" res="-2.5035351514816284e-02" rms="1.9489851593971252e-01" purity="6.9335997104644775e-02" nType="0">
          <Node pos="l" depth="2" NCoef="0" IVar="3" Cut="3.4065487670898438e+02" cType="1" res="-2.0376376807689667e-02" rms="1.7507097125053406e-01" purity="5.0798121839761734e-02" nType="0">
            <Node pos="l" depth="3" NCoef="0" IVar="-1" Cut="0.0000000000000000e+00" cType="1" res="-3.9526253938674927e-02" rms="1.4971546828746796e-01" purity="3.4843694418668747e-02" nType="-99"/>
            <Node pos="r" depth="3" NCoef="0" IVar="-1" Cut="0.0000000000000000e+00" cType="1" res="-4.7502472996711731e-02" rms="2.4526990950107574e-01" purity="1.0858846455812454e-01" nType="-99"/>
          </Node>
          <Node pos="r" depth="2" NCoef="0" IVar="-1" Cut="0.0000000000000000e+00" cType="1" res="-4.7301784157752991e-02" rms="2.9452118277549744e-01" purity="1.9546383619308472e-01" nType="-99"/>
        </Node>
        <Node pos="r" depth="1" NCoef="0" IVar="8" Cut="-1.4667428731918335e+00" cType="1" res="9.3441195785999298e-03" rms="2.7233695983886719e-01" purity="6.1847519874572754e-01" nType="0">
          <Node pos="l" depth="2" NCoef="0" IVar="-1" Cut="0.0000000000000000e+00" cType="1" res="-5.5984251201152802e-02" rms="3.1236657500267029e-01" purity="2.9220023751258850e-01" nType="-99"/>
          <Node pos="r" depth="2" NCoef="0" IVar="7" Cut="1.4646131992340088e+00" cType="1" res="1.3540301471948624e-02" rms="2.6892462372779846e-01" purity="6.4030867815017700e-01" nType="0">
            <Node pos="l" depth="3" NCoef="0" IVar="-1" Cut="0.0000000000000000e+00" cType="1" res="2.1149361506104469e-02" rms="2.6907500624656677e-01" purity="6.6829872131347656e-01" nType="-99"/>
            <Node pos="r" depth="3" NCoef="0" IVar="-1" Cut="0.0000000000000000e+00" cType="1" res="-5.3680945187807083e-02" rms="2.6047164201736450e-01" purity="1.9006766378879547e-01" nType="-99"/>
          </Node>
        </Node>
      </Node>
    </BinaryTree>
    <BinaryTree type="DecisionTree" boostWeight="1.0000000000000000e+00" itree="27">
      <Node pos="s" depth="0" NCoef="0" IVar="8" Cut="1.7320066690444946e+00" cType="1" res="-3.6684965016320348e-04" rms="2.6331198215484619e-01" purity="4.9809178709983826e-01" nType="0">
        <Node pos="l" depth="1" NCoef="0" IVar="6" Cut="-1.1342719793319702e+00" cType="1" res="1.8612692365422845e-03" rms="2.6471933722496033e-01" purity="5.1813203096389771e-01" nType="0">
          <Node pos="l" depth="2" NCoef="0" IVar="8" Cut="-2.0937392115592957e-01" cType="1" res="-2.9141396284103394e-02" rms="2.3871412873268127e-01" purity="1.5801890194416046e-01" nType="0">
            <Node pos="l" depth="3" NCoef="0" IVar="-1" Cut="0.0000000000000000e+00" cType="1" res="-1.4378353022038937e-02" rms="2.2911956906318665e-01" purity="1.5295663475990295e-01" nType="-99"/>
            <Node pos="r" depth="3" NCoef="0" IVar="-1" Cut="0.0000000000000000e+00" cType="1" res="-7.2025120258331299e-02" rms="2.4574625492095947e-01" purity="1.6266769170761108e-01" nType="-99"/>
          </Node>
          <Node pos="r" depth="2" NCoef="0" IVar="6" Cut="7.3559653759002686e-01" cType="1" res="4.9737994559109211e-03" rms="2.6699161529541016e-01" purity="5.5428576469421387e-01" nType="0">
            <Node pos="l" depth="3" NCoef="0" IVar="-1" Cut="0.0000000000000000e+00" cType="1" res="1.3085584156215191e-02" rms="2.7080217003822327e-01" purity="6.1730998754501343e-01" nType="-99"/>
            <Node pos="r" depth="3" NCoef="0" IVar="-1" Cut="0.0000000000000000e+00" cType="1" res="-2.0219383761286736e-02" rms="2.5107750296592712e-01" purity="3.1615388393402100e-01" nType="-99"/>
          </Node>
        </Node>
        <Node pos="r" depth="1" NCoef="0" IVar="-1" Cut="0.0000000000000000e+00" cType="1" res="-6.4825005829334259e-02" rms="2.3191823065280914e-01" purity="1.2717176973819733e-01" nType="-99"/>
      </Node>
    </BinaryTree>
    <BinaryTree type="DecisionTree" boostWeight="1.0000000000000000e+00" itree="28">
      <Node pos="s" depth="0" NCoef="0" IVar="0" Cut="2.1328881835937500e+03" cType="1" res="-3.6585899069905281e-03" rms="2.5365555286407471e-01" purity="4.9358597397804260e-01" nType="0">
        <Node pos="l" depth="1" NCoef="0" IVar="3" Cut="4.0510238647460938e+02" cType="1" res="-1.8509995192289352e-02" rms="2.6743820309638977e-01" purity="1.4342078566551208e-01" nType="0">
          <Node pos="l" depth="2" NCoef="0" IVar="1" Cut="1.0799948871135712e-01" cType="1" res="-1.4609597623348236e-02" rms="2.6438400149345398e-01" purity="1.4311257004737854e-01" nType="0">
            <Node pos="l" depth="3" NCoef="0" IVar="-1" Cut="0.0000000000000000e+00" cType="1" res="-1.1839475482702255e-02" rms="2.3580282926559448e-01" purity="8.9674308896064758e-02" nType="-99"/>
            <Node pos="r" depth="3" NCoef="0" IVar="-1" Cut="0.0000000000000000e+00" cType="1" res="-3.4923966974020004e-02" rms="3.7073123455047607e-01" purity="4.0082219243049622e-01" nType="-99"/>
          </Node>
          <Node pos="r" depth="2" NCoef="0" IVar="-1" Cut="0.0000000000000000e+00" cType="1" res="-8.1565618515014648e-02" rms="3.0992686748504639e-01" purity="1.4911402761936188e-01" nType="-99"/>
        </Node>
        <Node pos="r" depth="1" NCoef="0" IVar="2" Cut="9.5206768798828125e+02" cType="1" res="1.3612128794193268e-02" rms="2.3544496297836304e-01" purity="9.0079349279403687e-01" nType="0">
          <Node pos="l" depth="2" NCoef="0" IVar="7" Cut="9.3222922086715698e-01" cType="1" res="1.8026206642389297e-02" rms="2.2850629687309265e-01" purity="9.1091853380203247e-01" nType="0">
            <Node pos="l" depth="3" NCoef="0" IVar="-1" Cut="0.0000000000000000e+00" cType="1" res="3.3654533326625824e-02" rms="2.1531596779823303e-01" purity="9.2291086912155151e-01" nType="-99"/>
            <Node pos="r" depth="3" NCoef="0" IVar="-1" Cut="0.0000000000000000e+00" cType="1" res="-1.2683587148785591e-02" rms="3.2519981265068054e-01" purity="7.9919230937957764e-01" nType="-99"/>
          </Node>
          <Node pos="r" depth="2" NCoef="0" IVar="-1" Cut="0.0000000000000000e+00" cType="1" res="-4.7211255878210068e-02" rms="3.0849564075469971e-01" purity="7.6376557350158691e-01" nType="-99"/>
        </Node>
      </Node>
    </BinaryTree>
    <BinaryTree type="DecisionTree" boostWeight="1.0000000000000000e+00" itree="29">
      <Node pos="s" depth="0" NCoef="0" IVar="7" Cut="1.1981058120727539e+00" cType="1" res="4.4083399698138237e-03" rms="2.6179862022399902e-01" purity="4.9890807271003723e-01" nType="0">
        <Node pos="l" depth="1" NCoef="0" IVar="7" Cut="-1.4672366380691528e+00" cType="1" res="9.0055298060178757e-03" rms="2.6333919167518616e-01" purity="5.3589725494384766e-01" nType="0">
          <Node pos="l" depth="2" NCoef="0" IVar="4" Cut="1.9002871704101562e+02" cType="1" res="-3.5664327442646027e-02" rms="2.2757157683372498e-01" purity="1.1494256556034088e-01" nType="0">
            <Node pos="l" depth="3" NCoef="0" IVar="-1" Cut="0.0000000000000000e+00" cType="1" res="-3.0250748619437218e-02" rms="1.7384199798107147e-01" purity="4.4503763318061829e-02" nType="-99"/>
            <Node pos="r" depth="3" NCoef="0" IVar="-1" Cut="0.0000000000000000e+00" cType="1" res="-7.7222980558872223e-02" rms="2.8586721420288086e-01" purity="2.1892938017845154e-01" nType="-99"/>
          </Node>
          <Node pos="r" depth="2" NCoef="0" IVar="0" Cut="1.6329243164062500e+03" cType="1" res="1.2646041810512543e-02" rms="2.6571160554885864e-01" purity="5.7020425796508789e-01" nType="0">
            <Node pos="l" depth="3" NCoef="0" IVar="-1" Cut="0.0000000000000000e+00" cType="1" res="-1.6002688556909561e-02" rms="1.9524131715297699e-01" purity="4.1386123746633530e-02" nType="-99"/>
            <Node pos="r" depth="3" NCoef="0" IVar="-1" Cut="0.0000000000000000e+00" cType="1" res="2.1965965628623962e-02" rms="2.8263798356056213e-01" purity="7.2370076179504395e-01" nType="-99"/>
          </Node>
        </Node>
        <Node pos="r" depth="1" NCoef="0" IVar="3" Cut="3.2881338500976562e+02" cType="1" res="-3.2157562673091888e-02" rms="2.4616754055023193e-01" purity="2.0469769835472107e-01" nType="0">
          <Node pos="l" depth="2" NCoef="0" IVar="8" Cut="-3.9962616562843323e-01" cType="1" res="-1.3268115930259228e-02" rms="2.2042731940746307e-01" purity="1.3183544576168060e-01" nType="0">
            <Node pos="l" depth="3" NCoef="0" IVar="-1" Cut="0.0000000000000000e+00" cType="1" res="-6.5468348562717438e-02" rms="1.8589264154434204e-01" purity="9.8566897213459015e-02" nType="-99"/>
            <Node pos="r" depth="3" NCoef="0" IVar="-1" Cut="0.0000000000000000e+00" cType="1" res="-1.4070339966565371e-03" rms="2.3534476757049561e-01" purity="1.4902843534946442e-01" nType="-99"/>
          </Node>
          <Node pos="r" depth="2" NCoef="0" IVar="-1" Cut="0.0000000000000000e+00" cType="1" res="-8.5748575627803802e-02" rms="2.9600816965103149e-01" purity="3.8773095607757568e-01" nType="-99"/>
        </Node>
      </Node>
    </BinaryTree>
    <BinaryTree type="DecisionTree" boostWeight="1.0000000000000000e+00" itree="30">
      <Node pos="s" depth="0" NCoef="0" IVar="7" Cut="-1.7336004972457886e+00" cType="1" res="1.7458379734307528e-03" rms="2.6465997099876404e-01" purity="4.9870839715003967e-01" nType="0">
        <Node pos="l" depth="1" NCoef="0" IVar="-1" Cut="0.0000000000000000e+00" cType="1" res="-9.3215875327587128e-02" rms="1.8402664363384247e-01" purity="5.4228134453296661e-02" nType="-99"/>
        <Node pos="r" depth="1" NCoef="0" IVar="2" Cut="4.1769723510742188e+02" cType="1" res="3.7697593215852976e-03" rms="2.6714989542961121e-01" purity="5.1629853248596191e-01" nType="0">
          <Node pos="l" depth="2" NCoef="0" IVar="0" Cut="1.6341965332031250e+03" cType="1" res="2.0618779584765434e-02" rms="2.8297415375709534e-01" purity="3.0792438983917236e-01" nType="0">
            <Node pos="l" depth="3" NCoef="0" IVar="-1" Cut="0.0000000000000000e+00" cType="1" res="-8.4848573897033930e-04" rms="2.0921467244625092e-01" purity="4.9009606242179871e-02" nType="-99"/>
            <Node pos="r" depth="3" NCoef="0" IVar="-1" Cut="0.0000000000000000e+00" cType="1" res="3.9423782378435135e-02" rms="3.5037174820899963e-01" purity="6.2075465917587280e-01" nType="-99"/>
          </Node>
          <Node pos="r" depth="2" NCoef="0" IVar="9" Cut="1.4642146825790405e+00" cType="1" res="-3.1627991702407598e-03" rms="2.6004302501678467e-01" purity="6.0203433036804199e-01" nType="0">
            <Node pos="l" depth="3" NCoef="0" IVar="-1" Cut="0.0000000000000000e+00" cType="1" res="5.0930521683767438e-04" rms="2.5493547320365906e-01" purity="6.2538778781890869e-01" nType="-99"/>
            <Node pos="r" depth="3" NCoef="0" IVar="-1" Cut="0.0000000000000000e+00" cType="1" res="-5.2971877157688141e-02" rms="3.0591991543769836e-01" purity="3.5840725898742676e-01" nType="-99"/>
          </Node>
        </Node>
      </Node>
    </BinaryTree>
    <BinaryTree type="DecisionTree" boostWeight="1.0000000000000000e+00" itree="31">
      <Node pos="s" depth="0" NCoef="0" IVar="1" Cut="4.2659487575292587e-02" cType="1" res="2.0061531104147434e-03" rms="2.5724023580551147e-01" purity="5.0326383113861084e-01" nType="0">
        <Node pos="l" depth="1" NCoef="0" IVar="6" Cut="-8.1653422117233276e-01" cType="1" res="-1.1320171877741814e-02" rms="2.3735694587230682e-01" purity="1.7720276117324829e-01" nType="0">
          <Node pos="l" depth="2" NCoef="0" IVar="0" Cut="1.7956107177734375e+03" cType="1" res="-3.3522102981805801e-02" rms="2.0168031752109528e-01" purity="8.7528176605701447e-02" nType="0">
            <Node pos="l" depth="3" NCoef="0" IVar="-1" Cut="0.0000000000000000e+00" cType="1" res="-5.8873586356639862e-02" rms="1.0622280091047287e-01" purity="1.1773501522839069e-02" nType="-99"/>
            <Node pos="r" depth="3" NCoef="0" IVar="-1" Cut="0.0000000000000000e+00" cType="1" res="-5.9918634593486786e-02" rms="3.2054802775382996e-01" purity="2.5337088108062744e-01" nType="-99"/>
          </Node>
          <Node pos="r" depth="2" NCoef="0" IVar="6" Cut="3.8656046986579895e-01" cType="1" res="-2.8956392779946327e-03" rms="2.4904572963714600e-01" purity="2.1122980117797852e-01" nType="0">
            <Node pos="l" depth="3" NCoef="0" IVar="-1" Cut="0.0000000000000000e+00" cType="1" res="2.2689497098326683e-02" rms="2.7338385581970215e-01" purity="2.8754878044128418e-01" nType="-99"/>
            <Node pos="r" depth="3" NCoef="0" IVar="-1" Cut="0.0000000000000000e+00" cType="1" res="-3.0545417219400406e-02" rms="2.2523649036884308e-01" purity="1.4737980067729950e-01" nType="-99"/>
          </Node>
        </Node>
        <Node pos="r" depth="1" NCoef="0" IVar="5" Cut="1.0916693878173828e+02" cType="1" res="9.6493428573012352e-03" rms="2.6768001914024353e-01" purity="6.9027310609817505e-01" nType="0">
          <Node pos="l" depth="2" NCoef="0" IVar="5" Cut="9.3007171630859375e+01" cType="1" res="-1.4613371342420578e-02" rms="2.5869786739349365e-01" purity="1.6696406900882721e-01" nType="0">
            <Node pos="l" depth="3" NCoef="0" IVar="-1" Cut="0.0000000000000000e+00" cType="1" res="-4.9018781632184982e-02" rms="2.3643423616886139e-01" purity="1.1237394809722900e-01" nType="-99"/>
            <Node pos="r" depth="3" NCoef="0" IVar="-1" Cut="0.0000000000000000e+00" cType="1" res="6.1109382659196854e-03" rms="2.7651682496070862e-01" purity="2.1835711598396301e-01" nType="-99"/>
          </Node>
          <Node pos="r" depth="2" NCoef="0" IVar="3" Cut="3.0313473510742188e+02" cType="1" res="1.2708704918622971e-02" rms="2.6863574981689453e-01" purity="7.5625878572463989e-01" nType="0">
            <Node pos="l" depth="3" NCoef="0" IVar="-1" Cut="0.0000000000000000e+00" cType="1" res="2.5935467332601547e-02" rms="3.2871720194816589e-01" purity="4.8129209876060486e-01" nType="-99"/>
            <Node pos="r" depth="3" NCoef="0" IVar="-1" Cut="0.0000000000000000e+00" cType="1" res="9.5885191112756729e-03" rms="2.3422265052795410e-01" purity="8.8773590326309204e-01" nType="-99"/>
          </Node>
        </Node>
      </Node>
    </BinaryTree>
    <BinaryTree type="DecisionTree" boostWeight="1.0000000000000000e+00" itree="32">
      <Node pos="s" depth="0" NCoef="0" IVar="9" Cut="-1.9993443489074707e+00" cType="1" res="1.8653896404430270e-03" rms="2.5524592399597168e-01" purity="5.0787633657455444e-01" nType="0">
        <Node pos="l" depth="1" NCoef="0" IVar="-1" Cut="0.0000000000000000e+00" cType="1" res="-6.7560657858848572e-02" rms="2.6085293292999268e-01" purity="1.7171180248260498e-01" nType="-99"/>
        <Node pos="r" depth="1" NCoef="0" IVar="9" Cut="2.1134421825408936e+00" cType="1" res="3.6190617829561234e-03" rms="2.5486955046653748e-01" purity="5.1940703392028809e-01" nType="0">
          <Node pos="l" depth="2" NCoef="0" IVar="6" Cut="7.3015081882476807e-01" cType="1" res="5.1214760169386864e-03" rms="2.5513902306556702e-01" purity="5.2924692630767822e-01" nType="0">
            <Node pos="l" depth="3" NCoef="0" IVar="-1" Cut="0.0000000000000000e+00" cType="1" res="1.3479066081345081e-02" rms="2.5703126192092896e-01" purity="5.8093816041946411e-01" nType="-99"/>
            <Node pos="r" depth="3" NCoef="0" IVar="-1" Cut="0.0000000000000000e+00" cType="1" res="-1.9371179863810539e-02" rms="2.4596589803695679e-01" purity="3.0794769525527954e-01" nType="-99"/>
          </Node>
          <Node pos="r" depth="2" NCoef="0" IVar="-1" Cut="0.0000000000000000e+00" cType="1" res="-7.0554874837398529e-02" rms="2.3874324560165405e-01" purity="1.6497100889682770e-01" nType="-99"/>
        </Node>
      </Node>
    </BinaryTree>
    <BinaryTree type="DecisionTree" boostWeight="1.0000000000000000e+00" itree="33">
      <Node pos="s" depth="0" NCoef="0" IVar="6" Cut="-2.9798173904418945e-01" cType="1" res="-2.4650963023304939e-03" rms="2.6329219341278076e-01" purity="4.9941921234130859e-01" nType="0">
        <Node pos="l" depth="1" NCoef="0" IVar="9" Cut="1.4670473337173462e+00" cType="1" res="-1.7569767311215401e-02" rms="2.6828196644783020e-01" purity="4.2620879411697388e-01" nType="0">
          <Node pos="l" depth="2" NCoef="0" IVar="7" Cut="3.9678305387496948e-01" cType="1" res="-8.7961480021476746e-03" rms="2.5741595029830933e-01" purity="4.5280912518501282e-01" nType="0">
            <Node pos="l" depth="3" NCoef="0" IVar="-1" Cut="0.0000000000000000e+00" cType="1" res="1.7691513057798147e-03" rms="2.5919350981712341e-01" purity="5.1074302196502686e-01" nType="-99"/>
            <Node pos="r" depth="3" NCoef="0" IVar="-1" Cut="0.0000000000000000e+00" cType="1" res="-4.0018513798713684e-02" rms="2.5236853957176208e-01" purity="3.3166289329528809e-01" nType="-99"/>
          </Node>
          <Node pos="r" depth="2" NCoef="0" IVar="-1" Cut="0.0000000000000000e+00" cType="1" res="-1.3961175084114075e-01" rms="3.3677583932876587e-01" purity="2.0559090375900269e-01" nType="-99"/>
        </Node>
        <Node pos="r" depth="1" NCoef="0" IVar="6" Cut="1.4719456434249878e+00" cType="1" res="6.2295570969581604e-03" rms="2.5997895002365112e-01" purity="5.4156106710433960e-01" nType="0">
          <Node pos="l" depth="2" NCoef="0" IVar="2" Cut="5.4030767822265625e+02" cType="1" res="9.3219392001628876e-03" rms="2.6537173986434937e-01" purity="5.8080828189849854e-01" nType="0">
            <Node pos="l" depth="3" NCoef="0" IVar="-1" Cut="0.0000000000000000e+00" cType="1" res="2.3895725607872009e-02" rms="2.7848902344703674e-01" purity="4.6657347679138184e-01" nType="-99"/>
            <Node pos="r" depth="3" NCoef="0" IVar="-1" Cut="0.0000000000000000e+00" cType="1" res="-3.2191621139645576e-03" rms="2.4788780510425568e-01" purity="7.2065836191177368e-01" nType="-99"/>
          </Node>
          <Node pos="r" depth="2" NCoef="0" IVar="-1" Cut="0.0000000000000000e+00" cType="1" res="-6.1689961701631546e-02" rms="1.7844738066196442e-01" purity="6.7319966852664948e-02" nType="-99"/>
        </Node>
      </Node>
    </BinaryTree>
    <BinaryTree type="DecisionTree" boostWeight="1.0000000000000000e+00" itree="34">
      <Node pos="s" depth="0" NCoef="0" IVar="8" Cut="1.4654186964035034e+00" cType="1" res="9.1518333647400141e-04" rms="2.5283637642860413e-01" purity="4.9324831366539001e-01" nType="0">
        <Node pos="l" depth="1" NCoef="0" IVar="0" Cut="1.8673845214843750e+03" cType="1" res="4.1032400913536549e-03" rms="2.5357067584991455e-01" purity="5.2341049909591675e-01" nType="0">
          <Node pos="l" depth="2" NCoef="0" IVar="0" Cut="1.5336535644531250e+03" cType="1" res="-5.8487881906330585e-03" rms="2.2754752635955811e-01" purity="7.5093492865562439e-02" nType="0">
            <Node pos="l" depth="3" NCoef="0" IVar="-1" Cut="0.0000000000000000e+00" cType="1" res="-4.8253227025270462e-02" rms="1.3920098543167114e-01" purity="2.0406482741236687e-02" nType="-99"/>
            <Node pos="r" depth="3" NCoef="0" IVar="-1" Cut="0.0000000000000000e+00" cType="1" res="2.3025397676974535e-03" rms="2.7135801315307617e-01" purity="1.1222268640995026e-01" nType="-99"/>
          </Node>
          <Node pos="r" depth="2" NCoef="0" IVar="3" Cut="3.3053808593750000e+02" cType="1" res="1.0620100423693657e-02" rms="2.6905265450477600e-01" purity="8.1698071956634521e-01" nType="0">
            <Node pos="l" depth="3" NCoef="0" IVar="-1" Cut="0.0000000000000000e+00" cType="1" res="2.7611713856458664e-02" rms="3.1645336747169495e-01" purity="7.2701072692871094e-01" nType="-99"/>
            <Node pos="r" depth="3" NCoef="0" IVar="-1" Cut="0.0000000000000000e+00" cType="1" res="4.7882460057735443e-03" rms="2.4740062654018402e-01" purity="8.5261934995651245e-01" nType="-99"/>
          </Node>
        </Node>
        <Node pos="r" depth="1" NCoef="0" IVar="4" Cut="1.8216270446777344e+02" cType="1" res="-3.2906949520111084e-02" rms="2.4234169721603394e-01" purity="1.7325723171234131e-01" nType="0">
          <Node pos="l" depth="2" NCoef="0" IVar="-1" Cut="0.0000000000000000e+00" cType="1" res="-1.9097998738288879e-02" rms="2.1389921009540558e-01" purity="8.1588618457317352e-02" nType="-99"/>
          <Node pos="r" depth="2" NCoef="0" IVar="-1" Cut="0.0000000000000000e+00" cType="1" res="-7.2513349354267120e-02" rms="2.6784941554069519e-01" purity="2.7401193976402283e-01" nType="-99"/>
        </Node>
      </Node>
    </BinaryTree>
    <BinaryTree type="DecisionTree" boostWeight="1.0000000000000000e+00" itree="35">
      <Node pos="s" depth="0" NCoef="0" IVar="6" Cut="4.7521564364433289e-01" cType="1" res="1.6421211184933782e-03" rms="2.5709614157676697e-01" purity="5.0139707326889038e-01" nType="0">
        <Node pos="l" depth="1" NCoef="0" IVar="6" Cut="-1.4367338418960571e+00" cType="1" res="7.0930924266576767e-03" rms="2.5843575596809387e-01" purity="5.5013948678970337e-01" nType="0">
          <Node pos="l" depth="2" NCoef="0" IVar="4" Cut="1.8400498962402344e+02" cType="1" res="-2.9729126021265984e-02" rms="1.9524355232715607e-01" purity="7.9467475414276123e-02" nType="0">
