<?xml version="1.0"?>
<MethodSetup Method="BDT::BDTG">
  <GeneralInfo>
    <Info name="TMVA Release" value="4.2.1 [262657]"/>
    <Info name="ROOT Release" value="6.08/06 [395270]"/>
    <Info name="Creator" value="unok"/>
    <Info name="Date" value="Mon Jan 14 13:19:06 2019"/>
    <Info name="Host" value="Linux buildvm-16.phx2.fedoraproject.org 4.10.14-200.fc25.x86_64 #1 SMP Wed May 3 22:52:30 UTC 2017 x86_64 x86_64 x86_64 GNU/Linux"/>
    <Info name="Dir" value="/gpfs/fs6001/unok/TMVA/2018/v142/V2/TMVA-0L"/>
    <Info name="Training events" value="802241"/>
    <Info name="TrainingTime" value="7.02510958e+02"/>
    <Info name="AnalysisType" value="Classification"/>
  </GeneralInfo>
  <Options>
    <Option name="V" modified="Yes">False</Option>
    <Option name="VerbosityLevel" modified="No">Default</Option>
    <Option name="VarTransform" modified="No">None</Option>
    <Option name="H" modified="Yes">False</Option>
    <Option name="CreateMVAPdfs" modified="No">False</Option>
    <Option name="IgnoreNegWeightsInTraining" modified="No">False</Option>
    <Option name="NTrees" modified="Yes">800</Option>
    <Option name="MaxDepth" modified="Yes">3</Option>
    <Option name="MinNodeSize" modified="Yes">2.500000%</Option>
    <Option name="nCuts" modified="Yes">20</Option>
    <Option name="BoostType" modified="Yes">Grad</Option>
    <Option name="AdaBoostR2Loss" modified="No">quadratic</Option>
    <Option name="UseBaggedBoost" modified="Yes">True</Option>
    <Option name="Shrinkage" modified="Yes">2.000000e-01</Option>
    <Option name="AdaBoostBeta" modified="No">5.000000e-01</Option>
    <Option name="UseRandomisedTrees" modified="No">False</Option>
    <Option name="UseNvars" modified="No">3</Option>
    <Option name="UsePoissonNvars" modified="No">True</Option>
    <Option name="BaggedSampleFraction" modified="Yes">5.000000e-01</Option>
    <Option name="UseYesNoLeaf" modified="No">True</Option>
    <Option name="NegWeightTreatment" modified="Yes">pray</Option>
    <Option name="Css" modified="No">1.000000e+00</Option>
    <Option name="Cts_sb" modified="No">1.000000e+00</Option>
    <Option name="Ctb_ss" modified="No">1.000000e+00</Option>
    <Option name="Cbb" modified="No">1.000000e+00</Option>
    <Option name="NodePurityLimit" modified="No">5.000000e-01</Option>
    <Option name="SeparationType" modified="No">giniindex</Option>
    <Option name="RegressionLossFunctionBDTG" modified="No">huber</Option>
    <Option name="HuberQuantile" modified="No">7.000000e-01</Option>
    <Option name="DoBoostMonitor" modified="No">False</Option>
    <Option name="UseFisherCuts" modified="No">False</Option>
    <Option name="MinLinCorrForFisher" modified="No">8.000000e-01</Option>
    <Option name="UseExclusiveVars" modified="No">False</Option>
    <Option name="DoPreselection" modified="No">False</Option>
    <Option name="SigToBkgFraction" modified="No">1.000000e+00</Option>
    <Option name="PruneMethod" modified="No">nopruning</Option>
    <Option name="PruneStrength" modified="No">0.000000e+00</Option>
    <Option name="PruningValFraction" modified="No">5.000000e-01</Option>
    <Option name="SkipNormalization" modified="No">False</Option>
    <Option name="nEventsMin" modified="No">0</Option>
    <Option name="UseBaggedGrad" modified="No">False</Option>
    <Option name="GradBaggingFraction" modified="No">5.000000e-01</Option>
    <Option name="UseNTrainEvents" modified="No">0</Option>
    <Option name="NNodesMax" modified="No">0</Option>
  </Options>
  <Variables NVar="10">
    <Variable VarIndex="0" Expression="meff" Label="meff" Title="m_{eff}(incl.)" Unit="GeV" Internal="meff" Type="F" Min="8.00027588e+02" Max="8.99630371e+03"/>
    <Variable VarIndex="1" Expression="met" Label="met" Title="E_{T}^{miss}" Unit="GeV" Internal="met" Type="F" Min="3.00001556e+02" Max="3.76814819e+03"/>
    <Variable VarIndex="2" Expression="jetPt0" Label="jetPt0" Title="p_{T}(j_{1})" Unit="GeV" Internal="jetPt0" Type="F" Min="2.00002060e+02" Max="4.46562451e+03"/>
    <Variable VarIndex="3" Expression="jetPt1" Label="jetPt1" Title="p_{T}(j_{2})" Unit="GeV" Internal="jetPt1" Type="F" Min="5.29285202e+01" Max="2.07720947e+03"/>
    <Variable VarIndex="4" Expression="jetPt2" Label="jetPt2" Title="p_{T}(j_{3})" Unit="GeV" Internal="jetPt2" Type="F" Min="5.06614456e+01" Max="1.21655359e+03"/>
    <Variable VarIndex="5" Expression="jetPt3" Label="jetPt3" Title="p_{T}(j_{4})" Unit="GeV" Internal="jetPt3" Type="F" Min="5.00182076e+01" Max="7.86908386e+02"/>
    <Variable VarIndex="6" Expression="jetEta0" Label="jetEta0" Title="#eta(j_{1})" Unit="" Internal="jetEta0" Type="F" Min="-2.78860641e+00" Max="2.79973054e+00"/>
    <Variable VarIndex="7" Expression="jetEta1" Label="jetEta1" Title="#eta(j_{2})" Unit="" Internal="jetEta1" Type="F" Min="-2.79994178e+00" Max="2.79998803e+00"/>
    <Variable VarIndex="8" Expression="jetEta2" Label="jetEta2" Title="#eta(j_{3})" Unit="" Internal="jetEta2" Type="F" Min="-2.79999733e+00" Max="2.79998136e+00"/>
    <Variable VarIndex="9" Expression="jetEta3" Label="jetEta3" Title="#eta(j_{4})" Unit="" Internal="jetEta3" Type="F" Min="-2.79990530e+00" Max="2.79996967e+00"/>
  </Variables>
  <Spectators NSpec="0">
  </Spectators>
  <Classes NClass="2">
    <Class Name="Signal" Index="0"/>
    <Class Name="Background" Index="1"/>
  </Classes>
  <Transformations NTransformations="0"/>
  <MVAPdfs/>
  <Weights NTrees="800" AnalysisType="1">
    <BinaryTree type="DecisionTree" boostWeight="1.0000000000000000e+00" itree="0">
      <Node pos="s" depth="0" NCoef="0" IVar="5" Cut="8.1894096374511719e+01" cType="1" res="4.4127721339464188e-03" rms="4.9998053908348083e-01" purity="5.0441277027130127e-01" nType="0">
        <Node pos="l" depth="1" NCoef="0" IVar="1" Cut="4.2253054809570312e+02" cType="1" res="-2.1084317564964294e-01" rms="4.5337086915969849e-01" purity="2.8915682435035706e-01" nType="0">
          <Node pos="l" depth="2" NCoef="0" IVar="2" Cut="3.2424813842773438e+02" cType="1" res="-2.7535170316696167e-01" rms="4.1735050082206726e-01" purity="2.2464828193187714e-01" nType="0">
            <Node pos="l" depth="3" NCoef="0" IVar="-1" Cut="0.0000000000000000e+00" cType="1" res="-7.3889708146452904e-03" rms="4.5114159584045410e-01" purity="2.8442803025245667e-01" nType="-99"/>
            <Node pos="r" depth="3" NCoef="0" IVar="-1" Cut="0.0000000000000000e+00" cType="1" res="-1.4712487347424030e-02" rms="3.6284121870994568e-01" purity="1.5598510205745697e-01" nType="-99"/>
          </Node>
          <Node pos="r" depth="2" NCoef="0" IVar="1" Cut="5.3922534179687500e+02" cType="1" res="-7.5230799615383148e-02" rms="4.9430793523788452e-01" purity="4.2476922273635864e-01" nType="0">
            <Node pos="l" depth="3" NCoef="0" IVar="-1" Cut="0.0000000000000000e+00" cType="1" res="-5.1335841417312622e-03" rms="4.8111718893051147e-01" purity="3.6388885974884033e-01" nType="-99"/>
            <Node pos="r" depth="3" NCoef="0" IVar="-1" Cut="0.0000000000000000e+00" cType="1" res="8.9573004515841603e-04" rms="4.9927234649658203e-01" purity="5.2696543931961060e-01" nType="-99"/>
          </Node>
        </Node>
        <Node pos="r" depth="1" NCoef="0" IVar="1" Cut="4.6515295410156250e+02" cType="1" res="9.1553933918476105e-02" rms="4.9154642224311829e-01" purity="5.9155392646789551e-01" nType="0">
          <Node pos="l" depth="2" NCoef="0" IVar="5" Cut="1.1212373352050781e+02" cType="1" res="1.5158719383180141e-02" rms="4.9977016448974609e-01" purity="5.1515871286392212e-01" nType="0">
            <Node pos="l" depth="3" NCoef="0" IVar="-1" Cut="0.0000000000000000e+00" cType="1" res="-2.8074570000171661e-03" rms="4.9290904402732849e-01" purity="4.1609120368957520e-01" nType="-99"/>
            <Node pos="r" depth="3" NCoef="0" IVar="-1" Cut="0.0000000000000000e+00" cType="1" res="3.0923662707209587e-03" rms="4.8930618166923523e-01" purity="6.0285651683807373e-01" nType="-99"/>
          </Node>
          <Node pos="r" depth="2" NCoef="0" IVar="2" Cut="4.9196633911132812e+02" cType="1" res="2.3892620205879211e-01" rms="4.3922007083892822e-01" purity="7.3892617225646973e-01" nType="0">
            <Node pos="l" depth="3" NCoef="0" IVar="-1" Cut="0.0000000000000000e+00" cType="1" res="7.8074051998555660e-03" rms="3.9385041594505310e-01" purity="8.0802893638610840e-01" nType="-99"/>
            <Node pos="r" depth="3" NCoef="0" IVar="-1" Cut="0.0000000000000000e+00" cType="1" res="2.4849895853549242e-03" rms="4.9402028322219849e-01" purity="5.7709705829620361e-01" nType="-99"/>
          </Node>
        </Node>
      </Node>
    </BinaryTree>
    <BinaryTree type="DecisionTree" boostWeight="1.0000000000000000e+00" itree="1">
      <Node pos="s" depth="0" NCoef="0" IVar="5" Cut="1.0898453521728516e+02" cType="1" res="3.2120062969624996e-03" rms="4.9877688288688660e-01" purity="5.0286138057708740e-01" nType="0">
        <Node pos="l" depth="1" NCoef="0" IVar="1" Cut="4.2850576782226562e+02" cType="1" res="-1.1718522757291794e-01" rms="4.8461872339248657e-01" purity="3.8070470094680786e-01" nType="0">
          <Node pos="l" depth="2" NCoef="0" IVar="2" Cut="3.3159793090820312e+02" cType="1" res="-2.0119334757328033e-01" rms="4.5573464035987854e-01" purity="2.9534101486206055e-01" nType="0">
            <Node pos="l" depth="3" NCoef="0" IVar="-1" Cut="0.0000000000000000e+00" cType="1" res="-4.3530436232686043e-03" rms="4.8052334785461426e-01" purity="3.6262291669845581e-01" nType="-99"/>
            <Node pos="r" depth="3" NCoef="0" IVar="-1" Cut="0.0000000000000000e+00" cType="1" res="-1.2327885255217552e-02" rms="4.0470719337463379e-01" purity="2.0698776841163635e-01" nType="-99"/>
          </Node>
          <Node pos="r" depth="2" NCoef="0" IVar="5" Cut="8.0904937744140625e+01" cType="1" res="3.8002081215381622e-02" rms="4.9790549278259277e-01" purity="5.3839612007141113e-01" nType="0">
            <Node pos="l" depth="3" NCoef="0" IVar="-1" Cut="0.0000000000000000e+00" cType="1" res="-2.4494177196174860e-03" rms="4.9421572685241699e-01" purity="4.2555132508277893e-01" nType="-99"/>
            <Node pos="r" depth="3" NCoef="0" IVar="-1" Cut="0.0000000000000000e+00" cType="1" res="3.6743239033967257e-03" rms="4.8312100768089294e-01" purity="6.2741702795028687e-01" nType="-99"/>
          </Node>
        </Node>
        <Node pos="r" depth="1" NCoef="0" IVar="1" Cut="4.2404833984375000e+02" cType="1" res="1.6477963328361511e-01" rms="4.7106909751892090e-01" purity="6.6679018735885620e-01" nType="0">
          <Node pos="l" depth="2" NCoef="0" IVar="2" Cut="3.8052062988281250e+02" cType="1" res="6.8828128278255463e-02" rms="4.9502775073051453e-01" purity="5.7014274597167969e-01" nType="0">
            <Node pos="l" depth="3" NCoef="0" IVar="-1" Cut="0.0000000000000000e+00" cType="1" res="3.7997509352862835e-03" rms="4.8032775521278381e-01" purity="6.3878273963928223e-01" nType="-99"/>
            <Node pos="r" depth="3" NCoef="0" IVar="-1" Cut="0.0000000000000000e+00" cType="1" res="-3.0416043009608984e-03" rms="4.9448469281196594e-01" purity="4.2632138729095459e-01" nType="-99"/>
          </Node>
          <Node pos="r" depth="2" NCoef="0" IVar="2" Cut="4.7396170043945312e+02" cType="1" res="2.6426082849502563e-01" rms="4.2245280742645264e-01" purity="7.6699286699295044e-01" nType="0">
            <Node pos="l" depth="3" NCoef="0" IVar="-1" Cut="0.0000000000000000e+00" cType="1" res="8.0637587234377861e-03" rms="3.7238630652427673e-01" purity="8.3352071046829224e-01" nType="-99"/>
            <Node pos="r" depth="3" NCoef="0" IVar="-1" Cut="0.0000000000000000e+00" cType="1" res="3.2927864231169224e-03" rms="4.8907539248466492e-01" purity="6.0373127460479736e-01" nType="-99"/>
          </Node>
        </Node>
      </Node>
    </BinaryTree>
    <BinaryTree type="DecisionTree" boostWeight="1.0000000000000000e+00" itree="2">
      <Node pos="s" depth="0" NCoef="0" IVar="5" Cut="8.5154937744140625e+01" cType="1" res="2.2790841758251190e-03" rms="4.9753949046134949e-01" purity="5.0140649080276489e-01" nType="0">
        <Node pos="l" depth="1" NCoef="0" IVar="1" Cut="4.2762725830078125e+02" cType="1" res="-1.9183085858821869e-01" rms="4.5778211951255798e-01" purity="3.0157423019409180e-01" nType="0">
          <Node pos="l" depth="2" NCoef="0" IVar="7" Cut="-1.1984637975692749e+00" cType="1" res="-2.5354737043380737e-01" rms="4.2510190606117249e-01" purity="2.3762659728527069e-01" nType="0">
            <Node pos="l" depth="3" NCoef="0" IVar="-1" Cut="0.0000000000000000e+00" cType="1" res="-1.9271954894065857e-02" rms="2.9311513900756836e-01" purity="9.5218703150749207e-02" nType="-99"/>
            <Node pos="r" depth="3" NCoef="0" IVar="-1" Cut="0.0000000000000000e+00" cType="1" res="-8.0934409052133560e-03" rms="4.4047549366950989e-01" purity="2.6440855860710144e-01" nType="-99"/>
          </Node>
          <Node pos="r" depth="2" NCoef="0" IVar="5" Cut="6.6774864196777344e+01" cType="1" res="-5.8141894638538361e-02" rms="4.9592474102973938e-01" purity="4.4009628891944885e-01" nType="0">
            <Node pos="l" depth="3" NCoef="0" IVar="-1" Cut="0.0000000000000000e+00" cType="1" res="-8.0144489184021950e-03" rms="4.6471789479255676e-01" purity="3.1606602668762207e-01" nType="-99"/>
            <Node pos="r" depth="3" NCoef="0" IVar="-1" Cut="0.0000000000000000e+00" cType="1" res="-8.5042564023751765e-05" rms="4.9955341219902039e-01" purity="4.9605387449264526e-01" nType="-99"/>
          </Node>
        </Node>
        <Node pos="r" depth="1" NCoef="0" IVar="1" Cut="4.1917437744140625e+02" cType="1" res="9.6417173743247986e-02" rms="4.8870259523391724e-01" purity="5.9831964969635010e-01" nType="0">
          <Node pos="l" depth="2" NCoef="0" IVar="6" Cut="1.2141132354736328e+00" cType="1" res="-7.8752627596259117e-03" rms="4.9889871478080750e-01" purity="4.9121761322021484e-01" nType="0">
            <Node pos="l" depth="3" NCoef="0" IVar="-1" Cut="0.0000000000000000e+00" cType="1" res="6.0727552045136690e-04" rms="4.9836748838424683e-01" purity="5.2495312690734863e-01" nType="-99"/>
            <Node pos="r" depth="3" NCoef="0" IVar="-1" Cut="0.0000000000000000e+00" cType="1" res="-1.2343388050794601e-02" rms="4.1056224703788757e-01" purity="2.1603910624980927e-01" nType="-99"/>
          </Node>
          <Node pos="r" depth="2" NCoef="0" IVar="2" Cut="4.0313281250000000e+02" cType="1" res="2.1218381822109222e-01" rms="4.4964113831520081e-01" purity="7.1720510721206665e-01" nType="0">
            <Node pos="l" depth="3" NCoef="0" IVar="-1" Cut="0.0000000000000000e+00" cType="1" res="7.2622499428689480e-03" rms="3.9965805411338806e-01" purity="7.9975992441177368e-01" nType="-99"/>
            <Node pos="r" depth="3" NCoef="0" IVar="-1" Cut="0.0000000000000000e+00" cType="1" res="2.9724752530455589e-03" rms="4.8955020308494568e-01" purity="5.9942024946212769e-01" nType="-99"/>
          </Node>
        </Node>
      </Node>
    </BinaryTree>
    <BinaryTree type="DecisionTree" boostWeight="1.0000000000000000e+00" itree="3">
      <Node pos="s" depth="0" NCoef="0" IVar="5" Cut="1.1335482788085938e+02" cType="1" res="2.9918167274445295e-03" rms="4.9626433849334717e-01" purity="5.0162369012832642e-01" nType="0">
        <Node pos="l" depth="1" NCoef="0" IVar="1" Cut="4.3640145874023438e+02" cType="1" res="-1.0244671255350113e-01" rms="4.8517850041389465e-01" purity="3.9190885424613953e-01" nType="0">
          <Node pos="l" depth="2" NCoef="0" IVar="5" Cut="8.3236587524414062e+01" cType="1" res="-1.7906861007213593e-01" rms="4.6129083633422852e-01" purity="3.1135752797126770e-01" nType="0">
            <Node pos="l" depth="3" NCoef="0" IVar="-1" Cut="0.0000000000000000e+00" cType="1" res="-9.7295409068465233e-03" rms="4.2064765095710754e-01" purity="2.3126237094402313e-01" nType="-99"/>
            <Node pos="r" depth="3" NCoef="0" IVar="-1" Cut="0.0000000000000000e+00" cType="1" res="-3.2184941228479147e-03" rms="4.8914977908134460e-01" purity="4.0130940079689026e-01" nType="-99"/>
          </Node>
          <Node pos="r" depth="2" NCoef="0" IVar="5" Cut="7.7162239074707031e+01" cType="1" res="5.2238099277019501e-02" rms="4.9523898959159851e-01" purity="5.5452644824981689e-01" nType="0">
            <Node pos="l" depth="3" NCoef="0" IVar="-1" Cut="0.0000000000000000e+00" cType="1" res="-3.9530550129711628e-03" rms="4.8651608824729919e-01" purity="3.8647767901420593e-01" nType="-99"/>
            <Node pos="r" depth="3" NCoef="0" IVar="-1" Cut="0.0000000000000000e+00" cType="1" res="3.7130306009203196e-03" rms="4.8038965463638306e-01" purity="6.3571220636367798e-01" nType="-99"/>
          </Node>
        </Node>
        <Node pos="r" depth="1" NCoef="0" IVar="1" Cut="4.1174975585937500e+02" cType="1" res="1.6879144310951233e-01" rms="4.6734973788261414e-01" purity="6.7414760589599609e-01" nType="0">
          <Node pos="l" depth="2" NCoef="0" IVar="2" Cut="4.5956225585937500e+02" cType="1" res="7.6239451766014099e-02" rms="4.9316170811653137e-01" purity="5.7823675870895386e-01" nType="0">
            <Node pos="l" depth="3" NCoef="0" IVar="-1" Cut="0.0000000000000000e+00" cType="1" res="3.5493550822138786e-03" rms="4.8400455713272095e-01" purity="6.2346637248992920e-01" nType="-99"/>
            <Node pos="r" depth="3" NCoef="0" IVar="-1" Cut="0.0000000000000000e+00" cType="1" res="-6.2739457935094833e-03" rms="4.7982454299926758e-01" purity="3.6028486490249634e-01" nType="-99"/>
          </Node>
          <Node pos="r" depth="2" NCoef="0" IVar="2" Cut="5.0811590576171875e+02" cType="1" res="2.5119698047637939e-01" rms="4.2652508616447449e-01" purity="7.5954377651214600e-01" nType="0">
            <Node pos="l" depth="3" NCoef="0" IVar="-1" Cut="0.0000000000000000e+00" cType="1" res="7.7712754718959332e-03" rms="3.8589268922805786e-01" purity="8.1747680902481079e-01" nType="-99"/>
            <Node pos="r" depth="3" NCoef="0" IVar="-1" Cut="0.0000000000000000e+00" cType="1" res="2.3110313341021538e-03" rms="4.9431234598159790e-01" purity="5.7461726665496826e-01" nType="-99"/>
          </Node>
        </Node>
      </Node>
    </BinaryTree>
    <BinaryTree type="DecisionTree" boostWeight="1.0000000000000000e+00" itree="4">
      <Node pos="s" depth="0" NCoef="0" IVar="5" Cut="1.0902892303466797e+02" cType="1" res="-1.9350668881088495e-03" rms="4.9504294991493225e-01" purity="4.9628588557243347e-01" nType="0">
        <Node pos="l" depth="1" NCoef="0" IVar="1" Cut="4.2850576782226562e+02" cType="1" res="-1.1860680580139160e-01" rms="4.8002764582633972e-01" purity="3.7296345829963684e-01" nType="0">
          <Node pos="l" depth="2" NCoef="0" IVar="7" Cut="-1.1998449563980103e+00" cType="1" res="-2.0265081524848938e-01" rms="4.4903343915939331e-01" purity="2.8341713547706604e-01" nType="0">
            <Node pos="l" depth="3" NCoef="0" IVar="-1" Cut="0.0000000000000000e+00" cType="1" res="-1.5680627897381783e-02" rms="3.1615349650382996e-01" purity="1.1357168853282928e-01" nType="-99"/>
            <Node pos="r" depth="3" NCoef="0" IVar="-1" Cut="0.0000000000000000e+00" cType="1" res="-4.4198329560458660e-03" rms="4.6272492408752441e-01" purity="3.1414982676506042e-01" nType="-99"/>
          </Node>
          <Node pos="r" depth="2" NCoef="0" IVar="2" Cut="3.7131597900390625e+02" cType="1" res="3.9791945368051529e-02" rms="4.9628129601478577e-01" purity="5.4173254966735840e-01" nType="0">
            <Node pos="l" depth="3" NCoef="0" IVar="-1" Cut="0.0000000000000000e+00" cType="1" res="3.8404678925871849e-03" rms="4.7707378864288330e-01" purity="6.4227980375289917e-01" nType="-99"/>
            <Node pos="r" depth="3" NCoef="0" IVar="-1" Cut="0.0000000000000000e+00" cType="1" res="-1.9793570972979069e-03" rms="4.9561336636543274e-01" purity="4.4503340125083923e-01" nType="-99"/>
          </Node>
        </Node>
        <Node pos="r" depth="1" NCoef="0" IVar="1" Cut="4.2162579345703125e+02" cType="1" res="1.5507997572422028e-01" rms="4.7095453739166260e-01" purity="6.6225129365921021e-01" nType="0">
          <Node pos="l" depth="2" NCoef="0" IVar="7" Cut="9.3314409255981445e-01" cType="1" res="6.0410764068365097e-02" rms="4.9494281411170959e-01" purity="5.6302595138549805e-01" nType="0">
            <Node pos="l" depth="3" NCoef="0" IVar="-1" Cut="0.0000000000000000e+00" cType="1" res="3.0294987373054028e-03" rms="4.8780617117881775e-01" purity="6.0487973690032959e-01" nType="-99"/>
            <Node pos="r" depth="3" NCoef="0" IVar="-1" Cut="0.0000000000000000e+00" cType="1" res="-6.6511859185993671e-03" rms="4.7132256627082825e-01" purity="3.3567920327186584e-01" nType="-99"/>
          </Node>
          <Node pos="r" depth="2" NCoef="0" IVar="2" Cut="4.6581951904296875e+02" cType="1" res="2.5142604112625122e-01" rms="4.2404481768608093e-01" purity="7.6323401927947998e-01" nType="0">
            <Node pos="l" depth="3" NCoef="0" IVar="-1" Cut="0.0000000000000000e+00" cType="1" res="7.9054990783333778e-03" rms="3.7633970379829407e-01" purity="8.2890135049819946e-01" nType="-99"/>
            <Node pos="r" depth="3" NCoef="0" IVar="-1" Cut="0.0000000000000000e+00" cType="1" res="3.3106184564530849e-03" rms="4.8749613761901855e-01" purity="6.1021602153778076e-01" nType="-99"/>
          </Node>
        </Node>
      </Node>
    </BinaryTree>
    <BinaryTree type="DecisionTree" boostWeight="1.0000000000000000e+00" itree="5">
      <Node pos="s" depth="0" NCoef="0" IVar="5" Cut="1.1367871856689453e+02" cType="1" res="6.6320719197392464e-03" rms="4.9398547410964966e-01" purity="5.0473076105117798e-01" nType="0">
        <Node pos="l" depth="1" NCoef="0" IVar="1" Cut="4.5299722290039062e+02" cType="1" res="-9.6431344747543335e-02" rms="4.8429271578788757e-01" purity="3.9443644881248474e-01" nType="0">
          <Node pos="l" depth="2" NCoef="0" IVar="5" Cut="8.0378860473632812e+01" cType="1" res="-1.6876149177551270e-01" rms="4.6257749199867249e-01" purity="3.1672728061676025e-01" nType="0">
            <Node pos="l" depth="3" NCoef="0" IVar="-1" Cut="0.0000000000000000e+00" cType="1" res="-9.3917194753885269e-03" rms="4.1456982493400574e-01" purity="2.2221522033214569e-01" nType="-99"/>
            <Node pos="r" depth="3" NCoef="0" IVar="-1" Cut="0.0000000000000000e+00" cType="1" res="-3.1468367669731379e-03" rms="4.8793369531631470e-01" purity="3.9932823181152344e-01" nType="-99"/>
          </Node>
          <Node pos="r" depth="2" NCoef="0" IVar="5" Cut="8.3404121398925781e+01" cType="1" res="7.8980103135108948e-02" rms="4.9086397886276245e-01" purity="5.8289283514022827e-01" nType="0">
            <Node pos="l" depth="3" NCoef="0" IVar="-1" Cut="0.0000000000000000e+00" cType="1" res="-8.2557345740497112e-04" rms="4.9834215641021729e-01" purity="4.7081336379051208e-01" nType="-99"/>
            <Node pos="r" depth="3" NCoef="0" IVar="-1" Cut="0.0000000000000000e+00" cType="1" res="4.4706217013299465e-03" rms="4.6938636898994446e-01" purity="6.6976052522659302e-01" nType="-99"/>
          </Node>
        </Node>
        <Node pos="r" depth="1" NCoef="0" IVar="1" Cut="4.1917437744140625e+02" cType="1" res="1.7072796821594238e-01" rms="4.6398204565048218e-01" purity="6.8033957481384277e-01" nType="0">
          <Node pos="l" depth="2" NCoef="0" IVar="2" Cut="3.3538464355468750e+02" cType="1" res="8.5936553776264191e-02" rms="4.9052882194519043e-01" purity="5.8969640731811523e-01" nType="0">
            <Node pos="l" depth="3" NCoef="0" IVar="-1" Cut="0.0000000000000000e+00" cType="1" res="4.8199477605521679e-03" rms="4.6295839548110962e-01" purity="6.8719428777694702e-01" nType="-99"/>
            <Node pos="r" depth="3" NCoef="0" IVar="-1" Cut="0.0000000000000000e+00" cType="1" res="-1.4352678554132581e-03" rms="4.9764865636825562e-01" purity="4.6523806452751160e-01" nType="-99"/>
          </Node>
          <Node pos="r" depth="2" NCoef="0" IVar="2" Cut="4.7259527587890625e+02" cType="1" res="2.5232639908790588e-01" rms="4.2109048366546631e-01" purity="7.6756942272186279e-01" nType="0">
            <Node pos="l" depth="3" NCoef="0" IVar="-1" Cut="0.0000000000000000e+00" cType="1" res="7.7061560004949570e-03" rms="3.7470927834510803e-01" purity="8.3077567815780640e-01" nType="-99"/>
            <Node pos="r" depth="3" NCoef="0" IVar="-1" Cut="0.0000000000000000e+00" cType="1" res="3.1857774592936039e-03" rms="4.8889070749282837e-01" purity="6.0425025224685669e-01" nType="-99"/>
          </Node>
        </Node>
      </Node>
    </BinaryTree>
    <BinaryTree type="DecisionTree" boostWeight="1.0000000000000000e+00" itree="6">
      <Node pos="s" depth="0" NCoef="0" IVar="5" Cut="1.0902892303466797e+02" cType="1" res="3.9809155277907848e-03" rms="4.9278309941291809e-01" purity="5.0187784433364868e-01" nType="0">
        <Node pos="l" depth="1" NCoef="0" IVar="1" Cut="4.3640277099609375e+02" cType="1" res="-1.1330753564834595e-01" rms="4.7909334301948547e-01" purity="3.7459197640419006e-01" nType="0">
          <Node pos="l" depth="2" NCoef="0" IVar="2" Cut="3.7273956298828125e+02" cType="1" res="-1.9024786353111267e-01" rms="4.5145171880722046e-01" purity="2.9012373089790344e-01" nType="0">
            <Node pos="l" depth="3" NCoef="0" IVar="-1" Cut="0.0000000000000000e+00" cType="1" res="-4.5496975071728230e-03" rms="4.7380948066711426e-01" purity="3.4736567735671997e-01" nType="-99"/>
            <Node pos="r" depth="3" NCoef="0" IVar="-1" Cut="0.0000000000000000e+00" cType="1" res="-6.2187546864151955e-03" rms="3.7714353203773499e-01" purity="1.7310819029808044e-01" nType="-99"/>
          </Node>
          <Node pos="r" depth="2" NCoef="0" IVar="5" Cut="6.9720558166503906e+01" cType="1" res="4.2813144624233246e-02" rms="4.9531522393226624e-01" purity="5.4598766565322876e-01" nType="0">
            <Node pos="l" depth="3" NCoef="0" IVar="-1" Cut="0.0000000000000000e+00" cType="1" res="-5.4697040468454361e-03" rms="4.7630783915519714e-01" purity="3.5001268982887268e-01" nType="-99"/>
            <Node pos="r" depth="3" NCoef="0" IVar="-1" Cut="0.0000000000000000e+00" cType="1" res="2.7180504985153675e-03" rms="4.8845219612121582e-01" purity="5.9944713115692139e-01" nType="-99"/>
          </Node>
        </Node>
        <Node pos="r" depth="1" NCoef="0" IVar="1" Cut="4.2163168334960938e+02" cType="1" res="1.6003164649009705e-01" rms="4.6677854657173157e-01" purity="6.7122995853424072e-01" nType="0">
          <Node pos="l" depth="2" NCoef="0" IVar="2" Cut="4.3198400878906250e+02" cType="1" res="6.8878844380378723e-02" rms="4.9288931488990784e-01" purity="5.7310247421264648e-01" nType="0">
            <Node pos="l" depth="3" NCoef="0" IVar="-1" Cut="0.0000000000000000e+00" cType="1" res="3.5592156928032637e-03" rms="4.8229104280471802e-01" purity="6.2780904769897461e-01" nType="-99"/>
            <Node pos="r" depth="3" NCoef="0" IVar="-1" Cut="0.0000000000000000e+00" cType="1" res="-5.5614565499126911e-03" rms="4.8334127664566040e-01" purity="3.7545192241668701e-01" nType="-99"/>
          </Node>
          <Node pos="r" depth="2" NCoef="0" IVar="2" Cut="5.0812619018554688e+02" cType="1" res="2.4999333918094635e-01" rms="4.2054557800292969e-01" purity="7.6807528734207153e-01" nType="0">
            <Node pos="l" depth="3" NCoef="0" IVar="-1" Cut="0.0000000000000000e+00" cType="1" res="7.4557350017130375e-03" rms="3.8178625702857971e-01" purity="8.2224726676940918e-01" nType="-99"/>
            <Node pos="r" depth="3" NCoef="0" IVar="-1" Cut="0.0000000000000000e+00" cType="1" res="3.1127589754760265e-03" rms="4.8836454749107361e-01" purity="6.0706907510757446e-01" nType="-99"/>
          </Node>
        </Node>
      </Node>
    </BinaryTree>
    <BinaryTree type="DecisionTree" boostWeight="1.0000000000000000e+00" itree="7">
      <Node pos="s" depth="0" NCoef="0" IVar="5" Cut="8.5154937744140625e+01" cType="1" res="1.4874264597892761e-03" rms="4.9203002452850342e-01" purity="4.9913063645362854e-01" nType="0">
        <Node pos="l" depth="1" NCoef="0" IVar="1" Cut="4.2762725830078125e+02" cType="1" res="-1.8446981906890869e-01" rms="4.5235723257064819e-01" purity="2.9448816180229187e-01" nType="0">
          <Node pos="l" depth="2" NCoef="0" IVar="2" Cut="2.8177029418945312e+02" cType="1" res="-2.4050861597061157e-01" rms="4.2040327191352844e-01" purity="2.3137246072292328e-01" nType="0">
            <Node pos="l" depth="3" NCoef="0" IVar="-1" Cut="0.0000000000000000e+00" cType="1" res="-4.7438610345125198e-03" rms="4.6451890468597412e-01" purity="3.1708660721778870e-01" nType="-99"/>
            <Node pos="r" depth="3" NCoef="0" IVar="-1" Cut="0.0000000000000000e+00" cType="1" res="-1.2493002228438854e-02" rms="3.7696850299835205e-01" purity="1.7254391312599182e-01" nType="-99"/>
          </Node>
          <Node pos="r" depth="2" NCoef="0" IVar="1" Cut="5.4917553710937500e+02" cType="1" res="-6.2860108911991119e-02" rms="4.9350106716156006e-01" purity="4.3145549297332764e-01" nType="0">
            <Node pos="l" depth="3" NCoef="0" IVar="-1" Cut="0.0000000000000000e+00" cType="1" res="-4.4914088211953640e-03" rms="4.8148170113563538e-01" purity="3.7128236889839172e-01" nType="-99"/>
            <Node pos="r" depth="3" NCoef="0" IVar="-1" Cut="0.0000000000000000e+00" cType="1" res="1.4685915084555745e-03" rms="4.9711793661117554e-01" purity="5.4257720708847046e-01" nType="-99"/>
          </Node>
        </Node>
        <Node pos="r" depth="1" NCoef="0" IVar="1" Cut="4.1917230224609375e+02" cType="1" res="9.1311551630496979e-02" rms="4.8520037531852722e-01" purity="5.9798032045364380e-01" nType="0">
          <Node pos="l" depth="2" NCoef="0" IVar="7" Cut="-1.2000046968460083e+00" cType="1" res="-7.1411179378628731e-03" rms="4.9659121036529541e-01" purity="4.8977226018905640e-01" nType="0">
            <Node pos="l" depth="3" NCoef="0" IVar="-1" Cut="0.0000000000000000e+00" cType="1" res="-1.1822857894003391e-02" rms="4.1574752330780029e-01" purity="2.2720870375633240e-01" nType="-99"/>
            <Node pos="r" depth="3" NCoef="0" IVar="-1" Cut="0.0000000000000000e+00" cType="1" res="6.4233131706714630e-04" rms="4.9626922607421875e-01" purity="5.2468889951705933e-01" nType="-99"/>
          </Node>
          <Node pos="r" depth="2" NCoef="0" IVar="2" Cut="4.8050473022460938e+02" cType="1" res="2.0144094526767731e-01" rms="4.4714486598968506e-01" purity="7.1902215480804443e-01" nType="0">
            <Node pos="l" depth="3" NCoef="0" IVar="-1" Cut="0.0000000000000000e+00" cType="1" res="6.7217163741588593e-03" rms="4.1116896271705627e-01" purity="7.8215140104293823e-01" nType="-99"/>
            <Node pos="r" depth="3" NCoef="0" IVar="-1" Cut="0.0000000000000000e+00" cType="1" res="1.4311961131170392e-03" rms="4.9676460027694702e-01" purity="5.5141323804855347e-01" nType="-99"/>
          </Node>
        </Node>
      </Node>
    </BinaryTree>
    <BinaryTree type="DecisionTree" boostWeight="1.0000000000000000e+00" itree="8">
      <Node pos="s" depth="0" NCoef="0" IVar="5" Cut="1.1367871856689453e+02" cType="1" res="-2.2308451589196920e-03" rms="4.9083676934242249e-01" purity="4.9483361840248108e-01" nType="0">
        <Node pos="l" depth="1" NCoef="0" IVar="1" Cut="4.6515432739257812e+02" cType="1" res="-1.0243763774633408e-01" rms="4.7964322566986084e-01" purity="3.8363346457481384e-01" nType="0">
          <Node pos="l" depth="2" NCoef="0" IVar="5" Cut="7.7353569030761719e+01" cType="1" res="-1.6232378780841827e-01" rms="4.6096983551979065e-01" purity="3.1647557020187378e-01" nType="0">
            <Node pos="l" depth="3" NCoef="0" IVar="-1" Cut="0.0000000000000000e+00" cType="1" res="-9.5546236261725426e-03" rms="4.0856164693832397e-01" purity="2.1382327377796173e-01" nType="-99"/>
            <Node pos="r" depth="3" NCoef="0" IVar="-1" Cut="0.0000000000000000e+00" cType="1" res="-2.3815694730728865e-03" rms="4.8341196775436401e-01" purity="3.8560038805007935e-01" nType="-99"/>
          </Node>
          <Node pos="r" depth="2" NCoef="0" IVar="2" Cut="3.3996990966796875e+02" cType="1" res="7.2016038000583649e-02" rms="4.9024781584739685e-01" purity="5.7927042245864868e-01" nType="0">
            <Node pos="l" depth="3" NCoef="0" IVar="-1" Cut="0.0000000000000000e+00" cType="1" res="5.2934931591153145e-03" rms="4.5022642612457275e-01" purity="7.1069657802581787e-01" nType="-99"/>
            <Node pos="r" depth="3" NCoef="0" IVar="-1" Cut="0.0000000000000000e+00" cType="1" res="-2.4221396597567946e-04" rms="4.9749544262886047e-01" purity="4.9743583798408508e-01" nType="-99"/>
          </Node>
        </Node>
        <Node pos="r" depth="1" NCoef="0" IVar="1" Cut="4.2404690551757812e+02" cType="1" res="1.5862281620502472e-01" rms="4.6515142917633057e-01" purity="6.7333388328552246e-01" nType="0">
          <Node pos="l" depth="2" NCoef="0" IVar="2" Cut="3.3080282592773438e+02" cType="1" res="7.6439417898654938e-02" rms="4.9094793200492859e-01" purity="5.8201032876968384e-01" nType="0">
            <Node pos="l" depth="3" NCoef="0" IVar="-1" Cut="0.0000000000000000e+00" cType="1" res="4.4063734821975231e-03" rms="4.6749398112297058e-01" purity="6.7482066154479980e-01" nType="-99"/>
            <Node pos="r" depth="3" NCoef="0" IVar="-1" Cut="0.0000000000000000e+00" cType="1" res="-9.7532762447372079e-04" rms="4.9752482771873474e-01" purity="4.7482958436012268e-01" nType="-99"/>
          </Node>
          <Node pos="r" depth="2" NCoef="0" IVar="2" Cut="4.8052658081054688e+02" cType="1" res="2.4386191368103027e-01" rms="4.2013546824455261e-01" purity="7.6805305480957031e-01" nType="0">
            <Node pos="l" depth="3" NCoef="0" IVar="-1" Cut="0.0000000000000000e+00" cType="1" res="7.5963027775287628e-03" rms="3.7542119622230530e-01" purity="8.2997393608093262e-01" nType="-99"/>
            <Node pos="r" depth="3" NCoef="0" IVar="-1" Cut="0.0000000000000000e+00" cType="1" res="3.3759071957319975e-03" rms="4.8636502027511597e-01" purity="6.1542254686355591e-01" nType="-99"/>
          </Node>
        </Node>
      </Node>
    </BinaryTree>
    <BinaryTree type="DecisionTree" boostWeight="1.0000000000000000e+00" itree="9">
      <Node pos="s" depth="0" NCoef="0" IVar="5" Cut="1.1364518737792969e+02" cType="1" res="2.3191956279333681e-04" rms="4.9008321762084961e-01" purity="4.9700215458869934e-01" nType="0">
        <Node pos="l" depth="1" NCoef="0" IVar="1" Cut="4.5299798583984375e+02" cType="1" res="-9.3632020056247711e-02" rms="4.8091018199920654e-01" purity="3.9077395200729370e-01" nType="0">
          <Node pos="l" depth="2" NCoef="0" IVar="2" Cut="3.5154885864257812e+02" cType="1" res="-1.5753838419914246e-01" rms="4.6167814731597900e-01" purity="3.1773629784584045e-01" nType="0">
            <Node pos="l" depth="3" NCoef="0" IVar="-1" Cut="0.0000000000000000e+00" cType="1" res="-3.0829941388219595e-03" rms="4.8145249485969543e-01" purity="3.7867599725723267e-01" nType="-99"/>
            <Node pos="r" depth="3" NCoef="0" IVar="-1" Cut="0.0000000000000000e+00" cType="1" res="-5.7285670191049576e-03" rms="4.0994399785995483e-01" purity="2.1819165349006653e-01" nType="-99"/>
          </Node>
          <Node pos="r" depth="2" NCoef="0" IVar="5" Cut="6.8232330322265625e+01" cType="1" res="6.6885747015476227e-02" rms="4.9069696664810181e-01" purity="5.7422733306884766e-01" nType="0">
            <Node pos="l" depth="3" NCoef="0" IVar="-1" Cut="0.0000000000000000e+00" cType="1" res="-6.0499040409922600e-03" rms="4.7402843832969666e-01" purity="3.4211629629135132e-01" nType="-99"/>
            <Node pos="r" depth="3" NCoef="0" IVar="-1" Cut="0.0000000000000000e+00" cType="1" res="3.2270266674458981e-03" rms="4.8283913731575012e-01" purity="6.2070578336715698e-01" nType="-99"/>
          </Node>
        </Node>
        <Node pos="r" depth="1" NCoef="0" IVar="1" Cut="4.1917388916015625e+02" cType="1" res="1.5298013389110565e-01" rms="4.6583971381187439e-01" purity="6.6987115144729614e-01" nType="0">
          <Node pos="l" depth="2" NCoef="0" IVar="6" Cut="-8.1845027208328247e-01" cType="1" res="6.7210219800472260e-02" rms="4.9224972724914551e-01" purity="5.7318240404129028e-01" nType="0">
            <Node pos="l" depth="3" NCoef="0" IVar="-1" Cut="0.0000000000000000e+00" cType="1" res="-4.1967094875872135e-03" rms="4.8637142777442932e-01" purity="3.9292511343955994e-01" nType="-99"/>
            <Node pos="r" depth="3" NCoef="0" IVar="-1" Cut="0.0000000000000000e+00" cType="1" res="3.3022677525877953e-03" rms="4.8424956202507019e-01" purity="6.1429888010025024e-01" nType="-99"/>
          </Node>
          <Node pos="r" depth="2" NCoef="0" IVar="2" Cut="5.0811215209960938e+02" cType="1" res="2.3548451066017151e-01" rms="4.2282798886299133e-01" purity="7.6287871599197388e-01" nType="0">
            <Node pos="l" depth="3" NCoef="0" IVar="-1" Cut="0.0000000000000000e+00" cType="1" res="7.4268998578190804e-03" rms="3.7871640920639038e-01" purity="8.2583534717559814e-01" nType="-99"/>
            <Node pos="r" depth="3" NCoef="0" IVar="-1" Cut="0.0000000000000000e+00" cType="1" res="1.6548180719837546e-03" rms="4.9627298116683960e-01" purity="5.6041640043258667e-01" nType="-99"/>
          </Node>
        </Node>
      </Node>
    </BinaryTree>
    <BinaryTree type="DecisionTree" boostWeight="1.0000000000000000e+00" itree="10">
      <Node pos="s" depth="0" NCoef="0" IVar="5" Cut="1.1044891357421875e+02" cType="1" res="6.8601695820689201e-03" rms="4.8901826143264771e-01" purity="5.0383102893829346e-01" nType="0">
        <Node pos="l" depth="1" NCoef="0" IVar="1" Cut="4.3640545654296875e+02" cType="1" res="-9.9602982401847839e-02" rms="4.7869074344635010e-01" purity="3.8244485855102539e-01" nType="0">
          <Node pos="l" depth="2" NCoef="0" IVar="2" Cut="3.3641738891601562e+02" cType="1" res="-1.6618402302265167e-01" rms="4.5654276013374329e-01" purity="3.0449223518371582e-01" nType="0">
            <Node pos="l" depth="3" NCoef="0" IVar="-1" Cut="0.0000000000000000e+00" cType="1" res="-3.0738261993974447e-03" rms="4.8161992430686951e-01" purity="3.7709996104240417e-01" nType="-99"/>
            <Node pos="r" depth="3" NCoef="0" IVar="-1" Cut="0.0000000000000000e+00" cType="1" res="-1.1623843573033810e-02" rms="3.9804774522781372e-01" purity="2.0076084136962891e-01" nType="-99"/>
          </Node>
          <Node pos="r" depth="2" NCoef="0" IVar="5" Cut="7.5917037963867188e+01" cType="1" res="3.7461120635271072e-02" rms="4.9383533000946045e-01" purity="5.4291862249374390e-01" nType="0">
            <Node pos="l" depth="3" NCoef="0" IVar="-1" Cut="0.0000000000000000e+00" cType="1" res="-3.9217476733028889e-03" rms="4.8469322919845581e-01" purity="3.8277709484100342e-01" nType="-99"/>
            <Node pos="r" depth="3" NCoef="0" IVar="-1" Cut="0.0000000000000000e+00" cType="1" res="2.9920369852334261e-03" rms="4.8406550288200378e-01" purity="6.1625248193740845e-01" nType="-99"/>
          </Node>
        </Node>
        <Node pos="r" depth="1" NCoef="0" IVar="1" Cut="4.1996020507812500e+02" cType="1" res="1.5737265348434448e-01" rms="4.6323850750923157e-01" purity="6.7544096708297729e-01" nType="0">
          <Node pos="l" depth="2" NCoef="0" IVar="6" Cut="9.7063708305358887e-01" cType="1" res="7.3361538350582123e-02" rms="4.9062499403953552e-01" purity="5.7971876859664917e-01" nType="0">
            <Node pos="l" depth="3" NCoef="0" IVar="-1" Cut="0.0000000000000000e+00" cType="1" res="3.4509645774960518e-03" rms="4.8212945461273193e-01" purity="6.2211889028549194e-01" nType="-99"/>
            <Node pos="r" depth="3" NCoef="0" IVar="-1" Cut="0.0000000000000000e+00" cType="1" res="-6.8271565251052380e-03" rms="4.6739274263381958e-01" purity="3.2908260822296143e-01" nType="-99"/>
          </Node>
          <Node pos="r" depth="2" NCoef="0" IVar="2" Cut="4.7383923339843750e+02" cType="1" res="2.4031819403171539e-01" rms="4.1827020049095154e-01" purity="7.6994907855987549e-01" nType="0">
            <Node pos="l" depth="3" NCoef="0" IVar="-1" Cut="0.0000000000000000e+00" cType="1" res="7.4664754793047905e-03" rms="3.6978080868721008e-01" purity="8.3608853816986084e-01" nType="-99"/>
            <Node pos="r" depth="3" NCoef="0" IVar="-1" Cut="0.0000000000000000e+00" cType="1" res="3.0496143735945225e-03" rms="4.8775199055671692e-01" purity="6.0882127285003662e-01" nType="-99"/>
          </Node>
        </Node>
      </Node>
    </BinaryTree>
    <BinaryTree type="DecisionTree" boostWeight="1.0000000000000000e+00" itree="11">
      <Node pos="s" depth="0" NCoef="0" IVar="5" Cut="1.0730957794189453e+02" cType="1" res="5.2456227131187916e-03" rms="4.8794683814048767e-01" purity="5.0180464982986450e-01" nType="0">
        <Node pos="l" depth="1" NCoef="0" IVar="1" Cut="4.6515270996093750e+02" cType="1" res="-1.0439848899841309e-01" rms="4.7594848275184631e-01" purity="3.7438255548477173e-01" nType="0">
          <Node pos="l" depth="2" NCoef="0" IVar="2" Cut="3.5154885864257812e+02" cType="1" res="-1.6056776046752930e-01" rms="4.5717525482177734e-01" purity="3.0861696600914001e-01" nType="0">
            <Node pos="l" depth="3" NCoef="0" IVar="-1" Cut="0.0000000000000000e+00" cType="1" res="-3.1441105529665947e-03" rms="4.8110353946685791e-01" purity="3.7799260020256042e-01" nType="-99"/>
            <Node pos="r" depth="3" NCoef="0" IVar="-1" Cut="0.0000000000000000e+00" cType="1" res="-1.2004961259663105e-02" rms="3.9332315325737000e-01" purity="1.9625081121921539e-01" nType="-99"/>
          </Node>
          <Node pos="r" depth="2" NCoef="0" IVar="5" Cut="7.4620712280273438e+01" cType="1" res="6.3015200197696686e-02" rms="4.9123123288154602e-01" purity="5.7039839029312134e-01" nType="0">
            <Node pos="l" depth="3" NCoef="0" IVar="-1" Cut="0.0000000000000000e+00" cType="1" res="-2.6153491344302893e-03" rms="4.9228566884994507e-01" purity="4.1899594664573669e-01" nType="-99"/>
            <Node pos="r" depth="3" NCoef="0" IVar="-1" Cut="0.0000000000000000e+00" cType="1" res="3.5214114468544722e-03" rms="4.7957336902618408e-01" purity="6.3588458299636841e-01" nType="-99"/>
          </Node>
        </Node>
        <Node pos="r" depth="1" NCoef="0" IVar="1" Cut="4.2404663085937500e+02" cType="1" res="1.4183293282985687e-01" rms="4.6783241629600525e-01" purity="6.6053855419158936e-01" nType="0">
          <Node pos="l" depth="2" NCoef="0" IVar="6" Cut="-1.0768665075302124e+00" cType="1" res="6.0224071145057678e-02" rms="4.9226674437522888e-01" purity="5.6611281633377075e-01" nType="0">
            <Node pos="l" depth="3" NCoef="0" IVar="-1" Cut="0.0000000000000000e+00" cType="1" res="-8.5029536858201027e-03" rms="4.6028813719749451e-01" purity="3.1133022904396057e-01" nType="-99"/>
            <Node pos="r" depth="3" NCoef="0" IVar="-1" Cut="0.0000000000000000e+00" cType="1" res="2.8631121385842562e-03" rms="4.8638403415679932e-01" purity="6.0094439983367920e-01" nType="-99"/>
          </Node>
          <Node pos="r" depth="2" NCoef="0" IVar="2" Cut="4.8063299560546875e+02" cType="1" res="2.2942425310611725e-01" rms="4.2292740941047668e-01" purity="7.6188623905181885e-01" nType="0">
            <Node pos="l" depth="3" NCoef="0" IVar="-1" Cut="0.0000000000000000e+00" cType="1" res="7.1583339013159275e-03" rms="3.7819713354110718e-01" purity="8.2611095905303955e-01" nType="-99"/>
            <Node pos="r" depth="3" NCoef="0" IVar="-1" Cut="0.0000000000000000e+00" cType="1" res="2.5741087738424540e-03" rms="4.9067375063896179e-01" purity="5.9487950801849365e-01" nType="-99"/>
          </Node>
        </Node>
      </Node>
    </BinaryTree>
    <BinaryTree type="DecisionTree" boostWeight="1.0000000000000000e+00" itree="12">
      <Node pos="s" depth="0" NCoef="0" IVar="5" Cut="1.0906489562988281e+02" cType="1" res="5.8747641742229462e-03" rms="4.8700866103172302e-01" purity="5.0212472677230835e-01" nType="0">
        <Node pos="l" depth="1" NCoef="0" IVar="1" Cut="4.2762921142578125e+02" cType="1" res="-9.8958417773246765e-02" rms="4.7665137052536011e-01" purity="3.7824198603630066e-01" nType="0">
          <Node pos="l" depth="2" NCoef="0" IVar="6" Cut="9.3691831827163696e-01" cType="1" res="-1.6618260741233826e-01" rms="4.5298081636428833e-01" purity="2.9718729853630066e-01" nType="0">
            <Node pos="l" depth="3" NCoef="0" IVar="-1" Cut="0.0000000000000000e+00" cType="1" res="-4.6723983250558376e-03" rms="4.6706801652908325e-01" purity="3.3304452896118164e-01" nType="-99"/>
            <Node pos="r" depth="3" NCoef="0" IVar="-1" Cut="0.0000000000000000e+00" cType="1" res="-1.2870670296251774e-02" rms="3.5151800513267517e-01" purity="1.4665110409259796e-01" nType="-99"/>
          </Node>
          <Node pos="r" depth="2" NCoef="0" IVar="5" Cut="8.3804283142089844e+01" cType="1" res="2.5566028431057930e-02" rms="4.9404501914978027e-01" purity="5.2838569879531860e-01" nType="0">
            <Node pos="l" depth="3" NCoef="0" IVar="-1" Cut="0.0000000000000000e+00" cType="1" res="-2.0335868466645479e-03" rms="4.9195545911788940e-01" purity="4.2898514866828918e-01" nType="-99"/>
            <Node pos="r" depth="3" NCoef="0" IVar="-1" Cut="0.0000000000000000e+00" cType="1" res="3.1877709552645683e-03" rms="4.8185190558433533e-01" purity="6.2508946657180786e-01" nType="-99"/>
          </Node>
        </Node>
        <Node pos="r" depth="1" NCoef="0" IVar="1" Cut="4.1917462158203125e+02" cType="1" res="1.4651772379875183e-01" rms="4.6480447053909302e-01" purity="6.6832435131072998e-01" nType="0">
          <Node pos="l" depth="2" NCoef="0" IVar="2" Cut="3.7053485107421875e+02" cType="1" res="5.8745183050632477e-02" rms="4.9189001321792603e-01" purity="5.6628829240798950e-01" nType="0">
            <Node pos="l" depth="3" NCoef="0" IVar="-1" Cut="0.0000000000000000e+00" cType="1" res="3.5816987510770559e-03" rms="4.7734245657920837e-01" purity="6.4105504751205444e-01" nType="-99"/>
            <Node pos="r" depth="3" NCoef="0" IVar="-1" Cut="0.0000000000000000e+00" cType="1" res="-3.1138844788074493e-03" rms="4.9140295386314392e-01" purity="4.2408937215805054e-01" nType="-99"/>
          </Node>
          <Node pos="r" depth="2" NCoef="0" IVar="2" Cut="4.8052658081054688e+02" cType="1" res="2.2965826094150543e-01" rms="4.2105615139007568e-01" purity="7.6497566699981689e-01" nType="0">
            <Node pos="l" depth="3" NCoef="0" IVar="-1" Cut="0.0000000000000000e+00" cType="1" res="6.9750184193253517e-03" rms="3.7898674607276917e-01" purity="8.2543367147445679e-01" nType="-99"/>
            <Node pos="r" depth="3" NCoef="0" IVar="-1" Cut="0.0000000000000000e+00" cType="1" res="2.8617635834962130e-03" rms="4.8787131905555725e-01" purity="6.0790121555328369e-01" nType="-99"/>
          </Node>
        </Node>
      </Node>
    </BinaryTree>
    <BinaryTree type="DecisionTree" boostWeight="1.0000000000000000e+00" itree="13">
      <Node pos="s" depth="0" NCoef="0" IVar="5" Cut="8.5154937744140625e+01" cType="1" res="3.0958370771259069e-03" rms="4.8621422052383423e-01" purity="4.9874377250671387e-01" nType="0">
        <Node pos="l" depth="1" NCoef="0" IVar="1" Cut="4.2850576782226562e+02" cType="1" res="-1.6797080636024475e-01" rms="4.4972202181816101e-01" purity="2.9541495442390442e-01" nType="0">
          <Node pos="l" depth="2" NCoef="0" IVar="2" Cut="2.8398718261718750e+02" cType="1" res="-2.2197955846786499e-01" rms="4.1767475008964539e-01" purity="2.2952264547348022e-01" nType="0">
            <Node pos="l" depth="3" NCoef="0" IVar="-1" Cut="0.0000000000000000e+00" cType="1" res="-4.6371882781386375e-03" rms="4.6421191096305847e-01" purity="3.1749969720840454e-01" nType="-99"/>
            <Node pos="r" depth="3" NCoef="0" IVar="-1" Cut="0.0000000000000000e+00" cType="1" res="-1.1477076448500156e-02" rms="3.7480717897415161e-01" purity="1.7116455733776093e-01" nType="-99"/>
          </Node>
          <Node pos="r" depth="2" NCoef="0" IVar="5" Cut="6.6775474548339844e+01" cType="1" res="-4.9070075154304504e-02" rms="4.9283638596534729e-01" purity="4.4047740101814270e-01" nType="0">
            <Node pos="l" depth="3" NCoef="0" IVar="-1" Cut="0.0000000000000000e+00" cType="1" res="-5.6393970735371113e-03" rms="4.6740892529487610e-01" purity="3.2552683353424072e-01" nType="-99"/>
            <Node pos="r" depth="3" NCoef="0" IVar="-1" Cut="0.0000000000000000e+00" cType="1" res="1.0145134001504630e-04" rms="4.9723947048187256e-01" purity="4.9898424744606018e-01" nType="-99"/>
          </Node>
        </Node>
        <Node pos="r" depth="1" NCoef="0" IVar="7" Cut="-1.1999186277389526e+00" cType="1" res="8.5547976195812225e-02" rms="4.8162546753883362e-01" purity="5.9674590826034546e-01" nType="0">
          <Node pos="l" depth="2" NCoef="0" IVar="7" Cut="-1.6570765972137451e+00" cType="1" res="-1.6044144332408905e-01" rms="4.6391266584396362e-01" purity="3.4116116166114807e-01" nType="0">
            <Node pos="l" depth="3" NCoef="0" IVar="-1" Cut="0.0000000000000000e+00" cType="1" res="-1.2230397202074528e-02" rms="4.1362935304641724e-01" purity="2.3206663131713867e-01" nType="-99"/>
            <Node pos="r" depth="3" NCoef="0" IVar="-1" Cut="0.0000000000000000e+00" cType="1" res="-2.7346042916178703e-03" rms="4.8482340574264526e-01" purity="4.3248531222343445e-01" nType="-99"/>
          </Node>
          <Node pos="r" depth="2" NCoef="0" IVar="7" Cut="1.0857653617858887e+00" cType="1" res="1.1446391791105270e-01" rms="4.7537636756896973e-01" purity="6.2678968906402588e-01" nType="0">
            <Node pos="l" depth="3" NCoef="0" IVar="-1" Cut="0.0000000000000000e+00" cType="1" res="4.3170666322112083e-03" rms="4.6351084113121033e-01" purity="6.6694450378417969e-01" nType="-99"/>
            <Node pos="r" depth="3" NCoef="0" IVar="-1" Cut="0.0000000000000000e+00" cType="1" res="-5.1929773762822151e-03" rms="4.7477063536643982e-01" purity="3.7246200442314148e-01" nType="-99"/>
          </Node>
        </Node>
      </Node>
    </BinaryTree>
    <BinaryTree type="DecisionTree" boostWeight="1.0000000000000000e+00" itree="14">
      <Node pos="s" depth="0" NCoef="0" IVar="5" Cut="1.1360079956054688e+02" cType="1" res="4.2581520974636078e-03" rms="4.8512658476829529e-01" purity="4.9949949979782104e-01" nType="0">
        <Node pos="l" depth="1" NCoef="0" IVar="1" Cut="4.3640158081054688e+02" cType="1" res="-8.6361289024353027e-02" rms="4.7724941372871399e-01" purity="3.8984033465385437e-01" nType="0">
          <Node pos="l" depth="2" NCoef="0" IVar="2" Cut="4.0206427001953125e+02" cType="1" res="-1.5264563262462616e-01" rms="4.5605203509330750e-01" purity="3.0825370550155640e-01" nType="0">
            <Node pos="l" depth="3" NCoef="0" IVar="-1" Cut="0.0000000000000000e+00" cType="1" res="-3.4107281826436520e-03" rms="4.7424927353858948e-01" purity="3.5771781206130981e-01" nType="-99"/>
            <Node pos="r" depth="3" NCoef="0" IVar="-1" Cut="0.0000000000000000e+00" cType="1" res="-5.4942187853157520e-03" rms="3.7040573358535767e-01" purity="1.6760551929473877e-01" nType="-99"/>
          </Node>
          <Node pos="r" depth="2" NCoef="0" IVar="5" Cut="7.7267539978027344e+01" cType="1" res="4.9457099288702011e-02" rms="4.9076956510543823e-01" purity="5.5701351165771484e-01" nType="0">
            <Node pos="l" depth="3" NCoef="0" IVar="-1" Cut="0.0000000000000000e+00" cType="1" res="-2.6695185806602240e-03" rms="4.8948508501052856e-01" purity="4.0942561626434326e-01" nType="-99"/>
            <Node pos="r" depth="3" NCoef="0" IVar="-1" Cut="0.0000000000000000e+00" cType="1" res="3.1494803261011839e-03" rms="4.8023432493209839e-01" purity="6.2804722785949707e-01" nType="-99"/>
          </Node>
        </Node>
        <Node pos="r" depth="1" NCoef="0" IVar="1" Cut="4.1917388916015625e+02" cType="1" res="1.4860884845256805e-01" rms="4.6206641197204590e-01" purity="6.7417919635772705e-01" nType="0">
          <Node pos="l" depth="2" NCoef="0" IVar="6" Cut="-8.6751598119735718e-01" cType="1" res="6.3919857144355774e-02" rms="4.9034228920936584e-01" purity="5.7412308454513550e-01" nType="0">
            <Node pos="l" depth="3" NCoef="0" IVar="-1" Cut="0.0000000000000000e+00" cType="1" res="-5.0472724251449108e-03" rms="4.8078656196594238e-01" purity="3.7560319900512695e-01" nType="-99"/>
            <Node pos="r" depth="3" NCoef="0" IVar="-1" Cut="0.0000000000000000e+00" cType="1" res="3.0965725891292095e-03" rms="4.8324409127235413e-01" purity="6.1312502622604370e-01" nType="-99"/>
          </Node>
          <Node pos="r" depth="2" NCoef="0" IVar="2" Cut="4.6539038085937500e+02" cType="1" res="2.2846588492393494e-01" rms="4.1829597949981689e-01" purity="7.6852655410766602e-01" nType="0">
            <Node pos="l" depth="3" NCoef="0" IVar="-1" Cut="0.0000000000000000e+00" cType="1" res="7.0649827830493450e-03" rms="3.7098330259323120e-01" purity="8.3447170257568359e-01" nType="-99"/>
            <Node pos="r" depth="3" NCoef="0" IVar="-1" Cut="0.0000000000000000e+00" cType="1" res="3.1485392246395350e-03" rms="4.8422217369079590e-01" purity="6.2071830034255981e-01" nType="-99"/>
          </Node>
        </Node>
      </Node>
    </BinaryTree>
    <BinaryTree type="DecisionTree" boostWeight="1.0000000000000000e+00" itree="15">
      <Node pos="s" depth="0" NCoef="0" IVar="5" Cut="1.0688733673095703e+02" cType="1" res="3.3412529155611992e-03" rms="4.8433098196983337e-01" purity="4.9848961830139160e-01" nType="0">
        <Node pos="l" depth="1" NCoef="0" IVar="1" Cut="4.6515151977539062e+02" cType="1" res="-9.9614851176738739e-02" rms="4.7310328483581543e-01" purity="3.7211996316909790e-01" nType="0">
          <Node pos="l" depth="2" NCoef="0" IVar="2" Cut="4.3402227783203125e+02" cType="1" res="-1.5655328333377838e-01" rms="4.5381024479866028e-01" purity="3.0258673429489136e-01" nType="0">
            <Node pos="l" depth="3" NCoef="0" IVar="-1" Cut="0.0000000000000000e+00" cType="1" res="-3.9727892726659775e-03" rms="4.6935349702835083e-01" purity="3.4254363179206848e-01" nType="-99"/>
            <Node pos="r" depth="3" NCoef="0" IVar="-1" Cut="0.0000000000000000e+00" cType="1" res="-1.3534114696085453e-02" rms="3.6048269271850586e-01" purity="1.5638725459575653e-01" nType="-99"/>
          </Node>
          <Node pos="r" depth="2" NCoef="0" IVar="5" Cut="8.7959609985351562e+01" cType="1" res="6.9248348474502563e-02" rms="4.8860308527946472e-01" purity="5.7833582162857056e-01" nType="0">
            <Node pos="l" depth="3" NCoef="0" IVar="-1" Cut="0.0000000000000000e+00" cType="1" res="-2.5456835282966495e-04" rms="4.9719011783599854e-01" purity="4.8866507411003113e-01" nType="-99"/>
            <Node pos="r" depth="3" NCoef="0" IVar="-1" Cut="0.0000000000000000e+00" cType="1" res="4.5826658606529236e-03" rms="4.5739376544952393e-01" purity="6.9765615463256836e-01" nType="-99"/>
          </Node>
        </Node>
        <Node pos="r" depth="1" NCoef="0" IVar="1" Cut="4.1995864868164062e+02" cType="1" res="1.3257716596126556e-01" rms="4.6697181463241577e-01" purity="6.5711539983749390e-01" nType="0">
          <Node pos="l" depth="2" NCoef="0" IVar="6" Cut="-1.1126710176467896e+00" cType="1" res="4.5533411204814911e-02" rms="4.9217987060546875e-01" purity="5.5311506986618042e-01" nType="0">
            <Node pos="l" depth="3" NCoef="0" IVar="-1" Cut="0.0000000000000000e+00" cType="1" res="-8.9629981666803360e-03" rms="4.5263642072677612e-01" purity="2.9414555430412292e-01" nType="-99"/>
            <Node pos="r" depth="3" NCoef="0" IVar="-1" Cut="0.0000000000000000e+00" cType="1" res="2.4362776894122362e-03" rms="4.8774373531341553e-01" purity="5.8746200799942017e-01" nType="-99"/>
          </Node>
          <Node pos="r" depth="2" NCoef="0" IVar="2" Cut="4.7392840576171875e+02" cType="1" res="2.1766886115074158e-01" rms="4.2400380969047546e-01" purity="7.5878345966339111e-01" nType="0">
            <Node pos="l" depth="3" NCoef="0" IVar="-1" Cut="0.0000000000000000e+00" cType="1" res="6.8217772059142590e-03" rms="3.8174545764923096e-01" purity="8.2136100530624390e-01" nType="-99"/>
            <Node pos="r" depth="3" NCoef="0" IVar="-1" Cut="0.0000000000000000e+00" cType="1" res="2.7571034152060747e-03" rms="4.8700952529907227e-01" purity="6.0913521051406860e-01" nType="-99"/>
          </Node>
        </Node>
      </Node>
    </BinaryTree>
    <BinaryTree type="DecisionTree" boostWeight="1.0000000000000000e+00" itree="16">
      <Node pos="s" depth="0" NCoef="0" IVar="5" Cut="1.1360079956054688e+02" cType="1" res="3.4523915965110064e-03" rms="4.8352307081222534e-01" purity="4.9814301729202271e-01" nType="0">
        <Node pos="l" depth="1" NCoef="0" IVar="1" Cut="4.6515139770507812e+02" cType="1" res="-8.3676531910896301e-02" rms="4.7628164291381836e-01" purity="3.8944870233535767e-01" nType="0">
          <Node pos="l" depth="2" NCoef="0" IVar="2" Cut="4.0206964111328125e+02" cType="1" res="-1.3545097410678864e-01" rms="4.6118640899658203e-01" purity="3.2412317395210266e-01" nType="0">
            <Node pos="l" depth="3" NCoef="0" IVar="-1" Cut="0.0000000000000000e+00" cType="1" res="-2.8846000786870718e-03" rms="4.7767540812492371e-01" purity="3.7300950288772583e-01" nType="-99"/>
            <Node pos="r" depth="3" NCoef="0" IVar="-1" Cut="0.0000000000000000e+00" cType="1" res="-5.3273928351700306e-03" rms="3.8885602355003357e-01" purity="1.9184409081935883e-01" nType="-99"/>
          </Node>
          <Node pos="r" depth="2" NCoef="0" IVar="2" Cut="3.3996990966796875e+02" cType="1" res="6.7959330976009369e-02" rms="4.8728418350219727e-01" purity="5.8077269792556763e-01" nType="0">
            <Node pos="l" depth="3" NCoef="0" IVar="-1" Cut="0.0000000000000000e+00" cType="1" res="5.2898619323968887e-03" rms="4.4871097803115845e-01" purity="7.0809972286224365e-01" nType="-99"/>
            <Node pos="r" depth="3" NCoef="0" IVar="-1" Cut="0.0000000000000000e+00" cType="1" res="-2.3259960289578885e-04" rms="4.9556696414947510e-01" purity="5.0091987848281860e-01" nType="-99"/>
          </Node>
        </Node>
        <Node pos="r" depth="1" NCoef="0" IVar="6" Cut="1.2266453504562378e+00" cType="1" res="1.4289122819900513e-01" rms="4.6187162399291992e-01" purity="6.7209452390670776e-01" nType="0">
          <Node pos="l" depth="2" NCoef="0" IVar="6" Cut="-1.2072160243988037e+00" cType="1" res="1.6665939986705780e-01" rms="4.5255005359649658e-01" purity="6.9666039943695068e-01" nType="0">
            <Node pos="l" depth="3" NCoef="0" IVar="-1" Cut="0.0000000000000000e+00" cType="1" res="-4.1254861280322075e-03" rms="4.8229786753654480e-01" purity="4.0981018543243408e-01" nType="-99"/>
            <Node pos="r" depth="3" NCoef="0" IVar="-1" Cut="0.0000000000000000e+00" cType="1" res="5.3550875745713711e-03" rms="4.4034749269485474e-01" purity="7.2510993480682373e-01" nType="-99"/>
          </Node>
          <Node pos="r" depth="2" NCoef="0" IVar="-1" Cut="0.0000000000000000e+00" cType="1" res="-4.7425827942788601e-03" rms="4.8080638051033020e-01" purity="3.9474877715110779e-01" nType="-99"/>
        </Node>
      </Node>
    </BinaryTree>
    <BinaryTree type="DecisionTree" boostWeight="1.0000000000000000e+00" itree="17">
      <Node pos="s" depth="0" NCoef="0" IVar="5" Cut="8.1733245849609375e+01" cType="1" res="2.9430116992443800e-03" rms="4.8257079720497131e-01" purity="4.9809756875038147e-01" nType="0">
        <Node pos="l" depth="1" NCoef="0" IVar="1" Cut="4.3640277099609375e+02" cType="1" res="-1.7013654112815857e-01" rms="4.4282141327857971e-01" purity="2.8305199742317200e-01" nType="0">
          <Node pos="l" depth="2" NCoef="0" IVar="2" Cut="2.8557690429687500e+02" cType="1" res="-2.2191369533538818e-01" rms="4.0942165255546570e-01" purity="2.1788340806961060e-01" nType="0">
            <Node pos="l" depth="3" NCoef="0" IVar="-1" Cut="0.0000000000000000e+00" cType="1" res="-4.5879520475864410e-03" rms="4.6348646283149719e-01" purity="3.1486505270004272e-01" nType="-99"/>
            <Node pos="r" depth="3" NCoef="0" IVar="-1" Cut="0.0000000000000000e+00" cType="1" res="-1.2115090154111385e-02" rms="3.5849624872207642e-01" purity="1.5353801846504211e-01" nType="-99"/>
          </Node>
          <Node pos="r" depth="2" NCoef="0" IVar="1" Cut="5.6631951904296875e+02" cType="1" res="-4.4361926615238190e-02" rms="4.9285340309143066e-01" purity="4.4135653972625732e-01" nType="0">
            <Node pos="l" depth="3" NCoef="0" IVar="-1" Cut="0.0000000000000000e+00" cType="1" res="-3.6410198081284761e-03" rms="4.8264652490615845e-01" purity="3.8146898150444031e-01" nType="-99"/>
            <Node pos="r" depth="3" NCoef="0" IVar="-1" Cut="0.0000000000000000e+00" cType="1" res="1.8751119496300817e-03" rms="4.9432215094566345e-01" purity="5.5729931592941284e-01" nType="-99"/>
          </Node>
        </Node>
        <Node pos="r" depth="1" NCoef="0" IVar="1" Cut="4.2162734985351562e+02" cType="1" res="7.3149926960468292e-02" rms="4.8032793402671814e-01" purity="5.8532732725143433e-01" nType="0">
          <Node pos="l" depth="2" NCoef="0" IVar="2" Cut="4.3198400878906250e+02" cType="1" res="-1.1610800400376320e-02" rms="4.9059325456619263e-01" purity="4.7954398393630981e-01" nType="0">
            <Node pos="l" depth="3" NCoef="0" IVar="-1" Cut="0.0000000000000000e+00" cType="1" res="1.0350422235205770e-03" rms="4.9116101861000061e-01" purity="5.2918422222137451e-01" nType="-99"/>
            <Node pos="r" depth="3" NCoef="0" IVar="-1" Cut="0.0000000000000000e+00" cType="1" res="-9.3383044004440308e-03" rms="4.4713485240936279e-01" purity="2.9029470682144165e-01" nType="-99"/>
          </Node>
          <Node pos="r" depth="2" NCoef="0" IVar="2" Cut="4.8559863281250000e+02" cType="1" res="1.7364025115966797e-01" rms="4.4752940535545349e-01" purity="7.1074151992797852e-01" nType="0">
            <Node pos="l" depth="3" NCoef="0" IVar="-1" Cut="0.0000000000000000e+00" cType="1" res="5.9355408884584904e-03" rms="4.1451817750930786e-01" purity="7.7289181947708130e-01" nType="-99"/>
            <Node pos="r" depth="3" NCoef="0" IVar="-1" Cut="0.0000000000000000e+00" cType="1" res="7.7812059316784143e-04" rms="4.9612346291542053e-01" purity="5.4194742441177368e-01" nType="-99"/>
          </Node>
        </Node>
      </Node>
    </BinaryTree>
    <BinaryTree type="DecisionTree" boostWeight="1.0000000000000000e+00" itree="18">
      <Node pos="s" depth="0" NCoef="0" IVar="5" Cut="8.5154937744140625e+01" cType="1" res="4.5008528977632523e-03" rms="4.8162299394607544e-01" purity="4.9936643242835999e-01" nType="0">
        <Node pos="l" depth="1" NCoef="0" IVar="1" Cut="4.2253302001953125e+02" cType="1" res="-1.5790307521820068e-01" rms="4.4729453325271606e-01" purity="2.9454585909843445e-01" nType="0">
          <Node pos="l" depth="2" NCoef="0" IVar="7" Cut="1.1996804475784302e+00" cType="1" res="-2.1867667138576508e-01" rms="4.0933915972709656e-01" purity="2.1771936118602753e-01" nType="0">
            <Node pos="l" depth="3" NCoef="0" IVar="-1" Cut="0.0000000000000000e+00" cType="1" res="-7.5517673976719379e-03" rms="4.2399877309799194e-01" purity="2.4109528958797455e-01" nType="-99"/>
            <Node pos="r" depth="3" NCoef="0" IVar="-1" Cut="0.0000000000000000e+00" cType="1" res="-1.9545566290616989e-02" rms="2.8345742821693420e-01" purity="8.8871881365776062e-02" nType="-99"/>
          </Node>
          <Node pos="r" depth="2" NCoef="0" IVar="5" Cut="6.8445510864257812e+01" cType="1" res="-3.9074610918760300e-02" rms="4.9224361777305603e-01" purity="4.4476205110549927e-01" nType="0">
            <Node pos="l" depth="3" NCoef="0" IVar="-1" Cut="0.0000000000000000e+00" cType="1" res="-5.3554885089397430e-03" rms="4.6934187412261963e-01" purity="3.3349418640136719e-01" nType="-99"/>
            <Node pos="r" depth="3" NCoef="0" IVar="-1" Cut="0.0000000000000000e+00" cType="1" res="5.2438169950619340e-04" rms="4.9647897481918335e-01" purity="5.0869613885879517e-01" nType="-99"/>
          </Node>
        </Node>
        <Node pos="r" depth="1" NCoef="0" IVar="7" Cut="-1.1999689340591431e+00" cType="1" res="8.1414759159088135e-02" rms="4.7817990183830261e-01" purity="5.9636867046356201e-01" nType="0">
          <Node pos="l" depth="2" NCoef="0" IVar="7" Cut="-1.5047223567962646e+00" cType="1" res="-1.6871489584445953e-01" rms="4.5594760775566101e-01" purity="3.2995316386222839e-01" nType="0">
            <Node pos="l" depth="3" NCoef="0" IVar="-1" Cut="0.0000000000000000e+00" cType="1" res="-9.7085675224661827e-03" rms="4.2537441849708557e-01" purity="2.5917929410934448e-01" nType="-99"/>
            <Node pos="r" depth="3" NCoef="0" IVar="-1" Cut="0.0000000000000000e+00" cType="1" res="-2.4460847489535809e-03" rms="4.8195481300354004e-01" purity="4.3982186913490295e-01" nType="-99"/>
          </Node>
          <Node pos="r" depth="2" NCoef="0" IVar="7" Cut="1.0856294631958008e+00" cType="1" res="1.1052730679512024e-01" rms="4.7216919064521790e-01" purity="6.2737679481506348e-01" nType="0">
            <Node pos="l" depth="3" NCoef="0" IVar="-1" Cut="0.0000000000000000e+00" cType="1" res="4.3009053915739059e-03" rms="4.5963221788406372e-01" purity="6.7099881172180176e-01" nType="-99"/>
            <Node pos="r" depth="3" NCoef="0" IVar="-1" Cut="0.0000000000000000e+00" cType="1" res="-5.5595315061509609e-03" rms="4.6800157427787781e-01" purity="3.5945427417755127e-01" nType="-99"/>
          </Node>
        </Node>
      </Node>
    </BinaryTree>
    <BinaryTree type="DecisionTree" boostWeight="1.0000000000000000e+00" itree="19">
      <Node pos="s" depth="0" NCoef="0" IVar="5" Cut="1.1335482788085938e+02" cType="1" res="4.6705766580998898e-03" rms="4.8061382770538330e-01" purity="4.9924156069755554e-01" nType="0">
        <Node pos="l" depth="1" NCoef="0" IVar="1" Cut="4.2762844848632812e+02" cType="1" res="-8.3823926746845245e-02" rms="4.7349914908409119e-01" purity="3.8581815361976624e-01" nType="0">
          <Node pos="l" depth="2" NCoef="0" IVar="2" Cut="3.2891751098632812e+02" cType="1" res="-1.4694434404373169e-01" rms="4.5166054368019104e-01" purity="3.0221575498580933e-01" nType="0">
            <Node pos="l" depth="3" NCoef="0" IVar="-1" Cut="0.0000000000000000e+00" cType="1" res="-2.5725055020302534e-03" rms="4.7931084036827087e-01" purity="3.7766182422637939e-01" nType="-99"/>
            <Node pos="r" depth="3" NCoef="0" IVar="-1" Cut="0.0000000000000000e+00" cType="1" res="-1.0123930871486664e-02" rms="3.9670574665069580e-01" purity="2.0307658612728119e-01" nType="-99"/>
          </Node>
          <Node pos="r" depth="2" NCoef="0" IVar="5" Cut="8.9225219726562500e+01" cType="1" res="3.2207489013671875e-02" rms="4.9046373367309570e-01" purity="5.3950059413909912e-01" nType="0">
            <Node pos="l" depth="3" NCoef="0" IVar="-1" Cut="0.0000000000000000e+00" cType="1" res="-1.5945481136441231e-03" rms="4.9238595366477966e-01" purity="4.4358092546463013e-01" nType="-99"/>
            <Node pos="r" depth="3" NCoef="0" IVar="-1" Cut="0.0000000000000000e+00" cType="1" res="3.4568351693451405e-03" rms="4.7197508811950684e-01" purity="6.5284460783004761e-01" nType="-99"/>
          </Node>
        </Node>
        <Node pos="r" depth="1" NCoef="0" IVar="1" Cut="4.2404614257812500e+02" cType="1" res="1.4271165430545807e-01" rms="4.5859271287918091e-01" purity="6.7616873979568481e-01" nType="0">
          <Node pos="l" depth="2" NCoef="0" IVar="2" Cut="3.3082598876953125e+02" cType="1" res="5.7031255215406418e-02" rms="4.8817348480224609e-01" purity="5.7174152135848999e-01" nType="0">
            <Node pos="l" depth="3" NCoef="0" IVar="-1" Cut="0.0000000000000000e+00" cType="1" res="3.9445748552680016e-03" rms="4.6632683277130127e-01" purity="6.6907948255538940e-01" nType="-99"/>
            <Node pos="r" depth="3" NCoef="0" IVar="-1" Cut="0.0000000000000000e+00" cType="1" res="-1.9129328429698944e-03" rms="4.9243444204330444e-01" purity="4.5624211430549622e-01" nType="-99"/>
          </Node>
          <Node pos="r" depth="2" NCoef="0" IVar="2" Cut="5.0811590576171875e+02" cType="1" res="2.2563737630844116e-01" rms="4.1136336326599121e-01" purity="7.7723848819732666e-01" nType="0">
            <Node pos="l" depth="3" NCoef="0" IVar="-1" Cut="0.0000000000000000e+00" cType="1" res="6.7912563681602478e-03" rms="3.7235015630722046e-01" purity="8.3166474103927612e-01" nType="-99"/>
            <Node pos="r" depth="3" NCoef="0" IVar="-1" Cut="0.0000000000000000e+00" cType="1" res="2.7040899731218815e-03" rms="4.8592737317085266e-01" purity="6.1278116703033447e-01" nType="-99"/>
          </Node>
        </Node>
      </Node>
    </BinaryTree>
    <BinaryTree type="DecisionTree" boostWeight="1.0000000000000000e+00" itree="20">
      <Node pos="s" depth="0" NCoef="0" IVar="5" Cut="8.5154937744140625e+01" cType="1" res="8.1997886300086975e-03" rms="4.7939345240592957e-01" purity="5.0250643491744995e-01" nType="0">
        <Node pos="l" depth="1" NCoef="0" IVar="7" Cut="1.2000039815902710e+00" cType="1" res="-1.5383459627628326e-01" rms="4.4639596343040466e-01" purity="2.9245623946189880e-01" nType="0">
          <Node pos="l" depth="2" NCoef="0" IVar="7" Cut="-8.9503228664398193e-01" cType="1" res="-1.2617264688014984e-01" rms="4.5819360017776489e-01" purity="3.2115569710731506e-01" nType="0">
            <Node pos="l" depth="3" NCoef="0" IVar="-1" Cut="0.0000000000000000e+00" cType="1" res="-1.2651950120925903e-02" rms="3.6583366990089417e-01" purity="1.6535498201847076e-01" nType="-99"/>
            <Node pos="r" depth="3" NCoef="0" IVar="-1" Cut="0.0000000000000000e+00" cType="1" res="-2.4894012603908777e-03" rms="4.7517767548561096e-01" purity="3.7388449907302856e-01" nType="-99"/>
          </Node>
          <Node pos="r" depth="2" NCoef="0" IVar="-1" Cut="0.0000000000000000e+00" cType="1" res="-1.5716752037405968e-02" rms="3.3368164300918579e-01" purity="1.3190940022468567e-01" nType="-99"/>
        </Node>
        <Node pos="r" depth="1" NCoef="0" IVar="1" Cut="4.5299591064453125e+02" cType="1" res="8.4824964404106140e-02" rms="4.7537046670913696e-01" purity="6.0183805227279663e-01" nType="0">
          <Node pos="l" depth="2" NCoef="0" IVar="6" Cut="-1.1920399665832520e+00" cType="1" res="1.6545629128813744e-02" rms="4.8797282576560974e-01" purity="5.1550602912902832e-01" nType="0">
            <Node pos="l" depth="3" NCoef="0" IVar="-1" Cut="0.0000000000000000e+00" cType="1" res="-1.1275926604866982e-02" rms="4.0930259227752686e-01" purity="2.2466044127941132e-01" nType="-99"/>
            <Node pos="r" depth="3" NCoef="0" IVar="-1" Cut="0.0000000000000000e+00" cType="1" res="1.1844243854284286e-03" rms="4.8616552352905273e-01" purity="5.4976654052734375e-01" nType="-99"/>
          </Node>
          <Node pos="r" depth="2" NCoef="0" IVar="2" Cut="4.7837655639648438e+02" cType="1" res="1.9710588455200195e-01" rms="4.3097504973411560e-01" purity="7.4380522966384888e-01" nType="0">
            <Node pos="l" depth="3" NCoef="0" IVar="-1" Cut="0.0000000000000000e+00" cType="1" res="6.5160566009581089e-03" rms="3.8738286495208740e-01" purity="8.1232607364654541e-01" nType="-99"/>
            <Node pos="r" depth="3" NCoef="0" IVar="-1" Cut="0.0000000000000000e+00" cType="1" res="1.8180360784754157e-03" rms="4.9128541350364685e-01" purity="5.8286333084106445e-01" nType="-99"/>
          </Node>
        </Node>
      </Node>
    </BinaryTree>
    <BinaryTree type="DecisionTree" boostWeight="1.0000000000000000e+00" itree="21">
      <Node pos="s" depth="0" NCoef="0" IVar="5" Cut="8.5154937744140625e+01" cType="1" res="6.1942837201058865e-03" rms="4.7896736860275269e-01" purity="4.9927878379821777e-01" nType="0">
        <Node pos="l" depth="1" NCoef="0" IVar="1" Cut="5.7280261230468750e+02" cType="1" res="-1.4223487675189972e-01" rms="4.4942373037338257e-01" purity="3.0109086632728577e-01" nType="0">
          <Node pos="l" depth="2" NCoef="0" IVar="7" Cut="1.1998049020767212e+00" cType="1" res="-1.6386878490447998e-01" rms="4.3893849849700928e-01" purity="2.7459156513214111e-01" nType="0">
            <Node pos="l" depth="3" NCoef="0" IVar="-1" Cut="0.0000000000000000e+00" cType="1" res="-4.8550390638411045e-03" rms="4.5140603184700012e-01" purity="3.0120286345481873e-01" nType="-99"/>
            <Node pos="r" depth="3" NCoef="0" IVar="-1" Cut="0.0000000000000000e+00" cType="1" res="-1.4549862593412399e-02" rms="3.2948604226112366e-01" purity="1.2671136856079102e-01" nType="-99"/>
          </Node>
          <Node pos="r" depth="2" NCoef="0" IVar="-1" Cut="0.0000000000000000e+00" cType="1" res="2.1738195791840553e-03" rms="4.9361863732337952e-01" purity="5.6536275148391724e-01" nType="-99"/>
        </Node>
        <Node pos="r" depth="1" NCoef="0" IVar="1" Cut="4.6515432739257812e+02" cType="1" res="7.9362303018569946e-02" rms="4.7614759206771851e-01" purity="5.9697526693344116e-01" nType="0">
          <Node pos="l" depth="2" NCoef="0" IVar="6" Cut="9.4984364509582520e-01" cType="1" res="1.7858093604445457e-02" rms="4.8790624737739563e-01" purity="5.1828330755233765e-01" nType="0">
            <Node pos="l" depth="3" NCoef="0" IVar="-1" Cut="0.0000000000000000e+00" cType="1" res="1.7562052235007286e-03" rms="4.8526138067245483e-01" purity="5.5848062038421631e-01" nType="-99"/>
            <Node pos="r" depth="3" NCoef="0" IVar="-1" Cut="0.0000000000000000e+00" cType="1" res="-7.1694725193083286e-03" rms="4.5145040750503540e-01" purity="3.0868384242057800e-01" nType="-99"/>
          </Node>
          <Node pos="r" depth="2" NCoef="0" IVar="2" Cut="4.8559646606445312e+02" cType="1" res="1.9499005377292633e-01" rms="4.3002736568450928e-01" purity="7.4491608142852783e-01" nType="0">
            <Node pos="l" depth="3" NCoef="0" IVar="-1" Cut="0.0000000000000000e+00" cType="1" res="6.4027798362076283e-03" rms="3.8609108328819275e-01" purity="8.1376892328262329e-01" nType="-99"/>
            <Node pos="r" depth="3" NCoef="0" IVar="-1" Cut="0.0000000000000000e+00" cType="1" res="1.7677334835752845e-03" rms="4.9223172664642334e-01" purity="5.7975596189498901e-01" nType="-99"/>
          </Node>
        </Node>
      </Node>
    </BinaryTree>
    <BinaryTree type="DecisionTree" boostWeight="1.0000000000000000e+00" itree="22">
      <Node pos="s" depth="0" NCoef="0" IVar="5" Cut="8.5154937744140625e+01" cType="1" res="5.7189427316188812e-03" rms="4.7840055823326111e-01" purity="4.9837070703506470e-01" nType="0">
        <Node pos="l" depth="1" NCoef="0" IVar="7" Cut="-9.3314337730407715e-01" cType="1" res="-1.4614777266979218e-01" rms="4.4589549303054810e-01" purity="2.9461500048637390e-01" nType="0">
          <Node pos="l" depth="2" NCoef="0" IVar="7" Cut="-1.4664427042007446e+00" cType="1" res="-2.8406700491905212e-01" rms="3.4843826293945312e-01" purity="1.4724048972129822e-01" nType="0">
            <Node pos="l" depth="3" NCoef="0" IVar="-1" Cut="0.0000000000000000e+00" cType="1" res="-1.8338371068239212e-02" rms="2.8330785036087036e-01" purity="8.9479491114616394e-02" nType="-99"/>
            <Node pos="r" depth="3" NCoef="0" IVar="-1" Cut="0.0000000000000000e+00" cType="1" res="-9.2373546212911606e-03" rms="3.9737817645072937e-01" purity="2.0720785856246948e-01" nType="-99"/>
          </Node>
          <Node pos="r" depth="2" NCoef="0" IVar="7" Cut="8.4448230266571045e-01" cType="1" res="-1.1131694912910461e-01" rms="4.6082121133804321e-01" purity="3.3183369040489197e-01" nType="0">
            <Node pos="l" depth="3" NCoef="0" IVar="-1" Cut="0.0000000000000000e+00" cType="1" res="-1.8085063202306628e-03" rms="4.7897621989250183e-01" purity="3.9186596870422363e-01" nType="-99"/>
            <Node pos="r" depth="3" NCoef="0" IVar="-1" Cut="0.0000000000000000e+00" cType="1" res="-1.2167054228484631e-02" rms="3.7775951623916626e-01" purity="1.8224884569644928e-01" nType="-99"/>
          </Node>
        </Node>
        <Node pos="r" depth="1" NCoef="0" IVar="7" Cut="-1.2001594305038452e+00" cType="1" res="7.9048760235309601e-02" rms="4.7629880905151367e-01" purity="5.9675550460815430e-01" nType="0">
          <Node pos="l" depth="2" NCoef="0" IVar="1" Cut="4.0059201049804688e+02" cType="1" res="-1.5652814507484436e-01" rms="4.5711779594421387e-01" purity="3.4072232246398926e-01" nType="0">
            <Node pos="l" depth="3" NCoef="0" IVar="-1" Cut="0.0000000000000000e+00" cType="1" res="-1.0775901377201080e-02" rms="4.0103864669799805e-01" purity="2.1332317590713501e-01" nType="-99"/>
            <Node pos="r" depth="3" NCoef="0" IVar="-1" Cut="0.0000000000000000e+00" cType="1" res="-1.4713387936353683e-03" rms="4.8871889710426331e-01" purity="4.8462393879890442e-01" nType="-99"/>
          </Node>
          <Node pos="r" depth="2" NCoef="0" IVar="7" Cut="1.0852447748184204e+00" cType="1" res="1.0737902671098709e-01" rms="4.7067728638648987e-01" purity="6.2754583358764648e-01" nType="0">
            <Node pos="l" depth="3" NCoef="0" IVar="-1" Cut="0.0000000000000000e+00" cType="1" res="3.4057195298373699e-03" rms="4.5986464619636536e-01" purity="6.6648006439208984e-01" nType="-99"/>
            <Node pos="r" depth="3" NCoef="0" IVar="-1" Cut="0.0000000000000000e+00" cType="1" res="-4.6203378587961197e-03" rms="4.7418826818466187e-01" purity="3.8300943374633789e-01" nType="-99"/>
          </Node>
        </Node>
      </Node>
    </BinaryTree>
    <BinaryTree type="DecisionTree" boostWeight="1.0000000000000000e+00" itree="23">
      <Node pos="s" depth="0" NCoef="0" IVar="5" Cut="8.5108215332031250e+01" cType="1" res="7.4905198998749256e-03" rms="4.7736269235610962e-01" purity="4.9995172023773193e-01" nType="0">
        <Node pos="l" depth="1" NCoef="0" IVar="1" Cut="4.3640527343750000e+02" cType="1" res="-1.4153134822845459e-01" rms="4.4605529308319092e-01" purity="2.9567566514015198e-01" nType="0">
          <Node pos="l" depth="2" NCoef="0" IVar="6" Cut="9.4842690229415894e-01" cType="1" res="-1.8723869323730469e-01" rms="4.1783100366592407e-01" purity="2.3311045765876770e-01" nType="0">
            <Node pos="l" depth="3" NCoef="0" IVar="-1" Cut="0.0000000000000000e+00" cType="1" res="-6.0939043760299683e-03" rms="4.3422353267669678e-01" purity="2.6144897937774658e-01" nType="-99"/>
            <Node pos="r" depth="3" NCoef="0" IVar="-1" Cut="0.0000000000000000e+00" cType="1" res="-1.1422272771596909e-02" rms="3.3086010813713074e-01" purity="1.2730255722999573e-01" nType="-99"/>
          </Node>
          <Node pos="r" depth="2" NCoef="0" IVar="5" Cut="6.6726928710937500e+01" cType="1" res="-2.8742844238877296e-02" rms="4.9117797613143921e-01" purity="4.5006299018859863e-01" nType="0">
            <Node pos="l" depth="3" NCoef="0" IVar="-1" Cut="0.0000000000000000e+00" cType="1" res="-5.9750596992671490e-03" rms="4.6065261960029602e-01" purity="3.1335523724555969e-01" nType="-99"/>
            <Node pos="r" depth="3" NCoef="0" IVar="-1" Cut="0.0000000000000000e+00" cType="1" res="8.6840969743207097e-04" rms="4.9530550837516785e-01" purity="5.1520621776580811e-01" nType="-99"/>
          </Node>
        </Node>
        <Node pos="r" depth="1" NCoef="0" IVar="0" Cut="1.2300401611328125e+03" cType="1" res="7.8839510679244995e-02" rms="4.7538763284683228e-01" purity="5.9775537252426147e-01" nType="0">
          <Node pos="l" depth="2" NCoef="0" IVar="0" Cut="1.1375809326171875e+03" cType="1" res="-9.5052860677242279e-02" rms="4.8274466395378113e-01" purity="3.9385867118835449e-01" nType="0">
            <Node pos="l" depth="3" NCoef="0" IVar="-1" Cut="0.0000000000000000e+00" cType="1" res="-4.5034540817141533e-03" rms="4.6988785266876221e-01" purity="3.4259670972824097e-01" nType="-99"/>
            <Node pos="r" depth="3" NCoef="0" IVar="-1" Cut="0.0000000000000000e+00" cType="1" res="-1.3192349579185247e-03" rms="4.9173286557197571e-01" purity="4.5077303051948547e-01" nType="-99"/>
          </Node>
          <Node pos="r" depth="2" NCoef="0" IVar="2" Cut="4.0315188598632812e+02" cType="1" res="1.1905332654714584e-01" rms="4.6449244022369385e-01" purity="6.4490795135498047e-01" nType="0">
            <Node pos="l" depth="3" NCoef="0" IVar="-1" Cut="0.0000000000000000e+00" cType="1" res="5.6273359805345535e-03" rms="4.2476129531860352e-01" purity="7.4764299392700195e-01" nType="-99"/>
            <Node pos="r" depth="3" NCoef="0" IVar="-1" Cut="0.0000000000000000e+00" cType="1" res="-7.3430070187896490e-04" rms="4.8658204078674316e-01" purity="4.9027967453002930e-01" nType="-99"/>
          </Node>
        </Node>
      </Node>
    </BinaryTree>
    <BinaryTree type="DecisionTree" boostWeight="1.0000000000000000e+00" itree="24">
      <Node pos="s" depth="0" NCoef="0" IVar="5" Cut="8.5108215332031250e+01" cType="1" res="9.7940517589449883e-03" rms="4.7658166289329529e-01" purity="5.0237566232681274e-01" nType="0">
        <Node pos="l" depth="1" NCoef="0" IVar="1" Cut="4.3640158081054688e+02" cType="1" res="-1.3388025760650635e-01" rms="4.4766724109649658e-01" purity="3.0128282308578491e-01" nType="0">
          <Node pos="l" depth="2" NCoef="0" IVar="2" Cut="3.4041265869140625e+02" cType="1" res="-1.8414971232414246e-01" rms="4.1686648130416870e-01" purity="2.3278856277465820e-01" nType="0">
            <Node pos="l" depth="3" NCoef="0" IVar="-1" Cut="0.0000000000000000e+00" cType="1" res="-4.6684453263878822e-03" rms="4.5075994729995728e-01" purity="2.9165968298912048e-01" nType="-99"/>
            <Node pos="r" depth="3" NCoef="0" IVar="-1" Cut="0.0000000000000000e+00" cType="1" res="-1.2402311898767948e-02" rms="3.4958058595657349e-01" purity="1.4548282325267792e-01" nType="-99"/>
          </Node>
          <Node pos="r" depth="2" NCoef="0" IVar="1" Cut="5.6630676269531250e+02" cType="1" res="-1.6681173816323280e-02" rms="4.9280875921249390e-01" purity="4.6097159385681152e-01" nType="0">
            <Node pos="l" depth="3" NCoef="0" IVar="-1" Cut="0.0000000000000000e+00" cType="1" res="-2.0259274169802666e-03" rms="4.8688110709190369e-01" purity="4.1374698281288147e-01" nType="-99"/>
            <Node pos="r" depth="3" NCoef="0" IVar="-1" Cut="0.0000000000000000e+00" cType="1" res="2.0582166034728289e-03" rms="4.9391144514083862e-01" purity="5.5644929409027100e-01" nType="-99"/>
          </Node>
        </Node>
        <Node pos="r" depth="1" NCoef="0" IVar="7" Cut="1.1998893022537231e+00" cType="1" res="7.9070784151554108e-02" rms="4.7461915016174316e-01" purity="5.9933835268020630e-01" nType="0">
          <Node pos="l" depth="2" NCoef="0" IVar="7" Cut="-1.2760022878646851e+00" cType="1" res="1.0724501311779022e-01" rms="4.6826362609863281e-01" purity="6.2989479303359985e-01" nType="0">
            <Node pos="l" depth="3" NCoef="0" IVar="-1" Cut="0.0000000000000000e+00" cType="1" res="-6.3322703354060650e-03" rms="4.5516639947891235e-01" purity="3.3394932746887207e-01" nType="-99"/>
            <Node pos="r" depth="3" NCoef="0" IVar="-1" Cut="0.0000000000000000e+00" cType="1" res="3.9544953033328056e-03" rms="4.5972174406051636e-01" purity="6.6471517086029053e-01" nType="-99"/>
          </Node>
          <Node pos="r" depth="2" NCoef="0" IVar="1" Cut="4.0965753173828125e+02" cType="1" res="-1.6785097122192383e-01" rms="4.5809927582740784e-01" purity="3.3153882622718811e-01" nType="0">
            <Node pos="l" depth="3" NCoef="0" IVar="-1" Cut="0.0000000000000000e+00" cType="1" res="-1.0275122709572315e-02" rms="4.2316210269927979e-01" purity="2.4352581799030304e-01" nType="-99"/>
            <Node pos="r" depth="3" NCoef="0" IVar="-1" Cut="0.0000000000000000e+00" cType="1" res="-2.9732906259596348e-03" rms="4.8784095048904419e-01" purity="4.5230463147163391e-01" nType="-99"/>
          </Node>
        </Node>
      </Node>
    </BinaryTree>
    <BinaryTree type="DecisionTree" boostWeight="1.0000000000000000e+00" itree="25">
      <Node pos="s" depth="0" NCoef="0" IVar="5" Cut="1.1364518737792969e+02" cType="1" res="9.9595701321959496e-03" rms="4.7574007511138916e-01" purity="5.0175631046295166e-01" nType="0">
        <Node pos="l" depth="1" NCoef="0" IVar="1" Cut="4.2253045654296875e+02" cType="1" res="-6.8797245621681213e-02" rms="4.7034582495689392e-01" purity="3.9300322532653809e-01" nType="0">
          <Node pos="l" depth="2" NCoef="0" IVar="2" Cut="3.7969976806640625e+02" cType="1" res="-1.3119038939476013e-01" rms="4.4993668794631958e-01" purity="3.0587178468704224e-01" nType="0">
            <Node pos="l" depth="3" NCoef="0" IVar="-1" Cut="0.0000000000000000e+00" cType="1" res="-2.6408913545310497e-03" rms="4.7189903259277344e-01" purity="3.6437335610389709e-01" nType="-99"/>
            <Node pos="r" depth="3" NCoef="0" IVar="-1" Cut="0.0000000000000000e+00" cType="1" res="-3.1726299785077572e-03" rms="3.7017375230789185e-01" purity="1.7140527069568634e-01" nType="-99"/>
          </Node>
          <Node pos="r" depth="2" NCoef="0" IVar="5" Cut="8.6397392272949219e+01" cType="1" res="3.8872357457876205e-02" rms="4.8510444164276123e-01" purity="5.4336273670196533e-01" nType="0">
            <Node pos="l" depth="3" NCoef="0" IVar="-1" Cut="0.0000000000000000e+00" cType="1" res="-1.7610607901588082e-03" rms="4.8753991723060608e-01" purity="4.2342519760131836e-01" nType="-99"/>
            <Node pos="r" depth="3" NCoef="0" IVar="-1" Cut="0.0000000000000000e+00" cType="1" res="3.3985935151576996e-03" rms="4.6724238991737366e-01" purity="6.5858805179595947e-01" nType="-99"/>
          </Node>
        </Node>
        <Node pos="r" depth="1" NCoef="0" IVar="1" Cut="4.2404833984375000e+02" cType="1" res="1.3556449115276337e-01" rms="4.5694521069526672e-01" purity="6.7520076036453247e-01" nType="0">
          <Node pos="l" depth="2" NCoef="0" IVar="2" Cut="4.3201928710937500e+02" cType="1" res="6.4154088497161865e-02" rms="4.8436361551284790e-01" purity="5.8228170871734619e-01" nType="0">
            <Node pos="l" depth="3" NCoef="0" IVar="-1" Cut="0.0000000000000000e+00" cType="1" res="3.0727102421224117e-03" rms="4.7475636005401611e-01" purity="6.3359147310256958e-01" nType="-99"/>
            <Node pos="r" depth="3" NCoef="0" IVar="-1" Cut="0.0000000000000000e+00" cType="1" res="-4.6306205913424492e-03" rms="4.8290768265724182e-01" purity="3.9354875683784485e-01" nType="-99"/>
          </Node>
          <Node pos="r" depth="2" NCoef="0" IVar="2" Cut="4.7393212890625000e+02" cType="1" res="2.0962478220462799e-01" rms="4.1383382678031921e-01" purity="7.7156788110733032e-01" nType="0">
            <Node pos="l" depth="3" NCoef="0" IVar="-1" Cut="0.0000000000000000e+00" cType="1" res="6.5082665532827377e-03" rms="3.7176483869552612e-01" purity="8.3179974555969238e-01" nType="-99"/>
            <Node pos="r" depth="3" NCoef="0" IVar="-1" Cut="0.0000000000000000e+00" cType="1" res="3.0385176651179790e-03" rms="4.7971716523170471e-01" purity="6.3264137506484985e-01" nType="-99"/>
          </Node>
        </Node>
      </Node>
    </BinaryTree>
    <BinaryTree type="DecisionTree" boostWeight="1.0000000000000000e+00" itree="26">
      <Node pos="s" depth="0" NCoef="0" IVar="5" Cut="1.1367871856689453e+02" cType="1" res="1.4111823402345181e-03" rms="4.7479730844497681e-01" purity="4.9291720986366272e-01" nType="0">
        <Node pos="l" depth="1" NCoef="0" IVar="1" Cut="4.2850772094726562e+02" cType="1" res="-7.4993066489696503e-02" rms="4.6799221634864807e-01" purity="3.8601922988891602e-01" nType="0">
          <Node pos="l" depth="2" NCoef="0" IVar="2" Cut="3.8003915405273438e+02" cType="1" res="-1.3828630745410919e-01" rms="4.4558227062225342e-01" purity="2.9713869094848633e-01" nType="0">
            <Node pos="l" depth="3" NCoef="0" IVar="-1" Cut="0.0000000000000000e+00" cType="1" res="-2.9462527018040419e-03" rms="4.6856984496116638e-01" purity="3.5450801253318787e-01" nType="-99"/>
            <Node pos="r" depth="3" NCoef="0" IVar="-1" Cut="0.0000000000000000e+00" cType="1" res="-1.3322141952812672e-02" rms="3.6115375161170959e-01" purity="1.6187560558319092e-01" nType="-99"/>
          </Node>
          <Node pos="r" depth="2" NCoef="0" IVar="2" Cut="4.0312799072265625e+02" cType="1" res="4.1854355484247208e-02" rms="4.8555514216423035e-01" purity="5.5010402202606201e-01" nType="0">
            <Node pos="l" depth="3" NCoef="0" IVar="-1" Cut="0.0000000000000000e+00" cType="1" res="3.3897708635777235e-03" rms="4.6834859251976013e-01" purity="6.3649594783782959e-01" nType="-99"/>
            <Node pos="r" depth="3" NCoef="0" IVar="-1" Cut="0.0000000000000000e+00" cType="1" res="-1.9798092544078827e-03" rms="4.8887333273887634e-01" purity="4.4150322675704956e-01" nType="-99"/>
          </Node>
        </Node>
        <Node pos="r" depth="1" NCoef="0" IVar="6" Cut="-1.0811027288436890e+00" cType="1" res="1.2598094344139099e-01" rms="4.5919221639633179e-01" purity="6.6720414161682129e-01" nType="0">
          <Node pos="l" depth="2" NCoef="0" IVar="-1" Cut="0.0000000000000000e+00" cType="1" res="-3.0667458195239305e-03" rms="4.8390784859657288e-01" purity="4.3067926168441772e-01" nType="-99"/>
          <Node pos="r" depth="2" NCoef="0" IVar="6" Cut="9.5174396038055420e-01" cType="1" res="1.5251226723194122e-01" rms="4.4895848631858826e-01" purity="6.9629693031311035e-01" nType="0">
            <Node pos="l" depth="3" NCoef="0" IVar="-1" Cut="0.0000000000000000e+00" cType="1" res="5.2786651067435741e-03" rms="4.3083441257476807e-01" purity="7.3721861839294434e-01" nType="-99"/>
            <Node pos="r" depth="3" NCoef="0" IVar="-1" Cut="0.0000000000000000e+00" cType="1" res="-1.7136030364781618e-03" rms="4.8669260740280151e-01" purity="4.7923743724822998e-01" nType="-99"/>
          </Node>
        </Node>
      </Node>
    </BinaryTree>
    <BinaryTree type="DecisionTree" boostWeight="1.0000000000000000e+00" itree="27">
      <Node pos="s" depth="0" NCoef="0" IVar="5" Cut="1.1044891357421875e+02" cType="1" res="8.6154416203498840e-03" rms="4.7399854660034180e-01" purity="5.0050485134124756e-01" nType="0">
        <Node pos="l" depth="1" NCoef="0" IVar="1" Cut="4.6515270996093750e+02" cType="1" res="-7.6540872454643250e-02" rms="4.6705093979835510e-01" purity="3.7993341684341431e-01" nType="0">
          <Node pos="l" depth="2" NCoef="0" IVar="6" Cut="-9.0005922317504883e-01" cType="1" res="-1.2631726264953613e-01" rms="4.5096644759178162e-01" purity="3.0935233831405640e-01" nType="0">
            <Node pos="l" depth="3" NCoef="0" IVar="-1" Cut="0.0000000000000000e+00" cType="1" res="-1.2302481569349766e-02" rms="3.5570237040519714e-01" purity="1.5743714570999146e-01" nType="-99"/>
            <Node pos="r" depth="3" NCoef="0" IVar="-1" Cut="0.0000000000000000e+00" cType="1" res="-3.1752341892570257e-03" rms="4.6390199661254883e-01" purity="3.4521245956420898e-01" nType="-99"/>
          </Node>
          <Node pos="r" depth="2" NCoef="0" IVar="2" Cut="3.4597155761718750e+02" cType="1" res="6.4700506627559662e-02" rms="4.8275804519653320e-01" purity="5.8020848035812378e-01" nType="0">
            <Node pos="l" depth="3" NCoef="0" IVar="-1" Cut="0.0000000000000000e+00" cType="1" res="4.8885592259466648e-03" rms="4.4312804937362671e-01" purity="7.0948433876037598e-01" nType="-99"/>
            <Node pos="r" depth="3" NCoef="0" IVar="-1" Cut="0.0000000000000000e+00" cType="1" res="-2.5065493537113070e-04" rms="4.9284440279006958e-01" purity="4.9842220544815063e-01" nType="-99"/>
          </Node>
        </Node>
        <Node pos="r" depth="1" NCoef="0" IVar="7" Cut="-1.1999078989028931e+00" cType="1" res="1.2821266055107117e-01" rms="4.5756852626800537e-01" purity="6.6984063386917114e-01" nType="0">
          <Node pos="l" depth="2" NCoef="0" IVar="-1" Cut="0.0000000000000000e+00" cType="1" res="-4.1491286829113960e-03" rms="4.7786635160446167e-01" purity="4.1111752390861511e-01" nType="-99"/>
          <Node pos="r" depth="2" NCoef="0" IVar="7" Cut="1.0857882499694824e+00" cType="1" res="1.5207734704017639e-01" rms="4.4862475991249084e-01" purity="6.9612252712249756e-01" nType="0">
            <Node pos="l" depth="3" NCoef="0" IVar="-1" Cut="0.0000000000000000e+00" cType="1" res="4.9785310402512550e-03" rms="4.3426573276519775e-01" purity="7.3067045211791992e-01" nType="-99"/>
            <Node pos="r" depth="3" NCoef="0" IVar="-1" Cut="0.0000000000000000e+00" cType="1" res="-2.3923933040350676e-03" rms="4.8590102791786194e-01" purity="4.5405292510986328e-01" nType="-99"/>
          </Node>
        </Node>
      </Node>
    </BinaryTree>
    <BinaryTree type="DecisionTree" boostWeight="1.0000000000000000e+00" itree="28">
      <Node pos="s" depth="0" NCoef="0" IVar="5" Cut="8.5192810058593750e+01" cType="1" res="5.6227999739348888e-03" rms="4.7326368093490601e-01" purity="4.9692741036415100e-01" nType="0">
        <Node pos="l" depth="1" NCoef="0" IVar="1" Cut="5.5456585693359375e+02" cType="1" res="-1.3342881202697754e-01" rms="4.4333463907241821e-01" purity="2.9414361715316772e-01" nType="0">
          <Node pos="l" depth="2" NCoef="0" IVar="6" Cut="-8.9043730497360229e-01" cType="1" res="-1.5536442399024963e-01" rms="4.3192476034164429e-01" purity="2.6487135887145996e-01" nType="0">
            <Node pos="l" depth="3" NCoef="0" IVar="-1" Cut="0.0000000000000000e+00" cType="1" res="-1.3764759525656700e-02" rms="3.3563554286956787e-01" purity="1.3484852015972137e-01" nType="-99"/>
            <Node pos="r" depth="3" NCoef="0" IVar="-1" Cut="0.0000000000000000e+00" cType="1" res="-4.3826848268508911e-03" rms="4.4667038321495056e-01" purity="2.9546573758125305e-01" nType="-99"/>
          </Node>
          <Node pos="r" depth="2" NCoef="0" IVar="-1" Cut="0.0000000000000000e+00" cType="1" res="1.7722476040944457e-03" rms="4.9263635277748108e-01" purity="5.4554283618927002e-01" nType="-99"/>
        </Node>
        <Node pos="r" depth="1" NCoef="0" IVar="1" Cut="4.1917388916015625e+02" cType="1" res="7.3710069060325623e-02" rms="4.7255438566207886e-01" purity="5.9622138738632202e-01" nType="0">
          <Node pos="l" depth="2" NCoef="0" IVar="6" Cut="9.7394317388534546e-01" cType="1" res="-9.0376753360033035e-03" rms="4.8583820462226868e-01" purity="4.8372405767440796e-01" nType="0">
            <Node pos="l" depth="3" NCoef="0" IVar="-1" Cut="0.0000000000000000e+00" cType="1" res="8.9775264495983720e-04" rms="4.8594143986701965e-01" purity="5.2452933788299561e-01" nType="-99"/>
            <Node pos="r" depth="3" NCoef="0" IVar="-1" Cut="0.0000000000000000e+00" cType="1" res="-7.5814761221408844e-03" rms="4.4002202153205872e-01" purity="2.7988356351852417e-01" nType="-99"/>
          </Node>
          <Node pos="r" depth="2" NCoef="0" IVar="2" Cut="4.9196279907226562e+02" cType="1" res="1.6472853720188141e-01" rms="4.3987283110618591e-01" purity="7.1996295452117920e-01" nType="0">
            <Node pos="l" depth="3" NCoef="0" IVar="-1" Cut="0.0000000000000000e+00" cType="1" res="5.5812071077525616e-03" rms="4.0681564807891846e-01" purity="7.8071773052215576e-01" nType="-99"/>
            <Node pos="r" depth="3" NCoef="0" IVar="-1" Cut="0.0000000000000000e+00" cType="1" res="6.7803711863234639e-04" rms="4.9346309900283813e-01" purity="5.4944384098052979e-01" nType="-99"/>
          </Node>
        </Node>
      </Node>
    </BinaryTree>
    <BinaryTree type="DecisionTree" boostWeight="1.0000000000000000e+00" itree="29">
      <Node pos="s" depth="0" NCoef="0" IVar="5" Cut="1.1364518737792969e+02" cType="1" res="1.4404010958969593e-02" rms="4.7266703844070435e-01" purity="5.0558662414550781e-01" nType="0">
        <Node pos="l" depth="1" NCoef="0" IVar="1" Cut="4.6515356445312500e+02" cType="1" res="-6.0097031295299530e-02" rms="4.6900096535682678e-01" purity="3.9677330851554871e-01" nType="0">
          <Node pos="l" depth="2" NCoef="0" IVar="2" Cut="2.9456130981445312e+02" cType="1" res="-1.0677357763051987e-01" rms="4.5610260963439941e-01" purity="3.2857963442802429e-01" nType="0">
            <Node pos="l" depth="3" NCoef="0" IVar="-1" Cut="0.0000000000000000e+00" cType="1" res="-7.3720375075936317e-04" rms="4.8319545388221741e-01" purity="4.2606425285339355e-01" nType="-99"/>
            <Node pos="r" depth="3" NCoef="0" IVar="-1" Cut="0.0000000000000000e+00" cType="1" res="-6.9918031804263592e-03" rms="4.2287626862525940e-01" purity="2.5287061929702759e-01" nType="-99"/>
          </Node>
          <Node pos="r" depth="2" NCoef="0" IVar="2" Cut="3.4597155761718750e+02" cType="1" res="7.4212700128555298e-02" rms="4.7957101464271545e-01" purity="5.9299761056900024e-01" nType="0">
            <Node pos="l" depth="3" NCoef="0" IVar="-1" Cut="0.0000000000000000e+00" cType="1" res="4.8704505898058414e-03" rms="4.3874913454055786e-01" purity="7.1806401014328003e-01" nType="-99"/>
            <Node pos="r" depth="3" NCoef="0" IVar="-1" Cut="0.0000000000000000e+00" cType="1" res="2.1753956389147788e-04" rms="4.9180662631988525e-01" purity="5.1392787694931030e-01" nType="-99"/>
          </Node>
        </Node>
        <Node pos="r" depth="1" NCoef="0" IVar="6" Cut="9.6484041213989258e-01" cType="1" res="1.3328935205936432e-01" rms="4.5379760861396790e-01" purity="6.7922604084014893e-01" nType="0">
          <Node pos="l" depth="2" NCoef="0" IVar="6" Cut="-9.5744270086288452e-01" cType="1" res="1.6430465877056122e-01" rms="4.4077867269515991e-01" purity="7.1289479732513428e-01" nType="0">
            <Node pos="l" depth="3" NCoef="0" IVar="-1" Cut="0.0000000000000000e+00" cType="1" res="-1.7250826349481940e-03" rms="4.8467227816581726e-01" purity="4.8013886809349060e-01" nType="-99"/>
            <Node pos="r" depth="3" NCoef="0" IVar="-1" Cut="0.0000000000000000e+00" cType="1" res="5.4539502598345280e-03" rms="4.2211940884590149e-01" purity="7.5305682420730591e-01" nType="-99"/>
          </Node>
          <Node pos="r" depth="2" NCoef="0" IVar="8" Cut="1.3149495422840118e-01" cType="1" res="-7.2843596339225769e-02" rms="4.8420280218124390e-01" purity="4.5545771718025208e-01" nType="0">
            <Node pos="l" depth="3" NCoef="0" IVar="-1" Cut="0.0000000000000000e+00" cType="1" res="-2.9563275165855885e-03" rms="4.8267638683319092e-01" purity="4.4948190450668335e-01" nType="-99"/>
            <Node pos="r" depth="3" NCoef="0" IVar="-1" Cut="0.0000000000000000e+00" cType="1" res="-2.3648247588425875e-03" rms="4.8563456535339355e-01" purity="4.6141478419303894e-01" nType="-99"/>
          </Node>
        </Node>
      </Node>
    </BinaryTree>
    <BinaryTree type="DecisionTree" boostWeight="1.0000000000000000e+00" itree="30">
      <Node pos="s" depth="0" NCoef="0" IVar="5" Cut="8.1686515808105469e+01" cType="1" res="1.1993748135864735e-02" rms="4.7157514095306396e-01" purity="5.0361847877502441e-01" nType="0">
        <Node pos="l" depth="1" NCoef="0" IVar="7" Cut="-1.1997233629226685e+00" cType="1" res="-1.3976743817329407e-01" rms="4.3641874194145203e-01" purity="2.8041598200798035e-01" nType="0">
          <Node pos="l" depth="2" NCoef="0" IVar="-1" Cut="0.0000000000000000e+00" cType="1" res="-1.2983438558876514e-02" rms="3.1158465147018433e-01" purity="1.1520314216613770e-01" nType="-99"/>
          <Node pos="r" depth="2" NCoef="0" IVar="7" Cut="8.9541006088256836e-01" cType="1" res="-1.1228432506322861e-01" rms="4.5082569122314453e-01" purity="3.1147703528404236e-01" nType="0">
            <Node pos="l" depth="3" NCoef="0" IVar="-1" Cut="0.0000000000000000e+00" cType="1" res="-2.2698978427797556e-03" rms="4.6987065672874451e-01" purity="3.6416846513748169e-01" nType="-99"/>
            <Node pos="r" depth="3" NCoef="0" IVar="-1" Cut="0.0000000000000000e+00" cType="1" res="-1.2919787317514420e-02" rms="3.5473108291625977e-01" purity="1.5703460574150085e-01" nType="-99"/>
          </Node>
        </Node>
        <Node pos="r" depth="1" NCoef="0" IVar="1" Cut="4.2404458618164062e+02" cType="1" res="7.2017602622509003e-02" rms="4.7148331999778748e-01" purity="5.9189838171005249e-01" nType="0">
          <Node pos="l" depth="2" NCoef="0" IVar="2" Cut="4.7838336181640625e+02" cType="1" res="-3.9829993620514870e-03" rms="4.8425558209419250e-01" purity="4.8462215065956116e-01" nType="0">
            <Node pos="l" depth="3" NCoef="0" IVar="-1" Cut="0.0000000000000000e+00" cType="1" res="9.5890823286026716e-04" rms="4.8528203368186951e-01" purity="5.2450466156005859e-01" nType="-99"/>
            <Node pos="r" depth="3" NCoef="0" IVar="-1" Cut="0.0000000000000000e+00" cType="1" res="-1.3194532133638859e-02" rms="4.1727316379547119e-01" purity="2.4177981913089752e-01" nType="-99"/>
          </Node>
